svm_type c_svc
kernel_type rbf
gamma 0.00390625
nr_class 2
total_sv 169
rho 0.602648
label 1 -1
nr_sv 82 87
SV
1 1:-1 2:-1 3:-1 4:-1 5:-0.999965 6:-0.996816 7:-0.936137 8:-0.582658 9:-0.156896 10:-0.582065 11:-0.935885 12:-0.996798 13:-0.999965 14:-1 15:-1 16:-1 17:-1 18:-1 19:-1 20:-1 21:-0.999901 22:-0.991214 23:-0.849161 24:-0.27629 25:0.247598 26:-0.322859 27:-0.868853 28:-0.992584 29:-0.999917 30:-1 31:-1 32:-1 33:-1 34:-1 35:-1 36:-1 37:-0.999844 38:-0.986333 39:-0.778007 40:-0.089766 41:0.363774 42:-0.282049 43:-0.859315 44:-0.991987 45:-0.99991 46:-1 47:-1 48:-1 49:-1 50:-1 51:-1 52:-1 53:-0.999808 54:-0.983307 55:-0.734437 56:0.015301 57:0.386547 58:-0.333129 59:-0.881773 60:-0.993553 61:-0.999928 62:-1 63:-1 64:-1 65:-1 66:-1 67:-1 68:-1 69:-0.999781 70:-0.981039 71:-0.7018 72:0.093836 73:0.406496 74:-0.361784 75:-0.894462 76:-0.994437 77:-0.999939 78:-1 79:-1 80:-1 81:-1 82:-1 83:-1 84:-1 85:-0.999774 86:-0.98036 87:-0.692028 88:0.117786 89:0.419036 90:-0.354319 91:-0.891661 92:-0.994242 93:-0.999936 94:-1 95:-1 96:-1 97:-1 98:-1 99:-1 100:-1 101:-0.999768 102:-0.979873 103:-0.685024 104:0.134679 105:0.425222 106:-0.35519 107:-0.892168 108:-0.994278 109:-0.999937 110:-1 111:-1 112:-1 113:-1 114:-1 115:-1 116:-1 117:-0.99975 118:-0.978371 119:-0.663436 120:0.185957 121:0.430953 122:-0.391152 123:-0.90747 124:-0.995341 125:-0.999949 126:-1 127:-1 128:-1 129:-1 130:-1 131:-1 132:-1 133:-0.999714 134:-0.975312 135:-0.619454 136:0.29202 137:0.466662 138:-0.405672 139:-0.914477 140:-0.995828 141:-0.999955 142:-1 143:-1 144:-1 145:-1 146:-1 147:-1 148:-1 149:-0.9997 150:-0.974092 151:-0.602209 152:0.328367 153:0.453629 154:-0.452996 155:-0.932613 156:-0.997068 157:-0.999969 158:-1 159:-1 160:-1 161:-1 162:-1 163:-1 164:-1 165:-0.999725 166:-0.976314 167:-0.63484 168:0.240416 169:0.384004 170:-0.502506 171:-0.949008 172:-0.998169 173:-0.999983 174:-1 175:-1 176:-1 177:-1 178:-1 179:-1 180:-0.999999 181:-0.999722 182:-0.980192 183:-0.700472 184:0.081851 185:0.357217 186:-0.425233 187:-0.916606 188:-0.995929 189:-0.999956 190:-1 191:-1 192:-1 193:-1 194:-1 195:-1 196:-0.999988 197:-0.998831 198:-0.972093 199:-0.748247 200:-0.08901 201:0.391058 202:-0.191259 203:-0.820903 204:-0.989307 205:-0.999878 206:-1 207:-1 208:-1 209:-1 210:-1 211:-1 212:-0.999943 213:-0.995004 214:-0.918301 215:-0.63583 216:-0.081394 217:0.465473 218:0.033142 219:-0.728044 220:-0.982853 221:-0.999803 222:-1 223:-1 224:-1 225:-1 226:-1 227:-1 228:-0.999908 229:-0.991986 230:-0.869743 231:-0.445169 232:0.160518 233:0.556043 234:0.134445 235:-0.682058 236:-0.979583 237:-0.999764 238:-1 239:-1 240:-1 241:-1 242:-1 243:-1 244:-0.999966 245:-0.996936 246:-0.946254 247:-0.713281 248:-0.242815 249:0.134248 250:-0.120897 251:-0.746505 252:-0.98361 253:-0.99981 254:-1 255:-1 256:-1 
1 1:-1 2:-1 3:-0.999999 4:-0.99977 5:-0.98306 6:-0.748823 7:-0.182336 8:-0.100161 9:-0.573475 10:-0.914505 11:-0.9947 12:-0.999915 13:-1 14:-1 15:-1 16:-1 17:-1 18:-1 19:-0.999998 20:-0.999527 21:-0.972646 22:-0.615502 23:0.265051 24:0.537099 25:-0.021232 26:-0.724868 27:-0.975418 28:-0.999224 29:-0.999993 30:-1 31:-1 32:-1 33:-1 34:-1 35:-0.999988 36:-0.99866 37:-0.957335 38:-0.535283 39:0.444597 40:0.82773 41:0.410705 42:-0.465973 43:-0.917814 44:-0.995732 45:-0.99995 46:-1 47:-1 48:-1 49:-1 50:-1 51:-0.999958 52:-0.996105 53:-0.919182 54:-0.422345 55:0.540715 56:0.857911 57:0.502173 58:-0.213835 59:-0.807447 60:-0.986264 61:-0.999715 62:-0.999998 63:-1 64:-1 65:-1 66:-1 67:-0.999923 68:-0.993126 69:-0.875646 70:-0.307669 71:0.588905 72:0.677275 73:0.136287 74:-0.209694 75:-0.702966 76:-0.96054 77:-0.998177 78:-0.999981 79:-1 80:-1 81:-1 82:-1 83:-0.999895 84:-0.990682 85:-0.840334 86:-0.221164 87:0.597484 88:0.4775 89:-0.303293 90:-0.492888 91:-0.708057 92:-0.934986 93:-0.996116 94:-0.999956 95:-1 96:-1 97:-1 98:-1 99:-0.999874 100:-0.988912 101:-0.814846 102:-0.159924 103:0.607811 104:0.402043 105:-0.525944 106:-0.843037 107:-0.903407 108:-0.97505 109:-0.998437 110:-0.999982 111:-1 112:-1 113:-1 114:-1 115:-0.999884 116:-0.989764 117:-0.827116 118:-0.190278 119:0.587744 120:0.3767 121:-0.582886 122:-0.964154 123:-0.993215 124:-0.998286 125:-0.999892 126:-0.999999 127:-1 128:-1 129:-1 130:-1 131:-0.999915 132:-0.992414 133:-0.865245 134:-0.282046 135:0.564436 136:0.410731 137:-0.568977 138:-0.970359 139:-0.999488 140:-0.999978 141:-0.999999 142:-1 143:-1 144:-1 145:-1 146:-1 147:-0.999938 148:-0.994388 149:-0.893688 150:-0.350623 151:0.55271 152:0.459331 153:-0.532407 154:-0.961499 155:-0.999012 156:-0.999992 157:-1 158:-1 159:-1 160:-1 161:-1 162:-1 163:-0.99996 164:-0.996238 165:-0.920683 166:-0.420889 167:0.524877 168:0.50842 169:-0.456878 170:-0.934701 171:-0.997202 172:-0.999971 173:-1 174:-1 175:-1 176:-1 177:-1 178:-1 179:-0.999983 180:-0.998271 181:-0.951402 182:-0.516091 183:0.446062 184:0.55824 185:-0.308855 186:-0.875766 187:-0.993136 188:-0.999923 189:-1 190:-1 191:-1 192:-1 193:-1 194:-1 195:-0.999997 196:-0.999447 197:-0.971761 198:-0.615011 199:0.292873 200:0.597332 201:-0.077151 202:-0.779308 203:-0.986423 204:-0.999844 205:-1 206:-1 207:-1 208:-1 209:-1 210:-1 211:-1 212:-0.999796 213:-0.983439 214:-0.739594 215:0.004159 216:0.542369 217:0.119381 218:-0.690844 219:-0.980038 220:-0.999756 221:-1 222:-1 223:-1 224:-1 225:-1 226:-1 227:-1 228:-0.999928 229:-0.99365 230:-0.888489 231:-0.422114 232:0.224616 233:0.077856 234:-0.67591 235:-0.978386 236:-0.999716 237:-1 238:-1 239:-1 240:-1 241:-1 242:-1 243:-1 244:-0.999988 245:-0.998832 246:-0.973522 247:-0.785189 248:-0.381572 249:-0.339339 250:-0.784511 251:-0.985489 252:-0.999817 253:-1 254:-1 255:-1 256:-1 
1 1:-1 2:-1 3:-1 4:-0.999893 5:-0.990615 6:-0.847167 7:-0.360103 8:0.097191 9:-0.1248 10:-0.713599 11:-0.967244 12:-0.998639 13:-0.999986 14:-1 15:-1 16:-1 17:-1 18:-1 19:-1 20:-0.999861 21:-0.987951 22:-0.808776 23:-0.256994 24:0.296373 25:0.314702 26:-0.43947 27:-0.909538 28:-0.995276 29:-0.999948 30:-1 31:-1 32:-1 33:-1 34:-1 35:-1 36:-0.999951 37:-0.995707 38:-0.926183 39:-0.622948 40:-0.00706 41:0.368125 42:-0.294478 43:-0.863885 44:-0.992295 45:-0.999914 46:-1 47:-1 48:-1 49:-1 50:-1 51:-1 52:-0.999997 53:-0.999587 54:-0.98417 55:-0.794723 56:-0.148694 57:0.351711 58:-0.252858 59:-0.84682 60:-0.99112 61:-0.9999 62:-1 63:-1 64:-1 65:-1 66:-1 67:-1 68:-1 69:-0.999864 70:-0.988295 71:-0.806744 72:-0.158001 73:0.355621 74:-0.237193 75:-0.840325 76:-0.990669 77:-0.999894 78:-1 79:-1 80:-1 81:-1 82:-1 83:-1 84:-1 85:-0.999866 86:-0.988255 87:-0.805633 88:-0.15669 89:0.332837 90:-0.295545 91:-0.864348 92:-0.992338 93:-0.999914 94:-1 95:-1 96:-1 97:-1 98:-1 99:-1 100:-1 101:-0.999861 102:-0.987824 103:-0.799458 104:-0.143677 105:0.309381 106:-0.367215 107:-0.893982 108:-0.994398 109:-0.999938 110:-1 111:-1 112:-1 113:-1 114:-1 115:-1 116:-1 117:-0.999832 118:-0.98534 119:-0.763712 120:-0.056983 121:0.342839 122:-0.369579 123:-0.895895 124:-0.994532 125:-0.99994 126:-1 127:-1 128:-1 129:-1 130:-1 131:-1 132:-1 133:-0.999811 134:-0.98357 135:-0.738306 136:0.00292 137:0.34998 138:-0.407605 139:-0.911899 140:-0.995642 141:-0.999953 142:-1 143:-1 144:-1 145:-1 146:-1 147:-1 148:-1 149:-0.999809 150:-0.983412 151:-0.736089 152:0.008871 153:0.372007 154:-0.353686 155:-0.889398 156:-0.994074 157:-0.999934 158:-1 159:-1 160:-1 161:-1 162:-1 163:-1 164:-1 165:-0.999786 166:-0.981463 167:-0.707892 168:0.085497 169:0.505512 170:-0.10196 171:-0.787162 172:-0.986977 173:-0.999851 174:-1 175:-1 176:-1 177:-1 178:-1 179:-1 180:-1 181:-0.999749 182:-0.978898 183:-0.672384 184:0.172672 185:0.556299 186:-0.064113 187:-0.772757 188:-0.98598 189:-0.999839 190:-1 191:-1 192:-1 193:-1 194:-1 195:-1 196:-0.999998 197:-0.99953 198:-0.972957 199:-0.618284 200:0.280965 201:0.50757 202:-0.267654 203:-0.855725 204:-0.991724 205:-0.999907 206:-1 207:-1 208:-1 209:-1 210:-1 211:-1 212:-0.999983 213:-0.998259 214:-0.951622 215:-0.524619 216:0.387193 217:0.396001 218:-0.49417 219:-0.938271 220:-0.997321 221:-0.999972 222:-1 223:-1 224:-1 225:-1 226:-1 227:-1 228:-0.999963 229:-0.996572 230:-0.927342 231:-0.470138 232:0.328676 233:0.165222 234:-0.649873 235:-0.973638 236:-0.999441 237:-0.999996 238:-1 239:-1 240:-1 241:-1 242:-1 243:-1 244:-0.99998 245:-0.998059 246:-0.955895 247:-0.649291 248:-0.109231 249:-0.255277 250:-0.788871 251:-0.986273 252:-0.99983 253:-1 254:-1 255:-1 256:-1 
1 1:-1 2:-1 3:-1 4:-1 5:-0.99989 6:-0.990457 7:-0.847791 8:-0.415494 9:-0.235549 10:-0.7242 11:-0.978329 12:-0.999535 13:-0.999997 14:-1 15:-1 16:-1 17:-1 18:-1 19:-1 20:-1 21:-0.999889 22:-0.990226 23:-0.836762 24:-0.277114 25:0.102195 26:-0.56213 27:-0.957282 28:-0.998608 29:-0.999987 30:-1 31:-1 32:-1 33:-1 34:-1 35:-1 36:-1 37:-0.99987 38:-0.988645 39:-0.811949 40:-0.18287 41:0.261475 42:-0.409112 43:-0.907637 44:-0.995308 45:-0.999949 46:-1 47:-1 48:-1 49:-1 50:-1 51:-1 52:-1 53:-0.999796 54:-0.983025 55:-0.732149 56:0.022493 57:0.442445 58:-0.192364 59:-0.823289 60:-0.989481 61:-0.99988 62:-1 63:-1 64:-1 65:-1 66:-1 67:-1 68:-1 69:-0.999713 70:-0.976898 71:-0.646298 72:0.234533 73:0.572074 74:-0.087346 75:-0.782922 76:-0.986612 77:-0.999842 78:-1 79:-1 80:-1 81:-1 82:-1 83:-1 84:-1 85:-0.999748 86:-0.978871 87:-0.672229 88:0.173651 89:0.565291 90:-0.041799 91:-0.760094 92:-0.983643 93:-0.999711 94:-0.999998 95:-1 96:-1 97:-1 98:-1 99:-1 100:-1 101:-0.999858 102:-0.987574 103:-0.796018 104:-0.124947 105:0.502554 106:0.120359 107:-0.671429 108:-0.970287 109:-0.999055 110:-0.999991 111:-1 112:-1 113:-1 114:-1 115:-1 116:-1 117:-0.999952 118:-0.995592 119:-0.911797 120:-0.409541 121:0.439618 122:0.294614 123:-0.575527 124:-0.956287 125:-0.998384 126:-0.999984 127:-1 128:-1 129:-1 130:-1 131:-1 132:-1 133:-0.999988 134:-0.998648 135:-0.957104 136:-0.53822 137:0.350821 138:0.286348 139:-0.593264 140:-0.967077 141:-0.999181 142:-0.999994 143:-1 144:-1 145:-1 146:-1 147:-1 148:-0.999999 149:-0.999986 150:-0.99941 151:-0.971096 152:-0.605657 153:0.241989 154:0.23921 155:-0.61242 156:-0.973898 157:-0.999654 158:-0.999999 159:-1 160:-1 161:-1 162:-1 163:-0.999999 164:-0.999947 165:-0.999055 166:-0.994427 167:-0.959371 168:-0.589101 169:0.207821 170:0.095692 171:-0.676444 172:-0.978925 173:-0.99975 174:-1 175:-1 176:-1 177:-1 178:-1 179:-0.999991 180:-0.999233 181:-0.986202 182:-0.924257 183:-0.808213 184:-0.431979 185:0.273073 186:-0.032812 187:-0.744703 188:-0.983917 189:-0.999815 190:-1 191:-1 192:-1 193:-1 194:-1 195:-0.999979 196:-0.99809 197:-0.962959 198:-0.765206 199:-0.422394 200:-0.08716 201:0.373791 202:-0.111305 203:-0.786352 204:-0.986903 205:-0.99985 206:-1 207:-1 208:-1 209:-1 210:-1 211:-0.999991 212:-0.999104 213:-0.976158 214:-0.771941 215:-0.28697 216:0.164708 217:0.449655 218:-0.161737 219:-0.810242 220:-0.988574 221:-0.99987 222:-1 223:-1 224:-1 225:-1 226:-1 227:-0.999999 228:-0.99989 229:-0.994541 230:-0.921465 231:-0.648969 232:-0.118641 233:0.312541 234:-0.203039 235:-0.815672 236:-0.988831 237:-0.999873 238:-1 239:-1 240:-1 241:-1 242:-1 243:-1 244:-0.999994 245:-0.999564 246:-0.991077 247:-0.922109 248:-0.600056 249:-0.153281 250:-0.401837 251:-0.849401 252:-0.990643 253:-0.999893 254:-1 255:-1 256:-1 
1 1:-1 2:-1 3:-0.99999 4:-0.999054 5:-0.981368 6:-0.872452 7:-0.584005 8:-0.138156 9:0.245046 10:0.002424 11:-0.591719 12:-0.925509 13:-0.995829 14:-0.999953 15:-1 16:-1 17:-1 18:-1 19:-0.999941 20:-0.99472 21:-0.907193 22:-0.511555 23:0.163395 24:0.636209 25:0.837089 26:0.573751 27:-0.188561 28:-0.81308 29:-0.988617 30:-0.99987 31:-1 32:-1 33:-1 34:-1 35:-0.999883 36:-0.989748 37:-0.829224 38:-0.225802 39:0.569913 40:0.925888 41:0.973754 42:0.744261 43:-0.0014 44:-0.750257 45:-0.984416 46:-0.999821 47:-1 48:-1 49:-1 50:-1 51:-0.999932 52:-0.993949 53:-0.893715 54:-0.440592 55:0.341842 56:0.855518 57:0.971117 58:0.723373 59:-0.065231 60:-0.777387 61:-0.986311 62:-0.999843 63:-1 64:-1 65:-1 66:-1 67:-0.999986 68:-0.998707 69:-0.973716 70:-0.802344 71:-0.232758 72:0.593548 73:0.929242 74:0.66319 75:-0.207007 76:-0.835651 77:-0.990359 78:-0.999891 79:-1 80:-1 81:-1 82:-1 83:-0.999999 84:-0.999914 85:-0.997267 86:-0.952528 87:-0.577016 88:0.315773 89:0.84615 90:0.595569 91:-0.351811 92:-0.894624 93:-0.994451 94:-0.999939 95:-1 96:-1 97:-1 98:-1 99:-1 100:-0.999998 101:-0.999672 102:-0.980683 103:-0.716221 104:0.074356 105:0.739435 106:0.514649 107:-0.478334 108:-0.942788 109:-0.997753 110:-0.999978 111:-1 112:-1 113:-1 114:-1 115:-1 116:-1 117:-0.99983 118:-0.98541 119:-0.765085 120:-0.037849 121:0.677011 122:0.455656 123:-0.534867 124:-0.960498 125:-0.998918 126:-0.999991 127:-1 128:-1 129:-1 130:-1 131:-1 132:-1 133:-0.999809 134:-0.983392 135:-0.735399 136:0.035382 137:0.71891 138:0.499374 139:-0.487987 140:-0.945018 141:-0.997887 142:-0.999979 143:-1 144:-1 145:-1 146:-1 147:-1 148:-1 149:-0.999773 150:-0.980426 151:-0.693006 152:0.139192 153:0.774587 154:0.552287 155:-0.424869 156:-0.923146 157:-0.996415 158:-0.999962 159:-1 160:-1 161:-1 162:-1 163:-1 164:-0.999999 165:-0.999688 166:-0.977364 167:-0.659025 168:0.217656 169:0.805779 170:0.550309 171:-0.432073 172:-0.925912 173:-0.996605 174:-0.999964 175:-1 176:-1 177:-1 178:-1 179:-1 180:-0.999992 181:-0.999032 182:-0.963852 183:-0.567528 184:0.394765 185:0.82895 186:0.416034 187:-0.543633 188:-0.95603 189:-0.998513 190:-0.999986 191:-1 192:-1 193:-1 194:-1 195:-1 196:-0.999977 197:-0.997755 198:-0.942972 199:-0.480951 200:0.509491 201:0.755061 202:0.119414 203:-0.696063 204:-0.978668 205:-0.999615 206:-0.999998 207:-1 208:-1 209:-1 210:-1 211:-1 212:-0.999977 213:-0.997671 214:-0.941611 215:-0.475776 216:0.50697 217:0.655128 218:-0.114378 219:-0.795639 220:-0.987468 221:-0.99985 222:-1 223:-1 224:-1 225:-1 226:-1 227:-1 228:-0.999983 229:-0.998209 230:-0.950422 231:-0.515527 232:0.397424 233:0.43121 234:-0.350445 235:-0.873957 236:-0.992787 237:-0.999919 238:-1 239:-1 240:-1 241:-1 242:-1 243:-1 244:-0.999988 245:-0.998744 246:-0.965013 247:-0.659671 248:-0.067093 249:-0.168247 250:-0.701879 251:-0.957573 252:-0.997915 253:-0.999977 254:-1 255:-1 256:-1 
1 1:-1 2:-1 3:-1 4:-1 5:-0.999896 6:-0.99308 7:-0.888311 8:-0.475608 9:-0.098582 10:-0.494854 11:-0.897338 12:-0.994076 13:-0.999933 14:-1 15:-1 16:-1 17:-1 18:-1 19:-1 20:-0.99999 21:-0.999109 22:-0.973934 23:-0.718392 24:-0.007587 25:0.384036 26:-0.222393 27:-0.828881 28:-0.989793 29:-0.999884 30:-1 31:-1 32:-1 33:-1 34:-1 35:-0.999997 36:-0.99976 37:-0.992001 38:-0.890655 39:-0.410562 40:0.417069 41:0.579915 42:-0.182032 43:-0.822974 44:-0.989471 45:-0.99988 46:-1 47:-1 48:-1 49:-1 50:-0.999998 51:-0.999838 52:-0.995311 53:-0.940605 54:-0.630507 55:0.094164 56:0.731874 57:0.653519 58:-0.174943 59:-0.822102 60:-0.989418 61:-0.99988 62:-1 63:-1 64:-1 65:-1 66:-0.999976 67:-0.997848 68:-0.958891 69:-0.732379 70:-0.143667 71:0.555553 72:0.862935 73:0.677102 74:-0.124668 75:-0.801292 76:-0.987971 77:-0.999863 78:-1 79:-1 80:-1 81:-1 82:-0.999923 83:-0.993184 84:-0.883857 85:-0.437987 86:0.217548 87:0.556259 88:0.700152 89:0.6187 90:-0.127509 91:-0.800879 92:-0.987939 93:-0.999862 94:-1 95:-1 96:-1 97:-1 98:-0.999921 99:-0.993059 100:-0.886868 101:-0.525505 102:-0.176299 103:-0.061005 104:0.355034 105:0.530463 106:-0.171353 107:-0.817223 108:-0.989072 109:-0.999876 110:-1 111:-1 112:-1 113:-1 114:-0.999975 115:-0.997813 116:-0.964955 117:-0.861624 118:-0.771748 119:-0.55073 120:0.177726 121:0.479024 122:-0.237042 123:-0.843738 124:-0.990913 125:-0.999897 126:-1 127:-1 128:-1 129:-1 130:-0.999998 131:-0.999856 132:-0.997699 133:-0.990817 134:-0.966045 135:-0.666163 136:0.165161 137:0.462653 138:-0.29047 139:-0.865866 140:-0.992451 141:-0.999915 142:-1 143:-1 144:-1 145:-1 146:-1 147:-0.999998 148:-0.999973 149:-0.999618 150:-0.975829 151:-0.629091 152:0.268291 153:0.469546 154:-0.369074 155:-0.898612 156:-0.994569 157:-0.999732 158:-0.999763 159:-0.999815 160:-0.999931 161:-0.999939 162:-0.999874 163:-0.999832 164:-0.999791 165:-0.999458 166:-0.974364 167:-0.614261 168:0.29416 169:0.42834 170:-0.469742 171:-0.931056 172:-0.983765 173:-0.981709 174:-0.979512 175:-0.983908 176:-0.993954 177:-0.994645 178:-0.988955 179:-0.985377 180:-0.981908 181:-0.979823 182:-0.948045 183:-0.57008 184:0.334267 185:0.431599 186:-0.439389 187:-0.802982 188:-0.774532 189:-0.711646 190:-0.679941 191:-0.746458 192:-0.90097 193:-0.910093 194:-0.819116 195:-0.764858 196:-0.714477 197:-0.693104 198:-0.642057 199:-0.255414 200:0.538295 201:0.597323 202:-0.035795 203:-0.205005 204:-0.069669 205:0.081165 206:0.152465 207:-0.059444 208:-0.583663 209:-0.594899 210:-0.240476 211:-0.067209 212:0.064643 213:0.117314 214:0.169883 215:0.414107 216:0.802359 217:0.838261 218:0.630869 219:0.569557 220:0.564623 221:0.564319 222:0.546133 223:0.288974 224:-0.364789 225:-0.358002 226:0.14585 227:0.339747 228:0.445936 229:0.487681 230:0.5147 231:0.633637 232:0.763186 233:0.615583 234:0.447313 235:0.35473 236:0.197597 237:0.045923 238:-0.055844 239:-0.260743 240:-0.674436 241:-0.70634 242:-0.44062 243:-0.322625 244:-0.22262 245:-0.180991 246:-0.156409 247:-0.01149 248:0.136609 249:-0.194832 250:-0.498857 251:-0.592689 252:-0.662402 253:-0.726557 254:-0.768025 255:-0.831578 256:-0.939355 
1 1:-1 2:-1 3:-1 4:-1 5:-0.999988 6:-0.998806 7:-0.968129 8:-0.706158 9:-0.285576 10:-0.542293 11:-0.89884 12:-0.993989 13:-0.999932 14:-1 15:-1 16:-1 17:-1 18:-1 19:-1 20:-1 21:-0.999927 22:-0.994006 23:-0.893701 24:-0.431402 25:0.040442 26:-0.471306 27:-0.910794 28:-0.995285 29:-0.999948 30:-1 31:-1 32:-1 33:-1 34:-1 35:-1 36:-0.999997 37:-0.9996 38:-0.981368 39:-0.752287 40:-0.158612 41:-0.022905 42:-0.639953 43:-0.96222 44:-0.998611 45:-0.999987 46:-1 47:-1 48:-1 49:-1 50:-1 51:-1 52:-0.999973 53:-0.997457 54:-0.94283 55:-0.555791 56:0.055211 57:-0.250064 58:-0.811488 59:-0.987471 60:-0.999797 61:-0.999999 62:-1 63:-1 64:-1 65:-1 66:-1 67:-1 68:-0.999923 69:-0.993087 70:-0.876673 71:-0.354248 72:0.14726 73:-0.458691 74:-0.920813 75:-0.996146 76:-0.999958 77:-1 78:-1 79:-1 80:-1 81:-1 82:-1 83:-1 84:-0.999924 85:-0.993177 86:-0.878216 87:-0.363746 88:0.097458 89:-0.558685 90:-0.960647 91:-0.998909 92:-0.999991 93:-1 94:-1 95:-1 96:-1 97:-1 98:-1 99:-1 100:-0.999973 101:-0.997377 102:-0.939874 103:-0.530098 104:0.001966 105:-0.545514 106:-0.946393 107:-0.997831 108:-0.999978 109:-1 110:-1 111:-1 112:-1 113:-1 114:-1 115:-1 116:-0.999997 117:-0.999465 118:-0.973742 119:-0.663474 120:-0.117372 121:-0.435517 122:-0.87735 123:-0.992762 124:-0.999918 125:-1 126:-1 127:-1 128:-1 129:-1 130:-1 131:-1 132:-1 133:-0.999815 134:-0.984913 135:-0.772502 136:-0.269459 137:-0.266769 138:-0.77106 139:-0.984943 140:-0.999825 141:-1 142:-1 143:-1 144:-1 145:-1 146:-1 147:-1 148:-1 149:-0.999904 150:-0.991617 151:-0.861399 152:-0.404197 153:-0.125817 154:-0.680483 155:-0.978232 156:-0.999743 157:-1 158:-1 159:-1 160:-1 161:-1 162:-1 163:-1 164:-1 165:-0.999952 166:-0.995611 167:-0.914804 168:-0.475652 169:-0.012529 170:-0.612716 171:-0.972762 172:-0.999641 173:-0.999999 174:-1 175:-1 176:-1 177:-1 178:-1 179:-1 180:-1 181:-0.999969 182:-0.997055 183:-0.933782 184:-0.495829 185:0.043714 186:-0.579042 187:-0.968969 188:-0.999502 189:-0.999998 190:-1 191:-1 192:-1 193:-1 194:-1 195:-1 196:-1 197:-0.999948 198:-0.995311 199:-0.909235 200:-0.443207 201:0.048392 202:-0.585149 203:-0.969266 204:-0.99949 205:-0.999998 206:-1 207:-1 208:-1 209:-1 210:-1 211:-1 212:-1 213:-0.999876 214:-0.991341 215:-0.860377 216:-0.36938 217:-0.027013 218:-0.637227 219:-0.974539 220:-0.999653 221:-0.999999 222:-1 223:-1 224:-1 225:-1 226:-1 227:-1 228:-0.999995 229:-0.999381 230:-0.978853 231:-0.758498 232:-0.237526 233:-0.185727 234:-0.736539 235:-0.982483 236:-0.999793 237:-1 238:-1 239:-1 240:-1 241:-1 242:-1 243:-1 244:-0.999987 245:-0.998708 246:-0.967094 247:-0.708112 248:-0.279465 249:-0.495714 250:-0.877279 251:-0.992462 252:-0.999914 253:-1 254:-1 255:-1 256:-1 
1 1:-1 2:-1 3:-0.999975 4:-0.997791 5:-0.958865 6:-0.751243 7:-0.312338 8:0.108426 9:0.17639 10:-0.400409 11:-0.87487 12:-0.992663 13:-0.999917 14:-1 15:-1 16:-1 17:-1 18:-1 19:-0.999914 20:-0.992406 21:-0.869724 22:-0.358653 23:0.400927 24:0.763755 25:0.578853 26:-0.262895 27:-0.854582 28:-0.991639 29:-0.999906 30:-1 31:-1 32:-1 33:-1 34:-1 35:-0.999862 36:-0.987879 37:-0.80025 38:-0.125287 39:0.685491 40:0.938652 41:0.590238 42:-0.355601 43:-0.894822 44:-0.994449 45:-0.999939 46:-1 47:-1 48:-1 49:-1 50:-1 51:-0.99985 52:-0.986849 53:-0.785127 54:-0.084091 55:0.715118 56:0.949112 57:0.576352 58:-0.392668 59:-0.909888 60:-0.995493 61:-0.999951 62:-1 63:-1 64:-1 65:-1 66:-1 67:-0.999852 68:-0.987034 69:-0.787791 70:-0.090517 71:0.712696 72:0.950175 73:0.581609 74:-0.384404 75:-0.906801 76:-0.995282 77:-0.999949 78:-1 79:-1 80:-1 81:-1 82:-1 83:-0.999835 84:-0.985801 85:-0.770485 86:-0.048601 87:0.729941 88:0.951949 89:0.586076 90:-0.375163 91:-0.903112 92:-0.995027 93:-0.999946 94:-1 95:-1 96:-1 97:-1 98:-0.999999 99:-0.999745 100:-0.980628 101:-0.702207 102:0.114939 103:0.796488 104:0.948823 105:0.561264 106:-0.399817 107:-0.910758 108:-0.995529 109:-0.999951 110:-1 111:-1 112:-1 113:-1 114:-0.999998 115:-0.99961 116:-0.974722 117:-0.630712 118:0.283283 119:0.864469 120:0.940541 121:0.516662 122:-0.449526 123:-0.927076 124:-0.996605 125:-0.999963 126:-1 127:-1 128:-1 129:-1 130:-0.999999 131:-0.999586 132:-0.97302 133:-0.60711 134:0.340335 135:0.888798 136:0.956202 137:0.565671 138:-0.392376 139:-0.905759 140:-0.994272 141:-0.999873 142:-0.999999 143:-1 144:-1 145:-1 146:-0.999999 147:-0.999619 148:-0.973681 149:-0.611252 150:0.332473 151:0.886388 152:0.967658 153:0.623732 154:-0.281151 155:-0.825212 156:-0.973023 157:-0.998504 158:-0.999981 159:-1 160:-1 161:-1 162:-0.999999 163:-0.999687 164:-0.976808 165:-0.649935 166:0.240982 167:0.849166 168:0.974301 169:0.740435 170:0.067673 171:-0.502831 172:-0.875839 173:-0.991771 174:-0.999875 175:-0.999999 176:-1 177:-1 178:-1 179:-0.999803 180:-0.98393 181:-0.745644 182:0.010969 183:0.754958 184:0.979617 185:0.912926 186:0.571109 187:-0.087626 188:-0.759854 189:-0.983746 190:-0.999739 191:-0.999999 192:-1 193:-1 194:-1 195:-0.99986 196:-0.987791 197:-0.798838 198:-0.117452 199:0.702117 200:0.975682 201:0.922639 202:0.5378 203:-0.257458 204:-0.837519 205:-0.989843 206:-0.999854 207:-1 208:-1 209:-1 210:-1 211:-0.999841 212:-0.986115 213:-0.774563 214:-0.0586 215:0.721778 216:0.935742 217:0.706765 218:0.05902 219:-0.647534 220:-0.948473 221:-0.997374 222:-0.999969 223:-1 224:-1 225:-1 226:-1 227:-0.999836 228:-0.985723 229:-0.769346 230:-0.054291 231:0.661929 232:0.697839 233:0.198966 234:-0.513104 235:-0.902809 236:-0.991393 237:-0.99969 238:-0.999997 239:-1 240:-1 241:-1 242:-1 243:-0.999898 244:-0.991055 245:-0.851724 246:-0.344317 247:0.191548 248:0.03439 249:-0.498068 250:-0.874335 251:-0.98684 252:-0.999349 253:-0.999985 254:-1 255:-1 256:-1 
1 1:-1 2:-1 3:-0.999994 4:-0.999323 5:-0.976294 6:-0.725174 7:-0.117855 8:0.068359 9:-0.372295 10:-0.831133 11:-0.982987 12:-0.999355 13:-0.999994 14:-1 15:-1 16:-1 17:-1 18:-1 19:-0.999985 20:-0.998461 21:-0.956574 22:-0.564972 23:0.334741 24:0.705613 25:0.309389 26:-0.509733 27:-0.925467 28:-0.996201 29:-0.999959 30:-1 31:-1 32:-1 33:-1 34:-1 35:-0.999982 36:-0.998132 37:-0.951433 38:-0.54527 39:0.386414 40:0.869121 41:0.652974 42:-0.173131 43:-0.818316 44:-0.989116 45:-0.999876 46:-1 47:-1 48:-1 49:-1 50:-1 51:-0.999956 52:-0.995959 53:-0.91838 54:-0.438375 55:0.496668 56:0.920566 57:0.74894 58:0.006198 59:-0.747792 60:-0.984252 61:-0.999819 62:-1 63:-1 64:-1 65:-1 66:-1 67:-0.999899 68:-0.992542 69:-0.871051 70:-0.300464 71:0.611929 72:0.944629 73:0.679946 74:-0.147063 75:-0.809449 76:-0.988521 77:-0.999869 78:-1 79:-1 80:-1 81:-1 82:-0.999995 83:-0.999456 84:-0.979531 85:-0.743693 86:-0.010757 87:0.740046 88:0.944163 89:0.57818 90:-0.354552 91:-0.891887 92:-0.994215 93:-0.999936 94:-1 95:-1 96:-1 97:-1 98:-0.999976 99:-0.997661 100:-0.945315 101:-0.539758 102:0.367534 103:0.889122 104:0.948415 105:0.529196 106:-0.453534 107:-0.931147 108:-0.996926 109:-0.999968 110:-1 111:-1 112:-1 113:-1 114:-0.999935 115:-0.994117 116:-0.890742 117:-0.355552 118:0.568779 119:0.953705 120:0.925024 121:0.447361 122:-0.519716 123:-0.949085 124:-0.998054 125:-0.99998 126:-1 127:-1 128:-1 129:-1 130:-0.9999 131:-0.991132 132:-0.846954 133:-0.237135 134:0.646404 135:0.967168 136:0.86896 137:0.297306 138:-0.607542 139:-0.963717 140:-0.997834 141:-0.999876 142:-0.999996 143:-1 144:-1 145:-1 146:-0.999887 147:-0.990061 148:-0.831368 149:-0.19667 150:0.669193 151:0.966363 152:0.797724 153:0.120881 154:-0.669592 155:-0.920215 156:-0.969747 157:-0.995193 158:-0.999753 159:-0.999997 160:-1 161:-1 162:-0.999843 163:-0.986284 164:-0.776989 165:-0.064236 166:0.723977 167:0.96598 168:0.737201 169:0.009821 170:-0.530135 171:-0.560715 172:-0.735806 173:-0.93957 174:-0.996355 175:-0.999958 176:-1 177:-1 178:-0.999786 179:-0.981393 180:-0.706597 181:0.106969 182:0.794344 183:0.972715 184:0.772167 185:0.222578 186:0.039839 187:0.192087 188:-0.228427 189:-0.803943 190:-0.987751 191:-0.999859 192:-1 193:-1 194:-0.999771 195:-0.980188 196:-0.689371 197:0.147329 198:0.807261 199:0.982017 200:0.92769 201:0.755821 202:0.652272 203:0.452049 204:-0.15442 205:-0.785546 206:-0.986564 207:-0.999846 208:-1 209:-1 210:-0.999847 211:-0.986669 212:-0.784422 213:-0.109599 214:0.636247 215:0.939534 216:0.974722 217:0.885912 218:0.565176 219:-0.052269 220:-0.624861 221:-0.924117 222:-0.995545 223:-0.99995 224:-1 225:-1 226:-0.999944 227:-0.994997 228:-0.911964 229:-0.533482 230:0.143604 231:0.655586 232:0.784064 233:0.485587 234:-0.073045 235:-0.645526 236:-0.927281 237:-0.992398 238:-0.999676 239:-0.999997 240:-1 241:-1 242:-0.99999 243:-0.999107 244:-0.982543 245:-0.878812 246:-0.559517 247:-0.061389 248:0.123233 249:-0.316634 250:-0.726779 251:-0.932436 252:-0.993186 253:-0.9997 254:-0.999994 255:-1 256:-1 
1 1:-1 2:-1 3:-1 4:-0.999987 5:-0.998702 6:-0.964955 7:-0.677767 8:-0.270252 9:-0.653115 10:-0.954531 11:-0.997977 12:-0.999979 13:-1 14:-1 15:-1 16:-1 17:-1 18:-1 19:-1 20:-0.999995 21:-0.999264 22:-0.968305 23:-0.613635 24:-0.009268 25:-0.395488 26:-0.87606 27:-0.99285 28:-0.999919 29:-1 30:-1 31:-1 32:-1 33:-1 34:-1 35:-1 36:-1 37:-0.999701 38:-0.976551 39:-0.656836 40:-0.010103 41:-0.210494 42:-0.787812 43:-0.986576 44:-0.999845 45:-1 46:-1 47:-1 48:-1 49:-1 50:-1 51:-1 52:-1 53:-0.99978 54:-0.981044 55:-0.711754 56:-0.075973 57:-0.077893 58:-0.712999 59:-0.981134 60:-0.99978 61:-1 62:-1 63:-1 64:-1 65:-1 66:-1 67:-1 68:-1 69:-0.999835 70:-0.985686 71:-0.774602 72:-0.172688 73:0.019329 74:-0.648853 75:-0.975951 76:-0.999687 77:-0.999999 78:-1 79:-1 80:-1 81:-1 82:-1 83:-1 84:-1 85:-0.99989 86:-0.990319 87:-0.838292 88:-0.284079 89:0.08576 90:-0.582679 91:-0.964557 92:-0.9991 93:-0.999993 94:-1 95:-1 96:-1 97:-1 98:-1 99:-1 100:-1 101:-0.999926 102:-0.993368 103:-0.880059 104:-0.354231 105:0.148308 106:-0.504511 107:-0.943606 108:-0.997787 109:-0.999978 110:-1 111:-1 112:-1 113:-1 114:-1 115:-1 116:-1 117:-0.999936 118:-0.994228 119:-0.891801 120:-0.373413 121:0.16557 122:-0.487283 123:-0.939951 124:-0.997577 125:-0.999976 126:-1 127:-1 128:-1 129:-1 130:-1 131:-1 132:-1 133:-0.999923 134:-0.993087 135:-0.875876 136:-0.342637 137:0.149043 138:-0.524319 139:-0.952702 140:-0.998429 141:-0.999985 142:-1 143:-1 144:-1 145:-1 146:-1 147:-1 148:-1 149:-0.999894 150:-0.990692 151:-0.843141 152:-0.288598 153:0.098977 154:-0.581939 155:-0.967182 156:-0.999318 157:-0.999996 158:-1 159:-1 160:-1 161:-1 162:-1 163:-1 164:-1 165:-0.999865 166:-0.988232 167:-0.810122 168:-0.242886 169:0.029924 170:-0.631794 171:-0.974574 172:-0.999668 173:-0.999999 174:-1 175:-1 176:-1 177:-1 178:-1 179:-1 180:-1 181:-0.999827 182:-0.98504 183:-0.766932 184:-0.177362 185:-0.039767 186:-0.677501 187:-0.978419 188:-0.999747 189:-1 190:-1 191:-1 192:-1 193:-1 194:-1 195:-1 196:-1 197:-0.999779 198:-0.981027 199:-0.712916 200:-0.097582 201:-0.132364 202:-0.735536 203:-0.982707 204:-0.999799 205:-1 206:-1 207:-1 208:-1 209:-1 210:-1 211:-1 212:-1 213:-0.999715 214:-0.976759 215:-0.658477 216:-0.028116 217:-0.254334 218:-0.805865 219:-0.987831 220:-0.99986 221:-1 222:-1 223:-1 224:-1 225:-1 226:-1 227:-1 228:-0.999999 229:-0.999627 230:-0.973795 231:-0.631688 232:-0.041489 233:-0.440446 234:-0.892927 235:-0.994004 236:-0.999933 237:-1 238:-1 239:-1 240:-1 241:-1 242:-1 243:-1 244:-0.999998 245:-0.999658 246:-0.979828 247:-0.730367 248:-0.337477 249:-0.690284 250:-0.962879 251:-0.998479 252:-0.999985 253:-1 254:-1 255:-1 256:-1 
0.9478237547437712 1:-1 2:-1 3:-1 4:-0.99998 5:-0.998093 6:-0.957748 7:-0.668987 8:-0.088787 9:-0.070125 10:-0.672334 11:-0.964942 12:-0.998666 13:-0.999987 14:-1 15:-1 16:-1 17:-1 18:-1 19:-1 20:-0.99994 21:-0.994639 22:-0.903156 23:-0.458513 24:0.296263 25:0.392334 26:-0.39492 27:-0.897931 28:-0.99454 29:-0.99994 30:-1 31:-1 32:-1 33:-1 34:-1 35:-1 36:-0.999948 37:-0.995401 38:-0.919468 39:-0.573385 40:0.097914 41:0.462243 42:-0.161676 43:-0.810477 44:-0.988587 45:-0.99987 46:-1 47:-1 48:-1 49:-1 50:-1 51:-1 52:-0.999985 53:-0.998623 54:-0.971277 55:-0.777321 56:-0.170118 57:0.416478 58:-0.057501 59:-0.766021 60:-0.985505 61:-0.999834 62:-1 63:-1 64:-1 65:-1 66:-1 67:-1 68:-0.999999 69:-0.999794 70:-0.987865 71:-0.813854 72:-0.177399 73:0.395937 74:-0.116002 75:-0.790228 76:-0.987188 77:-0.999854 78:-1 79:-1 80:-1 81:-1 82:-1 83:-1 84:-1 85:-0.99985 86:-0.986942 87:-0.786852 88:-0.108174 89:0.394508 90:-0.189756 91:-0.821376 92:-0.989353 93:-0.999879 94:-1 95:-1 96:-1 97:-1 98:-1 99:-1 100:-1 101:-0.99983 102:-0.985227 103:-0.762028 104:-0.048306 105:0.410769 106:-0.208952 107:-0.829958 108:-0.989951 109:-0.999886 110:-1 111:-1 112:-1 113:-1 114:-1 115:-1 116:-1 117:-0.999795 118:-0.982218 119:-0.718717 120:0.057032 121:0.453897 122:-0.206387 123:-0.830105 124:-0.989964 125:-0.999886 126:-1 127:-1 128:-1 129:-1 130:-1 131:-1 132:-1 133:-0.999783 134:-0.981186 135:-0.703867 136:0.093179 137:0.469127 138:-0.204431 139:-0.829714 140:-0.989937 141:-0.999886 142:-1 143:-1 144:-1 145:-1 146:-1 147:-1 148:-1 149:-0.999795 150:-0.982167 151:-0.717978 152:0.058877 153:0.455333 154:-0.204639 155:-0.829407 156:-0.989915 157:-0.999886 158:-1 159:-1 160:-1 161:-1 162:-1 163:-1 164:-1 165:-0.999778 166:-0.980768 167:-0.697854 168:0.10785 169:0.475798 170:-0.20241 171:-0.829049 172:-0.989892 173:-0.999885 174:-1 175:-1 176:-1 177:-1 178:-1 179:-1 180:-1 181:-0.999762 182:-0.979409 183:-0.678291 184:0.155456 185:0.495663 186:-0.200317 187:-0.828732 188:-0.989871 189:-0.999885 190:-1 191:-1 192:-1 193:-1 194:-1 195:-1 196:-1 197:-0.999738 198:-0.977314 199:-0.648136 200:0.228748 201:0.525038 202:-0.200085 203:-0.82947 204:-0.989924 205:-0.999886 206:-1 207:-1 208:-1 209:-1 210:-1 211:-1 212:-1 213:-0.999705 214:-0.97455 215:-0.60842 216:0.323664 217:0.546923 218:-0.237297 219:-0.845626 220:-0.991046 221:-0.999899 222:-1 223:-1 224:-1 225:-1 226:-1 227:-1 228:-1 229:-0.999722 230:-0.975997 231:-0.630163 232:0.254765 233:0.440858 234:-0.370981 235:-0.894763 236:-0.994397 237:-0.999938 238:-1 239:-1 240:-1 241:-1 242:-1 243:-1 244:-1 245:-0.999827 246:-0.984997 247:-0.766034 248:-0.16937 249:0.002731 250:-0.597407 251:-0.947032 252:-0.997584 253:-0.999975 254:-1 255:-1 256:-1 
1 1:-1 2:-1 3:-1 4:-0.999961 5:-0.996505 6:-0.932322 7:-0.567048 8:0.06399 9:0.099629 10:-0.405612 11:-0.837388 12:-0.980817 13:-0.999151 14:-0.999991 15:-1 16:-1 17:-1 18:-1 19:-0.999999 20:-0.999763 21:-0.9858 22:-0.786587 23:-0.117154 24:0.568003 25:0.598465 26:0.176238 27:-0.560454 28:-0.93469 29:-0.996721 30:-0.999964 31:-1 32:-1 33:-1 34:-1 35:-0.999984 36:-0.998357 37:-0.956703 38:-0.587424 39:0.284192 40:0.639209 41:0.329251 42:0.116927 43:-0.50739 44:-0.917093 45:-0.995583 46:-0.999951 47:-1 48:-1 49:-1 50:-1 51:-0.999944 52:-0.994902 53:-0.902382 54:-0.389055 55:0.519369 56:0.589864 57:-0.151659 58:-0.501228 59:-0.79745 60:-0.968632 61:-0.998402 62:-0.999983 63:-1 64:-1 65:-1 66:-1 67:-0.99992 68:-0.992823 69:-0.871261 70:-0.296119 71:0.598705 72:0.59437 73:-0.294931 74:-0.821008 75:-0.965701 76:-0.996794 77:-0.99988 78:-0.999999 79:-1 80:-1 81:-1 82:-1 83:-0.999915 84:-0.99237 85:-0.864583 86:-0.277752 87:0.607997 88:0.547744 89:-0.433551 90:-0.925933 91:-0.995506 92:-0.99986 93:-0.999998 94:-1 95:-1 96:-1 97:-1 98:-1 99:-0.999914 100:-0.992294 101:-0.863483 102:-0.275042 103:0.606442 104:0.51218 105:-0.518879 106:-0.963456 107:-0.999225 108:-0.999994 109:-1 110:-1 111:-1 112:-1 113:-1 114:-1 115:-0.999914 116:-0.992324 117:-0.863941 118:-0.276497 119:0.604095 120:0.50476 121:-0.532634 122:-0.968893 123:-0.999612 124:-0.999999 125:-1 126:-1 127:-1 128:-1 129:-1 130:-1 131:-0.999928 132:-0.99349 133:-0.881015 134:-0.322345 135:0.574474 136:0.500836 137:-0.523914 138:-0.964931 139:-0.999333 140:-0.999996 141:-1 142:-1 143:-1 144:-1 145:-1 146:-1 147:-0.999966 148:-0.996798 149:-0.929444 150:-0.451732 151:0.495473 152:0.517177 153:-0.444041 154:-0.931754 155:-0.997028 156:-0.999969 157:-1 158:-1 159:-1 160:-1 161:-1 162:-1 163:-0.999993 164:-0.999095 165:-0.963123 166:-0.542628 167:0.442151 168:0.577893 169:-0.271768 170:-0.861094 171:-0.992123 172:-0.999912 173:-1 174:-1 175:-1 176:-1 177:-1 178:-1 179:-1 180:-0.999659 181:-0.972946 182:-0.590974 183:0.36693 184:0.603541 185:-0.141235 186:-0.8067 187:-0.988297 188:-0.999863 189:-1 190:-1 191:-1 192:-1 193:-1 194:-1 195:-1 196:-0.99977 197:-0.980076 198:-0.68791 199:0.138705 200:0.59317 201:0.067737 202:-0.708139 203:-0.977439 204:-0.999458 205:-0.999996 206:-1 207:-1 208:-1 209:-1 210:-1 211:-1 212:-0.999878 213:-0.989282 214:-0.82117 215:-0.191913 216:0.523522 217:0.343578 218:-0.450416 219:-0.903842 220:-0.994729 221:-0.999941 222:-1 223:-1 224:-1 225:-1 226:-1 227:-1 228:-0.999966 229:-0.996836 230:-0.935536 231:-0.548429 232:0.236499 233:0.489898 234:-0.09647 235:-0.773136 236:-0.985848 237:-0.999838 238:-1 239:-1 240:-1 241:-1 242:-1 243:-1 244:-0.999996 245:-0.999585 246:-0.986618 247:-0.843531 248:-0.377466 249:0.010678 250:-0.341878 251:-0.837544 252:-0.989948 253:-0.999885 254:-1 255:-1 256:-1 
0.6858680529705201 1:-1 2:-1 3:-0.99999 4:-0.999017 5:-0.975689 6:-0.777872 7:-0.255202 8:0.148208 9:-0.057052 10:-0.668312 11:-0.957418 12:-0.998062 13:-0.999979 14:-1 15:-1 16:-1 17:-1 18:-1 19:-0.999958 20:-0.996107 21:-0.922737 22:-0.482928 23:0.375004 24:0.777967 25:0.502182 26:-0.332568 27:-0.872356 28:-0.992741 29:-0.999918 30:-1 31:-1 32:-1 33:-1 34:-1 35:-0.99993 36:-0.993677 37:-0.883707 38:-0.328456 39:0.602981 40:0.948339 41:0.736333 42:-0.017342 43:-0.756775 44:-0.984868 45:-0.999826 46:-1 47:-1 48:-1 49:-1 50:-1 51:-0.999935 52:-0.994086 53:-0.889286 54:-0.337479 55:0.611476 56:0.963138 57:0.808524 58:0.141893 59:-0.69222 60:-0.980388 61:-0.999773 62:-1 63:-1 64:-1 65:-1 66:-1 67:-0.999913 68:-0.992214 69:-0.862339 70:-0.271843 71:0.63872 72:0.96766 73:0.844263 74:0.228611 75:-0.656403 76:-0.977826 77:-0.999738 78:-1 79:-1 80:-1 81:-1 82:-1 83:-0.999893 84:-0.990507 85:-0.837774 86:-0.212091 87:0.66332 88:0.972229 89:0.885477 90:0.328924 91:-0.614886 92:-0.974827 93:-0.999695 94:-1 95:-1 96:-1 97:-1 98:-1 99:-0.999891 100:-0.990384 101:-0.836005 102:-0.207788 103:0.665088 104:0.972254 105:0.884059 106:0.325359 107:-0.616629 108:-0.975062 109:-0.999706 110:-1 111:-1 112:-1 113:-1 114:-1 115:-0.999856 116:-0.987381 117:-0.792784 118:-0.102655 119:0.708279 120:0.97267 121:0.846857 122:0.234707 123:-0.654077 124:-0.977738 125:-0.999742 126:-1 127:-1 128:-1 129:-1 130:-1 131:-0.999821 132:-0.984416 133:-0.750114 134:0.001137 135:0.750937 136:0.974624 137:0.832347 138:0.199343 139:-0.668579 140:-0.97873 141:-0.999753 142:-1 143:-1 144:-1 145:-1 146:-1 147:-0.99982 148:-0.984353 149:-0.749204 150:0.003351 151:0.75184 152:0.974108 153:0.824137 154:0.181161 155:-0.671702 156:-0.977159 157:-0.99961 158:-0.999998 159:-1 160:-1 161:-1 162:-1 163:-0.999796 164:-0.982291 165:-0.719525 166:0.075543 167:0.781519 168:0.976207 169:0.826665 170:0.215695 171:-0.588315 172:-0.94292 173:-0.997232 174:-0.99997 175:-1 176:-1 177:-1 178:-1 179:-0.999746 180:-0.978026 181:-0.658144 182:0.224847 183:0.842956 184:0.98534 185:0.904189 186:0.510789 187:-0.207595 188:-0.809822 189:-0.988259 190:-0.999865 191:-1 192:-1 193:-1 194:-1 195:-0.999711 196:-0.97504 197:-0.615166 198:0.32938 199:0.885941 200:0.992323 201:0.970781 202:0.785093 203:0.177992 204:-0.670878 205:-0.978834 206:-0.999755 207:-1 208:-1 209:-1 210:-1 211:-0.999737 212:-0.977268 213:-0.647279 214:0.250564 215:0.850242 216:0.980132 217:0.933464 218:0.658418 219:-0.014252 220:-0.742384 221:-0.983715 222:-0.999812 223:-1 224:-1 225:-1 226:-1 227:-0.999811 228:-0.983523 229:-0.738203 230:0.014857 231:0.691684 232:0.825637 233:0.619405 234:0.099261 235:-0.559497 236:-0.917847 237:-0.99535 238:-0.999948 239:-1 240:-1 241:-1 242:-1 243:-0.999895 244:-0.990787 245:-0.849134 246:-0.354166 247:0.183581 248:0.214074 249:-0.117401 250:-0.579273 251:-0.897211 252:-0.990305 253:-0.999652 254:-0.999997 255:-1 256:-1 
1 1:-1 2:-1 3:-0.999999 4:-0.999759 5:-0.987002 6:-0.812784 7:-0.27066 8:0.08394 9:-0.359369 10:-0.85064 11:-0.989778 12:-0.999801 13:-0.999999 14:-1 15:-1 16:-1 17:-1 18:-1 19:-0.999987 20:-0.998643 21:-0.961664 22:-0.611896 23:0.24239 24:0.660614 25:0.188659 26:-0.635337 27:-0.963592 28:-0.998687 29:-0.999987 30:-1 31:-1 32:-1 33:-1 34:-1 35:-0.999966 36:-0.996822 37:-0.931088 38:-0.474215 39:0.467662 40:0.873083 41:0.512916 42:-0.425488 43:-0.915468 44:-0.995788 45:-0.999954 46:-1 47:-1 48:-1 49:-1 50:-1 51:-0.999975 52:-0.997585 53:-0.94544 54:-0.557478 55:0.317864 56:0.844543 57:0.61295 58:-0.306655 59:-0.875894 60:-0.993148 61:-0.999924 62:-1 63:-1 64:-1 65:-1 66:-1 67:-0.999993 68:-0.999281 69:-0.97745 70:-0.744806 71:-0.025322 72:0.715986 73:0.650924 74:-0.201998 75:-0.833521 76:-0.990209 77:-0.999889 78:-1 79:-1 80:-1 81:-1 82:-1 83:-1 84:-0.999863 85:-0.990415 86:-0.842532 87:-0.228554 88:0.637142 89:0.751044 90:0.061125 91:-0.724789 92:-0.982459 93:-0.999784 94:-1 95:-1 96:-1 97:-1 98:-1 99:-1 100:-0.999946 101:-0.99511 102:-0.905641 103:-0.399645 104:0.524716 105:0.817939 106:0.294419 107:-0.620002 108:-0.971811 109:-0.999425 110:-0.999996 111:-1 112:-1 113:-1 114:-1 115:-1 116:-0.999987 117:-0.998604 118:-0.959635 119:-0.585366 120:0.320293 121:0.813803 122:0.463357 123:-0.510243 124:-0.948365 125:-0.998051 126:-0.999981 127:-1 128:-1 129:-1 130:-1 131:-1 132:-0.999999 133:-0.999708 134:-0.979686 135:-0.693972 136:0.131775 137:0.767042 138:0.542858 139:-0.425649 140:-0.921965 141:-0.996316 142:-0.999961 143:-1 144:-1 145:-1 146:-1 147:-1 148:-1 149:-0.999833 150:-0.985556 151:-0.766844 152:-0.040795 153:0.694822 154:0.527116 155:-0.44698 156:-0.930359 157:-0.996895 158:-0.999967 159:-1 160:-1 161:-1 162:-1 163:-1 164:-0.999999 165:-0.999762 166:-0.986007 167:-0.789269 168:-0.105583 169:0.62522 170:0.407828 171:-0.534156 172:-0.952551 173:-0.998277 174:-0.999983 175:-1 176:-1 177:-1 178:-1 179:-1 180:-0.99998 181:-0.998121 182:-0.957037 183:-0.640792 184:0.120388 185:0.542028 186:0.062841 187:-0.699244 188:-0.975231 189:-0.999327 190:-0.999995 191:-1 192:-1 193:-1 194:-1 195:-0.999999 196:-0.999824 197:-0.990014 198:-0.846629 199:-0.287594 200:0.404826 201:0.290599 202:-0.429552 203:-0.887499 204:-0.992619 205:-0.999853 206:-0.999999 207:-1 208:-1 209:-1 210:-1 211:-0.999986 212:-0.998617 213:-0.962801 214:-0.636973 215:0.165798 216:0.508508 217:-0.094894 218:-0.756143 219:-0.974664 220:-0.998956 221:-0.999986 222:-1 223:-1 224:-1 225:-1 226:-1 227:-0.999958 228:-0.996091 229:-0.920837 230:-0.456968 231:0.378473 232:0.354012 233:-0.459968 234:-0.914147 235:-0.995057 236:-0.999911 237:-0.999999 238:-1 239:-1 240:-1 241:-1 242:-1 243:-0.999959 244:-0.996306 245:-0.928418 246:-0.548838 247:0.033755 248:-0.14835 249:-0.741806 250:-0.976181 251:-0.999221 252:-0.999992 253:-1 254:-1 255:-1 256:-1 
1 1:-1 2:-1 3:-1 4:-0.999889 5:-0.990772 6:-0.848887 7:-0.336639 8:0.216259 9:0.133727 10:-0.322504 11:-0.746964 12:-0.952805 13:-0.997207 14:-0.999961 15:-1 16:-1 17:-1 18:-1 19:-0.999998 20:-0.999661 21:-0.981176 22:-0.729153 23:0.033656 24:0.708932 25:0.784614 26:0.443885 27:-0.228709 28:-0.809614 29:-0.986482 30:-0.999725 31:-0.999998 32:-1 33:-1 34:-1 35:-0.999987 36:-0.99866 37:-0.961956 38:-0.612714 39:0.258738 40:0.848858 41:0.969575 42:0.813888 43:0.198094 44:-0.652928 45:-0.971942 46:-0.999279 47:-0.999994 48:-1 49:-1 50:-1 51:-0.999952 52:-0.995587 53:-0.913469 54:-0.433494 55:0.481684 56:0.92833 57:0.985721 58:0.821275 59:0.178915 60:-0.662291 61:-0.972278 62:-0.999259 63:-0.999994 64:-1 65:-1 66:-1 67:-0.999887 68:-0.990034 69:-0.831417 70:-0.203174 71:0.651132 72:0.970756 73:0.980722 74:0.713499 75:-0.086171 76:-0.781148 77:-0.984633 78:-0.999689 79:-0.999998 80:-1 81:-1 82:-1 83:-0.999817 84:-0.984056 85:-0.744993 86:0.013215 87:0.755129 88:0.983644 89:0.97 90:0.631394 91:-0.254503 92:-0.852447 93:-0.99137 94:-0.999894 95:-1 96:-1 97:-1 98:-1 99:-0.99976 100:-0.980591 101:-0.698458 102:0.125382 103:0.801991 104:0.985224 105:0.937997 106:0.513014 107:-0.401496 108:-0.903383 109:-0.994921 110:-0.999944 111:-1 112:-1 113:-1 114:-0.999996 115:-0.999456 116:-0.974289 117:-0.655271 118:0.210903 119:0.835754 120:0.983439 121:0.876002 122:0.323449 123:-0.573561 124:-0.954041 125:-0.998206 126:-0.999982 127:-1 128:-1 129:-1 130:-0.99999 131:-0.998813 132:-0.960867 133:-0.562646 134:0.394875 135:0.908465 136:0.98412 137:0.812496 138:0.153117 139:-0.681817 140:-0.97728 141:-0.999571 142:-0.999998 143:-1 144:-1 145:-1 146:-0.999991 147:-0.99894 148:-0.962764 149:-0.568363 150:0.389844 151:0.906994 152:0.98253 153:0.790805 154:0.098078 155:-0.709986 156:-0.981515 157:-0.999779 158:-1 159:-1 160:-1 161:-1 162:-0.999997 163:-0.999537 164:-0.975834 165:-0.664538 166:0.193647 167:0.828828 168:0.975594 169:0.769292 170:0.045812 171:-0.731717 172:-0.983126 173:-0.999805 174:-1 175:-1 176:-1 177:-1 178:-1 179:-0.999812 180:-0.984861 181:-0.759536 182:-0.024593 183:0.736304 184:0.968003 185:0.774997 186:0.061177 187:-0.723013 188:-0.981539 189:-0.999718 190:-0.999999 191:-1 192:-1 193:-1 194:-1 195:-0.999918 196:-0.992678 197:-0.870528 198:-0.312689 199:0.570555 200:0.940224 201:0.839355 202:0.240761 203:-0.607244 204:-0.956177 205:-0.998179 206:-0.999979 207:-1 208:-1 209:-1 210:-1 211:-0.999977 212:-0.997816 213:-0.950479 214:-0.595284 215:0.228667 216:0.798859 217:0.893266 218:0.522673 219:-0.282263 220:-0.846952 221:-0.99035 222:-0.99985 223:-0.999999 224:-1 225:-1 226:-1 227:-0.999997 228:-0.999618 229:-0.987011 230:-0.842204 231:-0.339743 232:0.331133 233:0.710756 234:0.698574 235:0.110865 236:-0.692696 237:-0.978634 238:-0.999634 239:-0.999998 240:-1 241:-1 242:-1 243:-1 244:-0.999967 245:-0.99815 246:-0.968794 247:-0.810632 248:-0.437233 249:0.020748 250:0.267059 251:-0.094592 252:-0.743155 253:-0.982061 254:-0.999693 255:-0.999999 256:-1 
1 1:-1 2:-1 3:-1 4:-1 5:-0.999979 6:-0.99824 7:-0.966276 8:-0.773981 9:-0.276424 10:0.151591 11:-0.17285 12:-0.776864 13:-0.985827 14:-0.999836 15:-1 16:-1 17:-1 18:-1 19:-1 20:-0.999998 21:-0.999786 22:-0.989758 23:-0.852023 24:-0.330708 25:0.413729 26:0.708386 27:0.20789 28:-0.659451 29:-0.978037 30:-0.999743 31:-1 32:-1 33:-1 34:-1 35:-1 36:-0.999965 37:-0.997765 38:-0.953318 39:-0.62072 40:0.18042 41:0.790636 42:0.840477 43:0.266531 44:-0.640382 45:-0.976694 46:-0.999724 47:-1 48:-1 49:-1 50:-1 51:-0.999995 52:-0.999508 53:-0.985367 54:-0.83289 55:-0.256538 56:0.572672 57:0.924087 58:0.741085 59:-0.000435 60:-0.749564 61:-0.984326 62:-0.999817 63:-1 64:-1 65:-1 66:-1 67:-0.999953 68:-0.995771 69:-0.922197 70:-0.542444 71:0.22025 72:0.810573 73:0.924259 74:0.532426 75:-0.350366 76:-0.882154 77:-0.993442 78:-0.999926 79:-1 80:-1 81:-1 82:-1 83:-0.999848 84:-0.986792 85:-0.786385 86:-0.11787 87:0.608616 88:0.881597 89:0.814026 90:0.230373 91:-0.618042 92:-0.959953 93:-0.998472 94:-0.999985 95:-1 96:-1 97:-1 98:-1 99:-0.999768 100:-0.980187 101:-0.69164 102:0.111401 103:0.640336 104:0.70529 105:0.642723 106:-0.02575 107:-0.75618 108:-0.983899 109:-0.99975 110:-0.999999 111:-1 112:-1 113:-1 114:-1 115:-0.999733 116:-0.977567 117:-0.661336 118:0.084657 119:0.307635 120:0.35479 121:0.46443 122:-0.212263 123:-0.832329 124:-0.990104 125:-0.999887 126:-1 127:-1 128:-1 129:-1 130:-1 131:-0.9998 132:-0.983146 133:-0.751221 134:-0.286901 135:-0.268827 136:0.013686 137:0.347267 138:-0.316949 139:-0.873513 140:-0.992973 141:-0.999921 142:-1 143:-1 144:-1 145:-1 146:-1 147:-0.999939 148:-0.994788 149:-0.923604 150:-0.784811 151:-0.687403 152:-0.155585 153:0.336952 154:-0.261599 155:-0.849593 156:-0.99114 157:-0.999888 158:-1 159:-1 160:-1 161:-1 162:-1 163:-0.999995 164:-0.999546 165:-0.993239 166:-0.97417 167:-0.853603 168:-0.29654 169:0.356706 170:-0.081661 171:-0.765567 172:-0.981978 173:-0.99955 174:-0.999996 175:-1 176:-1 177:-1 178:-1 179:-1 180:-0.999987 181:-0.999766 182:-0.995928 183:-0.924721 184:-0.448527 185:0.38412 186:0.224695 187:-0.583839 188:-0.94936 189:-0.997783 190:-0.999977 191:-1 192:-1 193:-1 194:-1 195:-1 196:-1 197:-0.99999 198:-0.999005 199:-0.963773 200:-0.572799 201:0.333932 202:0.4292 203:-0.417166 204:-0.910191 205:-0.995418 206:-0.99995 207:-1 208:-1 209:-1 210:-1 211:-1 212:-1 213:-0.999999 214:-0.999685 215:-0.975764 216:-0.633883 217:0.240624 218:0.400975 219:-0.457102 220:-0.930107 221:-0.996853 222:-0.999967 223:-1 224:-1 225:-1 226:-1 227:-1 228:-1 229:-1 230:-0.999764 231:-0.979625 232:-0.684386 233:0.091643 234:0.247259 235:-0.559664 236:-0.959808 237:-0.998783 238:-0.999989 239:-1 240:-1 241:-1 242:-1 243:-1 244:-1 245:-1 246:-0.999862 247:-0.988011 248:-0.811761 249:-0.316132 250:-0.167214 251:-0.710641 252:-0.978581 253:-0.999612 254:-0.999998 255:-1 256:-1 
1 1:-1 2:-1 3:-1 4:-0.999981 5:-0.998131 6:-0.955652 7:-0.627435 8:-0.001441 9:-0.005576 10:-0.47428 11:-0.873994 12:-0.992068 13:-0.999898 14:-1 15:-1 16:-1 17:-1 18:-1 19:-1 20:-0.999933 21:-0.993941 22:-0.888642 23:-0.367633 24:0.341905 25:0.093882 26:-0.535519 27:-0.903172 28:-0.99389 29:-0.999904 30:-1 31:-1 32:-1 33:-1 34:-1 35:-1 36:-0.999853 37:-0.987159 38:-0.790419 39:-0.125596 40:0.364075 41:-0.190387 42:-0.778812 43:-0.969853 44:-0.998349 45:-0.999971 46:-1 47:-1 48:-1 49:-1 50:-1 51:-1 52:-0.999762 53:-0.979493 54:-0.6815 55:0.115499 56:0.32109 57:-0.471321 58:-0.927261 59:-0.995574 60:-0.99987 61:-0.999998 62:-1 63:-1 64:-1 65:-1 66:-1 67:-1 68:-0.999703 69:-0.975342 70:-0.624571 71:0.241235 72:0.314429 73:-0.568301 74:-0.967245 75:-0.999319 76:-0.999995 77:-1 78:-1 79:-1 80:-1 81:-1 82:-1 83:-1 84:-0.999673 85:-0.974093 86:-0.61008 87:0.272071 88:0.317114 89:-0.578134 90:-0.97053 91:-0.999546 92:-0.999998 93:-1 94:-1 95:-1 96:-1 97:-1 98:-1 99:-1 100:-0.999717 101:-0.976507 102:-0.640977 103:0.206844 104:0.318591 105:-0.548607 106:-0.960808 107:-0.998907 108:-0.999991 109:-1 110:-1 111:-1 112:-1 113:-1 114:-1 115:-1 116:-0.999759 117:-0.979208 118:-0.676324 119:0.143495 120:0.368254 121:-0.458774 122:-0.931024 123:-0.996931 124:-0.999968 125:-1 126:-1 127:-1 128:-1 129:-1 130:-1 131:-1 132:-0.999799 133:-0.982584 134:-0.724125 135:0.038582 136:0.384778 137:-0.354837 138:-0.890485 139:-0.994153 140:-0.999935 141:-1 142:-1 143:-1 144:-1 145:-1 146:-1 147:-1 148:-0.999853 149:-0.987137 150:-0.789524 151:-0.115379 152:0.382282 153:-0.212398 154:-0.830549 155:-0.98999 156:-0.999887 157:-1 158:-1 159:-1 160:-1 161:-1 162:-1 163:-1 164:-0.9999 165:-0.991118 166:-0.846778 167:-0.251588 168:0.370671 169:-0.105074 170:-0.784824 171:-0.986809 172:-0.999849 173:-1 174:-1 175:-1 176:-1 177:-1 178:-1 179:-1 180:-0.999945 181:-0.994967 182:-0.902316 183:-0.387039 184:0.339473 185:-0.035492 186:-0.753662 187:-0.984629 188:-0.999824 189:-1 190:-1 191:-1 192:-1 193:-1 194:-1 195:-1 196:-0.999976 197:-0.997653 198:-0.941322 199:-0.484755 200:0.322032 201:0.044719 202:-0.717431 203:-0.982084 204:-0.999794 205:-1 206:-1 207:-1 208:-1 209:-1 210:-1 211:-1 212:-0.999974 213:-0.997475 214:-0.938747 215:-0.478518 216:0.321744 217:0.036737 218:-0.720869 219:-0.982324 220:-0.999796 221:-1 222:-1 223:-1 224:-1 225:-1 226:-1 227:-1 228:-0.999946 229:-0.995063 230:-0.904478 231:-0.405404 232:0.272765 233:-0.130791 234:-0.788356 235:-0.986987 236:-0.999851 237:-1 238:-1 239:-1 240:-1 241:-1 242:-1 243:-1 244:-0.99994 245:-0.994672 246:-0.904716 247:-0.495223 248:-0.052184 249:-0.444377 250:-0.883215 251:-0.993177 252:-0.999923 253:-1 254:-1 255:-1 256:-1 
1 1:-1 2:-1 3:-1 4:-0.999974 5:-0.997553 6:-0.947281 7:-0.616211 8:-0.167689 9:-0.536149 10:-0.913426 11:-0.995199 12:-0.999946 13:-1 14:-1 15:-1 16:-1 17:-1 18:-1 19:-1 20:-0.999977 21:-0.997793 22:-0.946751 23:-0.551535 24:0.100688 25:-0.205015 26:-0.800223 27:-0.987603 28:-0.999858 29:-1 30:-1 31:-1 32:-1 33:-1 34:-1 35:-1 36:-0.999994 37:-0.999214 38:-0.971332 39:-0.666114 40:-0.011982 41:-0.075114 42:-0.721423 43:-0.981835 44:-0.999789 45:-1 46:-1 47:-1 48:-1 49:-1 50:-1 51:-1 52:-1 53:-0.999776 54:-0.98315 55:-0.744773 56:-0.111965 57:0.020946 58:-0.65926 59:-0.977211 60:-0.999732 61:-1 62:-1 63:-1 64:-1 65:-1 66:-1 67:-1 68:-1 69:-0.999841 70:-0.986215 71:-0.780263 72:-0.157372 73:0.096807 74:-0.613317 75:-0.973074 76:-0.999627 77:-0.999999 78:-1 79:-1 80:-1 81:-1 82:-1 83:-1 84:-1 85:-0.999848 86:-0.986764 87:-0.786229 88:-0.144444 89:0.174075 90:-0.565545 91:-0.964294 92:-0.999147 93:-0.999994 94:-1 95:-1 96:-1 97:-1 98:-1 99:-1 100:-1 101:-0.999852 102:-0.987078 103:-0.78932 104:-0.130274 105:0.252016 106:-0.48339 107:-0.938637 108:-0.997461 109:-0.999974 110:-1 111:-1 112:-1 113:-1 114:-1 115:-1 116:-1 117:-0.999867 118:-0.988296 119:-0.80631 120:-0.161562 121:0.296297 122:-0.377221 123:-0.897503 124:-0.994637 125:-0.999941 126:-1 127:-1 128:-1 129:-1 130:-1 131:-1 132:-1 133:-0.999884 134:-0.989802 135:-0.827902 136:-0.211507 137:0.301502 138:-0.31891 139:-0.873318 140:-0.99296 141:-0.999921 142:-1 143:-1 144:-1 145:-1 146:-1 147:-1 148:-1 149:-0.999885 150:-0.989853 151:-0.828636 152:-0.212939 153:0.305613 154:-0.307353 155:-0.86856 156:-0.99263 157:-0.999918 158:-1 159:-1 160:-1 161:-1 162:-1 163:-1 164:-1 165:-0.999855 166:-0.987282 167:-0.791696 168:-0.124521 169:0.325769 170:-0.343549 171:-0.884317 172:-0.993725 173:-0.99993 174:-1 175:-1 176:-1 177:-1 178:-1 179:-1 180:-1 181:-0.999789 182:-0.982482 183:-0.724964 184:0.029659 185:0.341361 186:-0.434882 187:-0.921736 188:-0.996305 189:-0.999961 190:-1 191:-1 192:-1 193:-1 194:-1 195:-1 196:-0.999997 197:-0.999515 198:-0.97438 199:-0.647035 200:0.175425 201:0.305645 202:-0.536779 203:-0.954718 204:-0.998473 205:-0.999986 206:-1 207:-1 208:-1 209:-1 210:-1 211:-1 212:-0.999983 213:-0.998252 214:-0.95225 215:-0.540951 216:0.28069 217:0.167854 218:-0.645892 219:-0.974204 220:-0.99951 221:-0.999997 222:-1 223:-1 224:-1 225:-1 226:-1 227:-1 228:-0.999959 229:-0.996159 230:-0.92088 231:-0.452959 232:0.254354 233:-0.083377 234:-0.764218 235:-0.985106 236:-0.999818 237:-1 238:-1 239:-1 240:-1 241:-1 242:-1 243:-1 244:-0.999961 245:-0.996439 246:-0.930853 247:-0.569299 248:-0.11312 249:-0.473157 250:-0.890194 251:-0.99361 252:-0.999928 253:-1 254:-1 255:-1 256:-1 
1 1:-1 2:-1 3:-0.999998 4:-0.999708 5:-0.984218 6:-0.776053 7:-0.170184 8:0.254117 9:0.020789 10:-0.50212 11:-0.879151 12:-0.98996 13:-0.999703 14:-0.999997 15:-1 16:-1 17:-1 18:-1 19:-0.999983 20:-0.998255 21:-0.955325 22:-0.585445 23:0.288534 24:0.79147 25:0.687769 26:0.149583 27:-0.584924 28:-0.936644 29:-0.996751 30:-0.999964 31:-1 32:-1 33:-1 34:-1 35:-0.99991 36:-0.992007 37:-0.860884 38:-0.290197 39:0.57774 40:0.945096 41:0.939672 42:0.609186 43:-0.183484 44:-0.815264 45:-0.988818 46:-0.999872 47:-1 48:-1 49:-1 50:-1 51:-0.999804 52:-0.982943 53:-0.729107 54:0.049281 55:0.763653 56:0.982095 57:0.984545 58:0.780623 59:0.082072 60:-0.71622 61:-0.982054 62:-0.999793 63:-1 64:-1 65:-1 66:-1 67:-0.999834 68:-0.985481 69:-0.766131 70:-0.047835 71:0.706564 72:0.971261 73:0.988656 74:0.826149 75:0.183937 76:-0.674955 77:-0.979194 78:-0.99976 79:-1 80:-1 81:-1 82:-1 83:-0.999944 84:-0.994895 85:-0.903292 86:-0.405512 87:0.501039 88:0.932918 89:0.984644 90:0.798668 91:0.117049 92:-0.702461 93:-0.981105 94:-0.999782 95:-1 96:-1 97:-1 98:-1 99:-0.999991 100:-0.998922 101:-0.962161 102:-0.561924 103:0.404582 104:0.912962 105:0.980563 106:0.756506 107:0.014525 108:-0.74461 109:-0.984034 110:-0.999817 111:-1 112:-1 113:-1 114:-1 115:-0.999994 116:-0.999215 117:-0.966389 118:-0.572372 119:0.399887 120:0.912442 121:0.978011 122:0.720084 123:-0.074044 124:-0.78102 125:-0.986564 126:-0.999846 127:-1 128:-1 129:-1 130:-1 131:-0.999976 132:-0.997627 133:-0.942756 134:-0.503757 135:0.455172 136:0.927334 137:0.9742 138:0.656617 139:-0.226377 140:-0.843502 141:-0.990904 142:-0.999897 143:-1 144:-1 145:-1 146:-1 147:-0.999936 148:-0.99423 149:-0.892129 150:-0.35547 151:0.577277 152:0.960522 153:0.967659 154:0.600861 155:-0.333622 156:-0.885616 157:-0.993807 158:-0.999931 159:-1 160:-1 161:-1 162:-1 163:-0.999922 164:-0.992994 165:-0.873628 166:-0.300202 167:0.624963 168:0.973382 169:0.956248 170:0.543306 171:-0.424631 172:-0.919625 173:-0.99613 174:-0.999959 175:-1 176:-1 177:-1 178:-1 179:-0.999912 180:-0.992162 181:-0.861597 182:-0.270186 183:0.639137 184:0.975634 185:0.96624 186:0.603358 187:-0.312566 188:-0.875916 189:-0.99312 190:-0.999923 191:-1 192:-1 193:-1 194:-1 195:-0.999879 196:-0.989378 197:-0.821535 198:-0.172711 199:0.679281 200:0.979012 201:0.980259 202:0.717676 203:-0.070534 204:-0.778922 205:-0.98641 206:-0.999844 207:-1 208:-1 209:-1 210:-1 211:-0.999866 212:-0.988237 213:-0.805357 214:-0.137 215:0.684811 216:0.972922 217:0.973139 218:0.743392 219:0.016455 220:-0.741764 221:-0.983813 222:-0.999814 223:-1 224:-1 225:-1 226:-1 227:-0.999917 228:-0.992606 229:-0.871559 230:-0.346273 231:0.472569 232:0.852642 233:0.816455 234:0.506131 235:-0.211703 236:-0.816242 237:-0.98877 238:-0.999872 239:-1 240:-1 241:-1 242:-1 243:-0.999979 244:-0.998025 245:-0.959504 246:-0.709099 247:-0.127181 248:0.287559 249:0.199187 250:-0.142172 251:-0.657258 252:-0.94102 253:-0.996793 254:-0.999964 255:-1 256:-1 
1 1:-1 2:-1 3:-1 4:-0.999993 5:-0.999181 6:-0.972676 7:-0.702955 8:-0.215781 9:-0.42708 10:-0.856021 11:-0.991069 12:-0.999898 13:-1 14:-1 15:-1 16:-1 17:-1 18:-1 19:-1 20:-0.999974 21:-0.997471 22:-0.940201 23:-0.50746 24:0.194671 25:-0.149282 26:-0.788744 27:-0.986939 28:-0.99985 29:-1 30:-1 31:-1 32:-1 33:-1 34:-1 35:-1 36:-0.999956 37:-0.995922 38:-0.916036 39:-0.422267 40:0.28639 41:-0.137956 42:-0.795813 43:-0.987562 44:-0.999858 45:-1 46:-1 47:-1 48:-1 49:-1 50:-1 51:-1 52:-0.999924 53:-0.993208 54:-0.876876 55:-0.327232 56:0.302585 57:-0.200589 58:-0.823324 59:-0.989484 60:-0.999881 61:-1 62:-1 63:-1 64:-1 65:-1 66:-1 67:-1 68:-0.999857 69:-0.987466 70:-0.794288 71:-0.128653 72:0.353227 73:-0.271539 74:-0.854708 75:-0.991668 76:-0.999906 77:-1 78:-1 79:-1 80:-1 81:-1 82:-1 83:-1 84:-0.999818 85:-0.984124 86:-0.746482 87:-0.018614 88:0.356241 89:-0.35444 90:-0.888488 91:-0.993999 92:-0.999934 93:-1 94:-1 95:-1 96:-1 97:-1 98:-1 99:-1 100:-0.999795 101:-0.982227 102:-0.72091 103:0.016344 104:0.269399 105:-0.487084 106:-0.933787 107:-0.99703 108:-0.999969 109:-1 110:-1 111:-1 112:-1 113:-1 114:-1 115:-1 116:-0.999764 117:-0.979606 118:-0.686603 119:0.049017 120:0.135288 121:-0.615536 122:-0.967614 123:-0.999147 124:-0.999993 125:-1 126:-1 127:-1 128:-1 129:-1 130:-1 131:-1 132:-0.999726 133:-0.976545 134:-0.644758 135:0.122913 136:0.091882 137:-0.664065 138:-0.977588 139:-0.999712 140:-1 141:-1 142:-1 143:-1 144:-1 145:-1 146:-1 147:-0.999999 148:-0.99963 149:-0.973266 150:-0.609626 151:0.201616 152:0.11902 153:-0.665142 154:-0.978198 155:-0.999747 156:-1 157:-1 158:-1 159:-1 160:-1 161:-1 162:-1 163:-0.99999 164:-0.998798 165:-0.959492 166:-0.550106 167:0.29177 168:0.15812 169:-0.660015 170:-0.977972 171:-0.999745 172:-1 173:-1 174:-1 175:-1 176:-1 177:-1 178:-1 179:-0.999967 180:-0.99683 181:-0.929835 182:-0.46 183:0.353645 184:0.126758 185:-0.681583 186:-0.979395 187:-0.999686 188:-0.999988 189:-0.999999 190:-1 191:-1 192:-1 193:-1 194:-1 195:-0.999962 196:-0.996428 197:-0.923877 198:-0.443054 199:0.365436 200:0.130015 201:-0.669586 202:-0.963986 203:-0.993122 204:-0.99896 205:-0.999946 206:-0.999999 207:-1 208:-1 209:-1 210:-1 211:-0.999982 212:-0.998143 213:-0.950426 214:-0.531929 215:0.311164 216:0.267555 217:-0.428094 218:-0.740474 219:-0.901747 220:-0.984881 221:-0.999229 222:-0.999991 223:-1 224:-1 225:-1 226:-1 227:-0.999996 228:-0.999461 229:-0.974986 230:-0.669291 231:0.116421 232:0.453634 233:0.121733 234:-0.256093 235:-0.727319 236:-0.961151 237:-0.998102 238:-0.999979 239:-1 240:-1 241:-1 242:-1 243:-1 244:-0.999887 245:-0.991309 246:-0.860558 247:-0.398036 248:0.112752 249:0.098369 250:-0.336817 251:-0.804989 252:-0.978982 253:-0.999162 254:-0.999992 255:-1 256:-1 
1 1:-1 2:-1 3:-1 4:-1 5:-0.999987 6:-0.998698 7:-0.968171 8:-0.731112 9:-0.380814 10:-0.643485 11:-0.931118 12:-0.996122 13:-0.999956 14:-1 15:-1 16:-1 17:-1 18:-1 19:-1 20:-1 21:-0.999937 22:-0.994332 23:-0.897984 24:-0.455365 25:-0.027182 26:-0.557122 27:-0.941016 28:-0.997326 29:-0.999972 30:-1 31:-1 32:-1 33:-1 34:-1 35:-1 36:-1 37:-0.999839 38:-0.986793 39:-0.793309 40:-0.231422 41:-0.029561 42:-0.648742 43:-0.97009 44:-0.999217 45:-0.999994 46:-1 47:-1 48:-1 49:-1 50:-1 51:-1 52:-0.999997 53:-0.999533 54:-0.975923 55:-0.679717 56:-0.057875 57:-0.178128 58:-0.76293 59:-0.984352 60:-0.999793 61:-1 62:-1 63:-1 64:-1 65:-1 66:-1 67:-1 68:-0.999982 69:-0.998156 70:-0.951022 71:-0.550389 72:0.095778 73:-0.288896 74:-0.840438 75:-0.990462 76:-0.999891 77:-1 78:-1 79:-1 80:-1 81:-1 82:-1 83:-1 84:-0.999964 85:-0.996607 86:-0.927506 87:-0.476603 88:0.154636 89:-0.301826 90:-0.8536 91:-0.991467 92:-0.999904 93:-1 94:-1 95:-1 96:-1 97:-1 98:-1 99:-1 100:-0.999984 101:-0.998376 102:-0.955287 103:-0.57528 104:0.069273 105:-0.251126 106:-0.818217 107:-0.988845 108:-0.999872 109:-1 110:-1 111:-1 112:-1 113:-1 114:-1 115:-1 116:-0.999998 117:-0.999589 118:-0.974636 119:-0.647036 120:0.017643 121:-0.171546 122:-0.773572 123:-0.985607 124:-0.999834 125:-1 126:-1 127:-1 128:-1 129:-1 130:-1 131:-1 132:-1 133:-0.999759 134:-0.97966 135:-0.694402 136:-0.059633 137:-0.133347 138:-0.742415 139:-0.983261 140:-0.999806 141:-1 142:-1 143:-1 144:-1 145:-1 146:-1 147:-1 148:-1 149:-0.999797 150:-0.982485 151:-0.732378 152:-0.125163 153:-0.095797 154:-0.713303 155:-0.981078 156:-0.99978 157:-1 158:-1 159:-1 160:-1 161:-1 162:-1 163:-1 164:-1 165:-0.999815 166:-0.984003 167:-0.752037 168:-0.141586 169:-0.026188 170:-0.677074 171:-0.978471 172:-0.999749 173:-1 174:-1 175:-1 176:-1 177:-1 178:-1 179:-1 180:-1 181:-0.999831 182:-0.985339 183:-0.769636 184:-0.160899 185:0.023021 186:-0.65016 187:-0.976523 188:-0.999726 189:-1 190:-1 191:-1 192:-1 193:-1 194:-1 195:-1 196:-1 197:-0.999821 198:-0.98451 199:-0.758329 200:-0.142455 201:0.008571 202:-0.660221 203:-0.97727 204:-0.999735 205:-1 206:-1 207:-1 208:-1 209:-1 210:-1 211:-1 212:-1 213:-0.999817 214:-0.984164 215:-0.754298 216:-0.146314 217:-0.026257 218:-0.676307 219:-0.978409 220:-0.999749 221:-1 222:-1 223:-1 224:-1 225:-1 226:-1 227:-1 228:-1 229:-0.999846 230:-0.986631 231:-0.789745 232:-0.23174 233:-0.059437 234:-0.677815 235:-0.978371 236:-0.999748 237:-1 238:-1 239:-1 240:-1 241:-1 242:-1 243:-1 244:-1 245:-0.999908 246:-0.991989 247:-0.870516 248:-0.480779 249:-0.289693 250:-0.746384 251:-0.982829 252:-0.999799 253:-1 254:-1 255:-1 256:-1 
1 1:-1 2:-1 3:-1 4:-1 5:-0.999873 6:-0.988981 7:-0.82441 8:-0.328129 9:-0.128174 10:-0.693955 11:-0.979102 12:-0.999738 13:-1 14:-1 15:-1 16:-1 17:-1 18:-1 19:-1 20:-1 21:-0.999775 22:-0.980598 23:-0.700861 24:0.014729 25:0.115959 26:-0.63417 27:-0.975258 28:-0.999682 29:-1 30:-1 31:-1 32:-1 33:-1 34:-1 35:-1 36:-1 37:-0.999699 38:-0.974435 39:-0.617146 40:0.155727 41:0.021957 42:-0.703795 43:-0.980717 44:-0.999766 45:-1 46:-1 47:-1 48:-1 49:-1 50:-1 51:-1 52:-1 53:-0.999643 54:-0.970779 55:-0.571045 56:0.210139 57:-0.09374 58:-0.768921 59:-0.985595 60:-0.999834 61:-1 62:-1 63:-1 64:-1 65:-1 66:-1 67:-1 68:-0.999999 69:-0.999608 70:-0.969386 71:-0.557192 72:0.207376 73:-0.179906 74:-0.809848 75:-0.988514 76:-0.999869 77:-1 78:-1 79:-1 80:-1 81:-1 82:-1 83:-1 84:-0.999999 85:-0.99961 86:-0.969706 87:-0.562996 88:0.179915 89:-0.223376 90:-0.826096 91:-0.989624 92:-0.999882 93:-1 94:-1 95:-1 96:-1 97:-1 98:-1 99:-1 100:-1 101:-0.999659 102:-0.971831 103:-0.586935 104:0.148722 105:-0.175204 106:-0.797728 107:-0.987552 108:-0.999857 109:-1 110:-1 111:-1 112:-1 113:-1 114:-1 115:-1 116:-1 117:-0.999689 118:-0.973432 119:-0.605765 120:0.131946 121:-0.113682 122:-0.765351 123:-0.985219 124:-0.99983 125:-1 126:-1 127:-1 128:-1 129:-1 130:-1 131:-1 132:-1 133:-0.999705 134:-0.974747 135:-0.625082 136:0.077203 137:-0.155206 138:-0.776057 139:-0.985888 140:-0.999838 141:-1 142:-1 143:-1 144:-1 145:-1 146:-1 147:-1 148:-1 149:-0.999721 150:-0.976071 151:-0.643752 152:0.037372 153:-0.158003 154:-0.77067 155:-0.985437 156:-0.999832 157:-1 158:-1 159:-1 160:-1 161:-1 162:-1 163:-1 164:-1 165:-0.999735 166:-0.977282 167:-0.660677 168:0.00344 169:-0.154352 170:-0.76318 171:-0.984847 172:-0.999825 173:-1 174:-1 175:-1 176:-1 177:-1 178:-1 179:-1 180:-1 181:-0.999757 182:-0.979158 183:-0.686706 184:-0.046018 185:-0.140982 186:-0.748395 187:-0.98371 188:-0.999811 189:-1 190:-1 191:-1 192:-1 193:-1 194:-1 195:-1 196:-1 197:-0.999783 198:-0.981371 199:-0.718394 200:-0.120632 201:-0.16566 202:-0.747645 203:-0.98353 204:-0.999809 205:-1 206:-1 207:-1 208:-1 209:-1 210:-1 211:-1 212:-1 213:-0.999809 214:-0.983592 215:-0.750806 216:-0.20603 217:-0.216722 218:-0.757751 219:-0.984104 220:-0.999815 221:-1 222:-1 223:-1 224:-1 225:-1 226:-1 227:-1 228:-1 229:-0.99983 230:-0.985383 231:-0.777386 232:-0.282283 233:-0.276284 234:-0.773489 235:-0.985095 236:-0.999827 237:-1 238:-1 239:-1 240:-1 241:-1 242:-1 243:-1 244:-1 245:-0.999885 246:-0.990124 247:-0.848855 248:-0.50276 249:-0.480359 250:-0.834303 251:-0.98905 252:-0.999873 253:-1 254:-1 255:-1 256:-1 
1 1:-1 2:-1 3:-0.999982 4:-0.99821 5:-0.957298 6:-0.636378 7:0.018909 8:0.101244 9:-0.403271 10:-0.849289 11:-0.986318 12:-0.999538 13:-0.999996 14:-1 15:-1 16:-1 17:-1 18:-1 19:-0.999976 20:-0.997689 21:-0.945481 22:-0.538375 23:0.34216 24:0.679074 25:0.235102 26:-0.576275 27:-0.944913 28:-0.997395 29:-0.999968 30:-1 31:-1 32:-1 33:-1 34:-1 35:-0.999992 36:-0.999065 37:-0.970005 38:-0.664338 39:0.157033 40:0.768221 41:0.595453 42:-0.252813 43:-0.844152 44:-0.989284 45:-0.999767 46:-0.999998 47:-1 48:-1 49:-1 50:-1 51:-0.999999 52:-0.999799 53:-0.985919 54:-0.779946 55:-0.075118 56:0.707121 57:0.794701 58:0.169821 59:-0.644937 60:-0.962546 61:-0.998553 62:-0.999986 63:-1 64:-1 65:-1 66:-1 67:-1 68:-0.9999 69:-0.991171 70:-0.847646 71:-0.239448 72:0.641343 73:0.911364 74:0.511829 75:-0.40022 76:-0.902662 77:-0.99487 78:-0.999944 79:-1 80:-1 81:-1 82:-1 83:-1 84:-0.999956 85:-0.995901 86:-0.917687 87:-0.439491 88:0.489168 89:0.910417 90:0.675641 91:-0.161009 92:-0.815799 93:-0.988969 94:-0.999875 95:-1 96:-1 97:-1 98:-1 99:-1 100:-0.99999 101:-0.99893 102:-0.965869 103:-0.622708 104:0.253511 105:0.836621 106:0.761351 107:0.047449 108:-0.731009 109:-0.983089 110:-0.999806 111:-1 112:-1 113:-1 114:-1 115:-1 116:-0.999999 117:-0.999724 118:-0.980153 119:-0.698461 120:0.122667 121:0.790168 122:0.809558 123:0.172673 124:-0.679536 125:-0.979512 126:-0.999763 127:-1 128:-1 129:-1 130:-1 131:-1 132:-1 133:-0.999825 134:-0.984847 135:-0.756532 136:-0.014669 137:0.735128 138:0.822273 139:0.213042 140:-0.662921 141:-0.978358 142:-0.99975 143:-1 144:-1 145:-1 146:-1 147:-1 148:-1 149:-0.999852 150:-0.987223 151:-0.790956 152:-0.09853 153:0.698197 154:0.78454 155:0.127089 156:-0.698244 157:-0.980812 158:-0.999779 159:-1 160:-1 161:-1 162:-1 163:-1 164:-0.999998 165:-0.999738 166:-0.984402 167:-0.766313 168:-0.045172 169:0.715288 170:0.728814 171:-0.009388 172:-0.754173 173:-0.984696 174:-0.999824 175:-1 176:-1 177:-1 178:-1 179:-0.999999 180:-0.99995 181:-0.997906 182:-0.957823 183:-0.616178 184:0.229598 185:0.811026 186:0.675475 187:-0.115021 188:-0.794721 189:-0.98748 190:-0.999857 191:-1 192:-1 193:-1 194:-1 195:-0.999991 196:-0.999134 197:-0.980597 198:-0.830097 199:-0.275257 200:0.564672 201:0.879966 202:0.509081 203:-0.389667 204:-0.897458 205:-0.994498 206:-0.999939 207:-1 208:-1 209:-1 210:-1 211:-0.999929 212:-0.993706 213:-0.891824 214:-0.459149 215:0.277553 216:0.819175 217:0.881923 218:0.393998 219:-0.531809 220:-0.946501 221:-0.997796 222:-0.999978 223:-1 224:-1 225:-1 226:-1 227:-0.999817 228:-0.984124 229:-0.747821 230:-0.022113 231:0.649927 232:0.828874 233:0.677482 234:0.219515 235:-0.560589 236:-0.939069 237:-0.99707 238:-0.999969 239:-1 240:-1 241:-1 242:-1 243:-0.999841 244:-0.986187 245:-0.781709 246:-0.171484 247:0.31985 248:0.284194 249:-0.057634 250:-0.434951 251:-0.812459 252:-0.974862 253:-0.998809 254:-0.999987 255:-1 256:-1 
1 1:-1 2:-1 3:-1 4:-0.999964 5:-0.996697 6:-0.937056 7:-0.619981 8:-0.218413 9:-0.510032 10:-0.890562 11:-0.993464 12:-0.999926 13:-1 14:-1 15:-1 16:-1 17:-1 18:-1 19:-1 20:-0.999984 21:-0.998304 22:-0.954192 23:-0.56622 24:0.171346 25:-0.002155 26:-0.715536 27:-0.981651 28:-0.999784 29:-1 30:-1 31:-1 32:-1 33:-1 34:-1 35:-1 36:-0.999998 37:-0.999542 38:-0.97196 39:-0.602575 40:0.262234 41:0.265511 42:-0.60218 43:-0.972709 44:-0.999605 45:-0.999999 46:-1 47:-1 48:-1 49:-1 50:-1 51:-1 52:-1 53:-0.999697 54:-0.975956 55:-0.635146 56:0.230077 57:0.351544 58:-0.539938 59:-0.961609 60:-0.999013 61:-0.999992 62:-1 63:-1 64:-1 65:-1 66:-1 67:-1 68:-1 69:-0.999812 70:-0.984374 71:-0.751892 72:-0.036353 73:0.300079 74:-0.474267 75:-0.937356 76:-0.997391 77:-0.999973 78:-1 79:-1 80:-1 81:-1 82:-1 83:-1 84:-1 85:-0.999925 86:-0.993298 87:-0.87845 88:-0.337207 89:0.228623 90:-0.368298 91:-0.891617 92:-0.994222 93:-0.999936 94:-1 95:-1 96:-1 97:-1 98:-1 99:-1 100:-1 101:-0.999974 102:-0.997479 103:-0.93876 104:-0.483974 105:0.217609 106:-0.228138 107:-0.830579 108:-0.989956 109:-0.999886 110:-1 111:-1 112:-1 113:-1 114:-1 115:-1 116:-1 117:-0.999993 118:-0.999077 119:-0.96243 120:-0.549586 121:0.196293 122:-0.165975 123:-0.800218 124:-0.987797 125:-0.999861 126:-1 127:-1 128:-1 129:-1 130:-1 131:-1 132:-1 133:-0.999997 134:-0.999453 135:-0.968209 136:-0.568028 137:0.189674 138:-0.137752 139:-0.786264 140:-0.986801 141:-0.999849 142:-1 143:-1 144:-1 145:-1 146:-1 147:-1 148:-1 149:-0.999988 150:-0.998674 151:-0.956704 152:-0.535547 153:0.219412 154:-0.115693 155:-0.779166 156:-0.986328 157:-0.999843 158:-1 159:-1 160:-1 161:-1 162:-1 163:-1 164:-1 165:-0.999948 166:-0.9952 167:-0.906007 168:-0.403827 169:0.269797 170:-0.172626 171:-0.808243 172:-0.988401 173:-0.999868 174:-1 175:-1 176:-1 177:-1 178:-1 179:-1 180:-1 181:-0.999866 182:-0.988449 183:-0.809566 184:-0.176821 185:0.300498 186:-0.304683 187:-0.863702 188:-0.992243 189:-0.999913 190:-1 191:-1 192:-1 193:-1 194:-1 195:-1 196:-0.999998 197:-0.999607 198:-0.978274 199:-0.694906 200:0.044825 201:0.220634 202:-0.525672 203:-0.941073 204:-0.99743 205:-0.999973 206:-1 207:-1 208:-1 209:-1 210:-1 211:-1 212:-0.999972 213:-0.997314 214:-0.94041 215:-0.537485 216:0.199009 217:0.075456 218:-0.675364 219:-0.97646 220:-0.999559 221:-0.999997 222:-1 223:-1 224:-1 225:-1 226:-1 227:-1 228:-0.999928 229:-0.993592 230:-0.885121 231:-0.381419 232:0.269312 233:-0.032147 234:-0.73725 235:-0.983235 236:-0.999802 237:-1 238:-1 239:-1 240:-1 241:-1 242:-1 243:-1 244:-0.999962 245:-0.996538 246:-0.933906 247:-0.595764 248:-0.10707 249:-0.311964 250:-0.813898 251:-0.988192 252:-0.999864 253:-1 254:-1 255:-1 256:-1 
1 1:-1 2:-1 3:-0.999991 4:-0.999048 5:-0.969561 6:-0.666051 7:0.062048 8:0.443302 9:0.36448 10:-0.085106 11:-0.624604 12:-0.925205 13:-0.995495 14:-0.999938 15:-1 16:-1 17:-1 18:-1 19:-0.999965 20:-0.996711 21:-0.929482 22:-0.470421 23:0.465277 24:0.900127 25:0.89185 26:0.592937 27:-0.065024 28:-0.749529 29:-0.981162 30:-0.999576 31:-0.999997 32:-1 33:-1 34:-1 35:-0.999919 36:-0.992743 37:-0.870564 38:-0.300764 39:0.605161 40:0.964647 41:0.988223 42:0.875767 43:0.341319 44:-0.565743 45:-0.953817 46:-0.998227 47:-0.999982 48:-1 49:-1 50:-1 51:-0.999859 52:-0.987654 53:-0.796805 54:-0.113753 55:0.700617 56:0.979622 57:0.996664 58:0.93485 59:0.483709 60:-0.46665 61:-0.929761 62:-0.99675 63:-0.999966 64:-1 65:-1 66:-1 67:-0.999811 68:-0.983579 69:-0.738071 70:0.030363 71:0.762897 72:0.985105 73:0.992715 74:0.884208 75:0.348219 76:-0.561596 77:-0.952601 78:-0.998147 79:-0.999982 80:-1 81:-1 82:-1 83:-0.999807 84:-0.983224 85:-0.732985 86:0.042788 87:0.768167 88:0.985357 89:0.983648 90:0.768079 91:0.0568 92:-0.718273 93:-0.978823 94:-0.999521 95:-0.999997 96:-1 97:-1 98:-1 99:-0.999793 100:-0.983039 101:-0.732683 102:0.042552 103:0.768006 104:0.985391 105:0.981106 106:0.715708 107:-0.080174 108:-0.782783 109:-0.986499 110:-0.999833 111:-1 112:-1 113:-1 114:-0.999997 115:-0.999528 116:-0.976118 117:-0.671332 118:0.17606 119:0.8218 120:0.989159 121:0.980722 122:0.699439 123:-0.124087 124:-0.801568 125:-0.987989 126:-0.999863 127:-1 128:-1 129:-1 130:-0.999987 131:-0.998582 132:-0.958622 133:-0.572851 134:0.35257 135:0.889986 136:0.993871 137:0.982796 138:0.728062 139:-0.054643 140:-0.773036 141:-0.986009 142:-0.99984 143:-1 144:-1 145:-1 146:-0.999973 147:-0.9974 148:-0.939394 149:-0.494046 150:0.462892 151:0.929685 152:0.996416 153:0.980011 154:0.711251 155:-0.08578 156:-0.785159 157:-0.986843 158:-0.99985 159:-1 160:-1 161:-1 162:-0.999975 163:-0.997618 164:-0.943815 165:-0.52337 166:0.405648 167:0.907059 168:0.992914 169:0.948069 170:0.572372 171:-0.291816 172:-0.860707 173:-0.991985 174:-0.99991 175:-1 176:-1 177:-1 178:-0.999991 179:-0.999042 180:-0.968917 181:-0.65079 182:0.190081 183:0.820661 184:0.981792 185:0.895719 186:0.389183 187:-0.504359 188:-0.931893 189:-0.996741 190:-0.999965 191:-1 192:-1 193:-1 194:-0.999999 195:-0.999782 196:-0.986847 197:-0.801095 198:-0.159451 199:0.608236 200:0.936517 201:0.921921 202:0.475292 203:-0.438854 204:-0.914997 205:-0.995685 206:-0.999953 207:-1 208:-1 209:-1 210:-1 211:-0.99996 212:-0.99664 213:-0.936553 214:-0.597429 215:0.129951 216:0.727214 217:0.916801 218:0.636275 219:-0.21021 220:-0.833268 221:-0.990152 222:-0.999888 223:-1 224:-1 225:-1 226:-1 227:-0.999997 228:-0.99971 229:-0.99078 230:-0.888665 231:-0.483777 232:0.170621 233:0.615415 234:0.602566 235:-0.080442 236:-0.77563 237:-0.986115 238:-0.999841 239:-1 240:-1 241:-1 242:-1 243:-1 244:-0.999988 245:-0.999214 246:-0.984578 247:-0.882698 248:-0.589855 249:-0.157744 250:0.081112 251:-0.335935 252:-0.837942 253:-0.989993 254:-0.999885 255:-1 256:-1 
1 1:-1 2:-1 3:-1 4:-0.999961 5:-0.996431 6:-0.931191 7:-0.578321 8:-0.161733 9:-0.555716 10:-0.921632 11:-0.995767 12:-0.999953 13:-1 14:-1 15:-1 16:-1 17:-1 18:-1 19:-1 20:-0.99998 21:-0.998 22:-0.949585 23:-0.558152 24:0.070536 25:-0.286737 26:-0.834812 27:-0.990018 28:-0.999886 29:-1 30:-1 31:-1 32:-1 33:-1 34:-1 35:-1 36:-0.999997 37:-0.999495 38:-0.974773 39:-0.668527 40:-0.039382 41:-0.187237 42:-0.770961 43:-0.9852 44:-0.99982 45:-1 46:-1 47:-1 48:-1 49:-1 50:-1 51:-1 52:-1 53:-0.999794 54:-0.983105 55:-0.742311 56:-0.134111 57:-0.058043 58:-0.687864 59:-0.976827 60:-0.999561 61:-0.999997 62:-1 63:-1 64:-1 65:-1 66:-1 67:-1 68:-1 69:-0.999886 70:-0.989984 71:-0.833763 72:-0.276413 73:0.090193 74:-0.558957 75:-0.953242 76:-0.998294 77:-0.999984 78:-1 79:-1 80:-1 81:-1 82:-1 83:-1 84:-1 85:-0.999956 86:-0.995904 87:-0.916327 88:-0.437404 89:0.152407 90:-0.425189 91:-0.911162 92:-0.995544 93:-0.999952 94:-1 95:-1 96:-1 97:-1 98:-1 99:-1 100:-1 101:-0.999978 102:-0.997779 103:-0.94282 104:-0.493014 105:0.175125 106:-0.346267 107:-0.880767 108:-0.993464 109:-0.999927 110:-1 111:-1 112:-1 113:-1 114:-1 115:-1 116:-1 117:-0.999975 118:-0.997506 119:-0.938848 120:-0.483029 121:0.177078 122:-0.354163 123:-0.884357 124:-0.993716 125:-0.99993 126:-1 127:-1 128:-1 129:-1 130:-1 131:-1 132:-1 133:-0.999963 134:-0.996532 135:-0.924821 136:-0.449636 137:0.175448 138:-0.39365 139:-0.901147 140:-0.994886 141:-0.999944 142:-1 143:-1 144:-1 145:-1 146:-1 147:-1 148:-1 149:-0.99995 150:-0.995395 151:-0.908466 152:-0.410453 153:0.182121 154:-0.416467 155:-0.911009 156:-0.995572 157:-0.999952 158:-1 159:-1 160:-1 161:-1 162:-1 163:-1 164:-1 165:-0.999917 166:-0.992613 167:-0.868772 168:-0.320241 169:0.184102 170:-0.478639 171:-0.935751 172:-0.997271 173:-0.999972 174:-1 175:-1 176:-1 177:-1 178:-1 179:-1 180:-1 181:-0.999854 182:-0.987281 183:-0.793915 184:-0.164392 185:0.165967 186:-0.55879 187:-0.960715 188:-0.998891 189:-0.999991 190:-1 191:-1 192:-1 193:-1 194:-1 195:-1 196:-0.999999 197:-0.999718 198:-0.979882 199:-0.701632 200:-0.004069 201:0.07807 202:-0.646419 203:-0.974974 204:-0.999601 205:-0.999998 206:-1 207:-1 208:-1 209:-1 210:-1 211:-1 212:-0.99999 213:-0.998871 214:-0.962741 215:-0.593559 216:0.129507 217:-0.053332 218:-0.734098 219:-0.982887 220:-0.999797 221:-1 222:-1 223:-1 224:-1 225:-1 226:-1 227:-1 228:-0.999973 229:-0.99739 230:-0.939291 231:-0.509939 232:0.168405 233:-0.195113 234:-0.806162 235:-0.988131 236:-0.999864 237:-1 238:-1 239:-1 240:-1 241:-1 242:-1 243:-1 244:-0.999981 245:-0.99816 246:-0.956175 247:-0.639063 248:-0.163474 249:-0.489949 250:-0.893121 251:-0.993775 252:-0.99993 253:-1 254:-1 255:-1 256:-1 
1 1:-1 2:-1 3:-0.999998 4:-0.999671 5:-0.982154 6:-0.750891 7:-0.140815 8:0.15232 9:-0.150358 10:-0.620946 11:-0.91743 12:-0.994916 13:-0.999933 14:-1 15:-1 16:-1 17:-1 18:-1 19:-0.999996 20:-0.999418 21:-0.972959 22:-0.642001 23:0.219697 24:0.719408 25:0.575051 26:-0.032394 27:-0.739471 28:-0.982896 29:-0.999767 30:-0.999999 31:-1 32:-1 33:-1 34:-1 35:-0.999993 36:-0.999165 37:-0.967673 38:-0.604364 39:0.315331 40:0.864658 41:0.860009 42:0.308315 43:-0.615595 44:-0.972282 45:-0.999486 46:-0.999997 47:-1 48:-1 49:-1 50:-1 51:-0.999995 52:-0.99932 53:-0.970882 54:-0.626221 55:0.2733 56:0.857066 57:0.913123 58:0.434544 59:-0.52381 60:-0.948929 61:-0.998031 62:-0.99998 63:-1 64:-1 65:-1 66:-1 67:-0.999999 68:-0.999648 69:-0.977539 70:-0.67028 71:0.187441 72:0.825791 73:0.950147 74:0.579483 75:-0.343833 76:-0.886927 77:-0.993864 78:-0.999932 79:-1 80:-1 81:-1 82:-1 83:-1 84:-0.999763 85:-0.979979 86:-0.687461 87:0.153033 88:0.813159 89:0.967925 90:0.68599 91:-0.151702 92:-0.812593 93:-0.988753 94:-0.999872 95:-1 96:-1 97:-1 98:-1 99:-1 100:-0.999778 101:-0.980711 102:-0.696797 103:0.13082 104:0.804169 105:0.971435 106:0.73339 107:-0.041403 108:-0.767596 109:-0.985631 110:-0.999835 111:-1 112:-1 113:-1 114:-1 115:-1 116:-0.999752 117:-0.978572 118:-0.666005 119:0.205726 120:0.834988 121:0.975585 122:0.762135 123:0.028371 124:-0.738917 125:-0.983638 126:-0.999812 127:-1 128:-1 129:-1 130:-1 131:-1 132:-0.999727 133:-0.976499 134:-0.63631 135:0.277897 136:0.864675 137:0.979312 138:0.786127 139:0.086671 140:-0.71495 141:-0.981973 142:-0.999792 143:-1 144:-1 145:-1 146:-1 147:-0.999999 148:-0.999643 149:-0.974599 150:-0.621446 151:0.308949 152:0.877045 153:0.976646 154:0.735431 155:-0.03667 156:-0.765656 157:-0.985496 158:-0.999834 159:-1 160:-1 161:-1 162:-1 163:-0.99997 164:-0.998223 165:-0.95568 166:-0.561079 167:0.371179 168:0.89675 169:0.97548 170:0.699916 171:-0.12309 172:-0.801174 173:-0.98796 174:-0.999862 175:-1 176:-1 177:-1 178:-0.999997 179:-0.999677 180:-0.98963 181:-0.869806 182:-0.338777 183:0.533942 184:0.93787 185:0.979242 186:0.717441 187:-0.080132 188:-0.78262 189:-0.986304 190:-0.999818 191:-1 192:-1 193:-1 194:-0.999988 195:-0.998798 196:-0.968674 197:-0.697744 198:0.049559 199:0.74756 200:0.976357 201:0.987279 202:0.811562 203:0.156922 204:-0.672677 205:-0.973617 206:-0.999318 207:-0.999995 208:-1 209:-1 210:-0.999983 211:-0.998326 212:-0.956769 213:-0.595322 214:0.268786 215:0.829435 216:0.972151 217:0.971543 218:0.809927 219:0.22684 220:-0.618051 221:-0.960924 222:-0.998554 223:-0.999986 224:-1 225:-1 226:-0.999994 227:-0.999325 228:-0.978063 229:-0.751757 230:-0.126313 231:0.444002 232:0.742372 233:0.781169 234:0.415778 235:-0.27166 236:-0.807573 237:-0.979501 238:-0.999171 239:-0.999992 240:-1 241:-1 242:-1 243:-0.999923 244:-0.995815 245:-0.938241 246:-0.73156 247:-0.383804 248:0.023298 249:0.144592 250:-0.27752 251:-0.760125 252:-0.958511 253:-0.996072 254:-0.999838 255:-0.999998 256:-1 
1 1:-1 2:-1 3:-1 4:-0.999905 5:-0.991618 6:-0.859842 7:-0.365593 8:0.156465 9:-0.094731 10:-0.708928 11:-0.966085 12:-0.99856 13:-0.999985 14:-1 15:-1 16:-1 17:-1 18:-1 19:-1 20:-0.999884 21:-0.989812 22:-0.828214 23:-0.198274 24:0.578578 25:0.44438 26:-0.420238 27:-0.905129 28:-0.994976 29:-0.999945 30:-1 31:-1 32:-1 33:-1 34:-1 35:-1 36:-0.999845 37:-0.98698 38:-0.788247 39:-0.092694 40:0.686048 41:0.617555 42:-0.262112 43:-0.857051 44:-0.991833 45:-0.999908 46:-1 47:-1 48:-1 49:-1 50:-1 51:-0.999998 52:-0.999618 53:-0.978157 54:-0.686865 55:0.143275 56:0.781852 57:0.649982 58:-0.184868 59:-0.824306 60:-0.989545 61:-0.999881 62:-1 63:-1 64:-1 65:-1 66:-1 67:-0.999985 68:-0.998427 69:-0.955736 70:-0.556426 71:0.377866 72:0.81984 73:0.523405 74:-0.240226 75:-0.828478 76:-0.989617 77:-0.999882 78:-1 79:-1 80:-1 81:-1 82:-1 83:-0.999942 84:-0.994739 85:-0.899564 86:-0.375407 87:0.550583 88:0.728185 89:0.085499 90:-0.616072 91:-0.93449 92:-0.996413 93:-0.99996 94:-1 95:-1 96:-1 97:-1 98:-1 99:-0.999865 100:-0.988196 101:-0.804585 102:-0.132619 103:0.668917 104:0.615799 105:-0.265709 106:-0.852359 107:-0.988789 108:-0.999683 109:-0.999997 110:-1 111:-1 112:-1 113:-1 114:-1 115:-0.999769 116:-0.980356 117:-0.692619 118:0.138644 119:0.756513 120:0.506037 121:-0.447983 122:-0.926362 123:-0.996534 124:-0.999961 125:-1 126:-1 127:-1 128:-1 129:-1 130:-0.999999 131:-0.999628 132:-0.973587 133:-0.607926 134:0.335203 135:0.77379 136:0.325395 137:-0.593284 138:-0.964802 139:-0.998985 140:-0.999991 141:-1 142:-1 143:-1 144:-1 145:-1 146:-0.999997 147:-0.999459 148:-0.969396 149:-0.572455 150:0.407728 151:0.751188 152:0.189906 153:-0.669708 154:-0.978276 155:-0.999697 156:-0.999994 157:-1 158:-1 159:-1 160:-1 161:-1 162:-0.999998 163:-0.999511 164:-0.970385 165:-0.578459 166:0.396189 167:0.742029 168:0.177456 169:-0.675709 170:-0.978145 171:-0.998262 172:-0.999464 173:-0.999963 174:-0.999999 175:-1 176:-1 177:-1 178:-0.999999 179:-0.999645 180:-0.974128 181:-0.613514 182:0.320178 183:0.733527 184:0.232486 185:-0.641513 186:-0.945359 187:-0.962486 188:-0.987233 189:-0.999081 190:-0.999985 191:-1 192:-1 193:-1 194:-1 195:-0.999759 196:-0.979991 197:-0.688685 198:0.143724 199:0.705991 200:0.366097 201:-0.455375 202:-0.641489 203:-0.67383 204:-0.894227 205:-0.992087 206:-0.999844 207:-0.999999 208:-1 209:-1 210:-1 211:-0.999849 212:-0.986873 213:-0.786356 214:-0.100031 215:0.634065 216:0.592841 217:0.086886 218:0.086982 219:-0.153448 220:-0.747212 221:-0.981354 222:-0.999629 223:-0.999998 224:-1 225:-1 226:-1 227:-0.99994 228:-0.994644 229:-0.90301 230:-0.454104 231:0.337598 232:0.726471 233:0.65431 234:0.406539 235:-0.254863 236:-0.825532 237:-0.988443 238:-0.999804 239:-0.999999 240:-1 241:-1 242:-1 243:-0.999989 244:-0.998954 245:-0.976029 246:-0.795735 247:-0.286811 248:0.255956 249:0.365888 250:-0.03147 251:-0.653726 252:-0.948613 253:-0.997346 254:-0.999967 255:-1 256:-1 
1 1:-1 2:-1 3:-1 4:-1 5:-0.999867 6:-0.98883 7:-0.837311 8:-0.57084 9:-0.741855 10:-0.948466 11:-0.99706 12:-0.999967 13:-1 14:-1 15:-1 16:-1 17:-1 18:-1 19:-1 20:-0.999999 21:-0.999701 22:-0.978275 23:-0.690671 24:-0.164744 25:-0.446023 26:-0.874823 27:-0.992507 28:-0.999915 29:-1 30:-1 31:-1 32:-1 33:-1 34:-1 35:-1 36:-0.999994 37:-0.999202 38:-0.96581 39:-0.584059 40:0.067187 41:-0.346445 42:-0.865334 43:-0.992215 44:-0.999912 45:-1 46:-1 47:-1 48:-1 49:-1 50:-1 51:-1 52:-0.999978 53:-0.997759 54:-0.942986 55:-0.501967 56:0.122694 57:-0.437942 58:-0.915912 59:-0.995876 60:-0.999956 61:-1 62:-1 63:-1 64:-1 65:-1 66:-1 67:-1 68:-0.999944 69:-0.994916 70:-0.902566 71:-0.412688 72:0.107575 73:-0.532864 74:-0.953383 75:-0.99845 76:-0.999986 77:-1 78:-1 79:-1 80:-1 81:-1 82:-1 83:-1 84:-0.999891 85:-0.990393 86:-0.840306 87:-0.302951 88:0.039936 89:-0.611431 90:-0.970749 91:-0.999464 92:-0.999997 93:-1 94:-1 95:-1 96:-1 97:-1 98:-1 99:-1 100:-0.999829 101:-0.985202 102:-0.768865 103:-0.176242 104:-0.025011 105:-0.670264 106:-0.977765 107:-0.999729 108:-1 109:-1 110:-1 111:-1 112:-1 113:-1 114:-1 115:-1 116:-0.999779 117:-0.980932 118:-0.710321 119:-0.075944 120:-0.08635 121:-0.717077 122:-0.981428 123:-0.999784 124:-1 125:-1 126:-1 127:-1 128:-1 129:-1 130:-1 131:-1 132:-0.999756 133:-0.979083 134:-0.686668 135:-0.060848 136:-0.183372 137:-0.766261 138:-0.984957 139:-0.999826 140:-1 141:-1 142:-1 143:-1 144:-1 145:-1 146:-1 147:-1 148:-0.999738 149:-0.977527 150:-0.666763 151:-0.048217 152:-0.265227 153:-0.807735 154:-0.98793 155:-0.999861 156:-1 157:-1 158:-1 159:-1 160:-1 161:-1 162:-1 163:-1 164:-0.999715 165:-0.975652 166:-0.642798 167:-0.033538 168:-0.365282 169:-0.858302 170:-0.991555 171:-0.999904 172:-1 173:-1 174:-1 175:-1 176:-1 177:-1 178:-1 179:-1 180:-0.999712 181:-0.975416 182:-0.640078 183:-0.036575 184:-0.39 185:-0.869631 186:-0.99234 187:-0.999912 188:-1 189:-1 190:-1 191:-1 192:-1 193:-1 194:-1 195:-1 196:-0.999759 197:-0.979338 198:-0.693257 199:-0.118712 200:-0.307581 201:-0.812868 202:-0.986708 203:-0.999714 204:-0.999996 205:-1 206:-1 207:-1 208:-1 209:-1 210:-1 211:-1 212:-0.999858 213:-0.987741 214:-0.809438 215:-0.331607 216:-0.204404 217:-0.673293 218:-0.947404 219:-0.994641 220:-0.999752 221:-0.999997 222:-1 223:-1 224:-1 225:-1 226:-1 227:-1 228:-0.999959 229:-0.996322 230:-0.932426 231:-0.618243 232:-0.214938 233:-0.408106 234:-0.749765 235:-0.944844 236:-0.99666 237:-0.999962 238:-1 239:-1 240:-1 241:-1 242:-1 243:-1 244:-0.999996 245:-0.999565 246:-0.987856 247:-0.875948 248:-0.569718 249:-0.359602 250:-0.541345 251:-0.874194 252:-0.991969 253:-0.999907 254:-1 255:-1 256:-1 
1 1:-1 2:-1 3:-1 4:-1 5:-0.999826 6:-0.98504 7:-0.769565 8:-0.211685 9:-0.006532 10:-0.369679 11:-0.821291 12:-0.982402 13:-0.999362 14:-0.999994 15:-1 16:-1 17:-1 18:-1 19:-1 20:-0.999999 21:-0.999727 22:-0.980646 23:-0.708275 24:0.060922 25:0.573102 26:0.277238 27:-0.52423 28:-0.92958 29:-0.996468 30:-0.999962 31:-1 32:-1 33:-1 34:-1 35:-1 36:-0.999987 37:-0.998706 38:-0.96321 39:-0.622613 40:0.235221 41:0.802712 42:0.631346 43:-0.189828 44:-0.823473 45:-0.989454 46:-0.99988 47:-1 48:-1 49:-1 50:-1 51:-0.999998 52:-0.999846 53:-0.992791 54:-0.886191 55:-0.384851 56:0.469279 57:0.898973 58:0.771582 59:0.06935 60:-0.721586 61:-0.982429 62:-0.999798 63:-1 64:-1 65:-1 66:-0.999999 67:-0.999872 68:-0.996927 69:-0.961682 70:-0.696889 71:0.025111 72:0.724829 73:0.955031 74:0.770391 75:0.05495 76:-0.727772 77:-0.982862 78:-0.999803 79:-1 80:-1 81:-1 82:-0.999978 83:-0.998058 84:-0.965173 85:-0.796065 86:-0.309255 87:0.448347 88:0.891791 89:0.973071 90:0.728848 91:-0.041891 92:-0.767126 93:-0.985591 94:-0.999835 95:-1 96:-1 97:-1 98:-0.999905 99:-0.991703 100:-0.862906 101:-0.388195 102:0.297882 103:0.799292 104:0.969263 105:0.949755 106:0.619422 107:-0.191001 108:-0.820368 109:-0.989196 110:-0.999877 111:-1 112:-1 113:-1 114:-0.999811 115:-0.983568 116:-0.739385 117:0.005901 118:0.699913 119:0.954113 120:0.968884 121:0.808527 122:0.280711 123:-0.489753 124:-0.908756 125:-0.994937 126:-0.999943 127:-1 128:-1 129:-1 130:-0.99977 131:-0.980032 132:-0.687118 133:0.152756 134:0.808429 135:0.969262 136:0.845162 137:0.396955 138:-0.273097 139:-0.794875 140:-0.975072 141:-0.998876 142:-0.999988 143:-1 144:-1 145:-1 146:-0.999816 147:-0.984019 148:-0.744599 149:0.011552 150:0.745753 151:0.93371 152:0.60365 153:-0.20611 154:-0.761189 155:-0.956446 156:-0.996815 157:-0.999915 158:-0.999999 159:-1 160:-1 161:-1 162:-0.999917 163:-0.992586 164:-0.869898 165:-0.322104 166:0.537748 167:0.884616 168:0.517862 169:-0.442178 170:-0.920489 171:-0.994381 172:-0.999752 173:-0.999989 174:-0.999999 175:-1 176:-1 177:-1 178:-0.999982 179:-0.998263 180:-0.958641 181:-0.640197 182:0.146617 183:0.737435 184:0.58696 185:-0.284724 186:-0.851319 187:-0.97703 188:-0.993976 189:-0.999167 190:-0.99996 191:-0.999999 192:-1 193:-1 194:-0.999999 195:-0.9998 196:-0.990383 197:-0.861066 198:-0.369265 199:0.351176 200:0.634445 201:0.148916 202:-0.480431 203:-0.737706 204:-0.900063 205:-0.984213 206:-0.999181 207:-0.999991 208:-1 209:-1 210:-1 211:-0.99998 212:-0.998392 213:-0.969052 214:-0.786796 215:-0.274395 216:0.358345 217:0.506043 218:0.240474 219:-0.040945 220:-0.538057 221:-0.902558 222:-0.994248 223:-0.999935 224:-1 225:-1 226:-1 227:-0.999999 228:-0.999896 229:-0.99694 230:-0.961602 231:-0.772743 232:-0.316339 233:0.191181 234:0.478386 235:0.457508 236:-0.077121 237:-0.754378 238:-0.984414 239:-0.99982 240:-1 241:-1 242:-1 243:-1 244:-0.999998 245:-0.999868 246:-0.996705 247:-0.96479 248:-0.837101 249:-0.553473 250:-0.153237 251:0.092507 252:-0.148067 253:-0.747735 254:-0.98357 255:-0.99981 256:-1 
1 1:-1 2:-1 3:-0.999986 4:-0.998585 5:-0.964891 6:-0.684522 7:-0.04291 8:0.220481 9:-0.076497 10:-0.464333 11:-0.800268 12:-0.964705 13:-0.998044 14:-0.999978 15:-1 16:-1 17:-1 18:-1 19:-0.99996 20:-0.99626 21:-0.923009 22:-0.455634 23:0.453946 24:0.744777 25:0.444055 26:0.044878 27:-0.505143 28:-0.892952 29:-0.993611 30:-0.999927 31:-1 32:-1 33:-1 34:-1 35:-0.999946 36:-0.995093 37:-0.904055 38:-0.377723 39:0.56868 40:0.721879 41:0.145305 42:-0.281332 43:-0.597648 44:-0.894187 45:-0.993289 46:-0.999923 47:-1 48:-1 49:-1 50:-1 51:-0.999907 52:-0.991748 53:-0.855694 54:-0.256787 55:0.624608 56:0.689006 57:-0.06195 58:-0.678486 59:-0.87949 60:-0.967019 61:-0.997853 62:-0.999975 63:-1 64:-1 65:-1 66:-1 67:-0.999882 68:-0.98958 69:-0.824432 70:-0.179868 71:0.661682 72:0.739667 73:0.025466 74:-0.734066 75:-0.97689 76:-0.997656 77:-0.999858 78:-0.999998 79:-1 80:-1 81:-1 82:-1 83:-0.999876 84:-0.989058 85:-0.816916 86:-0.161502 87:0.671466 88:0.770337 89:0.096882 90:-0.710588 91:-0.981596 92:-0.999764 93:-0.999998 94:-1 95:-1 96:-1 97:-1 98:-1 99:-0.99985 100:-0.986841 101:-0.785013 102:-0.08388 103:0.704971 104:0.795566 105:0.152862 106:-0.687653 107:-0.980076 108:-0.99977 109:-1 110:-1 111:-1 112:-1 113:-1 114:-1 115:-0.999843 116:-0.986274 117:-0.776853 118:-0.064015 119:0.714416 120:0.814632 121:0.197867 122:-0.669154 123:-0.978791 124:-0.999755 125:-1 126:-1 127:-1 128:-1 129:-1 130:-1 131:-0.999858 132:-0.987565 133:-0.79543 134:-0.109202 135:0.695939 136:0.814776 137:0.20134 138:-0.667719 139:-0.978691 140:-0.999754 141:-1 142:-1 143:-1 144:-1 145:-1 146:-1 147:-0.999874 148:-0.988967 149:-0.815599 150:-0.158275 151:0.674633 152:0.79701 153:0.161519 154:-0.684083 155:-0.979828 156:-0.999767 157:-1 158:-1 159:-1 160:-1 161:-1 162:-1 163:-0.999876 164:-0.989117 165:-0.817761 166:-0.163554 167:0.670994 168:0.77566 169:0.109953 170:-0.705282 171:-0.981301 172:-0.999785 173:-1 174:-1 175:-1 176:-1 177:-1 178:-1 179:-0.999871 180:-0.988693 181:-0.811672 182:-0.14887 183:0.675231 184:0.753802 185:0.056104 186:-0.727342 187:-0.982803 188:-0.9998 189:-1 190:-1 191:-1 192:-1 193:-1 194:-1 195:-0.999897 196:-0.990901 197:-0.843692 198:-0.230335 199:0.633051 200:0.748072 201:0.060512 202:-0.718905 203:-0.979551 204:-0.999577 205:-0.999997 206:-1 207:-1 208:-1 209:-1 210:-1 211:-0.99995 212:-0.995405 213:-0.911281 214:-0.434631 215:0.453546 216:0.749981 217:0.241847 218:-0.5495 219:-0.929748 220:-0.99635 221:-0.99996 222:-1 223:-1 224:-1 225:-1 226:-1 227:-0.999989 228:-0.998844 229:-0.96964 230:-0.706608 231:-0.006112 232:0.576456 233:0.503591 234:-0.213274 235:-0.820497 236:-0.989112 237:-0.999876 238:-1 239:-1 240:-1 241:-1 242:-1 243:-0.999999 244:-0.99989 245:-0.994581 246:-0.918506 247:-0.591848 248:-0.034616 249:0.183917 250:-0.305419 251:-0.834114 252:-0.989817 253:-0.999884 254:-1 255:-1 256:-1 
1 1:-1 2:-1 3:-1 4:-1 5:-0.999972 6:-0.997448 7:-0.947836 8:-0.651048 9:-0.31638 10:-0.730433 11:-0.981404 12:-0.999782 13:-1 14:-1 15:-1 16:-1 17:-1 18:-1 19:-1 20:-1 21:-0.999918 22:-0.992718 23:-0.875278 24:-0.410012 25:-0.060288 26:-0.648094 27:-0.975953 28:-0.999718 29:-1 30:-1 31:-1 32:-1 33:-1 34:-1 35:-1 36:-1 37:-0.999849 38:-0.986887 39:-0.793998 40:-0.250186 41:-0.086723 42:-0.687812 43:-0.979051 44:-0.999756 45:-1 46:-1 47:-1 48:-1 49:-1 50:-1 51:-1 52:-1 53:-0.999783 54:-0.981379 55:-0.71869 56:-0.124149 57:-0.173913 58:-0.751016 59:-0.983764 60:-0.999812 61:-1 62:-1 63:-1 64:-1 65:-1 66:-1 67:-1 68:-1 69:-0.999729 70:-0.9768 71:-0.657946 72:-0.050495 73:-0.323875 74:-0.835536 75:-0.989905 76:-0.999885 77:-1 78:-1 79:-1 80:-1 81:-1 82:-1 83:-1 84:-1 85:-0.999692 86:-0.973686 87:-0.61665 88:-0.000764 89:-0.426797 90:-0.893405 91:-0.994109 92:-0.999934 93:-1 94:-1 95:-1 96:-1 97:-1 98:-1 99:-1 100:-1 101:-0.999671 102:-0.971969 103:-0.594315 104:0.019484 105:-0.501372 106:-0.932668 107:-0.996938 108:-0.999968 109:-1 110:-1 111:-1 112:-1 113:-1 114:-1 115:-1 116:-1 117:-0.999653 118:-0.970477 119:-0.57416 120:0.049429 121:-0.535473 122:-0.954118 123:-0.998516 124:-0.999986 125:-1 126:-1 127:-1 128:-1 129:-1 130:-1 131:-1 132:-1 133:-0.999646 134:-0.969887 135:-0.566069 136:0.063479 137:-0.54339 138:-0.960297 139:-0.99898 140:-0.999992 141:-1 142:-1 143:-1 144:-1 145:-1 146:-1 147:-1 148:-1 149:-0.999661 150:-0.971124 151:-0.583291 152:0.029773 153:-0.537342 154:-0.951694 155:-0.99831 156:-0.999984 157:-1 158:-1 159:-1 160:-1 161:-1 162:-1 163:-1 164:-1 165:-0.999708 166:-0.975081 167:-0.638083 168:-0.072394 169:-0.503667 170:-0.918243 171:-0.995755 172:-0.999954 173:-1 174:-1 175:-1 176:-1 177:-1 178:-1 179:-1 180:-1 181:-0.999767 182:-0.980076 183:-0.706308 184:-0.185633 185:-0.422002 186:-0.859856 187:-0.991407 188:-0.999902 189:-1 190:-1 191:-1 192:-1 193:-1 194:-1 195:-1 196:-1 197:-0.999835 198:-0.985797 199:-0.784398 200:-0.314521 201:-0.326468 202:-0.792158 203:-0.986369 204:-0.999842 205:-1 206:-1 207:-1 208:-1 209:-1 210:-1 211:-1 212:-1 213:-0.999911 214:-0.992184 215:-0.872461 216:-0.473037 217:-0.256168 218:-0.731582 219:-0.981788 220:-0.999787 221:-1 222:-1 223:-1 224:-1 225:-1 226:-1 227:-1 228:-1 229:-0.999974 230:-0.997523 231:-0.947281 232:-0.626111 233:-0.248752 234:-0.702145 235:-0.979433 236:-0.999759 237:-1 238:-1 239:-1 240:-1 241:-1 242:-1 243:-1 244:-1 245:-0.999997 246:-0.999543 247:-0.979962 248:-0.757543 249:-0.429121 250:-0.766616 251:-0.983799 252:-0.99981 253:-1 254:-1 255:-1 256:-1 
1 1:-1 2:-1 3:-1 4:-0.999899 5:-0.991162 6:-0.858313 7:-0.445887 8:-0.249347 9:-0.700475 10:-0.965968 11:-0.998648 12:-0.999986 13:-1 14:-1 15:-1 16:-1 17:-1 18:-1 19:-1 20:-0.999915 21:-0.992494 22:-0.869467 23:-0.354168 24:0.128796 25:-0.409357 26:-0.892805 27:-0.994116 28:-0.999935 29:-1 30:-1 31:-1 32:-1 33:-1 34:-1 35:-1 36:-0.999969 37:-0.997 38:-0.933659 39:-0.494775 40:0.194745 41:-0.144777 42:-0.785647 43:-0.986702 44:-0.999847 45:-1 46:-1 47:-1 48:-1 49:-1 50:-1 51:-1 52:-0.999995 53:-0.99926 54:-0.969465 55:-0.623836 56:0.114707 57:0.021703 58:-0.695307 59:-0.979704 60:-0.999731 61:-0.999999 62:-1 63:-1 64:-1 65:-1 66:-1 67:-1 68:-1 69:-0.999751 70:-0.980312 71:-0.700702 72:0.019121 73:0.139913 74:-0.603388 75:-0.964666 76:-0.998971 77:-0.999991 78:-1 79:-1 80:-1 81:-1 82:-1 83:-1 84:-1 85:-0.999841 86:-0.986133 87:-0.776628 88:-0.11011 89:0.257437 90:-0.427925 91:-0.911026 92:-0.995483 93:-0.999951 94:-1 95:-1 96:-1 97:-1 98:-1 99:-1 100:-1 101:-0.999912 102:-0.992154 103:-0.861929 104:-0.293557 105:0.316893 106:-0.18241 107:-0.81493 108:-0.988885 109:-0.999874 110:-1 111:-1 112:-1 113:-1 114:-1 115:-1 116:-1 117:-0.999967 118:-0.996825 119:-0.929213 120:-0.453838 121:0.318822 122:-0.009435 123:-0.741295 124:-0.983758 125:-0.999813 126:-1 127:-1 128:-1 129:-1 130:-1 131:-1 132:-1 133:-0.999981 134:-0.998003 135:-0.946329 136:-0.497039 137:0.311135 138:0.027957 139:-0.724331 140:-0.982565 141:-0.999799 142:-1 143:-1 144:-1 145:-1 146:-1 147:-1 148:-1 149:-0.999959 150:-0.996156 151:-0.919532 152:-0.430625 153:0.311317 154:-0.056448 155:-0.761309 156:-0.985154 157:-0.99983 158:-1 159:-1 160:-1 161:-1 162:-1 163:-1 164:-1 165:-0.999914 166:-0.992522 167:-0.867473 168:-0.304438 169:0.323918 170:-0.165601 171:-0.808834 172:-0.988473 173:-0.999869 174:-1 175:-1 176:-1 177:-1 178:-1 179:-1 180:-0.999999 181:-0.999734 182:-0.984702 183:-0.773559 184:-0.091682 185:0.344094 186:-0.30577 187:-0.867231 188:-0.992515 189:-0.999916 190:-1 191:-1 192:-1 193:-1 194:-1 195:-1 196:-0.999982 197:-0.998239 198:-0.955784 199:-0.599427 200:0.189555 201:0.291654 202:-0.507815 203:-0.937667 204:-0.997226 205:-0.999971 206:-1 207:-1 208:-1 209:-1 210:-1 211:-1 212:-0.999927 213:-0.993419 214:-0.881526 215:-0.355794 216:0.334861 217:0.032951 218:-0.70698 219:-0.97708 220:-0.999443 221:-0.999996 222:-1 223:-1 224:-1 225:-1 226:-1 227:-1 228:-0.999857 229:-0.987503 230:-0.797107 231:-0.168939 232:0.248733 233:-0.330847 234:-0.865069 235:-0.992022 236:-0.999896 237:-1 238:-1 239:-1 240:-1 241:-1 242:-1 243:-1 244:-0.999857 245:-0.987589 246:-0.806126 247:-0.307496 248:-0.159884 249:-0.669378 250:-0.959144 251:-0.998228 252:-0.999982 253:-1 254:-1 255:-1 256:-1 
1 1:-1 2:-1 3:-1 4:-0.999978 5:-0.997879 6:-0.950943 7:-0.597942 8:0.092635 9:0.155728 10:-0.342174 11:-0.834183 12:-0.989024 13:-0.999831 14:-0.999999 15:-1 16:-1 17:-1 18:-1 19:-1 20:-0.999933 21:-0.993992 22:-0.888823 23:-0.350897 24:0.540081 25:0.740162 26:0.208989 27:-0.647125 28:-0.974002 29:-0.99948 30:-0.999997 31:-1 32:-1 33:-1 34:-1 35:-1 36:-0.99993 37:-0.993721 38:-0.884362 39:-0.330385 40:0.597234 41:0.878004 42:0.396605 43:-0.573515 44:-0.966704 45:-0.999235 46:-0.999995 47:-1 48:-1 49:-1 50:-1 51:-1 52:-0.999973 53:-0.997382 54:-0.937864 55:-0.472137 56:0.511512 57:0.85779 58:0.381528 59:-0.5815 60:-0.967957 61:-0.999298 62:-0.999995 63:-1 64:-1 65:-1 66:-1 67:-1 68:-0.999995 69:-0.999313 70:-0.967816 71:-0.576073 72:0.394606 73:0.840633 74:0.449065 75:-0.512987 76:-0.94687 77:-0.997916 78:-0.999979 79:-1 80:-1 81:-1 82:-1 83:-1 84:-0.999999 85:-0.999703 86:-0.977659 87:-0.66093 88:0.213713 89:0.802046 90:0.57022 91:-0.361589 92:-0.895419 93:-0.994468 94:-0.999939 95:-1 96:-1 97:-1 98:-1 99:-1 100:-1 101:-0.999801 102:-0.982849 103:-0.727974 104:0.054506 105:0.749619 106:0.630678 107:-0.254388 108:-0.85486 109:-0.991692 110:-0.999907 111:-1 112:-1 113:-1 114:-1 115:-1 116:-1 117:-0.999847 118:-0.986594 119:-0.781458 120:-0.075357 121:0.699564 122:0.66762 123:-0.158866 124:-0.815806 125:-0.988981 126:-0.999875 127:-1 128:-1 129:-1 130:-1 131:-1 132:-1 133:-0.999901 134:-0.991193 135:-0.847657 136:-0.2366 137:0.636389 138:0.71696 139:-0.027007 140:-0.761569 141:-0.985212 142:-0.99983 143:-1 144:-1 145:-1 146:-1 147:-1 148:-1 149:-0.99993 150:-0.993675 151:-0.883458 152:-0.324715 153:0.600921 154:0.761905 155:0.091379 156:-0.712851 157:-0.981827 158:-0.999791 159:-1 160:-1 161:-1 162:-1 163:-1 164:-1 165:-0.999936 166:-0.994275 167:-0.892391 168:-0.349381 169:0.585553 170:0.784791 171:0.156802 172:-0.685854 173:-0.979951 174:-0.999769 175:-1 176:-1 177:-1 178:-1 179:-1 180:-0.999996 181:-0.999845 182:-0.993845 183:-0.897245 184:-0.367786 185:0.570898 186:0.774892 187:0.141297 188:-0.692139 189:-0.980388 190:-0.999774 191:-1 192:-1 193:-1 194:-1 195:-0.999997 196:-0.999734 197:-0.995091 198:-0.964218 199:-0.783422 200:-0.173638 201:0.655506 202:0.78659 203:0.146325 204:-0.690193 205:-0.980252 206:-0.999772 207:-1 208:-1 209:-1 210:-1 211:-0.999956 212:-0.996206 213:-0.938178 214:-0.728575 215:-0.321461 216:0.321577 217:0.815099 218:0.740111 219:0.031498 220:-0.73561 221:-0.983386 222:-0.999809 223:-1 224:-1 225:-1 226:-1 227:-0.999883 228:-0.989809 229:-0.835903 230:-0.327372 231:0.292102 232:0.704263 233:0.762946 234:0.419412 235:-0.352472 236:-0.869745 237:-0.992437 238:-0.999915 239:-1 240:-1 241:-1 242:-1 243:-0.999924 244:-0.99337 245:-0.889995 246:-0.503944 247:0.042138 248:0.322566 249:0.153215 250:-0.258749 251:-0.751767 252:-0.96718 253:-0.998462 254:-0.999984 255:-1 256:-1 
1 1:-1 2:-1 3:-1 4:-1 5:-0.999879 6:-0.989754 7:-0.84881 8:-0.574806 9:-0.685227 10:-0.920582 11:-0.995069 12:-0.999943 13:-1 14:-1 15:-1 16:-1 17:-1 18:-1 19:-1 20:-0.999999 21:-0.999733 22:-0.980905 23:-0.723795 24:-0.179504 25:-0.292166 26:-0.798388 27:-0.987041 28:-0.99985 29:-1 30:-1 31:-1 32:-1 33:-1 34:-1 35:-1 36:-0.999992 37:-0.999065 38:-0.966154 39:-0.60921 40:0.1282 41:0.004558 42:-0.706618 43:-0.981017 44:-0.99978 45:-1 46:-1 47:-1 48:-1 49:-1 50:-1 51:-1 52:-0.999968 53:-0.996912 54:-0.931503 55:-0.473731 56:0.285113 57:0.000373 58:-0.731026 59:-0.982971 60:-0.999804 61:-1 62:-1 63:-1 64:-1 65:-1 66:-1 67:-1 68:-0.999929 69:-0.993607 70:-0.882732 71:-0.341101 72:0.325058 73:-0.121126 74:-0.789714 75:-0.987139 76:-0.999853 77:-1 78:-1 79:-1 80:-1 81:-1 82:-1 83:-1 84:-0.999886 85:-0.989955 86:-0.830078 87:-0.213775 88:0.344408 89:-0.209164 90:-0.828128 91:-0.98982 92:-0.999884 93:-1 94:-1 95:-1 96:-1 97:-1 98:-1 99:-1 100:-0.999843 101:-0.986252 102:-0.776822 103:-0.087715 104:0.347764 105:-0.326158 106:-0.877649 107:-0.993263 108:-0.999925 109:-1 110:-1 111:-1 112:-1 113:-1 114:-1 115:-1 116:-0.999813 117:-0.983704 118:-0.740394 119:-0.005168 120:0.329238 121:-0.44077 122:-0.924591 123:-0.996513 124:-0.999963 125:-1 126:-1 127:-1 128:-1 129:-1 130:-1 131:-1 132:-0.999797 133:-0.982337 134:-0.721205 135:0.033127 136:0.302999 137:-0.512377 138:-0.951875 139:-0.998378 140:-0.999985 141:-1 142:-1 143:-1 144:-1 145:-1 146:-1 147:-1 148:-0.9998 149:-0.982617 150:-0.725266 151:0.022616 152:0.2938 153:-0.523138 154:-0.956041 155:-0.998666 156:-0.999988 157:-1 158:-1 159:-1 160:-1 161:-1 162:-1 163:-1 164:-0.999812 165:-0.983653 166:-0.739906 167:-0.009067 168:0.292513 169:-0.513098 170:-0.953039 171:-0.998474 172:-0.999986 173:-1 174:-1 175:-1 176:-1 177:-1 178:-1 179:-1 180:-0.999823 181:-0.984586 182:-0.753165 183:-0.038428 184:0.294036 185:-0.491441 186:-0.944725 187:-0.997907 188:-0.999979 189:-1 190:-1 191:-1 192:-1 193:-1 194:-1 195:-1 196:-0.999845 197:-0.98644 198:-0.779659 199:-0.098584 200:0.301427 201:-0.424932 202:-0.917587 203:-0.996003 204:-0.999955 205:-1 206:-1 207:-1 208:-1 209:-1 210:-1 211:-1 212:-0.999894 213:-0.990629 214:-0.840214 215:-0.246452 216:0.289212 217:-0.281883 218:-0.849173 219:-0.988761 220:-0.999699 221:-0.999997 222:-1 223:-1 224:-1 225:-1 226:-1 227:-1 228:-0.999958 229:-0.996162 230:-0.923952 231:-0.504075 232:0.127903 233:-0.099247 234:-0.666076 235:-0.942393 236:-0.996836 237:-0.999965 238:-1 239:-1 240:-1 241:-1 242:-1 243:-1 244:-0.999992 245:-0.999227 246:-0.978845 247:-0.79054 248:-0.325565 249:-0.130775 250:-0.488988 251:-0.877993 252:-0.992511 253:-0.999914 254:-1 255:-1 256:-1 
