svm_type c_svc
kernel_type rbf
gamma 0.00390625
nr_class 2
total_sv 629
rho 4.29382
label 1 -1
nr_sv 311 318
SV
1 1:-1 2:-1 3:-0.999999 4:-0.999935 5:-0.996874 6:-0.945512 7:-0.629205 8:-0.064125 9:-0.090334 10:-0.615117 11:-0.931511 12:-0.996221 13:-0.999958 14:-1 15:-1 16:-1 17:-1 18:-1 19:-0.999991 20:-0.999167 21:-0.979031 22:-0.796332 23:-0.206664 24:0.449204 25:0.381143 26:-0.233428 27:-0.809481 28:-0.987864 29:-0.999818 30:-0.999998 31:-1 32:-1 33:-1 34:-0.999999 35:-0.999898 36:-0.994462 37:-0.9099 38:-0.495221 39:0.209664 40:0.415093 41:0.162582 42:-0.112046 43:-0.699272 44:-0.966953 45:-0.996598 46:-0.999811 47:-0.999998 48:-1 49:-1 50:-0.999989 51:-0.998939 52:-0.972377 53:-0.731999 54:-0.056258 55:0.418068 56:0.020664 57:-0.285143 58:-0.106664 59:-0.42912 60:-0.784032 61:-0.952376 62:-0.997096 63:-0.999967 64:-1 65:-1 66:-0.999939 67:-0.994493 68:-0.899214 69:-0.423259 70:0.362007 71:0.393963 72:-0.360693 73:-0.55295 74:-0.002315 75:0.166828 76:-0.322362 77:-0.834877 78:-0.989787 79:-0.999883 80:-1 81:-1 82:-0.999852 83:-0.98709 84:-0.789222 85:-0.113394 86:0.483006 87:0.094901 88:-0.564407 89:-0.449906 90:0.251273 91:0.508769 92:-0.123431 93:-0.790939 94:-0.987167 95:-0.999853 96:-1 97:-1 98:-0.999831 99:-0.985281 100:-0.76308 101:-0.053846 102:0.423561 103:-0.051503 104:-0.302455 105:0.121922 106:0.64753 107:0.536864 108:-0.321677 109:-0.876459 110:-0.993131 111:-0.999923 112:-1 113:-1 114:-0.999889 115:-0.990264 116:-0.838286 117:-0.282666 118:0.290639 119:0.250894 120:0.317794 121:0.614446 122:0.807534 123:0.395533 124:-0.540838 125:-0.951853 126:-0.998187 127:-0.999982 128:-1 129:-1 130:-0.999968 131:-0.997161 132:-0.947945 133:-0.698927 134:-0.245901 135:0.02782 136:0.194896 137:0.515907 138:0.662618 139:0.105994 140:-0.697071 141:-0.978957 142:-0.999636 143:-0.999998 144:-1 145:-1 146:-0.999997 147:-0.999746 148:-0.993793 149:-0.943895 150:-0.808676 151:-0.640345 152:-0.262638 153:0.407083 154:0.417254 155:-0.302636 156:-0.851865 157:-0.991169 158:-0.999895 159:-1 160:-1 161:-1 162:-1 163:-0.999992 164:-0.999731 165:-0.99668 166:-0.977593 167:-0.810599 168:-0.206235 169:0.415413 170:0.049728 171:-0.66393 172:-0.956698 173:-0.99799 174:-0.999979 175:-1 176:-1 177:-1 178:-1 179:-1 180:-0.999987 181:-0.998915 182:-0.969313 183:-0.679824 184:0.074576 185:0.391483 186:-0.292206 187:-0.856146 188:-0.990408 189:-0.999802 190:-0.999999 191:-1 192:-1 193:-1 194:-1 195:-1 196:-0.999943 197:-0.994807 198:-0.903038 199:-0.42485 200:0.344466 201:0.257756 202:-0.561413 203:-0.949114 204:-0.997867 205:-0.999977 206:-1 207:-1 208:-1 209:-1 210:-1 211:-1 212:-0.999856 213:-0.987395 214:-0.793687 215:-0.127718 216:0.433588 217:-0.033866 218:-0.750103 219:-0.982753 220:-0.999689 221:-0.999998 222:-1 223:-1 224:-1 225:-1 226:-1 227:-1 228:-0.999834 229:-0.985515 230:-0.767236 231:-0.076288 232:0.364312 233:-0.220936 234:-0.828313 235:-0.989725 236:-0.999881 237:-1 238:-1 239:-1 240:-1 241:-1 242:-1 243:-1 244:-0.999915 245:-0.99249 246:-0.873886 247:-0.425259 248:0.010969 249:-0.312454 250:-0.826185 251:-0.989173 252:-0.999876 253:-1 254:-1 255:-1 256:-1 
1 1:-0.999999 2:-0.999881 3:-0.994963 4:-0.930694 5:-0.686056 6:-0.272851 7:0.129217 8:0.311445 9:0.150248 10:-0.29842 11:-0.756628 12:-0.960777 13:-0.997899 14:-0.999976 15:-1 16:-1 17:-0.999986 18:-0.9986 19:-0.966922 20:-0.713463 21:-0.071438 22:0.472379 23:0.647059 24:0.630961 25:0.598771 26:0.377922 27:-0.288157 28:-0.835507 29:-0.988528 30:-0.999732 31:-0.999996 32:-1 33:-0.999927 34:-0.993519 35:-0.884521 36:-0.377438 37:0.422112 38:0.629238 39:0.295924 40:0.033594 41:0.267416 42:0.616927 43:0.209163 44:-0.593892 45:-0.940506 46:-0.994181 47:-0.999732 48:-0.999997 49:-0.999831 50:-0.985231 51:-0.762248 52:-0.042508 53:0.561672 54:0.259897 55:-0.402845 56:-0.542295 57:0.046409 58:0.700401 59:0.595604 60:-0.126828 61:-0.681817 62:-0.934649 63:-0.996118 64:-0.999956 65:-0.999781 66:-0.98097 67:-0.700739 68:0.106929 69:0.575451 70:0.065495 71:-0.660788 72:-0.635709 73:0.161249 74:0.803764 75:0.881158 76:0.518262 77:-0.163943 78:-0.790698 79:-0.986917 80:-0.99985 81:-0.999832 82:-0.985387 83:-0.765283 84:-0.060508 85:0.53871 86:0.280117 87:-0.336635 88:-0.321593 89:0.3515 90:0.861217 91:0.963995 92:0.727116 93:0.002104 94:-0.745671 95:-0.98406 96:-0.999817 97:-0.999938 98:-0.994465 99:-0.901904 100:-0.475355 101:0.228078 102:0.527712 103:0.426896 104:0.454194 105:0.715194 106:0.923934 107:0.885132 108:0.470343 109:-0.299072 110:-0.84774 111:-0.990898 112:-0.999896 113:-0.99999 114:-0.999097 115:-0.980091 116:-0.837091 117:-0.418023 118:0.116952 119:0.480539 120:0.724692 121:0.900149 122:0.900632 123:0.557187 124:-0.128086 125:-0.721043 126:-0.957328 127:-0.997778 128:-0.999976 129:-0.999999 130:-0.999945 131:-0.998177 132:-0.976452 133:-0.873602 134:-0.639141 135:-0.239134 136:0.378528 137:0.829798 138:0.711272 139:0.007063 140:-0.662857 141:-0.941151 142:-0.995225 143:-0.999838 144:-0.999998 145:-1 146:-0.999999 147:-0.999932 148:-0.99878 149:-0.989533 150:-0.917063 151:-0.534313 152:0.274117 153:0.780001 154:0.482367 155:-0.425346 156:-0.906484 157:-0.993098 158:-0.999763 159:-0.999996 160:-1 161:-1 162:-1 163:-0.999999 164:-0.999891 165:-0.991538 166:-0.85617 167:-0.29103 168:0.540871 169:0.797761 170:0.273083 171:-0.621875 172:-0.969238 173:-0.999186 174:-0.999992 175:-1 176:-1 177:-1 178:-1 179:-0.999999 180:-0.999728 181:-0.981954 182:-0.72809 183:0.046101 184:0.740584 185:0.701368 186:-0.049643 187:-0.768037 188:-0.98529 189:-0.999807 190:-1 191:-1 192:-1 193:-1 194:-1 195:-0.999987 196:-0.998633 197:-0.960979 198:-0.601862 199:0.280925 200:0.795049 201:0.493719 202:-0.404806 203:-0.902994 204:-0.994867 205:-0.999943 206:-1 207:-1 208:-1 209:-1 210:-1 211:-0.999949 212:-0.995368 213:-0.909633 214:-0.414471 215:0.504921 216:0.795391 217:0.260876 218:-0.620097 219:-0.966274 220:-0.998975 221:-0.999991 222:-1 223:-1 224:-1 225:-1 226:-1 227:-0.999918 228:-0.992659 229:-0.869341 230:-0.298 231:0.587856 232:0.7428 233:0.099304 234:-0.705682 235:-0.980819 236:-0.999745 237:-0.999999 238:-1 239:-1 240:-1 241:-1 242:-1 243:-0.999936 244:-0.994319 245:-0.898639 246:-0.452539 247:0.237842 248:0.324684 249:-0.221725 250:-0.803272 251:-0.987682 252:-0.999858 253:-1 254:-1 255:-1 256:-1 
1 1:-0.999999 2:-0.999983 3:-0.99967 4:-0.996274 5:-0.976424 6:-0.896176 7:-0.721451 8:-0.51293 9:-0.237044 10:0.12958 11:0.402909 12:0.498261 13:0.505056 14:0.383842 15:-0.039822 16:-0.632899 17:-0.999958 18:-0.999086 19:-0.99033 20:-0.937886 21:-0.772104 22:-0.443531 23:-0.002697 24:0.295522 25:0.398761 26:0.468716 27:0.555195 28:0.651763 29:0.808438 30:0.862771 31:0.559546 32:-0.181332 33:-0.998766 34:-0.982389 35:-0.88774 36:-0.615062 37:-0.178757 38:0.223328 39:0.385629 40:0.283057 41:0.002811 42:-0.238947 43:-0.298147 44:-0.138807 45:0.341576 46:0.810695 47:0.775305 48:0.116224 49:-0.982452 50:-0.856995 51:-0.472823 52:0.045181 53:0.314338 54:0.165849 55:-0.179174 56:-0.496317 57:-0.719848 58:-0.84266 59:-0.865059 60:-0.735091 61:-0.191863 62:0.613071 63:0.678993 64:-0.02679 65:-0.869371 66:-0.436048 67:0.184984 68:0.368343 69:0.018657 70:-0.48687 71:-0.790296 72:-0.922543 73:-0.970734 74:-0.971205 75:-0.912787 76:-0.676231 77:-0.098541 78:0.530169 79:0.323277 80:-0.452518 81:-0.536234 82:0.203705 83:0.511545 84:0.003444 85:-0.598061 86:-0.895558 87:-0.978859 88:-0.983932 89:-0.922021 90:-0.760126 91:-0.506844 92:-0.102104 93:0.299942 94:0.280715 95:-0.254558 96:-0.793371 97:-0.086342 98:0.629649 99:0.544925 100:-0.329589 101:-0.856482 102:-0.9683 103:-0.971725 104:-0.890965 105:-0.580398 106:-0.08779 107:0.295503 108:0.403536 109:0.223429 110:-0.229207 111:-0.690813 112:-0.93722 113:0.204873 114:0.807717 115:0.672492 116:-0.062886 117:-0.53528 118:-0.673225 119:-0.640128 120:-0.430808 121:0.103761 122:0.613214 123:0.752826 124:0.537323 125:0.269413 126:-0.042101 127:-0.497714 128:-0.878757 129:0.173696 130:0.803061 131:0.875822 132:0.616036 133:0.342017 134:0.165824 135:0.229452 136:0.41669 137:0.703579 138:0.889888 139:0.877344 140:0.772941 141:0.737384 142:0.593854 143:0.033894 144:-0.715782 145:-0.184653 146:0.48252 147:0.760485 148:0.772693 149:0.70374 150:0.607248 151:0.564608 152:0.572632 153:0.565467 154:0.52852 155:0.463732 156:0.535055 157:0.82795 158:0.808095 159:0.194371 160:-0.66924 161:-0.701918 162:-0.266721 163:0.073893 164:0.168086 165:0.157968 166:0.069872 167:-0.098288 168:-0.21403 169:-0.363931 170:-0.474881 171:-0.485942 172:-0.142965 173:0.624259 174:0.741039 175:0.050503 176:-0.729434 177:-0.953717 178:-0.838141 179:-0.71863 180:-0.680593 181:-0.683126 182:-0.717666 183:-0.78755 184:-0.836619 185:-0.89928 186:-0.937973 187:-0.858262 188:-0.341859 189:0.565619 190:0.635644 191:-0.185144 192:-0.82549 193:-0.997604 194:-0.990282 195:-0.982213 196:-0.979584 197:-0.979757 198:-0.982154 199:-0.987011 200:-0.990423 201:-0.994665 202:-0.98758 203:-0.82632 204:-0.190203 205:0.627151 206:0.543279 207:-0.379522 208:-0.901757 209:-0.999974 210:-0.999889 211:-0.999795 212:-0.999764 213:-0.999766 214:-0.999794 215:-0.999852 216:-0.999892 217:-0.999769 218:-0.984798 219:-0.755951 220:-0.015424 221:0.691356 222:0.504206 223:-0.432509 224:-0.919451 225:-1 226:-1 227:-1 228:-1 229:-1 230:-1 231:-1 232:-1 233:-0.999847 234:-0.986624 235:-0.782338 236:-0.085345 237:0.654439 238:0.555671 239:-0.299481 240:-0.865493 241:-1 242:-1 243:-1 244:-1 245:-1 246:-1 247:-1 248:-1 249:-0.999932 250:-0.993978 251:-0.893835 252:-0.443035 253:0.224929 254:0.236529 255:-0.389155 256:-0.869046 
1 1:-0.999999 2:-0.999932 3:-0.998347 4:-0.982169 5:-0.892774 6:-0.669673 7:-0.390835 8:-0.128483 9:0.058865 10:0.125058 11:-0.012311 12:-0.379166 13:-0.810355 14:-0.979308 15:-0.999172 16:-0.999992 17:-0.999987 18:-0.998828 19:-0.97758 20:-0.853601 21:-0.536219 22:-0.179651 23:-0.07864 24:-0.170339 25:-0.205464 26:-0.030827 27:0.221719 28:0.178945 29:-0.47993 30:-0.910114 31:-0.995136 32:-0.999946 33:-0.999911 34:-0.993097 35:-0.888696 36:-0.517857 37:-0.147442 38:-0.267135 39:-0.566428 40:-0.742059 41:-0.795295 42:-0.684476 43:-0.250962 44:0.268209 45:-0.188415 46:-0.808401 47:-0.988325 48:-0.999867 49:-0.999612 50:-0.979673 51:-0.725893 52:-0.157724 53:-0.160183 54:-0.645524 55:-0.922026 56:-0.980269 57:-0.985586 58:-0.936096 59:-0.536492 60:0.131206 61:-0.202004 62:-0.804079 63:-0.98793 64:-0.999862 65:-0.999223 66:-0.967395 67:-0.602439 68:0.081637 69:-0.193876 70:-0.786914 71:-0.983166 72:-0.999131 73:-0.993701 74:-0.905128 75:-0.462244 76:0.059966 77:-0.3921 78:-0.877571 79:-0.992814 80:-0.999908 81:-0.999438 82:-0.971495 83:-0.623206 84:0.101308 85:-0.036083 86:-0.682337 87:-0.954922 88:-0.987319 89:-0.957359 90:-0.727858 91:-0.176602 92:0.079341 93:-0.413767 94:-0.868339 95:-0.989806 96:-0.99972 97:-0.99978 98:-0.984658 99:-0.767521 100:-0.133789 101:0.196642 102:-0.288148 103:-0.70755 104:-0.821119 105:-0.729464 106:-0.319739 107:0.191744 108:0.242628 109:-0.128008 110:-0.733256 111:-0.976918 112:-0.999335 113:-0.999947 114:-0.995468 115:-0.916254 116:-0.506074 117:0.160947 118:0.250521 119:-0.045502 120:-0.213132 121:-0.093045 122:0.314871 123:0.542601 124:0.332077 125:-0.233825 126:-0.797678 127:-0.984887 128:-0.999663 129:-0.999994 130:-0.999374 131:-0.98256 132:-0.820286 133:-0.347859 134:0.114228 135:0.232166 136:0.214506 137:0.318081 138:0.587244 139:0.535985 140:-0.058502 141:-0.665694 142:-0.940845 143:-0.996545 144:-0.99995 145:-1 146:-0.999956 147:-0.997785 148:-0.966924 149:-0.842103 150:-0.654541 151:-0.556442 152:-0.498312 153:-0.202848 154:0.3201 155:0.152688 156:-0.543481 157:-0.918857 158:-0.993261 159:-0.999761 160:-0.999997 161:-1 162:-0.999998 163:-0.99989 164:-0.998109 165:-0.989954 166:-0.975671 167:-0.958612 168:-0.828041 169:-0.312556 170:0.187055 171:-0.271433 172:-0.824013 173:-0.984887 174:-0.999493 175:-0.999993 176:-1 177:-1 178:-1 179:-0.999999 180:-0.999977 181:-0.99986 182:-0.999113 183:-0.977955 184:-0.724494 185:-0.089246 186:0.036347 187:-0.597085 188:-0.947983 189:-0.997499 190:-0.999962 191:-1 192:-1 193:-1 194:-1 195:-1 196:-1 197:-0.999967 198:-0.996933 199:-0.934324 200:-0.520214 201:0.118511 202:-0.194631 203:-0.792713 204:-0.985455 205:-0.999718 206:-0.999998 207:-1 208:-1 209:-1 210:-1 211:-1 212:-1 213:-0.999887 214:-0.990032 215:-0.832848 216:-0.248676 217:0.202074 218:-0.416327 219:-0.903668 220:-0.994927 221:-0.999942 222:-1 223:-1 224:-1 225:-1 226:-1 227:-1 228:-1 229:-0.999813 230:-0.983775 231:-0.74581 232:-0.08182 233:0.13811 234:-0.532334 235:-0.936312 236:-0.997023 237:-0.999968 238:-1 239:-1 240:-1 241:-1 242:-1 243:-1 244:-1 245:-0.999839 246:-0.986113 247:-0.787492 248:-0.300085 249:-0.252593 250:-0.723785 251:-0.966656 252:-0.998572 253:-0.999985 254:-1 255:-1 256:-1 
1 1:-1 2:-1 3:-0.999995 4:-0.999637 5:-0.991572 6:-0.922421 7:-0.715136 8:-0.420036 9:-0.096531 10:0.071562 11:-0.235871 12:-0.768371 13:-0.977907 14:-0.999249 15:-0.999993 16:-1 17:-1 18:-0.999998 19:-0.999813 20:-0.993748 21:-0.920741 22:-0.610071 23:-0.075158 24:0.227042 25:0.156516 26:0.153896 27:0.149121 28:-0.510419 29:-0.926458 30:-0.996331 31:-0.99996 32:-1 33:-1 34:-0.999976 35:-0.997771 36:-0.954889 37:-0.684714 38:-0.094221 39:0.27597 40:0.096093 41:-0.364869 42:-0.332007 43:0.125691 44:-0.308639 45:-0.848176 46:-0.990988 47:-0.999898 48:-1 49:-1 50:-0.999931 51:-0.993856 52:-0.89288 53:-0.459837 54:0.059858 55:-0.131511 56:-0.567559 57:-0.796499 58:-0.537492 59:0.033301 60:-0.242958 61:-0.805832 62:-0.987874 63:-0.999861 64:-1 65:-1 66:-0.999913 67:-0.9924 68:-0.876868 69:-0.499081 70:-0.251494 71:-0.561558 72:-0.7462 73:-0.602885 74:-0.172431 75:0.227843 76:-0.201833 77:-0.802283 78:-0.987752 79:-0.99986 80:-1 81:-1 82:-0.999888 83:-0.990329 84:-0.848077 85:-0.440397 86:-0.202438 87:-0.309281 88:-0.204507 89:0.113074 90:0.429569 91:0.525298 92:-0.089621 93:-0.775976 94:-0.986116 95:-0.999841 96:-1 97:-1 98:-0.999955 99:-0.995987 100:-0.930865 101:-0.652878 102:-0.185207 103:0.166573 104:0.313682 105:0.314391 106:0.370114 107:0.474106 108:-0.144962 109:-0.799998 110:-0.987813 111:-0.999861 112:-1 113:-1 114:-0.999995 115:-0.999567 116:-0.989901 117:-0.909755 118:-0.647126 119:-0.306825 120:-0.236684 121:-0.312834 122:0.028151 123:0.363221 124:-0.250744 125:-0.842482 126:-0.99077 127:-0.999896 128:-1 129:-1 130:-1 131:-0.999983 132:-0.999409 133:-0.99126 134:-0.94272 135:-0.849703 136:-0.817777 137:-0.63033 138:0.035458 139:0.243653 140:-0.464223 141:-0.917021 142:-0.995776 143:-0.999954 144:-1 145:-1 146:-1 147:-1 148:-0.999986 149:-0.999679 150:-0.996948 151:-0.986986 152:-0.911409 153:-0.484886 154:0.195664 155:0.001753 156:-0.692378 157:-0.971238 158:-0.999051 159:-0.999991 160:-1 161:-1 162:-1 163:-1 164:-1 165:-0.999994 166:-0.999544 167:-0.981554 168:-0.755446 169:-0.068465 170:0.351718 171:-0.247006 172:-0.837171 173:-0.989867 174:-0.99985 175:-0.999999 176:-1 177:-1 178:-1 179:-1 180:-1 181:-0.999974 182:-0.997521 183:-0.943173 184:-0.536307 185:0.283499 186:0.317128 187:-0.466992 188:-0.916732 189:-0.995707 190:-0.999953 191:-1 192:-1 193:-1 194:-1 195:-1 196:-1 197:-0.999879 198:-0.990571 199:-0.843205 200:-0.264181 201:0.329498 202:-0.079982 203:-0.738185 204:-0.972053 205:-0.998883 206:-0.999989 207:-1 208:-1 209:-1 210:-1 211:-1 212:-0.999997 213:-0.999498 214:-0.9764 215:-0.687175 216:0.039483 217:0.19418 218:-0.495248 219:-0.919526 220:-0.995136 221:-0.999897 222:-0.999999 223:-1 224:-1 225:-1 226:-1 227:-1 228:-0.999986 229:-0.998482 230:-0.956588 231:-0.572532 232:0.125373 233:-0.121228 234:-0.754074 235:-0.979553 236:-0.999419 237:-0.999995 238:-1 239:-1 240:-1 241:-1 242:-1 243:-1 244:-0.999978 245:-0.997922 246:-0.952466 247:-0.62704 248:-0.168413 249:-0.535956 250:-0.913471 251:-0.995012 252:-0.999931 253:-1 254:-1 255:-1 256:-1 
1 1:-1 2:-0.999975 3:-0.998003 4:-0.961705 5:-0.746212 6:-0.278841 7:0.072938 8:0.16033 9:0.127536 10:-0.045043 11:-0.326898 12:-0.674426 13:-0.919434 14:-0.992535 15:-0.99974 16:-0.999997 17:-0.999999 18:-0.999801 19:-0.989172 20:-0.839934 21:-0.31572 22:0.246267 23:0.215147 24:-0.048729 25:-0.161891 26:-0.111945 27:-0.04485 28:-0.298816 29:-0.771083 30:-0.974007 31:-0.998929 32:-0.999989 33:-0.999991 34:-0.998946 35:-0.966791 36:-0.64103 37:0.098808 38:0.212842 39:-0.368866 40:-0.719348 41:-0.783993 42:-0.69209 43:-0.453761 44:-0.374494 45:-0.738199 46:-0.962954 47:-0.998222 48:-0.999981 49:-0.999978 50:-0.997765 51:-0.944274 52:-0.51267 53:0.23928 54:-0.032404 55:-0.715336 56:-0.954809 57:-0.949855 58:-0.774233 59:-0.343208 60:-0.18163 61:-0.669179 62:-0.958282 63:-0.998167 64:-0.999981 65:-0.999986 66:-0.998525 67:-0.956618 68:-0.563748 69:0.157546 70:-0.066256 71:-0.646897 72:-0.81923 73:-0.702942 74:-0.312059 75:0.229473 76:0.127057 77:-0.604171 78:-0.954691 79:-0.998143 80:-0.999981 81:-0.999997 82:-0.999559 83:-0.97946 84:-0.729827 85:-0.113589 86:0.100988 87:-0.147076 88:-0.224139 89:0.00669 90:0.399287 91:0.463682 92:-0.138711 93:-0.771205 94:-0.978958 95:-0.99929 96:-0.999993 97:-1 98:-0.999927 99:-0.994575 100:-0.911271 101:-0.581744 102:-0.102607 103:0.156763 104:0.276505 105:0.511135 106:0.666741 107:0.212869 108:-0.566846 109:-0.934643 110:-0.996226 111:-0.999927 112:-1 113:-1 114:-0.999994 115:-0.999422 116:-0.987886 117:-0.908917 118:-0.709687 119:-0.503087 120:-0.238403 121:0.298438 122:0.466848 123:-0.207708 124:-0.818022 125:-0.986392 126:-0.999655 127:-0.999997 128:-1 129:-1 130:-1 131:-0.999977 132:-0.999411 133:-0.994039 134:-0.971117 135:-0.890806 136:-0.499393 137:0.250359 138:0.210014 139:-0.555361 140:-0.941449 141:-0.997234 142:-0.999966 143:-1 144:-1 145:-1 146:-1 147:-1 148:-0.999993 149:-0.999816 150:-0.991949 151:-0.869693 152:-0.326129 153:0.314975 154:-0.086526 155:-0.764224 156:-0.982996 157:-0.999644 158:-0.999998 159:-1 160:-1 161:-1 162:-1 163:-1 164:-0.999999 165:-0.999775 166:-0.983256 167:-0.74198 168:-0.031627 169:0.291014 170:-0.402765 171:-0.899864 172:-0.994627 173:-0.999936 174:-1 175:-1 176:-1 177:-1 178:-1 179:-1 180:-0.999992 181:-0.999067 182:-0.96609 183:-0.604723 184:0.185393 185:0.150097 186:-0.62239 187:-0.965029 188:-0.998888 189:-0.99999 190:-1 191:-1 192:-1 193:-1 194:-1 195:-1 196:-0.999961 197:-0.996379 198:-0.923658 199:-0.454555 200:0.259476 201:-0.096733 202:-0.771009 203:-0.985209 204:-0.999792 205:-0.999999 206:-1 207:-1 208:-1 209:-1 210:-1 211:-1 212:-0.999908 213:-0.991813 214:-0.857396 215:-0.291572 216:0.24309 217:-0.346224 218:-0.880492 219:-0.993413 220:-0.999926 221:-1 222:-1 223:-1 224:-1 225:-1 226:-1 227:-1 228:-0.999879 229:-0.989384 230:-0.824475 231:-0.244217 232:0.131712 233:-0.532413 234:-0.94634 235:-0.997859 236:-0.999979 237:-1 238:-1 239:-1 240:-1 241:-1 242:-1 243:-1 244:-0.999917 245:-0.992685 246:-0.878994 247:-0.479028 248:-0.231357 249:-0.710881 250:-0.977035 251:-0.999503 252:-0.999997 253:-1 254:-1 255:-1 256:-1 
1 1:-0.999985 2:-0.999889 3:-0.999191 4:-0.995143 5:-0.984459 6:-0.962292 7:-0.904684 8:-0.802341 9:-0.680822 10:-0.580393 11:-0.545082 12:-0.569517 13:-0.684184 14:-0.859875 15:-0.965363 16:-0.995352 17:-0.99861 18:-0.992242 19:-0.973085 20:-0.908016 21:-0.760698 22:-0.591117 23:-0.397491 24:-0.137617 25:0.151376 26:0.379087 27:0.429604 28:0.329894 29:0.042119 30:-0.37084 31:-0.730861 32:-0.933326 33:-0.97179 34:-0.873101 35:-0.690698 36:-0.433097 37:-0.043579 38:0.300774 39:0.48012 40:0.540411 41:0.533767 42:0.502251 43:0.393612 44:0.240701 45:0.135897 46:0.132419 47:-0.151952 48:-0.63259 49:-0.795838 50:-0.381196 51:0.088872 52:0.422243 53:0.596683 54:0.58448 55:0.468532 56:0.232598 57:-0.09616 58:-0.356767 59:-0.52282 60:-0.608179 61:-0.465617 62:0.080784 63:0.385699 64:-0.087677 65:-0.328858 66:0.361245 67:0.660228 68:0.598619 69:0.336061 70:-0.085594 71:-0.402335 72:-0.617651 73:-0.783797 74:-0.891248 75:-0.943111 76:-0.918643 77:-0.594955 78:0.193582 79:0.638155 80:0.160127 81:0.134648 82:0.687318 83:0.499777 84:-0.059253 85:-0.500025 86:-0.769294 87:-0.903267 88:-0.96333 89:-0.984321 90:-0.983549 91:-0.9323 92:-0.716826 93:-0.182553 94:0.543154 95:0.661694 96:-0.031308 97:0.127837 98:0.588476 99:0.119308 100:-0.590635 101:-0.903995 102:-0.975512 103:-0.989366 104:-0.986509 105:-0.959218 106:-0.856178 107:-0.593235 108:-0.094584 109:0.475743 110:0.764027 111:0.449234 112:-0.36279 113:-0.209812 114:0.383897 115:0.193179 116:-0.457749 117:-0.794543 118:-0.898992 119:-0.897727 120:-0.812813 121:-0.646516 122:-0.314509 123:0.162336 124:0.616135 125:0.81992 126:0.576826 127:-0.093362 128:-0.721996 129:-0.664334 130:-0.093711 131:0.275413 132:0.107116 133:-0.182713 134:-0.377895 135:-0.369407 136:-0.172744 137:0.131634 138:0.503715 139:0.785791 140:0.922019 141:0.766924 142:0.124498 143:-0.605733 144:-0.932941 145:-0.928854 146:-0.670808 147:-0.225914 148:0.130609 149:0.306052 150:0.362489 151:0.411891 152:0.43691 153:0.546295 154:0.799015 155:0.947555 156:0.890433 157:0.453659 158:-0.35784 159:-0.867602 160:-0.989923 161:-0.993829 162:-0.945702 163:-0.801111 164:-0.562777 165:-0.249132 166:0.004822 167:0.120601 168:0.045095 169:0.189184 170:0.648818 171:0.854727 172:0.562904 173:-0.130149 174:-0.745723 175:-0.968354 176:-0.998528 177:-0.99979 178:-0.997041 179:-0.985344 180:-0.940889 181:-0.838136 182:-0.735925 183:-0.650445 184:-0.429975 185:0.183494 186:0.70916 187:0.629106 188:-0.021892 189:-0.662947 190:-0.941362 191:-0.995905 192:-0.999893 193:-0.999998 194:-0.999964 195:-0.999676 196:-0.997232 197:-0.990345 198:-0.975427 199:-0.840804 200:-0.29281 201:0.514089 202:0.719863 203:0.184301 204:-0.551836 205:-0.915966 206:-0.992735 207:-0.99973 208:-0.999997 209:-1 210:-1 211:-0.999998 212:-0.999971 213:-0.999726 214:-0.985392 215:-0.767542 216:-0.058787 217:0.602988 218:0.418619 219:-0.372882 220:-0.86535 221:-0.986478 222:-0.999392 223:-0.999989 224:-1 225:-1 226:-1 227:-1 228:-1 229:-0.999872 230:-0.988844 231:-0.820566 232:-0.280819 233:0.143082 234:-0.173974 235:-0.750869 236:-0.9733 237:-0.998714 238:-0.99997 239:-1 240:-1 241:-1 242:-1 243:-1 244:-1 245:-0.999964 246:-0.996866 247:-0.949207 248:-0.791873 249:-0.670708 250:-0.784044 251:-0.944773 252:-0.996088 253:-0.99992 254:-0.999999 255:-1 256:-1 
1 1:-1 2:-0.999998 3:-0.999823 4:-0.99573 5:-0.958478 6:-0.825895 7:-0.557129 8:-0.171538 9:0.153912 10:0.265699 11:0.063258 12:-0.352638 13:-0.742725 14:-0.948499 15:-0.99699 16:-0.999966 17:-0.999999 18:-0.999916 19:-0.99665 20:-0.952116 21:-0.738682 22:-0.279788 23:0.179635 24:0.348049 25:0.296064 26:0.158816 27:0.051819 28:0.059029 29:-0.295533 30:-0.810177 31:-0.987863 32:-0.999855 33:-0.999988 34:-0.998881 35:-0.974094 36:-0.776447 37:-0.22114 38:0.333442 39:0.345273 40:-0.085623 41:-0.48214 42:-0.639937 43:-0.519251 44:-0.059336 45:-0.058054 46:-0.695595 47:-0.97888 48:-0.999688 49:-0.999931 50:-0.994252 51:-0.898023 52:-0.441975 53:0.275971 54:0.352611 55:-0.214662 56:-0.708314 57:-0.919732 58:-0.928496 59:-0.779795 60:-0.485215 61:-0.349719 62:-0.763686 63:-0.98168 64:-0.999625 65:-0.999748 66:-0.983878 67:-0.758125 68:-0.068037 69:0.370714 70:-0.139188 71:-0.729388 72:-0.942439 73:-0.939697 74:-0.738336 75:-0.43777 76:-0.497063 77:-0.722735 78:-0.925812 79:-0.99434 80:-0.999868 81:-0.999526 82:-0.973275 83:-0.627606 84:0.206882 85:0.295091 86:-0.489823 87:-0.873457 88:-0.837614 89:-0.639386 90:-0.17797 91:0.232014 92:-0.155238 93:-0.771656 94:-0.981984 95:-0.999477 96:-0.999991 97:-0.99963 98:-0.974386 99:-0.625986 100:0.20334 101:0.29857 102:-0.302933 103:-0.461976 104:-0.245267 105:0.089044 106:0.481236 107:0.449171 108:-0.279847 109:-0.849028 110:-0.991079 111:-0.999895 112:-1 113:-0.999811 114:-0.984303 115:-0.75598 116:-0.109661 117:0.319263 118:0.309154 119:0.361351 120:0.440657 121:0.57083 122:0.682876 123:0.206873 124:-0.600731 125:-0.950381 126:-0.997781 127:-0.999977 128:-1 129:-0.999951 130:-0.995718 131:-0.927094 132:-0.645336 133:-0.201485 134:0.094874 135:0.170131 136:0.128919 137:0.304428 138:0.49413 139:-0.126747 140:-0.792624 141:-0.985917 142:-0.99974 143:-0.999999 144:-1 145:-0.999997 146:-0.9997 147:-0.992939 148:-0.939032 149:-0.800879 150:-0.682972 151:-0.647437 152:-0.461202 153:0.164139 154:0.378232 155:-0.396605 156:-0.904806 157:-0.995091 158:-0.999945 159:-1 160:-1 161:-1 162:-0.999995 163:-0.999754 164:-0.996684 165:-0.987599 166:-0.978189 167:-0.937488 168:-0.55053 169:0.320942 170:0.359899 171:-0.536614 172:-0.956405 173:-0.998596 174:-0.999987 175:-1 176:-1 177:-1 178:-1 179:-0.999998 180:-0.999963 181:-0.999805 182:-0.994937 183:-0.905469 184:-0.391853 185:0.4795 186:0.360487 187:-0.582942 188:-0.970839 189:-0.99953 190:-0.999998 191:-1 192:-1 193:-1 194:-1 195:-1 196:-1 197:-0.999884 198:-0.989758 199:-0.827105 200:-0.193018 201:0.554129 202:0.297556 203:-0.619421 204:-0.975216 205:-0.999706 206:-1 207:-1 208:-1 209:-1 210:-1 211:-1 212:-1 213:-0.999807 214:-0.983204 215:-0.7329 216:0.028611 217:0.542383 218:0.048644 219:-0.724426 220:-0.982614 221:-0.9998 222:-1 223:-1 224:-1 225:-1 226:-1 227:-1 228:-1 229:-0.999761 230:-0.97932 231:-0.678405 232:0.133557 233:0.412897 234:-0.287883 235:-0.856613 236:-0.991712 237:-0.999907 238:-1 239:-1 240:-1 241:-1 242:-1 243:-1 244:-1 245:-0.999825 246:-0.984846 247:-0.764942 248:-0.182403 249:-0.040001 250:-0.613823 251:-0.947371 252:-0.997532 253:-0.999974 254:-1 255:-1 256:-1 
1 1:-1 2:-1 3:-0.999997 4:-0.999631 5:-0.988314 6:-0.86682 7:-0.489725 8:-0.092165 9:-0.000864 10:-0.216476 11:-0.679517 12:-0.94469 13:-0.996992 14:-0.999966 15:-1 16:-1 17:-1 18:-1 19:-0.999966 20:-0.996902 21:-0.93875 22:-0.599418 23:-0.046054 24:-0.075274 25:-0.211906 26:-0.024438 27:-0.371086 28:-0.846159 29:-0.990512 30:-0.999891 31:-1 32:-1 33:-1 34:-1 35:-0.999888 36:-0.990184 37:-0.839794 38:-0.333929 39:0.00316 40:-0.448989 41:-0.4699 42:0.126514 43:-0.153116 44:-0.779582 45:-0.986179 46:-0.999841 47:-1 48:-1 49:-1 50:-1 51:-0.999831 52:-0.985371 53:-0.773898 54:-0.224189 55:-0.099305 56:-0.521288 57:-0.314759 58:0.231847 59:-0.236693 60:-0.828993 61:-0.989771 62:-0.999884 63:-1 64:-1 65:-1 66:-1 67:-0.999849 68:-0.986928 69:-0.795951 70:-0.266996 71:0.001438 72:-0.106969 73:0.161748 74:0.235328 75:-0.490068 76:-0.926926 77:-0.996456 78:-0.999962 79:-1 80:-1 81:-1 82:-1 83:-0.999936 84:-0.994337 85:-0.903223 86:-0.532112 87:-0.042071 88:0.14971 89:0.341893 90:0.108098 91:-0.649634 92:-0.972082 93:-0.999336 94:-0.999995 95:-1 96:-1 97:-1 98:-1 99:-0.999989 100:-0.998976 101:-0.98016 102:-0.873334 103:-0.669407 104:-0.391934 105:0.072374 106:-0.071355 107:-0.72201 108:-0.981664 109:-0.999772 110:-1 111:-1 112:-1 113:-1 114:-1 115:-0.999999 116:-0.999943 117:-0.998841 118:-0.991666 119:-0.956689 120:-0.645673 121:-0.020988 122:-0.210073 123:-0.784951 124:-0.986342 125:-0.999842 126:-1 127:-1 128:-1 129:-1 130:-1 131:-1 132:-0.999999 133:-0.999984 134:-0.99935 135:-0.969725 136:-0.602616 137:0.056551 138:-0.304311 139:-0.84373 140:-0.990664 141:-0.999894 142:-1 143:-1 144:-1 145:-1 146:-1 147:-1 148:-1 149:-0.999982 150:-0.998148 151:-0.949097 152:-0.523162 153:0.111945 154:-0.407027 155:-0.899989 156:-0.994733 157:-0.999942 158:-1 159:-1 160:-1 161:-1 162:-1 163:-1 164:-1 165:-0.999949 166:-0.995355 167:-0.908691 168:-0.424345 169:0.118247 170:-0.507333 171:-0.943783 172:-0.997796 173:-0.999978 174:-1 175:-1 176:-1 177:-1 178:-1 179:-1 180:-1 181:-0.999908 182:-0.991873 183:-0.860029 184:-0.328179 185:0.086592 186:-0.580606 187:-0.966769 188:-0.999295 189:-0.999995 190:-1 191:-1 192:-1 193:-1 194:-1 195:-1 196:-1 197:-0.999855 198:-0.987392 199:-0.798898 200:-0.227943 201:0.005836 202:-0.646302 203:-0.975804 204:-0.999694 205:-1 206:-1 207:-1 208:-1 209:-1 210:-1 211:-1 212:-1 213:-0.999799 214:-0.982679 215:-0.734449 216:-0.119914 217:-0.068619 218:-0.701108 219:-0.98021 220:-0.999769 221:-1 222:-1 223:-1 224:-1 225:-1 226:-1 227:-1 228:-1 229:-0.999761 230:-0.979502 231:-0.691521 232:-0.05575 233:-0.140163 234:-0.746357 235:-0.983548 236:-0.999809 237:-1 238:-1 239:-1 240:-1 241:-1 242:-1 243:-1 244:-1 245:-0.999801 246:-0.982911 247:-0.745591 248:-0.259382 249:-0.399283 250:-0.836472 251:-0.989617 252:-0.99988 253:-1 254:-1 255:-1 256:-1 
1 1:-0.999993 2:-0.999397 3:-0.985677 4:-0.870115 5:-0.518559 6:-0.078022 7:0.169186 8:0.224443 9:0.170101 10:-0.084433 11:-0.493824 12:-0.626916 13:-0.497889 14:-0.723047 15:-0.945346 16:-0.996887 17:-0.999903 18:-0.99449 19:-0.911341 20:-0.53206 21:0.079778 22:0.303014 23:0.140925 24:-0.030884 25:0.008071 26:0.013378 27:-0.098241 28:-0.019674 29:0.090618 30:-0.478946 31:-0.907473 32:-0.994951 33:-0.99913 34:-0.973983 35:-0.723586 36:-0.086151 37:0.221528 38:-0.148595 39:-0.557482 40:-0.682205 41:-0.518253 42:-0.17078 43:0.237025 44:0.484515 45:0.195551 46:-0.578135 47:-0.947453 48:-0.997671 49:-0.996754 50:-0.931152 51:-0.501948 52:0.188472 53:-0.00942 54:-0.503777 55:-0.672334 56:-0.565893 57:-0.260952 58:0.192485 59:0.626275 60:0.595228 61:-0.123028 62:-0.785928 63:-0.983753 64:-0.999599 65:-0.99442 66:-0.89512 67:-0.379764 68:0.32004 69:0.120976 70:-0.114245 71:-0.103605 72:-0.009577 73:0.017449 74:0.135347 75:0.581862 76:0.414712 77:-0.458741 78:-0.921167 79:-0.995971 80:-0.999947 81:-0.99545 82:-0.914544 83:-0.48883 84:0.192932 85:0.328704 86:0.234445 87:0.013456 88:-0.266819 89:-0.496494 90:-0.276322 91:0.404319 92:0.172656 93:-0.649316 94:-0.971721 95:-0.999282 96:-0.999994 97:-0.998642 98:-0.972491 99:-0.810516 100:-0.500913 101:-0.369554 102:-0.41505 103:-0.620834 104:-0.799657 105:-0.785292 106:-0.262011 107:0.347415 108:-0.099337 109:-0.778074 110:-0.986031 111:-0.999821 112:-1 113:-0.999901 114:-0.997312 115:-0.973814 116:-0.920111 117:-0.89211 118:-0.903444 119:-0.955411 120:-0.953946 121:-0.681621 122:0.019216 123:0.271683 124:-0.4064 125:-0.895187 126:-0.994282 127:-0.999936 128:-1 129:-0.999998 130:-0.999907 131:-0.998747 132:-0.995843 133:-0.994225 134:-0.994844 135:-0.99157 136:-0.884857 137:-0.387314 138:0.282756 139:0.053761 140:-0.668316 141:-0.965746 142:-0.998716 143:-0.999987 144:-1 145:-1 146:-0.999999 147:-0.999987 148:-0.999954 149:-0.999932 150:-0.9994 151:-0.978214 152:-0.72351 153:-0.002934 154:0.353927 155:-0.283521 156:-0.850559 157:-0.990539 158:-0.999841 159:-0.999999 160:-1 161:-1 162:-1 163:-1 164:-1 165:-0.999975 166:-0.997599 167:-0.944078 168:-0.535982 169:0.272799 170:0.244772 171:-0.563145 172:-0.950095 173:-0.997949 174:-0.999979 175:-1 176:-1 177:-1 178:-1 179:-1 180:-0.999999 181:-0.999874 182:-0.991448 183:-0.858694 184:-0.295494 185:0.353051 186:-0.030068 187:-0.744467 188:-0.982682 189:-0.999714 190:-0.999999 191:-1 192:-1 193:-1 194:-1 195:-1 196:-0.999992 197:-0.999122 198:-0.97179 199:-0.685451 200:0.048326 201:0.294248 202:-0.399247 203:-0.893848 204:-0.994193 205:-0.999935 206:-1 207:-1 208:-1 209:-1 210:-1 211:-1 212:-0.999954 213:-0.995801 214:-0.916695 215:-0.451928 216:0.300205 217:0.112842 218:-0.653167 219:-0.967261 220:-0.998909 221:-0.99999 222:-1 223:-1 224:-1 225:-1 226:-1 227:-1 228:-0.999893 229:-0.99058 230:-0.840558 231:-0.258928 232:0.303264 233:-0.159397 234:-0.797183 235:-0.987032 236:-0.999815 237:-0.999999 238:-1 239:-1 240:-1 241:-1 242:-1 243:-1 244:-0.9999 245:-0.99124 246:-0.856757 247:-0.40103 248:-0.093401 249:-0.541641 250:-0.916201 251:-0.995368 252:-0.999948 253:-1 254:-1 255:-1 256:-1 
1 1:-1 2:-0.999987 3:-0.999265 4:-0.985966 5:-0.892992 6:-0.617529 7:-0.220442 8:0.10633 9:0.258359 10:0.20533 11:-0.101867 12:-0.533097 13:-0.852201 14:-0.97623 15:-0.998611 16:-0.999976 17:-0.999996 18:-0.999635 19:-0.990024 20:-0.890649 21:-0.518393 22:0.034639 23:0.300757 24:0.268648 25:0.17339 26:0.122309 27:0.107781 28:-0.005473 29:-0.45631 30:-0.861902 31:-0.98738 32:-0.999571 33:-0.999883 34:-0.994751 35:-0.921139 36:-0.574508 37:0.032759 38:0.26289 39:-0.082194 40:-0.476886 41:-0.639892 42:-0.650878 43:-0.454475 44:-0.02319 45:-0.018035 46:-0.574723 47:-0.926444 48:-0.996011 49:-0.998659 50:-0.967566 51:-0.712355 52:-0.078359 53:0.261003 54:-0.148876 55:-0.674797 56:-0.917489 57:-0.968957 58:-0.926166 59:-0.717439 60:-0.299626 61:-0.014232 62:-0.358703 63:-0.837638 64:-0.989868 65:-0.993793 66:-0.889122 67:-0.406898 68:0.223954 69:-0.008935 70:-0.637308 71:-0.935855 72:-0.991245 73:-0.964562 74:-0.759087 75:-0.355856 76:-0.264123 77:-0.462068 78:-0.641463 79:-0.891204 80:-0.992843 81:-0.985899 82:-0.775295 83:-0.136213 84:0.183687 85:-0.435833 86:-0.893694 87:-0.982256 88:-0.963019 89:-0.803681 90:-0.300039 91:0.218958 92:-0.075032 93:-0.701633 94:-0.913912 95:-0.974113 96:-0.99825 97:-0.981618 98:-0.716545 99:-0.036926 100:0.083667 101:-0.572513 102:-0.877303 103:-0.839759 104:-0.679008 105:-0.303409 106:0.317437 107:0.403669 108:-0.306843 109:-0.855845 110:-0.987684 111:-0.998342 112:-0.999892 113:-0.985089 114:-0.765941 115:-0.143425 116:0.161923 117:-0.208289 118:-0.391671 119:-0.280878 120:-0.023401 121:0.331444 122:0.621254 123:0.200249 124:-0.613675 125:-0.956287 126:-0.998156 127:-0.999964 128:-0.999999 129:-0.994438 130:-0.904787 131:-0.535115 132:-0.010334 133:0.194809 134:0.209751 135:0.146498 136:0.10767 137:0.303151 138:0.527608 139:-0.055174 140:-0.765 141:-0.984378 142:-0.999747 143:-0.999999 144:-1 145:-0.999197 146:-0.98369 147:-0.883946 148:-0.64115 149:-0.39989 150:-0.332925 151:-0.476913 152:-0.47871 153:-0.011036 154:0.353413 155:-0.289957 156:-0.860265 157:-0.992014 158:-0.999909 159:-1 160:-1 161:-0.999959 162:-0.999013 163:-0.990397 164:-0.955893 165:-0.895456 166:-0.874276 167:-0.910858 168:-0.691541 169:0.023481 170:0.251294 171:-0.509981 172:-0.941245 173:-0.997525 174:-0.999975 175:-1 176:-1 177:-0.999999 178:-0.999982 179:-0.99972 180:-0.998077 181:-0.994367 182:-0.992378 183:-0.967386 184:-0.619137 185:0.16645 186:0.12788 187:-0.648493 188:-0.974465 189:-0.99953 190:-0.999997 191:-1 192:-1 193:-1 194:-1 195:-0.999997 196:-0.99998 197:-0.999912 198:-0.997448 199:-0.940617 200:-0.502053 201:0.236577 202:-0.071877 203:-0.758533 204:-0.984773 205:-0.999819 206:-1 207:-1 208:-1 209:-1 210:-1 211:-1 212:-1 213:-0.999932 214:-0.993865 215:-0.886712 216:-0.356837 217:0.273355 218:-0.217516 219:-0.827797 220:-0.989767 221:-0.999884 222:-1 223:-1 224:-1 225:-1 226:-1 227:-1 228:-1 229:-0.999919 230:-0.992747 231:-0.872049 232:-0.340596 233:0.247327 234:-0.197402 235:-0.811499 236:-0.988537 237:-0.999869 238:-1 239:-1 240:-1 241:-1 242:-1 243:-1 244:-1 245:-0.999965 246:-0.996791 247:-0.937727 248:-0.607346 249:-0.113791 250:-0.304467 251:-0.809653 252:-0.987885 253:-0.99986 254:-1 255:-1 256:-1 
1 1:-1 2:-0.999954 3:-0.997987 4:-0.967893 5:-0.796938 6:-0.408518 7:-0.023349 8:0.21057 9:0.247086 10:0.117451 11:-0.092064 12:-0.480914 13:-0.823508 14:-0.969439 15:-0.998182 16:-0.999971 17:-0.999986 18:-0.999153 19:-0.981374 20:-0.828136 21:-0.325361 22:0.312485 23:0.510105 24:0.358039 25:0.137604 26:0.142576 27:0.338292 28:0.202669 29:-0.357516 30:-0.840937 31:-0.987286 32:-0.999653 33:-0.99968 34:-0.990446 35:-0.88778 36:-0.459342 37:0.249875 38:0.534414 39:0.149039 40:-0.379376 41:-0.636289 42:-0.54236 43:-0.082085 44:0.362364 45:0.161146 46:-0.587773 47:-0.948664 48:-0.997726 49:-0.996516 50:-0.934556 51:-0.597361 52:0.108461 53:0.546361 54:0.178956 55:-0.506152 56:-0.874037 57:-0.96412 58:-0.919718 59:-0.636245 60:-0.009575 61:0.33963 62:-0.305116 63:-0.862918 64:-0.992163 65:-0.987304 66:-0.793997 67:-0.142034 68:0.541659 69:0.461133 70:-0.322837 71:-0.854959 72:-0.985994 73:-0.994858 74:-0.950178 75:-0.694082 76:-0.036443 77:0.490101 78:0.008072 79:-0.740103 80:-0.983703 81:-0.97816 82:-0.660331 83:0.206726 84:0.650642 85:0.160536 86:-0.644205 87:-0.961928 88:-0.996384 89:-0.967163 90:-0.769026 91:-0.227718 92:0.448219 93:0.728834 94:0.222902 95:-0.655998 96:-0.977869 97:-0.975327 98:-0.619506 99:0.304441 100:0.651758 101:0.051646 102:-0.705017 103:-0.957771 104:-0.966395 105:-0.851444 106:-0.372639 107:0.416915 108:0.835664 109:0.724132 110:0.043611 111:-0.727979 112:-0.982828 113:-0.980539 114:-0.695344 115:0.112438 116:0.623483 117:0.313989 118:-0.339114 119:-0.619547 120:-0.614747 121:-0.393327 122:0.147213 123:0.752999 124:0.862251 125:0.405888 126:-0.399043 127:-0.884515 128:-0.993402 129:-0.991014 130:-0.851854 131:-0.347235 132:0.308372 133:0.58593 134:0.440699 135:0.259682 136:0.277858 137:0.498592 138:0.748419 139:0.891217 140:0.637208 141:-0.110135 142:-0.756312 143:-0.972597 144:-0.998839 145:-0.99809 146:-0.965447 147:-0.798181 148:-0.376104 149:0.1927 150:0.516208 151:0.553342 152:0.594146 153:0.766342 154:0.923329 155:0.82136 156:0.234422 157:-0.559222 158:-0.930835 159:-0.995769 160:-0.999909 161:-0.999879 162:-0.997226 163:-0.973217 164:-0.856349 165:-0.568251 166:-0.255198 167:-0.142531 168:-0.003864 169:0.414315 170:0.805431 171:0.592512 172:-0.236192 173:-0.82914 174:-0.98566 175:-0.99954 176:-0.999995 177:-0.999998 178:-0.999919 179:-0.99855 180:-0.987044 181:-0.934741 182:-0.841134 183:-0.752071 184:-0.422563 185:0.291343 186:0.691005 187:0.259269 188:-0.572794 189:-0.944311 190:-0.997256 191:-0.999959 192:-1 193:-1 194:-0.999999 195:-0.999972 196:-0.999536 197:-0.99528 198:-0.960621 199:-0.747103 200:-0.137849 201:0.536832 202:0.516621 203:-0.194039 204:-0.803849 205:-0.984028 206:-0.999541 207:-0.999996 208:-1 209:-1 210:-1 211:-1 212:-0.999916 213:-0.992851 214:-0.876965 215:-0.380937 216:0.393328 217:0.643679 218:0.089937 219:-0.632618 220:-0.94505 221:-0.996996 222:-0.999953 223:-1 224:-1 225:-1 226:-1 227:-1 228:-0.999835 229:-0.985593 230:-0.768109 231:-0.061155 232:0.61244 233:0.45133 234:-0.376051 235:-0.880886 236:-0.991178 237:-0.999752 238:-0.999998 239:-1 240:-1 241:-1 242:-1 243:-1 244:-0.999874 245:-0.988974 246:-0.821807 247:-0.272189 248:0.212164 249:-0.050518 250:-0.700661 251:-0.969124 252:-0.998808 253:-0.999985 254:-1 255:-1 256:-1 
1 1:-1 2:-0.999999 3:-0.999894 4:-0.994636 5:-0.920569 6:-0.629984 7:-0.184078 8:0.122337 9:0.171878 10:-0.186421 11:-0.719382 12:-0.960169 13:-0.998033 14:-0.999978 15:-1 16:-1 17:-1 18:-0.99999 19:-0.998957 20:-0.971203 21:-0.711779 22:-0.049473 23:0.350943 24:0.239369 25:0.276892 26:0.281652 27:-0.334569 28:-0.856448 29:-0.990813 30:-0.999848 31:-0.999999 32:-1 33:-1 34:-0.999963 35:-0.996542 36:-0.927692 37:-0.480483 38:0.333202 39:0.318068 40:-0.284968 41:-0.194041 42:0.366185 43:0.049696 44:-0.686318 45:-0.969773 46:-0.998949 47:-0.99999 48:-1 49:-1 50:-0.999953 51:-0.995662 52:-0.913216 53:-0.421136 54:0.388296 55:0.284384 56:-0.228093 57:-0.052464 58:0.550277 59:0.365885 60:-0.518881 61:-0.941136 62:-0.997429 63:-0.999973 64:-1 65:-1 66:-0.999981 67:-0.99808 68:-0.952576 69:-0.578719 70:0.238542 71:0.570625 72:0.505049 73:0.628755 74:0.795584 75:0.393774 76:-0.541473 77:-0.952399 78:-0.99823 79:-0.999983 80:-1 81:-1 82:-0.999997 83:-0.999647 84:-0.985208 85:-0.806991 86:-0.27254 87:0.235558 88:0.467935 89:0.704491 90:0.733246 91:0.123849 92:-0.688556 93:-0.97631 94:-0.99946 95:-0.999996 96:-1 97:-1 98:-1 99:-0.999961 100:-0.997288 101:-0.957378 102:-0.814804 103:-0.625488 104:-0.338292 105:0.287946 106:0.514705 107:-0.19318 108:-0.825128 109:-0.989389 110:-0.999864 111:-1 112:-1 113:-1 114:-1 115:-0.999998 116:-0.999844 117:-0.99743 118:-0.988131 119:-0.95446 120:-0.631182 121:0.2003 122:0.375592 123:-0.458794 124:-0.928959 125:-0.996754 126:-0.999966 127:-1 128:-1 129:-1 130:-1 131:-1 132:-0.999998 133:-0.999967 134:-0.999287 135:-0.970111 136:-0.600948 137:0.257151 138:0.266172 139:-0.594252 140:-0.969397 141:-0.999375 142:-0.999996 143:-1 144:-1 145:-1 146:-1 147:-1 148:-1 149:-0.999979 150:-0.997955 151:-0.946596 152:-0.505815 153:0.351392 154:0.203533 155:-0.646271 156:-0.976916 157:-0.999722 158:-1 159:-1 160:-1 161:-1 162:-1 163:-1 164:-0.999999 165:-0.999898 166:-0.993909 167:-0.89425 168:-0.366882 169:0.399073 170:0.094468 171:-0.700371 172:-0.980924 173:-0.99978 174:-1 175:-1 176:-1 177:-1 178:-1 179:-1 180:-0.99999 181:-0.999159 182:-0.978102 183:-0.776263 184:-0.1261 185:0.442151 186:-0.043997 187:-0.761042 188:-0.98516 189:-0.99983 190:-1 191:-1 192:-1 193:-1 194:-1 195:-0.999998 196:-0.999792 197:-0.994271 198:-0.928446 199:-0.542923 200:0.268201 201:0.534723 202:-0.179493 203:-0.82096 204:-0.989332 205:-0.999879 206:-1 207:-1 208:-1 209:-1 210:-1 211:-0.99997 212:-0.997361 213:-0.953907 214:-0.748061 215:-0.196988 216:0.573676 217:0.58743 218:-0.261527 219:-0.856067 220:-0.991763 221:-0.999907 222:-1 223:-1 224:-1 225:-1 226:-1 227:-0.99992 228:-0.992974 229:-0.882682 230:-0.457807 231:0.211522 232:0.690607 233:0.468787 234:-0.349836 235:-0.87551 236:-0.992913 237:-0.99992 238:-1 239:-1 240:-1 241:-1 242:-1 243:-0.999949 244:-0.995441 245:-0.921063 246:-0.598547 247:-0.056686 248:0.219958 249:-0.085768 250:-0.64373 251:-0.937798 252:-0.996582 253:-0.999962 254:-1 255:-1 256:-1 
1 1:-0.999999 2:-0.999889 3:-0.996822 4:-0.962613 5:-0.807857 6:-0.463517 7:-0.061315 8:0.168268 9:0.199411 10:0.129355 11:0.023971 12:-0.185929 13:-0.601067 14:-0.911231 15:-0.994199 16:-0.999901 17:-0.999963 18:-0.998065 19:-0.966754 20:-0.779801 21:-0.304207 22:0.192462 23:0.273014 24:0.055486 25:-0.131304 26:-0.195504 27:-0.112747 28:0.089459 29:-0.123953 30:-0.715826 31:-0.971892 32:-0.999003 33:-0.999446 34:-0.984627 35:-0.837867 36:-0.349779 37:0.215039 38:0.200722 39:-0.269286 40:-0.641825 41:-0.782511 42:-0.799213 43:-0.658906 44:-0.168437 45:0.161583 46:-0.41864 47:-0.892784 48:-0.993677 49:-0.995659 50:-0.919948 51:-0.533708 52:0.116886 53:0.1893 54:-0.374213 55:-0.805434 56:-0.954992 57:-0.985324 58:-0.978903 59:-0.8291 60:-0.23321 61:0.410071 62:0.024773 63:-0.718009 64:-0.977981 65:-0.985643 66:-0.77538 67:-0.130833 68:0.274796 69:-0.211112 70:-0.782408 71:-0.972283 72:-0.997412 73:-0.999363 74:-0.987862 75:-0.828747 76:-0.208949 77:0.539197 78:0.292215 79:-0.598161 80:-0.964338 81:-0.971851 82:-0.633366 83:0.132189 84:0.13444 85:-0.573854 86:-0.940013 87:-0.99552 88:-0.995351 89:-0.985751 90:-0.93337 91:-0.642231 92:0.049672 93:0.505771 94:0.038042 95:-0.713684 96:-0.977939 97:-0.961351 98:-0.566401 99:0.224937 100:0.077509 101:-0.619806 102:-0.926397 103:-0.957997 104:-0.910387 105:-0.798325 106:-0.578899 107:-0.10697 108:0.420621 109:0.255719 110:-0.451323 111:-0.894604 112:-0.993726 113:-0.974433 114:-0.671652 115:0.048119 116:0.223227 117:-0.189298 118:-0.489071 119:-0.543895 120:-0.428597 121:-0.187251 122:0.14684 123:0.540913 124:0.504155 125:-0.2271 126:-0.808676 127:-0.978925 128:-0.999098 129:-0.991467 130:-0.86543 131:-0.424402 132:0.092017 133:0.26056 134:0.22051 135:0.168868 136:0.176094 137:0.193831 138:0.341358 139:0.639091 140:0.273702 141:-0.578875 142:-0.950802 143:-0.997476 144:-0.999942 145:-0.998603 146:-0.974672 147:-0.852555 148:-0.583434 149:-0.310022 150:-0.203447 151:-0.226334 152:-0.328521 153:-0.371583 154:0.026632 155:0.455092 156:-0.057035 157:-0.762451 158:-0.98409 159:-0.999733 160:-0.999998 161:-0.999924 162:-0.998479 163:-0.988166 164:-0.943977 165:-0.862527 166:-0.819562 167:-0.822305 168:-0.83066 169:-0.58616 170:0.115942 171:0.330677 172:-0.372783 173:-0.884742 174:-0.993578 175:-0.999927 176:-1 177:-0.999999 178:-0.999977 179:-0.99968 180:-0.997385 181:-0.992128 182:-0.989038 183:-0.980454 184:-0.849928 185:-0.314626 186:0.316398 187:0.044115 188:-0.667702 189:-0.962643 190:-0.998465 191:-0.999984 192:-1 193:-1 194:-1 195:-0.999997 196:-0.999972 197:-0.9999 198:-0.998664 199:-0.966243 200:-0.664234 201:0.064864 202:0.281405 203:-0.380493 204:-0.878925 205:-0.992158 206:-0.999845 207:-0.999999 208:-1 209:-1 210:-1 211:-1 212:-1 213:-0.999929 214:-0.993634 215:-0.885479 216:-0.378078 217:0.291747 218:0.01596 219:-0.689687 220:-0.967934 221:-0.998777 222:-0.999987 223:-1 224:-1 225:-1 226:-1 227:-1 228:-1 229:-0.999821 230:-0.984425 231:-0.753228 232:-0.068713 233:0.269162 234:-0.349603 235:-0.870476 236:-0.991946 237:-0.999865 238:-0.999999 239:-1 240:-1 241:-1 242:-1 243:-1 244:-1 245:-0.999814 246:-0.983959 247:-0.75462 248:-0.193038 249:-0.141163 250:-0.684597 251:-0.962462 252:-0.998405 253:-0.999983 254:-1 255:-1 256:-1 
1 1:-0.999996 2:-0.999691 3:-0.992783 4:-0.934043 5:-0.735495 6:-0.357905 7:0.113604 8:0.295831 9:0.016146 10:-0.440258 11:-0.801001 12:-0.963065 13:-0.997533 14:-0.999946 15:-1 16:-1 17:-0.99993 18:-0.995878 19:-0.933535 20:-0.649506 21:-0.096738 22:0.405618 23:0.59085 24:0.518495 25:0.328906 26:0.139784 27:-0.331175 28:-0.813171 29:-0.980963 30:-0.999275 31:-0.999993 32:-1 33:-0.999435 34:-0.979747 35:-0.754964 36:-0.094291 37:0.524033 38:0.59436 39:0.173199 40:-0.234763 41:-0.318238 42:0.04246 43:0.114593 44:-0.513609 45:-0.919286 46:-0.995445 47:-0.999928 48:-1 49:-0.99822 50:-0.95264 51:-0.548163 52:0.363845 53:0.669591 54:0.159824 55:-0.514677 56:-0.828967 57:-0.826864 58:-0.366145 59:0.226142 60:-0.16116 61:-0.77313 62:-0.977569 63:-0.99904 64:-0.999981 65:-0.997696 66:-0.942347 67:-0.484689 68:0.456349 69:0.484875 70:-0.368111 71:-0.879048 72:-0.98304 73:-0.949979 74:-0.567314 75:0.218043 76:0.230149 77:-0.426986 78:-0.878515 79:-0.990772 80:-0.999749 81:-0.998826 82:-0.96128 83:-0.569227 84:0.323686 85:0.39144 86:-0.473757 87:-0.914646 88:-0.963554 89:-0.873311 90:-0.425233 91:0.379481 92:0.635987 93:0.100994 94:-0.677966 95:-0.971074 96:-0.999093 97:-0.999667 98:-0.980757 99:-0.722888 100:0.006573 101:0.374593 102:-0.121995 103:-0.527286 104:-0.586306 105:-0.397979 106:0.129144 107:0.694987 108:0.746147 109:0.138299 110:-0.663139 111:-0.967326 112:-0.998855 113:-0.999924 114:-0.993756 115:-0.894481 116:-0.485022 117:0.099681 118:0.3092 119:0.290192 120:0.332111 121:0.486908 122:0.711866 123:0.755449 124:0.392464 125:-0.337513 126:-0.847729 127:-0.986928 128:-0.999579 129:-0.99999 130:-0.999058 131:-0.98122 132:-0.866999 133:-0.542886 134:-0.079853 135:0.339867 136:0.688801 137:0.872954 138:0.781201 139:0.293513 140:-0.329396 141:-0.793281 142:-0.96923 143:-0.998163 144:-0.999961 145:-0.999999 146:-0.99995 147:-0.9988 148:-0.987024 149:-0.917686 150:-0.709123 151:-0.245646 152:0.474214 153:0.812506 154:0.471833 155:-0.335766 156:-0.822849 157:-0.968796 158:-0.997318 159:-0.999902 160:-0.999999 161:-1 162:-0.999999 163:-0.999974 164:-0.999294 165:-0.984691 166:-0.826273 167:-0.243407 168:0.537747 169:0.65406 170:0.016108 171:-0.709835 172:-0.968616 173:-0.997815 174:-0.999901 175:-0.999998 176:-1 177:-1 178:-1 179:-0.999975 180:-0.997668 181:-0.950166 182:-0.619598 183:0.159718 184:0.698162 185:0.410118 186:-0.431216 187:-0.901856 188:-0.994175 189:-0.999891 190:-0.999999 191:-1 192:-1 193:-1 194:-1 195:-0.999882 196:-0.990277 197:-0.838437 198:-0.250443 199:0.551763 200:0.796211 201:0.275162 202:-0.616972 203:-0.967319 204:-0.999071 205:-0.999992 206:-1 207:-1 208:-1 209:-1 210:-0.999998 211:-0.999653 212:-0.9788 213:-0.690727 214:0.132431 215:0.779737 216:0.788786 217:0.152783 218:-0.683317 219:-0.978544 220:-0.999668 221:-0.999999 222:-1 223:-1 224:-1 225:-1 226:-0.999996 227:-0.999441 228:-0.973187 229:-0.640488 230:0.236213 231:0.760585 232:0.536771 233:-0.2351 234:-0.829178 235:-0.989381 236:-0.999856 237:-1 238:-1 239:-1 240:-1 241:-1 242:-0.999998 243:-0.999727 244:-0.985144 245:-0.788007 246:-0.201403 247:0.228783 248:-0.052854 249:-0.666023 250:-0.952151 251:-0.997614 252:-0.999973 253:-1 254:-1 255:-1 256:-1 
1 1:-1 2:-1 3:-0.99999 4:-0.9991 5:-0.980019 6:-0.83773 7:-0.464366 8:-0.111447 9:-0.019008 10:-0.160801 11:-0.565115 12:-0.900223 13:-0.993855 14:-0.999924 15:-1 16:-1 17:-1 18:-1 19:-0.999927 20:-0.993737 21:-0.894292 22:-0.501898 23:-0.045576 24:-0.131853 25:-0.35762 26:-0.270619 27:-0.25629 28:-0.744324 29:-0.980906 30:-0.999642 31:-0.999998 32:-1 33:-1 34:-0.999999 35:-0.999737 36:-0.981162 37:-0.724543 38:-0.13742 39:-0.121158 40:-0.590106 41:-0.797605 42:-0.474937 43:-0.060921 44:-0.597373 45:-0.956641 46:-0.998405 47:-0.999985 48:-1 49:-1 50:-0.999995 51:-0.999283 52:-0.967373 53:-0.593063 54:0.058551 55:-0.306695 56:-0.73811 57:-0.675774 58:-0.197955 59:0.153606 60:-0.495104 61:-0.932033 62:-0.996878 63:-0.999967 64:-1 65:-1 66:-0.999983 67:-0.998241 68:-0.952256 69:-0.553186 70:0.10875 71:-0.146319 72:-0.373901 73:-0.137233 74:0.316901 75:0.20346 76:-0.5866 77:-0.957916 78:-0.998488 79:-0.999985 80:-1 81:-1 82:-0.999969 83:-0.997147 84:-0.944519 85:-0.646194 86:-0.148069 87:-0.056107 88:-0.099992 89:0.05203 90:0.376118 91:-0.056549 92:-0.749266 93:-0.982639 94:-0.999692 95:-0.999998 96:-1 97:-1 98:-0.999972 99:-0.997586 100:-0.960896 101:-0.837791 102:-0.705006 103:-0.658849 104:-0.598095 105:-0.234573 106:0.201602 107:-0.370622 108:-0.884599 109:-0.993582 110:-0.999925 111:-1 112:-1 113:-1 114:-0.999991 115:-0.999273 116:-0.989061 117:-0.966221 118:-0.964103 119:-0.963103 120:-0.810027 121:-0.265641 122:0.070616 123:-0.575354 124:-0.956916 125:-0.998511 126:-0.999986 127:-1 128:-1 129:-1 130:-0.999999 131:-0.999952 132:-0.999297 133:-0.99801 134:-0.998217 135:-0.981124 136:-0.723675 137:-0.093152 138:-0.050779 139:-0.695011 140:-0.97898 141:-0.999696 142:-0.999999 143:-1 144:-1 145:-1 146:-1 147:-0.999999 148:-0.999992 149:-0.999973 150:-0.999326 151:-0.969996 152:-0.622077 153:0.034451 154:-0.232708 155:-0.805324 156:-0.987878 157:-0.99986 158:-1 159:-1 160:-1 161:-1 162:-1 163:-1 164:-1 165:-0.999976 166:-0.997626 167:-0.94233 168:-0.517975 169:0.079138 170:-0.441959 171:-0.910186 172:-0.995391 173:-0.99995 174:-1 175:-1 176:-1 177:-1 178:-1 179:-1 180:-1 181:-0.999932 182:-0.993924 183:-0.890194 184:-0.410373 185:0.035409 186:-0.581435 187:-0.962528 188:-0.998955 189:-0.999991 190:-1 191:-1 192:-1 193:-1 194:-1 195:-1 196:-1 197:-0.999869 198:-0.988628 199:-0.818316 200:-0.298704 201:-0.080347 202:-0.675423 203:-0.977613 204:-0.999705 205:-0.999999 206:-1 207:-1 208:-1 209:-1 210:-1 211:-1 212:-1 213:-0.999799 214:-0.982696 215:-0.738973 216:-0.192541 217:-0.248374 218:-0.775231 219:-0.985366 220:-0.99983 221:-1 222:-1 223:-1 224:-1 225:-1 226:-1 227:-1 228:-1 229:-0.999757 230:-0.979264 231:-0.694942 232:-0.162463 233:-0.423365 234:-0.864427 235:-0.991772 236:-0.999906 237:-1 238:-1 239:-1 240:-1 241:-1 242:-1 243:-1 244:-1 245:-0.999803 246:-0.983196 247:-0.755606 248:-0.368891 249:-0.65142 250:-0.93914 251:-0.996739 252:-0.999964 253:-1 254:-1 255:-1 256:-1 
1 1:-1 2:-0.999999 3:-0.999846 4:-0.994932 5:-0.937116 6:-0.700802 7:-0.273104 8:0.090612 9:0.229974 10:0.276161 11:0.121981 12:-0.385029 13:-0.827502 14:-0.978834 15:-0.999036 16:-0.99999 17:-1 18:-0.999968 19:-0.997751 20:-0.957684 21:-0.715737 22:-0.194406 23:0.126936 24:0.032198 25:-0.070011 26:0.10467 27:0.378803 28:0.207255 29:-0.454722 30:-0.893576 31:-0.993897 32:-0.999931 33:-0.999998 34:-0.999692 35:-0.987316 36:-0.831742 37:-0.317749 38:0.124373 39:-0.163838 40:-0.603655 41:-0.75191 42:-0.609175 43:-0.102048 44:0.388257 45:-0.033978 46:-0.746555 47:-0.984031 48:-0.999816 49:-0.999982 50:-0.998197 51:-0.955962 52:-0.617075 53:0.053533 54:0.023145 55:-0.597634 56:-0.926608 57:-0.980194 58:-0.924171 59:-0.491705 60:0.302628 61:0.137797 62:-0.668385 63:-0.978547 64:-0.999752 65:-0.99993 66:-0.993702 67:-0.886225 68:-0.382936 69:0.18896 70:-0.26912 71:-0.832268 72:-0.987409 73:-0.998308 74:-0.959609 75:-0.557761 76:0.288383 77:0.199109 78:-0.639683 79:-0.976518 80:-0.999728 81:-0.999848 82:-0.986734 83:-0.787219 84:-0.165971 85:0.138743 86:-0.530128 87:-0.941089 88:-0.997338 89:-0.995594 90:-0.913024 91:-0.422006 92:0.382222 93:0.182119 94:-0.657607 95:-0.97788 96:-0.999744 97:-0.999778 98:-0.980845 99:-0.704948 100:-0.003242 101:0.091293 102:-0.637376 103:-0.972976 104:-0.999062 105:-0.986917 106:-0.810698 107:-0.175752 108:0.415067 109:-0.045731 110:-0.759425 111:-0.985024 112:-0.999828 113:-0.999735 114:-0.977202 115:-0.651869 116:0.135784 117:0.180237 118:-0.596579 119:-0.951375 120:-0.981011 121:-0.93479 122:-0.611324 123:0.123016 124:0.352526 125:-0.372039 126:-0.888335 127:-0.993886 128:-0.999932 129:-0.999752 130:-0.978522 131:-0.667719 132:0.147641 133:0.385281 134:-0.267686 135:-0.68246 136:-0.742159 137:-0.606139 138:-0.144561 139:0.412947 140:0.162409 141:-0.627547 142:-0.962687 143:-0.998662 144:-0.999987 145:-0.999854 146:-0.987299 147:-0.79566 148:-0.176936 149:0.373797 150:0.289363 151:0.003895 152:-0.128824 153:-0.018439 154:0.353736 155:0.500212 156:-0.157955 157:-0.804812 158:-0.987413 159:-0.999805 160:-0.999999 161:-0.999962 162:-0.996578 163:-0.939201 164:-0.670996 165:-0.19254 166:0.130712 167:0.16847 168:-0.012114 169:-0.08088 170:0.2323 171:0.286045 172:-0.471963 173:-0.924601 174:-0.996343 175:-0.99996 176:-1 177:-0.999997 178:-0.999705 179:-0.993074 180:-0.93994 181:-0.7985 182:-0.649106 183:-0.584085 184:-0.643181 185:-0.469432 186:0.12741 187:0.089991 188:-0.647285 189:-0.971676 190:-0.999318 191:-0.999995 192:-1 193:-1 194:-0.999991 195:-0.999708 196:-0.996631 197:-0.987192 198:-0.973239 199:-0.960934 200:-0.922068 201:-0.521465 202:0.209711 203:-0.037877 204:-0.737679 205:-0.983101 206:-0.999789 207:-1 208:-1 209:-1 210:-1 211:-0.999997 212:-0.999962 213:-0.999835 214:-0.999372 215:-0.993899 216:-0.902187 217:-0.395074 218:0.296428 219:-0.109151 220:-0.781772 221:-0.986554 222:-0.999846 223:-1 224:-1 225:-1 226:-1 227:-1 228:-1 229:-1 230:-0.99992 231:-0.993142 232:-0.876767 233:-0.334386 234:0.322154 235:-0.091383 236:-0.774016 237:-0.986005 238:-0.99984 239:-1 240:-1 241:-1 242:-1 243:-1 244:-1 245:-1 246:-0.999948 247:-0.995299 248:-0.913656 249:-0.510047 250:0.039767 251:-0.200148 252:-0.782614 253:-0.986187 254:-0.999841 255:-1 256:-1 
1 1:-1 2:-0.999995 3:-0.99972 4:-0.994304 5:-0.952501 6:-0.819273 7:-0.583028 8:-0.277898 9:-0.041721 10:0.059735 11:0.144138 12:0.118416 13:-0.240157 14:-0.73166 15:-0.959144 16:-0.997902 17:-0.999997 18:-0.999778 19:-0.993781 20:-0.931109 21:-0.696367 22:-0.310366 23:0.002944 24:0.118546 25:0.039312 26:-0.089578 27:-0.045226 28:0.243192 29:0.284465 30:-0.325056 31:-0.852409 32:-0.991194 33:-0.99992 34:-0.996312 35:-0.943024 36:-0.677216 37:-0.177171 38:0.062337 39:-0.162252 40:-0.465411 41:-0.647358 42:-0.738556 43:-0.686336 44:-0.245286 45:0.338722 46:-0.006055 47:-0.731942 48:-0.982993 49:-0.998956 50:-0.974348 51:-0.767429 52:-0.231423 53:0.089174 54:-0.25054 55:-0.695183 56:-0.909297 57:-0.969969 58:-0.973275 59:-0.828558 60:-0.254278 61:0.389811 62:0.080789 63:-0.697591 64:-0.980619 65:-0.994037 66:-0.893993 67:-0.440147 68:0.131362 69:-0.119318 70:-0.690065 71:-0.945394 72:-0.99345 73:-0.997215 74:-0.962454 75:-0.631538 76:0.175652 77:0.489976 78:-0.097915 79:-0.77656 80:-0.986124 81:-0.984876 82:-0.759307 83:-0.079446 84:0.245076 85:-0.430234 86:-0.903553 87:-0.992025 88:-0.993687 89:-0.970416 90:-0.832347 91:-0.311752 92:0.405249 93:0.244644 94:-0.493631 95:-0.910736 96:-0.995085 97:-0.981207 98:-0.706868 99:0.041375 100:0.257604 101:-0.491733 102:-0.914542 103:-0.95853 104:-0.898645 105:-0.744584 106:-0.401213 107:0.189052 108:0.445207 109:-0.22235 110:-0.815251 111:-0.981288 112:-0.999256 113:-0.986024 114:-0.775027 115:-0.101155 116:0.353575 117:-0.114496 118:-0.528386 119:-0.591907 120:-0.443733 121:-0.202927 122:0.083136 123:0.403683 124:0.365636 125:-0.487477 126:-0.939605 127:-0.997133 128:-0.999945 129:-0.994274 130:-0.897857 131:-0.451445 132:0.201817 133:0.294299 134:0.122393 135:0.010561 136:0.020135 137:-0.072159 138:-0.103732 139:0.263624 140:0.235855 141:-0.586782 142:-0.967745 143:-0.99929 144:-0.999995 145:-0.998906 146:-0.976722 147:-0.824996 148:-0.485597 149:-0.244432 150:-0.210505 151:-0.362481 152:-0.528747 153:-0.649452 154:-0.45549 155:0.204209 156:0.096901 157:-0.668459 158:-0.977551 159:-0.999682 160:-0.999999 161:-0.99993 162:-0.997898 163:-0.976966 164:-0.911803 165:-0.83367 166:-0.806082 167:-0.862289 168:-0.933025 169:-0.903719 170:-0.464871 171:0.262765 172:-0.040805 173:-0.746377 174:-0.983971 175:-0.999812 176:-1 177:-0.999999 178:-0.999927 179:-0.998916 180:-0.995237 181:-0.990095 182:-0.988052 183:-0.991796 184:-0.988734 185:-0.854706 186:-0.284525 187:0.293067 188:-0.220449 189:-0.828213 190:-0.989778 191:-0.999884 192:-1 193:-1 194:-0.999999 195:-0.999988 196:-0.999947 197:-0.999888 198:-0.999863 199:-0.999703 200:-0.983515 201:-0.743109 202:-0.037985 203:0.258382 204:-0.461428 205:-0.922716 206:-0.996261 207:-0.99996 208:-1 209:-1 210:-1 211:-1 212:-1 213:-1 214:-0.999997 215:-0.999493 216:-0.973505 217:-0.639352 218:0.155983 219:0.200613 220:-0.599971 221:-0.965932 222:-0.999076 223:-0.999992 224:-1 225:-1 226:-1 227:-1 228:-1 229:-1 230:-0.999992 231:-0.999019 232:-0.96351 233:-0.572461 234:0.24225 235:0.121234 236:-0.653205 237:-0.970425 238:-0.999169 239:-0.999993 240:-1 241:-1 242:-1 243:-1 244:-1 245:-1 246:-0.999994 247:-0.999237 248:-0.971794 249:-0.671819 250:-0.064483 251:-0.186542 252:-0.747256 253:-0.97563 254:-0.999161 255:-0.999992 256:-1 
1 1:-0.999989 2:-0.999322 3:-0.98621 4:-0.888685 5:-0.602449 6:-0.185831 7:0.217713 8:0.444598 9:0.487743 10:0.384872 11:0.058467 12:-0.375551 13:-0.750746 14:-0.94975 15:-0.997056 16:-0.999967 17:-0.999868 18:-0.992736 19:-0.889763 20:-0.485858 21:0.133933 22:0.52897 23:0.601191 24:0.567695 25:0.567892 26:0.65194 27:0.687479 28:0.419732 29:-0.208389 30:-0.801941 31:-0.987544 32:-0.999851 33:-0.999584 34:-0.977295 35:-0.681255 36:0.123655 37:0.659575 38:0.580299 39:0.14455 40:-0.125928 41:-0.063164 42:0.329832 43:0.795725 44:0.817269 45:0.242295 46:-0.644802 47:-0.975831 48:-0.999635 49:-0.999533 50:-0.971913 51:-0.599745 52:0.342272 53:0.742875 54:0.420387 55:0.022006 56:0.020909 57:0.301777 58:0.660782 59:0.911435 60:0.847365 61:0.255137 62:-0.638055 63:-0.97363 64:-0.999486 65:-0.999736 66:-0.980763 67:-0.709075 68:0.052468 69:0.601178 70:0.670034 71:0.589841 72:0.58022 73:0.677515 74:0.847344 75:0.937478 76:0.686685 77:-0.091378 78:-0.781109 79:-0.985291 80:-0.999746 81:-0.999923 82:-0.993447 83:-0.892523 84:-0.524013 85:-0.015711 86:0.314968 87:0.378589 88:0.248974 89:0.273425 90:0.636402 91:0.83078 92:0.423196 93:-0.451686 94:-0.912864 95:-0.995367 96:-0.999943 97:-0.99999 98:-0.999062 99:-0.982931 100:-0.901886 101:-0.742254 102:-0.614543 103:-0.584218 104:-0.595571 105:-0.271812 106:0.515335 107:0.69888 108:0.054089 109:-0.705283 110:-0.972923 111:-0.999104 112:-0.999992 113:-0.999999 114:-0.999953 115:-0.999105 116:-0.994241 117:-0.983713 118:-0.974785 119:-0.963036 120:-0.825112 121:-0.239119 122:0.566671 123:0.491334 124:-0.354752 125:-0.881141 126:-0.992905 127:-0.999889 128:-1 129:-1 130:-0.999999 131:-0.99999 132:-0.999935 133:-0.999794 134:-0.997923 135:-0.957728 136:-0.639473 137:0.147292 138:0.625506 139:0.171612 140:-0.643529 141:-0.964142 142:-0.998685 143:-0.999987 144:-1 145:-1 146:-1 147:-1 148:-1 149:-0.99992 150:-0.992872 151:-0.874527 152:-0.340223 153:0.489393 154:0.584694 155:-0.193933 156:-0.824217 157:-0.988824 158:-0.999824 159:-0.999999 160:-1 161:-1 162:-1 163:-1 164:-0.999999 165:-0.999786 166:-0.984591 167:-0.760769 168:-0.035925 169:0.657711 170:0.456387 171:-0.469138 172:-0.929794 173:-0.996736 174:-0.999965 175:-1 176:-1 177:-1 178:-1 179:-1 180:-0.99999 181:-0.998917 182:-0.965929 183:-0.626489 184:0.236317 185:0.720749 186:0.298073 187:-0.612085 188:-0.969768 189:-0.999298 190:-0.999995 191:-1 192:-1 193:-1 194:-1 195:-1 196:-0.999942 197:-0.994775 198:-0.901588 199:-0.401398 200:0.488819 201:0.714162 202:0.076931 203:-0.716627 204:-0.981826 205:-0.999773 206:-1 207:-1 208:-1 209:-1 210:-1 211:-1 212:-0.999831 213:-0.985523 214:-0.767001 215:-0.047351 216:0.674253 217:0.585502 218:-0.232776 219:-0.838152 220:-0.990438 221:-0.999891 222:-1 223:-1 224:-1 225:-1 226:-1 227:-1 228:-0.999743 229:-0.97832 230:-0.664326 231:0.194193 232:0.670212 233:0.26227 234:-0.558496 235:-0.939113 236:-0.997069 237:-0.999969 238:-1 239:-1 240:-1 241:-1 242:-1 243:-1 244:-0.999817 245:-0.984435 246:-0.757232 247:-0.123148 248:0.17906 249:-0.282037 250:-0.814751 251:-0.984438 252:-0.99954 253:-0.999996 254:-1 255:-1 256:-1 
1 1:-1 2:-0.999982 3:-0.999099 4:-0.98556 5:-0.918084 6:-0.800581 7:-0.634686 8:-0.233355 9:0.111886 10:0.222282 11:0.182259 12:-0.141196 13:-0.698027 14:-0.959264 15:-0.998074 16:-0.999979 17:-0.999996 18:-0.999622 19:-0.989154 20:-0.884646 21:-0.570078 22:-0.316225 23:-0.364242 24:-0.263237 25:-0.163401 26:-0.077038 27:0.144576 28:0.224907 29:-0.327203 30:-0.848609 31:-0.990885 32:-0.999896 33:-0.999959 34:-0.996312 35:-0.930482 36:-0.579161 37:0.009396 38:0.032632 39:-0.433378 40:-0.656579 41:-0.589395 42:-0.330602 43:0.152551 44:0.514344 45:0.101978 46:-0.691365 47:-0.980184 48:-0.999771 49:-0.99985 50:-0.986902 51:-0.787865 52:-0.132439 53:0.382502 54:0.014754 55:-0.433388 56:-0.463586 57:-0.154657 58:0.262117 59:0.62118 60:0.752907 61:0.257047 62:-0.63985 63:-0.976717 64:-0.999731 65:-0.999769 66:-0.98001 67:-0.68733 68:0.134611 69:0.602134 70:0.351538 71:0.218824 72:0.303469 73:0.371288 74:0.444022 75:0.643094 76:0.687848 77:0.097591 78:-0.705289 79:-0.981263 80:-0.999784 81:-0.99984 82:-0.986081 83:-0.779423 84:-0.15384 85:0.382361 86:0.491079 87:0.466827 88:0.299304 89:-0.061481 90:-0.138876 91:0.321113 92:0.381367 93:-0.268809 94:-0.835379 95:-0.990068 96:-0.999887 97:-0.999957 98:-0.996271 99:-0.938448 100:-0.726698 101:-0.429828 102:-0.236942 103:-0.251051 104:-0.46663 105:-0.622272 106:-0.267354 107:0.320978 108:0.024971 109:-0.649595 110:-0.949471 111:-0.99748 112:-0.999973 113:-0.999997 114:-0.999755 115:-0.995282 116:-0.96919 117:-0.905591 118:-0.842426 119:-0.84586 120:-0.898541 121:-0.709692 122:0.008617 123:0.413471 124:-0.204051 125:-0.820354 126:-0.987518 127:-0.999738 128:-0.999998 129:-1 130:-0.999996 131:-0.99989 132:-0.998737 133:-0.994983 134:-0.990796 135:-0.990139 136:-0.961903 137:-0.594542 138:0.253045 139:0.319692 140:-0.451173 141:-0.910271 142:-0.995246 143:-0.999946 144:-1 145:-1 146:-1 147:-0.999999 148:-0.999987 149:-0.999944 150:-0.999773 151:-0.993969 152:-0.902884 153:-0.416164 154:0.270384 155:-0.056571 156:-0.726138 157:-0.971552 158:-0.998901 159:-0.999989 160:-1 161:-1 162:-1 163:-1 164:-1 165:-0.999986 166:-0.998613 167:-0.967108 168:-0.71385 169:-0.087793 170:0.154701 171:-0.470042 172:-0.908853 173:-0.994462 174:-0.999893 175:-0.999999 176:-1 177:-1 178:-1 179:-1 180:-1 181:-0.999924 182:-0.993384 183:-0.884025 184:-0.403463 185:0.162017 186:-0.166343 187:-0.765453 188:-0.977555 189:-0.999204 190:-0.999992 191:-1 192:-1 193:-1 194:-1 195:-1 196:-0.999999 197:-0.999775 198:-0.983213 199:-0.741853 200:-0.039909 201:0.26217 202:-0.413354 203:-0.868828 204:-0.979254 205:-0.99884 206:-0.999987 207:-1 208:-1 209:-1 210:-1 211:-1 212:-0.999998 213:-0.99953 214:-0.972554 215:-0.613024 216:0.27204 217:0.467908 218:-0.169786 219:-0.62509 220:-0.901151 221:-0.993671 222:-0.999927 223:-1 224:-1 225:-1 226:-1 227:-1 228:-0.999996 229:-0.999407 230:-0.970207 231:-0.597806 232:0.32694 233:0.706353 234:0.370275 235:-0.253694 236:-0.811604 237:-0.988186 238:-0.999864 239:-1 240:-1 241:-1 242:-1 243:-1 244:-0.999999 245:-0.999701 246:-0.982159 247:-0.742949 248:-0.086108 249:0.327473 250:0.104775 251:-0.517457 252:-0.906631 253:-0.994655 254:-0.99994 255:-1 256:-1 
1 1:-1 2:-0.999998 3:-0.999813 4:-0.994779 5:-0.942843 6:-0.752956 7:-0.449813 8:-0.189134 9:-0.001145 10:0.150635 11:0.169479 12:-0.279496 13:-0.815062 14:-0.988285 15:-0.999858 16:-1 17:-1 18:-0.999943 19:-0.996959 20:-0.950089 21:-0.707146 22:-0.2183 23:0.104874 24:0.034739 25:-0.137029 26:-0.032085 27:0.36184 28:0.123268 29:-0.662434 30:-0.976377 31:-0.999613 32:-0.999998 33:-0.999994 34:-0.999327 35:-0.980334 36:-0.790576 37:-0.25066 38:0.139568 39:-0.122812 40:-0.536729 41:-0.732279 42:-0.537791 43:0.149128 44:0.278378 45:-0.529606 46:-0.949574 47:-0.998096 48:-0.999981 49:-0.999961 50:-0.996395 51:-0.927674 52:-0.516216 53:0.146868 54:-0.008857 55:-0.613722 56:-0.91506 57:-0.947215 58:-0.631464 59:0.180787 60:0.397753 61:-0.401001 62:-0.906682 63:-0.99523 64:-0.999948 65:-0.999909 66:-0.991955 67:-0.859542 68:-0.295574 69:0.284141 70:-0.223995 71:-0.81332 72:-0.960854 73:-0.859582 74:-0.378997 75:0.388173 76:0.383396 77:-0.459931 78:-0.92257 79:-0.996218 80:-0.999959 81:-0.999921 82:-0.992978 83:-0.875262 84:-0.343912 85:0.303151 86:-0.011 87:-0.576628 88:-0.711366 89:-0.424182 90:0.186271 91:0.546276 92:0.077618 93:-0.679108 94:-0.968171 95:-0.998851 96:-0.999989 97:-0.999975 98:-0.997626 99:-0.949089 100:-0.616496 101:0.072077 102:0.319056 103:0.066435 104:-0.010355 105:0.305208 106:0.655936 107:0.443368 108:-0.357958 109:-0.875499 110:-0.992093 111:-0.999855 112:-0.999999 113:-0.999997 114:-0.999706 115:-0.989915 116:-0.876615 117:-0.482218 118:0.018153 119:0.22489 120:0.304783 121:0.533506 122:0.654488 123:0.090285 124:-0.676261 125:-0.96578 126:-0.99865 127:-0.999985 128:-1 129:-1 130:-0.999982 131:-0.998932 132:-0.981637 133:-0.888343 134:-0.704914 135:-0.570085 136:-0.334973 137:0.236981 138:0.418811 139:-0.293213 140:-0.857576 141:-0.991055 142:-0.999848 143:-0.999999 144:-1 145:-1 146:-0.999999 147:-0.999953 148:-0.99906 149:-0.993332 150:-0.979236 151:-0.928097 152:-0.55654 153:0.218489 154:0.211763 155:-0.572534 156:-0.951657 157:-0.998035 158:-0.99998 159:-1 160:-1 161:-1 162:-1 163:-0.999999 164:-0.99999 165:-0.999854 166:-0.99347 167:-0.884649 168:-0.3576 169:0.341 170:0.012887 171:-0.725289 172:-0.981387 173:-0.999702 174:-0.999999 175:-1 176:-1 177:-1 178:-1 179:-1 180:-1 181:-0.999853 182:-0.987161 183:-0.78991 184:-0.115805 185:0.400335 186:-0.162324 187:-0.809546 188:-0.988512 189:-0.999868 190:-1 191:-1 192:-1 193:-1 194:-1 195:-1 196:-1 197:-0.999823 198:-0.984548 199:-0.752263 200:-0.025377 201:0.409772 202:-0.23375 203:-0.840278 204:-0.990629 205:-0.999891 206:-1 207:-1 208:-1 209:-1 210:-1 211:-1 212:-1 213:-0.999854 214:-0.987186 215:-0.790446 216:-0.118869 217:0.405237 218:-0.133256 219:-0.794479 220:-0.986619 221:-0.999788 222:-0.999999 223:-1 224:-1 225:-1 226:-1 227:-1 228:-1 229:-0.999932 230:-0.993889 231:-0.889673 232:-0.395465 233:0.27185 234:0.015008 235:-0.70153 236:-0.974781 237:-0.999289 238:-0.999994 239:-1 240:-1 241:-1 242:-1 243:-1 244:-1 245:-0.999986 246:-0.998614 247:-0.966684 248:-0.712469 249:-0.174246 250:-0.140725 251:-0.695615 252:-0.96765 253:-0.99878 254:-0.999988 255:-1 256:-1 
1 1:-1 2:-1 3:-0.999975 4:-0.998045 5:-0.963973 6:-0.776498 7:-0.370912 8:-0.016236 9:0.098939 10:-0.022704 11:-0.393744 12:-0.81918 13:-0.980928 14:-0.99926 15:-0.999992 16:-1 17:-1 18:-0.999998 19:-0.99977 20:-0.988868 21:-0.8436 22:-0.365903 23:0.077526 24:-0.027919 25:-0.238231 26:-0.118794 27:0.009362 28:-0.551783 29:-0.931321 30:-0.996541 31:-0.999962 32:-1 33:-1 34:-0.999984 35:-0.998366 36:-0.958805 37:-0.631869 38:0.002114 39:-0.04449 40:-0.549605 41:-0.723326 42:-0.327437 43:0.145345 44:-0.39712 45:-0.89025 46:-0.99397 47:-0.999933 48:-1 49:-1 50:-0.999947 51:-0.99521 52:-0.908068 53:-0.439913 54:0.128705 55:-0.345334 56:-0.771808 57:-0.580341 58:0.001323 59:0.224778 60:-0.488119 61:-0.929857 62:-0.996713 63:-0.999965 64:-1 65:-1 66:-0.999941 67:-0.994638 68:-0.899879 69:-0.4214 70:0.12593 71:-0.305318 72:-0.476094 73:-0.021411 74:0.450113 75:0.185981 76:-0.631341 77:-0.9696 78:-0.999209 79:-0.999994 80:-1 81:-1 82:-0.999978 83:-0.997864 84:-0.950581 85:-0.599363 86:0.026826 87:0.045613 88:-0.001957 89:0.235384 90:0.489703 91:-0.023704 92:-0.746696 93:-0.98374 94:-0.999789 95:-1 96:-1 97:-1 98:-0.999997 99:-0.999678 100:-0.987339 101:-0.843351 102:-0.470082 103:-0.248908 104:-0.249591 105:-0.042254 106:0.29347 107:-0.286482 108:-0.853497 109:-0.9915 110:-0.999904 111:-1 112:-1 113:-1 114:-1 115:-0.999972 116:-0.998155 117:-0.971739 118:-0.884099 119:-0.790652 120:-0.628607 121:-0.107355 122:0.152982 123:-0.525304 124:-0.94013 125:-0.997377 126:-0.999973 127:-1 128:-1 129:-1 130:-1 131:-0.999999 132:-0.999903 133:-0.998419 134:-0.992577 135:-0.962227 136:-0.652738 137:0.053195 138:0.037144 139:-0.671389 140:-0.975326 141:-0.999499 142:-0.999997 143:-1 144:-1 145:-1 146:-1 147:-1 148:-0.999999 149:-0.999967 150:-0.998299 151:-0.953673 152:-0.547781 153:0.172991 154:-0.121836 155:-0.773347 156:-0.9857 157:-0.999827 158:-1 159:-1 160:-1 161:-1 162:-1 163:-1 164:-1 165:-0.999957 166:-0.996028 167:-0.917985 168:-0.436763 169:0.203238 170:-0.305527 171:-0.862488 172:-0.992168 173:-0.999912 174:-1 175:-1 176:-1 177:-1 178:-1 179:-1 180:-1 181:-0.999909 182:-0.991886 183:-0.858282 184:-0.293697 185:0.207572 186:-0.447388 187:-0.923272 188:-0.996405 189:-0.999962 190:-1 191:-1 192:-1 193:-1 194:-1 195:-1 196:-1 197:-0.999846 198:-0.986596 199:-0.783905 200:-0.139839 201:0.178604 202:-0.551535 203:-0.957993 204:-0.998702 205:-0.999988 206:-1 207:-1 208:-1 209:-1 210:-1 211:-1 212:-1 213:-0.999786 214:-0.981552 215:-0.715658 216:-0.037005 217:0.057776 218:-0.649942 219:-0.974842 220:-0.999576 221:-0.999998 222:-1 223:-1 224:-1 225:-1 226:-1 227:-1 228:-1 229:-0.999764 230:-0.979682 231:-0.693545 232:-0.05258 233:-0.119043 234:-0.736426 235:-0.982714 236:-0.99979 237:-1 238:-1 239:-1 240:-1 241:-1 242:-1 243:-1 244:-1 245:-0.999844 246:-0.986617 247:-0.79789 248:-0.371618 249:-0.408992 250:-0.82216 251:-0.988404 252:-0.999865 253:-1 254:-1 255:-1 256:-1 
1 1:-1 2:-0.99994 3:-0.996814 4:-0.95019 5:-0.741979 6:-0.371694 7:-0.069739 8:0.108171 9:0.069447 10:-0.278932 11:-0.714461 12:-0.821668 13:-0.851025 14:-0.953856 15:-0.996965 16:-0.999965 17:-0.999993 18:-0.999282 19:-0.979815 20:-0.793128 21:-0.290484 22:0.05871 23:-0.042064 24:-0.091108 25:0.099265 26:0.124684 27:-0.246342 28:-0.306061 29:-0.472396 30:-0.846936 31:-0.990087 32:-0.999885 33:-0.999951 34:-0.995606 35:-0.918607 36:-0.530729 37:0.000547 38:-0.189809 39:-0.612139 40:-0.738111 41:-0.535982 42:-0.152382 43:0.058622 44:0.183295 45:-0.277268 46:-0.823099 47:-0.989066 48:-0.999875 49:-0.999863 50:-0.988089 51:-0.809862 52:-0.265862 53:-0.003491 54:-0.559386 55:-0.923515 56:-0.976714 57:-0.895131 58:-0.54501 59:0.049283 60:0.224736 61:-0.43674 62:-0.90176 63:-0.994673 64:-0.999941 65:-0.999811 66:-0.98371 67:-0.749861 68:-0.165449 69:-0.103978 70:-0.702857 71:-0.9746 72:-0.986063 73:-0.892154 74:-0.455081 75:0.178537 76:-0.011458 77:-0.686258 78:-0.967709 79:-0.998797 80:-0.999988 81:-0.999821 82:-0.984551 83:-0.76146 84:-0.185573 85:-0.081128 86:-0.650842 87:-0.908448 88:-0.844362 89:-0.550933 90:0.024606 91:0.273753 92:-0.355386 93:-0.87157 94:-0.991952 95:-0.999861 96:-0.999999 97:-0.999887 98:-0.990149 99:-0.840046 100:-0.342626 101:0.025577 102:-0.275522 103:-0.45808 104:-0.316368 105:0.086949 106:0.470708 107:0.150547 108:-0.627725 109:-0.960433 110:-0.998471 111:-0.999984 112:-1 113:-0.999967 114:-0.996966 115:-0.942871 116:-0.653466 117:-0.140193 118:0.084169 119:0.107453 120:0.122368 121:0.326132 122:0.499533 123:-0.121242 124:-0.790953 125:-0.986356 126:-0.999784 127:-0.999999 128:-1 129:-0.999997 130:-0.999656 131:-0.991146 132:-0.916108 133:-0.716293 134:-0.531848 135:-0.464617 136:-0.387967 137:0.042577 138:0.28922 139:-0.40988 140:-0.90392 141:-0.994977 142:-0.999944 143:-1 144:-1 145:-1 146:-0.999986 147:-0.999537 148:-0.99441 149:-0.974684 150:-0.942015 151:-0.907595 152:-0.661675 153:0.001922 154:0.10269 155:-0.612826 156:-0.963645 157:-0.998844 158:-0.99999 159:-1 160:-1 161:-1 162:-1 163:-0.999995 164:-0.999907 165:-0.999229 166:-0.995477 167:-0.945673 168:-0.556953 169:0.129285 170:-0.103975 171:-0.75529 172:-0.983859 173:-0.999772 174:-0.999999 175:-1 176:-1 177:-1 178:-1 179:-1 180:-1 181:-0.999903 182:-0.991943 183:-0.861025 184:-0.320579 185:0.187815 186:-0.354334 187:-0.875311 188:-0.992953 189:-0.999921 190:-1 191:-1 192:-1 193:-1 194:-1 195:-1 196:-1 197:-0.999807 198:-0.98342 199:-0.74057 200:-0.063365 201:0.149547 202:-0.555152 203:-0.948581 204:-0.997908 205:-0.999979 206:-1 207:-1 208:-1 209:-1 210:-1 211:-1 212:-0.999999 213:-0.99969 214:-0.975735 215:-0.637601 216:0.152357 217:0.146739 218:-0.622734 219:-0.966322 220:-0.998995 221:-0.999991 222:-1 223:-1 224:-1 225:-1 226:-1 227:-1 228:-0.999998 229:-0.99953 230:-0.971419 231:-0.600524 232:0.196771 233:0.07099 234:-0.677439 235:-0.974942 236:-0.999421 237:-0.999996 238:-1 239:-1 240:-1 241:-1 242:-1 243:-1 244:-0.999997 245:-0.999498 246:-0.976212 247:-0.695563 248:-0.157692 249:-0.360414 250:-0.832685 251:-0.98877 252:-0.999819 253:-0.999999 254:-1 255:-1 256:-1 
1 1:-1 2:-0.999994 3:-0.999359 4:-0.983321 5:-0.835877 6:-0.379511 7:0.124121 8:0.232293 9:0.087585 10:-0.213928 11:-0.627914 12:-0.914129 13:-0.993492 14:-0.999835 15:-0.999999 16:-1 17:-1 18:-0.999961 19:-0.996463 20:-0.93077 21:-0.54879 22:0.159799 23:0.352811 24:0.030168 25:-0.171587 26:-0.137216 27:-0.263768 28:-0.720273 29:-0.96124 30:-0.998148 31:-0.99998 32:-1 33:-1 34:-0.999899 35:-0.991078 36:-0.84761 37:-0.273478 38:0.321565 39:-0.061288 40:-0.615233 41:-0.760561 42:-0.542564 43:-0.265609 44:-0.55428 45:-0.89963 46:-0.99398 47:-0.999932 48:-1 49:-1 50:-0.999867 51:-0.98832 52:-0.807438 53:-0.176197 54:0.249669 55:-0.419388 56:-0.882295 57:-0.86761 58:-0.565023 59:-0.309495 60:-0.55063 61:-0.888783 62:-0.993112 63:-0.999921 64:-1 65:-1 66:-0.999898 67:-0.991039 68:-0.84754 69:-0.287553 70:0.17689 71:-0.37198 72:-0.659472 73:-0.43273 74:0.056832 75:0.075588 76:-0.577664 77:-0.941581 78:-0.997222 79:-0.99997 80:-1 81:-1 82:-0.999966 83:-0.996842 84:-0.936106 85:-0.568654 86:0.012319 87:0.005296 88:0.047431 89:0.350184 90:0.602896 91:0.219747 92:-0.633346 93:-0.972026 94:-0.999389 95:-0.999996 96:-1 97:-1 98:-0.999996 99:-0.99955 100:-0.986123 101:-0.847809 102:-0.46294 103:-0.078877 104:0.223345 105:0.536581 106:0.633895 107:0.008405 108:-0.742091 109:-0.98336 110:-0.999775 111:-0.999999 112:-1 113:-1 114:-1 115:-0.999969 116:-0.998326 117:-0.974419 118:-0.875034 119:-0.702006 120:-0.415403 121:0.173877 122:0.436902 123:-0.260622 124:-0.850594 125:-0.991337 126:-0.9999 127:-1 128:-1 129:-1 130:-1 131:-0.999999 132:-0.99992 133:-0.998604 134:-0.991632 135:-0.953093 136:-0.635215 137:0.140814 138:0.301974 139:-0.485106 140:-0.931531 141:-0.996843 142:-0.999967 143:-1 144:-1 145:-1 146:-1 147:-1 148:-0.999999 149:-0.999935 150:-0.995614 151:-0.915459 152:-0.448003 153:0.310535 154:0.125772 155:-0.659112 156:-0.972138 157:-0.999276 158:-0.999994 159:-1 160:-1 161:-1 162:-1 163:-1 164:-0.999999 165:-0.999748 166:-0.985208 167:-0.779639 168:-0.10808 169:0.377092 170:-0.17693 171:-0.810868 172:-0.988255 173:-0.999844 174:-1 175:-1 176:-1 177:-1 178:-1 179:-1 180:-0.999984 181:-0.998425 182:-0.957789 183:-0.594123 184:0.216377 185:0.309089 186:-0.490091 187:-0.930438 188:-0.996718 189:-0.999965 190:-1 191:-1 192:-1 193:-1 194:-1 195:-1 196:-0.9999 197:-0.992724 198:-0.874853 199:-0.333597 200:0.377986 201:0.087568 202:-0.689435 203:-0.976801 204:-0.999503 205:-0.999997 206:-1 207:-1 208:-1 209:-1 210:-1 211:-0.999996 212:-0.999482 213:-0.978013 214:-0.713591 215:0.035527 216:0.413411 217:-0.226474 218:-0.833287 219:-0.990018 220:-0.999879 221:-1 222:-1 223:-1 224:-1 225:-1 226:-1 227:-0.999991 228:-0.998925 229:-0.964149 230:-0.598611 231:0.23301 232:0.293746 233:-0.511449 234:-0.936289 235:-0.997089 236:-0.999969 237:-1 238:-1 239:-1 240:-1 241:-1 242:-1 243:-0.999995 244:-0.999424 245:-0.977086 246:-0.720184 247:-0.142493 248:-0.151584 249:-0.72816 250:-0.978604 251:-0.999507 252:-0.999996 253:-1 254:-1 255:-1 256:-1 
1 1:-1 2:-0.999998 3:-0.999838 4:-0.996398 5:-0.967905 6:-0.851105 7:-0.6057 8:-0.279536 9:0.067674 10:0.209454 11:0.003791 12:-0.580402 13:-0.927457 14:-0.996058 15:-0.999956 16:-1 17:-1 18:-0.999969 19:-0.997439 20:-0.955706 21:-0.762713 22:-0.348971 23:0.099412 24:0.24355 25:0.139085 26:0.113719 27:0.189861 28:-0.325876 29:-0.846853 30:-0.99076 31:-0.999895 32:-1 33:-0.999999 34:-0.999827 35:-0.98808 36:-0.816823 37:-0.26656 38:0.259109 39:0.240502 40:-0.158568 41:-0.530881 42:-0.460896 43:-0.029474 44:-0.29574 45:-0.817554 46:-0.988566 47:-0.999869 48:-1 49:-0.999999 50:-0.999638 51:-0.976338 52:-0.656864 53:0.131497 54:0.302239 55:-0.292894 56:-0.743097 57:-0.889252 58:-0.626535 59:-0.105073 60:-0.400017 61:-0.860382 62:-0.991516 63:-0.999901 64:-1 65:-0.999999 66:-0.999693 67:-0.976697 68:-0.653242 69:0.115457 70:0.191137 71:-0.42951 72:-0.774198 73:-0.789 74:-0.497392 75:-0.059334 76:-0.326649 77:-0.82482 78:-0.988502 79:-0.999832 80:-0.999999 81:-1 82:-0.999846 83:-0.986856 84:-0.793163 85:-0.223491 86:0.164023 87:0.003688 88:-0.202903 89:-0.197338 90:0.052065 91:0.358198 92:0.018461 93:-0.707323 94:-0.979867 95:-0.99968 96:-0.999999 97:-1 98:-0.999962 99:-0.996684 100:-0.943512 101:-0.723346 102:-0.344688 103:-0.012374 104:0.178725 105:0.37345 106:0.614214 107:0.500089 108:-0.185277 109:-0.806385 110:-0.987603 111:-0.999822 112:-0.999999 113:-1 114:-0.999998 115:-0.999778 116:-0.995156 117:-0.96011 118:-0.847406 119:-0.671082 120:-0.434277 121:0.063994 122:0.557193 123:0.185911 124:-0.590384 125:-0.942103 126:-0.997123 127:-0.999966 128:-1 129:-1 130:-1 131:-0.999996 132:-0.999856 133:-0.998022 134:-0.990266 135:-0.959339 136:-0.71477 137:-0.009178 138:0.409111 139:-0.191646 140:-0.814409 141:-0.986859 142:-0.999713 143:-0.999998 144:-1 145:-1 146:-1 147:-1 148:-0.999999 149:-0.999963 150:-0.998311 151:-0.957257 152:-0.591635 153:0.214417 154:0.29178 155:-0.497653 156:-0.930745 157:-0.996681 158:-0.999963 159:-1 160:-1 161:-1 162:-1 163:-1 164:-1 165:-0.999921 166:-0.992906 167:-0.87386 168:-0.332248 169:0.36892 170:0.075625 171:-0.691295 172:-0.976038 173:-0.999432 174:-0.999996 175:-1 176:-1 177:-1 178:-1 179:-1 180:-1 181:-0.999813 182:-0.98382 183:-0.742257 184:-0.006102 185:0.410602 186:-0.223996 187:-0.833972 188:-0.990023 189:-0.999874 190:-1 191:-1 192:-1 193:-1 194:-1 195:-1 196:-0.999999 197:-0.999699 198:-0.977382 199:-0.658989 200:0.169545 201:0.349756 202:-0.466681 203:-0.929395 204:-0.996754 205:-0.999966 206:-1 207:-1 208:-1 209:-1 210:-1 211:-1 212:-0.999992 213:-0.998994 214:-0.964341 215:-0.588864 216:0.241647 217:0.222225 218:-0.608195 219:-0.968783 220:-0.999258 221:-0.999995 222:-1 223:-1 224:-1 225:-1 226:-1 227:-1 228:-0.999975 229:-0.997602 230:-0.942924 231:-0.521695 232:0.235463 233:0.031514 234:-0.708298 235:-0.980998 236:-0.99976 237:-1 238:-1 239:-1 240:-1 241:-1 242:-1 243:-1 244:-0.99998 245:-0.998052 246:-0.955363 247:-0.644081 248:-0.129092 249:-0.342547 250:-0.827849 251:-0.989181 252:-0.999875 253:-1 254:-1 255:-1 256:-1 
1 1:-0.999996 2:-0.999792 3:-0.99656 4:-0.977049 5:-0.899499 6:-0.704796 7:-0.406169 8:-0.070336 9:0.188014 10:0.302803 11:0.41356 12:0.413809 13:0.229745 14:-0.17982 15:-0.73145 16:-0.967769 17:-0.999785 18:-0.994583 19:-0.945879 20:-0.776861 21:-0.451259 22:0.019778 23:0.447055 24:0.664592 25:0.681939 26:0.578634 27:0.569185 28:0.65591 29:0.692517 30:0.262948 31:-0.547643 32:-0.936775 33:-0.996334 34:-0.944358 35:-0.694063 36:-0.175567 37:0.354348 38:0.7067 39:0.820937 40:0.653598 41:0.2826 42:-0.110566 43:-0.171545 44:0.151169 45:0.510221 46:0.119139 47:-0.652424 48:-0.963897 49:-0.977101 50:-0.771811 51:-0.162199 52:0.518172 53:0.855539 54:0.892397 55:0.593212 56:-0.00641 57:-0.499348 58:-0.622231 59:-0.279507 60:0.19338 61:0.464853 62:0.069005 63:-0.693568 64:-0.979053 65:-0.941271 66:-0.543916 67:0.327894 68:0.861788 69:0.970549 70:0.76833 71:0.08879 72:-0.605861 73:-0.841505 74:-0.500456 75:0.295763 76:0.725121 77:0.758947 78:0.274632 79:-0.626467 80:-0.975133 81:-0.933911 82:-0.475837 83:0.482135 84:0.935265 85:0.971768 86:0.624362 87:-0.298595 88:-0.852703 89:-0.790065 90:-0.142068 91:0.666477 92:0.949139 93:0.821586 94:0.200343 95:-0.66632 96:-0.978341 97:-0.960582 98:-0.566209 99:0.382695 100:0.902085 101:0.968219 102:0.607172 103:-0.337082 104:-0.818064 105:-0.545289 106:0.277354 107:0.847628 108:0.94174 109:0.630414 110:-0.143158 111:-0.799059 112:-0.987679 113:-0.978105 114:-0.696703 115:0.10605 116:0.766647 117:0.950203 118:0.719763 119:0.018895 120:-0.386882 121:-0.03487 122:0.640674 123:0.94082 124:0.842958 125:0.268172 126:-0.548943 127:-0.932872 128:-0.996605 129:-0.990123 130:-0.849669 131:-0.340255 132:0.343557 133:0.72538 134:0.773071 135:0.581184 136:0.417873 137:0.634823 138:0.901595 139:0.973384 140:0.739689 141:-0.021113 142:-0.752568 143:-0.981885 144:-0.999604 145:-0.997902 146:-0.964085 147:-0.805653 148:-0.440197 149:0.008417 150:0.263157 151:0.461542 152:0.673141 153:0.895543 154:0.986293 155:0.972722 156:0.681232 157:-0.132306 158:-0.802321 159:-0.98796 160:-0.999859 161:-0.999872 162:-0.997475 163:-0.980042 164:-0.899112 165:-0.742827 166:-0.621478 167:-0.334718 168:0.304691 169:0.837399 170:0.985955 171:0.922911 172:0.491955 173:-0.372116 174:-0.885707 175:-0.993628 176:-0.999929 177:-0.999998 178:-0.999949 179:-0.999248 180:-0.994394 181:-0.983143 182:-0.947864 183:-0.618208 184:0.241285 185:0.844755 186:0.981174 187:0.838035 188:0.230283 189:-0.616958 190:-0.959188 191:-0.998415 192:-0.999984 193:-1 194:-1 195:-0.999993 196:-0.999906 197:-0.996805 198:-0.933534 199:-0.484784 200:0.455492 201:0.924045 202:0.977243 203:0.760075 204:0.049039 205:-0.726368 206:-0.98179 207:-0.999724 208:-0.999999 209:-1 210:-1 211:-1 212:-0.999902 213:-0.991282 214:-0.849394 215:-0.24715 216:0.632237 217:0.964912 218:0.937286 219:0.541902 220:-0.340121 221:-0.878989 222:-0.993227 223:-0.999923 224:-1 225:-1 226:-1 227:-1 228:-0.99985 229:-0.986905 230:-0.786884 231:-0.102363 232:0.666689 233:0.908758 234:0.753758 235:0.189589 236:-0.636407 237:-0.965924 238:-0.998876 239:-0.99999 240:-1 241:-1 242:-1 243:-1 244:-0.999879 245:-0.989469 246:-0.830117 247:-0.304222 248:0.262384 249:0.422639 250:0.157463 251:-0.385573 252:-0.849901 253:-0.990205 254:-0.999853 255:-0.999999 256:-1 
1 1:-1 2:-1 3:-0.999997 4:-0.999752 5:-0.994138 6:-0.942459 7:-0.739417 8:-0.357855 9:0.011677 10:0.159429 11:-0.107586 12:-0.656774 13:-0.944445 14:-0.996922 15:-0.999956 16:-1 17:-1 18:-0.999999 19:-0.999881 20:-0.995411 21:-0.93715 22:-0.684171 23:-0.206562 24:0.136282 25:0.085422 26:0.155346 27:0.301183 28:-0.215787 29:-0.805405 30:-0.985779 31:-0.999683 32:-0.999998 33:-1 34:-0.999982 35:-0.998388 36:-0.965303 37:-0.730289 38:-0.179461 39:0.1544 40:-0.090354 41:-0.508742 42:-0.358432 43:0.319601 44:0.164603 45:-0.639757 46:-0.970463 47:-0.999236 48:-0.999994 49:-1 50:-0.999877 51:-0.991353 52:-0.860353 53:-0.359006 54:0.165019 55:-0.105124 56:-0.628709 57:-0.823794 58:-0.45112 59:0.35321 60:0.349726 61:-0.562225 62:-0.966885 63:-0.999324 64:-0.999996 65:-0.999997 66:-0.999502 67:-0.976334 68:-0.686386 69:0.023233 70:0.147871 71:-0.487331 72:-0.815875 73:-0.64329 74:-0.116422 75:0.495158 76:0.355854 77:-0.574688 78:-0.970997 79:-0.999595 80:-0.999999 81:-0.999993 82:-0.999128 83:-0.967097 84:-0.611466 85:0.139789 86:0.121645 87:-0.360816 88:-0.437641 89:-0.21393 90:0.019763 91:0.386786 92:0.208705 93:-0.625847 94:-0.975335 95:-0.999709 96:-1 97:-0.999997 98:-0.999579 99:-0.980697 100:-0.744368 101:-0.11273 102:0.275675 103:0.224409 104:0.093423 105:-0.121203 106:-0.172768 107:0.284386 108:0.045194 109:-0.700558 110:-0.980699 111:-0.999777 112:-1 113:-1 114:-0.999935 115:-0.995442 116:-0.925198 117:-0.63366 118:-0.208864 119:-0.104222 120:-0.349947 121:-0.573696 122:-0.299932 123:0.280705 124:-0.132307 125:-0.787751 126:-0.986927 127:-0.99985 128:-1 129:-1 130:-0.999996 131:-0.999665 132:-0.992225 133:-0.934454 134:-0.806691 135:-0.76811 136:-0.852079 137:-0.753022 138:-0.146532 139:0.275121 140:-0.351442 141:-0.879899 142:-0.993329 143:-0.999925 144:-1 145:-1 146:-1 147:-0.999992 148:-0.999701 149:-0.996371 150:-0.988054 151:-0.984237 152:-0.956413 153:-0.637128 154:0.093967 155:0.162682 156:-0.575177 157:-0.950983 158:-0.997988 159:-0.99998 160:-1 161:-1 162:-1 163:-1 164:-0.999997 165:-0.999959 166:-0.999799 167:-0.994509 168:-0.901708 169:-0.42274 170:0.235639 171:-0.07776 172:-0.750401 173:-0.98187 174:-0.999627 175:-0.999998 176:-1 177:-1 178:-1 179:-1 180:-1 181:-0.999997 182:-0.999644 183:-0.983915 184:-0.781671 185:-0.158713 186:0.211867 187:-0.371797 188:-0.877473 189:-0.992933 190:-0.999914 191:-1 192:-1 193:-1 194:-1 195:-1 196:-1 197:-0.999972 198:-0.997397 199:-0.943388 200:-0.57022 201:0.126718 202:0.068838 203:-0.630051 204:-0.957785 205:-0.998268 206:-0.999982 207:-1 208:-1 209:-1 210:-1 211:-1 212:-1 213:-0.999891 214:-0.990416 215:-0.838889 216:-0.265586 217:0.263173 218:-0.204447 219:-0.810417 220:-0.987354 221:-0.99978 222:-0.999999 223:-1 224:-1 225:-1 226:-1 227:-1 228:-1 229:-0.999794 230:-0.982164 231:-0.723901 232:-0.046588 233:0.114894 234:-0.534282 235:-0.930095 236:-0.99649 237:-0.999961 238:-1 239:-1 240:-1 241:-1 242:-1 243:-1 244:-1 245:-0.999799 246:-0.982746 247:-0.742373 248:-0.238969 249:-0.355534 250:-0.807349 251:-0.982716 252:-0.99946 253:-0.999995 254:-1 255:-1 256:-1 
1 1:-1 2:-1 3:-0.999996 4:-0.999617 5:-0.988435 6:-0.869778 7:-0.46464 8:0.047644 9:0.217727 10:0.020147 11:-0.451677 12:-0.865972 13:-0.991176 14:-0.999862 15:-0.999999 16:-1 17:-1 18:-1 19:-0.99996 20:-0.996481 21:-0.933499 22:-0.586668 23:0.08208 24:0.376544 25:0.175559 26:0.121352 27:-0.018571 28:-0.664894 29:-0.969953 30:-0.999113 31:-0.999992 32:-1 33:-1 34:-0.999999 35:-0.999793 36:-0.986236 37:-0.789732 38:-0.15811 39:0.352575 40:0.037408 41:-0.392893 42:-0.100278 43:0.185696 44:-0.518839 45:-0.945074 46:-0.997815 47:-0.999978 48:-1 49:-1 50:-0.999992 51:-0.999028 52:-0.96619 53:-0.612862 54:0.189141 55:0.267024 56:-0.417015 57:-0.597237 58:0.030466 59:0.296912 60:-0.494996 61:-0.943431 62:-0.997778 63:-0.999978 64:-1 65:-1 66:-0.99998 67:-0.997983 68:-0.948035 69:-0.527414 70:0.273724 71:0.167425 72:-0.40917 73:-0.286357 74:0.398168 75:0.342406 76:-0.531876 77:-0.949618 78:-0.998066 79:-0.999981 80:-1 81:-1 82:-0.99999 83:-0.998901 84:-0.967126 85:-0.657874 86:0.029728 87:0.226342 88:0.109054 89:0.356533 90:0.588006 91:0.05072 92:-0.706888 93:-0.97484 94:-0.999255 95:-0.999994 96:-1 97:-1 98:-0.999998 99:-0.999793 100:-0.991314 101:-0.884823 102:-0.538432 103:-0.137434 104:0.19305 105:0.633963 106:0.531026 107:-0.350256 108:-0.889084 109:-0.993594 110:-0.999898 111:-1 112:-1 113:-1 114:-1 115:-0.999985 116:-0.999113 117:-0.984845 118:-0.908759 119:-0.737002 120:-0.311371 121:0.473204 122:0.39523 123:-0.543833 124:-0.960178 125:-0.998853 126:-0.99999 127:-1 128:-1 129:-1 130:-1 131:-1 132:-0.999965 133:-0.999275 134:-0.992974 135:-0.9347 136:-0.489251 137:0.391845 138:0.26311 139:-0.6228 140:-0.974723 141:-0.999655 142:-0.999999 143:-1 144:-1 145:-1 146:-1 147:-1 148:-1 149:-0.999943 150:-0.995419 151:-0.909493 152:-0.400726 153:0.40041 154:0.134444 155:-0.683221 156:-0.979704 157:-0.999764 158:-1 159:-1 160:-1 161:-1 162:-1 163:-1 164:-1 165:-0.999903 166:-0.991363 167:-0.85027 168:-0.256829 169:0.415699 170:0.012972 171:-0.736183 172:-0.983429 173:-0.99981 174:-1 175:-1 176:-1 177:-1 178:-1 179:-1 180:-1 181:-0.99984 182:-0.986037 183:-0.773694 184:-0.076238 185:0.410164 186:-0.180697 187:-0.817865 188:-0.989108 189:-0.999876 190:-1 191:-1 192:-1 193:-1 194:-1 195:-1 196:-1 197:-0.999774 198:-0.980442 199:-0.693633 200:0.10819 201:0.392885 202:-0.385782 203:-0.902525 204:-0.994973 205:-0.999945 206:-1 207:-1 208:-1 209:-1 210:-1 211:-1 212:-1 213:-0.999717 214:-0.97601 215:-0.632597 216:0.229447 217:0.33955 218:-0.52442 219:-0.951566 220:-0.998271 221:-0.999984 222:-1 223:-1 224:-1 225:-1 226:-1 227:-1 228:-1 229:-0.999708 230:-0.97599 231:-0.637971 232:0.156933 233:0.153287 234:-0.63439 235:-0.973054 236:-0.999485 237:-0.999997 238:-1 239:-1 240:-1 241:-1 242:-1 243:-1 244:-1 245:-0.999812 246:-0.984339 247:-0.763438 248:-0.247712 249:-0.259235 250:-0.770741 251:-0.984797 252:-0.999812 253:-1 254:-1 255:-1 256:-1 
1 1:-0.999868 2:-0.996176 3:-0.954843 4:-0.763358 5:-0.378404 6:-0.026087 7:0.199088 8:0.356698 9:0.418705 10:0.281709 11:0.01063 12:-0.403643 13:-0.765018 14:-0.948857 15:-0.99561 16:-0.999856 17:-0.998069 18:-0.96274 19:-0.753754 20:-0.218576 21:0.399351 22:0.686534 23:0.734276 24:0.710111 25:0.65394 26:0.583306 27:0.528595 28:0.34691 29:-0.182945 30:-0.733193 31:-0.960774 32:-0.998011 33:-0.991214 34:-0.852929 35:-0.321446 36:0.428801 37:0.792669 38:0.681151 39:0.398219 40:0.137798 41:-0.067417 42:-0.099944 43:0.147724 44:0.596322 45:0.428796 46:-0.326654 47:-0.859369 48:-0.991716 49:-0.982379 50:-0.721291 51:0.063076 52:0.731416 53:0.699509 54:0.067627 55:-0.469047 56:-0.684617 57:-0.776128 58:-0.770326 59:-0.426345 60:0.400154 61:0.649184 62:0.007401 63:-0.743709 64:-0.983947 65:-0.981686 66:-0.711035 67:0.089903 68:0.706234 69:0.460487 70:-0.410719 71:-0.874798 72:-0.957772 73:-0.958686 74:-0.928837 75:-0.619712 76:0.229092 77:0.652764 78:0.128147 79:-0.694282 80:-0.98053 81:-0.988936 82:-0.817879 83:-0.20747 84:0.471677 85:0.382882 86:-0.293695 87:-0.669993 88:-0.710888 89:-0.63317 90:-0.568284 91:-0.34193 92:0.383454 93:0.69136 94:0.125863 95:-0.696254 96:-0.980669 97:-0.996883 98:-0.941022 99:-0.634782 100:-0.024305 101:0.36189 102:0.316763 103:0.096742 104:0.086093 105:0.262871 106:0.348215 107:0.380879 108:0.72375 109:0.735567 110:0.079267 111:-0.715405 112:-0.981982 113:-0.9997 114:-0.991902 115:-0.916794 116:-0.662629 117:-0.224508 118:0.248841 119:0.501587 120:0.700431 121:0.845855 122:0.880755 123:0.835748 124:0.795179 125:0.466702 126:-0.240569 127:-0.821927 128:-0.989089 129:-0.999989 130:-0.999591 131:-0.993494 132:-0.95159 133:-0.801044 134:-0.487469 135:0.020358 136:0.653839 137:0.941381 138:0.928515 139:0.706063 140:0.303781 141:-0.241623 142:-0.722415 143:-0.949623 144:-0.997166 145:-1 146:-0.999994 147:-0.999819 148:-0.997268 149:-0.979327 150:-0.875939 151:-0.402322 152:0.489296 153:0.908469 154:0.761701 155:0.141383 156:-0.482896 157:-0.816619 158:-0.956434 159:-0.995313 160:-0.999805 161:-1 162:-1 163:-0.999997 164:-0.999803 165:-0.990854 166:-0.859881 167:-0.287493 168:0.588946 169:0.863792 170:0.454784 171:-0.379769 172:-0.870646 173:-0.983536 174:-0.997673 175:-0.999843 176:-0.999997 177:-1 178:-1 179:-0.99999 180:-0.998957 181:-0.969615 182:-0.680145 183:0.109627 184:0.753981 185:0.677642 186:-0.042875 187:-0.731733 188:-0.970456 189:-0.99868 190:-0.999963 191:-0.999998 192:-1 193:-1 194:-1 195:-0.999967 196:-0.996863 197:-0.931978 198:-0.480717 199:0.450981 200:0.814594 201:0.378112 202:-0.490028 203:-0.922132 204:-0.995357 205:-0.999902 206:-0.999999 207:-1 208:-1 209:-1 210:-1 211:-0.999956 212:-0.995924 213:-0.91643 214:-0.413757 215:0.540419 216:0.725545 217:0.042652 218:-0.723924 219:-0.979188 220:-0.999516 221:-0.999996 222:-1 223:-1 224:-1 225:-1 226:-1 227:-0.999969 228:-0.997051 229:-0.935923 230:-0.509482 231:0.357779 232:0.490575 233:-0.290764 234:-0.860086 235:-0.991871 236:-0.999902 237:-1 238:-1 239:-1 240:-1 241:-1 242:-1 243:-0.999991 244:-0.999093 245:-0.975168 246:-0.753593 247:-0.205173 248:-0.049728 249:-0.618692 250:-0.949977 251:-0.997723 252:-0.999976 253:-1 254:-1 255:-1 256:-1 
1 1:-1 2:-0.999999 3:-0.999985 4:-0.99962 5:-0.994315 6:-0.965083 7:-0.884546 8:-0.740067 9:-0.397779 10:0.15052 11:0.244168 12:-0.019662 13:-0.593723 14:-0.930089 15:-0.996209 16:-0.999958 17:-0.999999 18:-0.999946 19:-0.998872 20:-0.987955 21:-0.912355 22:-0.690074 23:-0.370958 24:-0.021406 25:0.367061 26:0.746001 27:0.79455 28:0.487102 29:-0.250296 30:-0.831984 31:-0.989863 32:-0.999884 33:-0.99997 34:-0.998671 35:-0.978616 36:-0.856838 37:-0.500275 38:0.042709 39:0.485247 40:0.702884 41:0.771671 42:0.711118 43:0.545886 44:0.235676 45:-0.309158 46:-0.825643 47:-0.989079 48:-0.999874 49:-0.999626 50:-0.98813 51:-0.860189 52:-0.397019 53:0.277488 54:0.707615 55:0.832372 56:0.709616 57:0.41717 58:0.000651 59:-0.364285 60:-0.594266 61:-0.780189 62:-0.94314 63:-0.996408 64:-0.999959 65:-0.998822 66:-0.965357 67:-0.637322 68:0.192813 69:0.75383 70:0.791389 71:0.506915 72:0.032688 73:-0.427199 74:-0.719437 75:-0.874188 76:-0.938372 77:-0.970307 78:-0.992676 79:-0.999538 80:-0.999994 81:-0.998745 82:-0.960784 83:-0.575685 84:0.348273 85:0.783774 86:0.53426 87:-0.008612 88:-0.475311 89:-0.712606 90:-0.765227 91:-0.703877 92:-0.654029 93:-0.779705 94:-0.942683 95:-0.995967 96:-0.999923 97:-0.999501 98:-0.978735 99:-0.723757 100:-0.004829 101:0.551609 102:0.555872 103:0.256834 104:-0.039255 105:-0.136375 106:-0.092889 107:0.098599 108:0.222867 109:-0.164725 110:-0.756377 111:-0.97806 112:-0.999308 113:-0.999924 114:-0.994744 115:-0.914496 116:-0.582895 117:-0.02196 118:0.435898 119:0.621178 120:0.632391 121:0.659139 122:0.706052 123:0.786141 124:0.780378 125:0.290605 126:-0.586513 127:-0.957394 128:-0.99842 129:-0.999995 130:-0.999527 131:-0.989782 132:-0.916302 133:-0.673948 134:-0.254845 135:0.159261 136:0.412453 137:0.676258 138:0.904473 139:0.939705 140:0.714463 141:0.076951 142:-0.691336 143:-0.973159 144:-0.999199 145:-1 146:-0.999984 147:-0.999537 148:-0.99366 149:-0.953606 150:-0.832897 151:-0.656896 152:-0.376981 153:0.221955 154:0.786969 155:0.797725 156:0.247757 157:-0.486684 158:-0.898794 159:-0.993408 160:-0.999873 161:-1 162:-1 163:-0.999994 164:-0.999822 165:-0.997571 166:-0.983928 167:-0.886195 168:-0.446947 169:0.355842 170:0.766252 171:0.45143 172:-0.320852 173:-0.841821 174:-0.984414 175:-0.999372 176:-0.999992 177:-1 178:-1 179:-1 180:-0.999983 181:-0.998444 182:-0.964631 183:-0.700168 184:0.007387 185:0.641455 186:0.559477 187:-0.117154 188:-0.739765 189:-0.966151 190:-0.998212 191:-0.999967 192:-1 193:-1 194:-1 195:-1 196:-0.999924 197:-0.993218 198:-0.880248 199:-0.366089 200:0.454207 201:0.664189 202:0.079744 203:-0.627625 204:-0.938909 205:-0.995817 206:-0.999887 207:-0.999999 208:-1 209:-1 210:-1 211:-1 212:-0.999836 213:-0.985657 214:-0.7684 215:-0.053141 216:0.631762 217:0.437625 218:-0.408116 219:-0.892551 220:-0.991971 221:-0.999753 222:-0.999997 223:-1 224:-1 225:-1 226:-1 227:-1 228:-0.999811 229:-0.983543 230:-0.738388 231:0.007218 232:0.525155 233:0.078408 234:-0.689874 235:-0.972503 236:-0.999125 237:-0.99999 238:-1 239:-1 240:-1 241:-1 242:-1 243:-1 244:-0.999883 245:-0.989792 246:-0.834365 247:-0.321558 248:0.03799 249:-0.399426 250:-0.866473 251:-0.991686 252:-0.999882 253:-1 254:-1 255:-1 256:-1 
1 1:-0.999976 2:-0.998033 3:-0.96435 4:-0.788496 5:-0.396031 6:0.019674 7:0.267794 8:0.349585 9:0.195517 10:-0.067426 11:-0.324537 12:-0.530645 13:-0.679774 14:-0.860681 15:-0.972724 16:-0.998431 17:-0.999757 18:-0.98838 19:-0.838157 20:-0.354849 21:0.091724 22:0.076482 23:0.095555 24:0.344939 25:0.464635 26:0.478115 27:0.506032 28:0.413401 29:0.121725 30:-0.447806 31:-0.877684 32:-0.992645 33:-0.997802 34:-0.949902 35:-0.597635 36:0.064378 37:0.026914 38:-0.49329 39:-0.658552 40:-0.487991 41:-0.271555 42:-0.002779 43:0.442193 44:0.739627 45:0.618908 46:-0.068254 47:-0.767621 48:-0.985514 49:-0.991847 50:-0.858693 51:-0.304621 52:0.238589 53:-0.281881 54:-0.836225 55:-0.96243 56:-0.926319 57:-0.853288 58:-0.71001 59:-0.270313 60:0.433129 61:0.618189 62:-0.05897 63:-0.77174 64:-0.985907 65:-0.985498 66:-0.766993 67:-0.081817 68:0.257364 69:-0.489793 70:-0.939327 71:-0.996598 72:-0.996302 73:-0.990074 74:-0.948637 75:-0.605208 76:0.223291 77:0.482485 78:-0.27104 79:-0.857295 80:-0.991844 81:-0.983329 82:-0.736725 83:-0.023138 84:0.227293 85:-0.557542 86:-0.962513 87:-0.9986 88:-0.996842 89:-0.980421 90:-0.89024 91:-0.478527 92:0.304051 93:0.402629 94:-0.475939 95:-0.938672 96:-0.997458 97:-0.985432 98:-0.766314 99:-0.083194 100:0.261583 101:-0.453404 102:-0.906911 103:-0.970491 104:-0.937753 105:-0.799152 106:-0.504849 107:0.001049 108:0.548782 109:0.406534 110:-0.548262 111:-0.966494 112:-0.999356 113:-0.991702 114:-0.857545 115:-0.311797 116:0.265051 117:-0.071828 118:-0.517299 119:-0.628025 120:-0.535409 121:-0.275013 122:0.002984 123:0.178981 124:0.481081 125:0.369291 126:-0.550957 127:-0.96719 128:-0.999412 129:-0.997696 130:-0.951339 131:-0.641425 132:-0.006283 133:0.263552 134:0.150761 135:0.060477 136:0.058667 137:-0.004205 138:-0.217699 139:-0.286623 140:0.226968 141:0.303993 142:-0.558594 143:-0.966584 144:-0.999336 145:-0.999757 146:-0.991753 147:-0.900642 148:-0.596511 149:-0.224441 150:-0.071298 151:-0.128107 152:-0.320707 153:-0.569901 154:-0.758801 155:-0.575675 156:0.177513 157:0.213869 158:-0.610844 159:-0.97286 160:-0.999585 161:-0.999988 162:-0.999348 163:-0.988705 164:-0.928347 165:-0.801016 166:-0.708184 167:-0.719352 168:-0.833733 169:-0.938157 170:-0.947254 171:-0.569837 172:0.238652 173:0.093638 174:-0.682352 175:-0.979382 176:-0.999755 177:-1 178:-0.999947 179:-0.996777 180:-0.95107 181:-0.795243 182:-0.649323 183:-0.730389 184:-0.918076 185:-0.98707 186:-0.914438 187:-0.437536 188:0.261357 189:-0.099798 190:-0.773044 191:-0.985895 192:-0.999838 193:-1 194:-0.99988 195:-0.989553 196:-0.832012 197:-0.32868 198:0.03859 199:-0.299 200:-0.77825 201:-0.937397 202:-0.760065 203:-0.150917 204:0.216244 205:-0.390672 206:-0.88778 207:-0.993777 208:-0.999931 209:-1 210:-0.999843 211:-0.986313 212:-0.781735 213:-0.148185 214:0.350609 215:0.14455 216:-0.335737 217:-0.578827 218:-0.355704 219:0.155317 220:-0.011583 221:-0.673553 222:-0.964501 223:-0.998604 224:-0.999986 225:-1 226:-0.999937 227:-0.994495 228:-0.907396 229:-0.565027 230:-0.046829 231:0.279822 232:0.286075 233:0.162326 234:0.202643 235:0.132134 236:-0.436914 237:-0.880803 238:-0.992168 239:-0.999854 240:-0.999999 241:-1 242:-0.999993 243:-0.999335 244:-0.986898 245:-0.909466 246:-0.692974 247:-0.352444 248:-0.006914 249:0.147843 250:0.033999 251:-0.378545 252:-0.807682 253:-0.975055 254:-0.998824 255:-0.999987 256:-1 
1 1:-0.999999 2:-0.999873 3:-0.996151 4:-0.955387 5:-0.795144 6:-0.484758 7:-0.124847 8:0.096497 9:0.113737 10:0.060492 11:-0.142514 12:-0.584805 13:-0.865412 14:-0.9725 15:-0.998355 16:-0.999981 17:-0.99998 18:-0.998165 19:-0.963954 20:-0.75835 21:-0.292229 22:0.082661 23:0.10292 24:-0.092214 25:-0.329075 26:-0.281345 27:0.042332 28:-0.024975 29:-0.465532 30:-0.868906 31:-0.991857 32:-0.999907 33:-0.999903 34:-0.991486 35:-0.858395 36:-0.369788 37:0.12172 38:-0.082325 39:-0.496398 40:-0.736114 41:-0.857543 42:-0.735166 43:-0.165823 44:0.329461 45:-0.078615 46:-0.758609 47:-0.984795 48:-0.999825 49:-0.999794 50:-0.982193 51:-0.723914 52:-0.039988 53:0.144495 54:-0.483867 55:-0.876625 56:-0.951855 57:-0.922164 58:-0.682482 59:-0.067832 60:0.339512 61:-0.227316 62:-0.827897 63:-0.989698 64:-0.999883 65:-0.999784 66:-0.981344 67:-0.711779 68:-0.010152 69:0.182394 70:-0.362469 71:-0.651948 72:-0.656459 73:-0.515679 74:-0.141315 75:0.31336 76:0.161685 77:-0.570824 78:-0.942282 79:-0.997292 80:-0.999971 81:-0.999892 82:-0.990596 83:-0.846606 84:-0.353853 85:0.131113 86:0.103457 87:-0.018023 88:-0.004099 89:0.158314 90:0.483763 91:0.511685 92:-0.165631 93:-0.801874 94:-0.986091 95:-0.999715 96:-0.999998 97:-0.999977 98:-0.997971 99:-0.963348 100:-0.793181 101:-0.466194 102:-0.22041 103:-0.145317 104:-0.149881 105:-0.053166 106:0.412274 107:0.33366 108:-0.483976 109:-0.926669 110:-0.996417 111:-0.99996 112:-1 113:-0.999999 114:-0.999871 115:-0.997015 116:-0.97364 117:-0.898552 118:-0.800452 119:-0.752133 120:-0.711173 121:-0.385672 122:0.269401 123:0.02898 124:-0.69895 125:-0.975432 126:-0.999353 127:-0.999995 128:-1 129:-1 130:-0.999998 131:-0.999913 132:-0.99879 133:-0.99427 134:-0.987403 135:-0.974526 136:-0.827114 137:-0.258256 138:0.252224 139:-0.2921 140:-0.853052 141:-0.9912 142:-0.999883 143:-1 144:-1 145:-1 146:-1 147:-0.999999 148:-0.999987 149:-0.999929 150:-0.999107 151:-0.973331 152:-0.689273 153:0.021088 154:0.177741 155:-0.549642 156:-0.946129 157:-0.997724 158:-0.999977 159:-1 160:-1 161:-1 162:-1 163:-1 164:-1 165:-0.999961 166:-0.996414 167:-0.926305 168:-0.489546 169:0.209689 170:-0.030205 171:-0.726421 172:-0.980178 173:-0.999609 174:-0.999998 175:-1 176:-1 177:-1 178:-1 179:-1 180:-1 181:-0.999886 182:-0.989989 183:-0.832162 184:-0.24326 185:0.242625 186:-0.326759 187:-0.867263 188:-0.992345 189:-0.999908 190:-1 191:-1 192:-1 193:-1 194:-1 195:-1 196:-1 197:-0.99977 198:-0.98178 199:-0.721266 200:-0.026106 201:0.142895 202:-0.569521 203:-0.951735 204:-0.998089 205:-0.999981 206:-1 207:-1 208:-1 209:-1 210:-1 211:-1 212:-0.999996 213:-0.999344 214:-0.969905 215:-0.615179 216:0.125734 217:-0.012714 218:-0.711141 219:-0.979692 220:-0.99965 221:-0.999998 222:-1 223:-1 224:-1 225:-1 226:-1 227:-1 228:-0.999985 229:-0.998395 230:-0.953608 231:-0.540673 232:0.194521 233:-0.107275 234:-0.770214 235:-0.985588 236:-0.999831 237:-1 238:-1 239:-1 240:-1 241:-1 242:-1 243:-1 244:-0.999983 245:-0.998279 246:-0.9566 247:-0.617158 248:-0.037396 249:-0.284015 250:-0.815728 251:-0.988483 252:-0.999868 253:-1 254:-1 255:-1 256:-1 
