svm_type c_svc
kernel_type rbf
gamma 0.000273
nr_class 2
total_sv 190
rho 0
label 1 -1
nr_sv 88 102
SV
99.67440000000001 1:-0.999998 2:-0.9998 3:-0.994136 4:-0.932288 5:-0.673685 6:-0.192056 7:0.21882 8:0.337224 9:0.193371 10:-0.065072 11:-0.362699 12:-0.634716 13:-0.830269 14:-0.952963 15:-0.994496 16:-0.99976 17:-0.999969 18:-0.997248 19:-0.948333 20:-0.680445 21:-0.096799 22:0.384204 23:0.446062 24:0.400219 25:0.442093 26:0.485947 27:0.438039 28:0.169868 29:-0.268995 30:-0.735113 31:-0.95649 32:-0.997672 33:-0.999846 34:-0.988661 35:-0.81983 36:-0.228448 37:0.411286 38:0.334013 39:-0.229287 40:-0.473654 41:-0.315222 42:0.027279 43:0.423773 44:0.648226 45:0.379693 46:-0.392732 47:-0.884748 48:-0.993465 49:-0.999247 50:-0.971662 51:-0.654962 52:0.177304 53:0.566158 54:-0.005231 55:-0.70145 56:-0.923641 57:-0.868675 58:-0.673205 59:-0.176013 60:0.53667 61:0.501874 62:-0.349644 63:-0.885014 64:-0.993691 65:-0.997124 66:-0.935373 67:-0.484501 68:0.435736 69:0.533752 70:-0.318919 71:-0.875402 72:-0.99015 73:-0.977863 74:-0.807296 75:-0.206978 76:0.491755 77:0.265853 78:-0.555503 79:-0.94163 80:-0.997291 81:-0.995385 82:-0.912136 83:-0.458277 84:0.30369 85:0.247921 86:-0.552934 87:-0.945298 88:-0.993808 89:-0.927876 90:-0.545554 91:0.203141 92:0.45167 93:-0.175073 94:-0.795058 95:-0.982358 96:-0.999446 97:-0.998008 98:-0.96038 99:-0.737555 100:-0.365967 101:-0.43736 102:-0.82068 103:-0.982712 104:-0.984001 105:-0.780869 106:-0.117761 107:0.483291 108:0.189103 109:-0.582612 110:-0.941813 111:-0.996911 112:-0.999947 113:-0.999757 114:-0.994064 115:-0.948934 116:-0.867468 117:-0.890031 118:-0.968355 119:-0.994828 120:-0.939563 121:-0.543747 122:0.281771 123:0.482972 124:-0.220241 125:-0.824963 126:-0.987685 127:-0.99973 128:-0.999998 129:-0.99999 130:-0.999706 131:-0.997088 132:-0.992206 133:-0.99369 134:-0.99805 135:-0.987649 136:-0.814172 137:-0.185787 138:0.487902 139:0.229845 140:-0.578673 141:-0.946639 142:-0.997567 143:-0.999973 144:-1 145:-1 146:-0.999997 147:-0.999967 148:-0.999912 149:-0.999912 150:-0.998301 151:-0.957977 152:-0.617843 153:0.181463 154:0.46044 155:-0.195586 156:-0.814984 157:-0.987273 158:-0.999747 159:-0.999998 160:-1 161:-1 162:-1 163:-1 164:-1 165:-0.999919 166:-0.992836 167:-0.873569 168:-0.335172 169:0.413015 170:0.251343 171:-0.558316 172:-0.943076 173:-0.997383 174:-0.999971 175:-1 176:-1 177:-1 178:-1 179:-1 180:-0.999999 181:-0.999704 182:-0.981999 183:-0.734325 184:0.009628 185:0.481315 186:-0.056847 187:-0.761402 188:-0.983455 189:-0.999691 190:-0.999998 191:-1 192:-1 193:-1 194:-1 195:-1 196:-0.99998 197:-0.998042 198:-0.950707 199:-0.553595 200:0.309794 201:0.428366 202:-0.368865 203:-0.888655 204:-0.993885 205:-0.999931 206:-1 207:-1 208:-1 209:-1 210:-1 211:-1 212:-0.999929 213:-0.993655 214:-0.884023 215:-0.343078 216:0.472109 217:0.318691 218:-0.564093 219:-0.954832 220:-0.998322 221:-0.999984 222:-1 223:-1 224:-1 225:-1 226:-1 227:-1 228:-0.999894 229:-0.990602 230:-0.839672 231:-0.229119 232:0.532742 233:0.317457 234:-0.590122 235:-0.965631 236:-0.999071 237:-0.999992 238:-1 239:-1 240:-1 241:-1 242:-1 243:-1 244:-0.999909 245:-0.991943 246:-0.864492 247:-0.373861 248:0.19653 249:0.002823 250:-0.6959 251:-0.976372 252:-0.999458 253:-0.999996 254:-1 255:-1 256:-1 
99.67440000000001 1:-1 2:-1 3:-1 4:-0.999998 5:-0.999814 6:-0.994396 7:-0.935053 8:-0.713608 9:-0.296045 10:0.14842 11:0.101427 12:-0.514076 13:-0.912114 14:-0.99513 15:-0.999946 16:-1 17:-1 18:-1 19:-0.999999 20:-0.999929 21:-0.996907 22:-0.949978 23:-0.686658 24:-0.106904 25:0.376471 26:0.569614 27:0.535816 28:-0.127596 29:-0.791872 30:-0.987217 31:-0.999854 32:-1 33:-1 34:-1 35:-0.999958 36:-0.998581 37:-0.975362 38:-0.781627 39:-0.2 40:0.394953 41:0.347387 42:0.157118 43:0.438667 44:0.0042 45:-0.736161 46:-0.983375 47:-0.999809 48:-1 49:-1 50:-0.999993 51:-0.999325 52:-0.984663 53:-0.862278 54:-0.39766 55:0.296521 56:0.363116 57:-0.215655 58:-0.318097 59:0.29026 60:-0.032321 61:-0.746834 62:-0.984098 63:-0.999817 64:-1 65:-1 66:-0.999957 67:-0.996091 68:-0.927457 69:-0.567247 70:0.127934 71:0.414422 72:-0.111995 73:-0.671447 74:-0.466905 75:0.242271 76:-0.122346 77:-0.784613 78:-0.986736 79:-0.999848 80:-1 81:-1 82:-0.99988 83:-0.989431 84:-0.824372 85:-0.218165 86:0.418979 87:0.155388 88:-0.574638 89:-0.829875 90:-0.373083 91:0.266063 92:-0.223771 93:-0.830824 94:-0.989986 95:-0.999886 96:-1 97:-1 98:-0.999826 99:-0.984829 100:-0.757442 101:-0.053367 102:0.373917 103:-0.212249 104:-0.80794 105:-0.795316 106:-0.168862 107:0.29556 108:-0.35462 109:-0.886755 110:-0.993874 111:-0.999932 112:-1 113:-1 114:-0.999864 115:-0.988215 116:-0.812486 117:-0.283777 118:-0.037817 119:-0.573166 120:-0.916256 121:-0.706612 122:0.042743 123:0.274068 124:-0.505379 125:-0.941914 126:-0.997599 127:-0.999976 128:-1 129:-1 130:-0.99996 131:-0.996486 132:-0.943833 133:-0.782505 134:-0.70882 135:-0.884052 136:-0.959337 137:-0.619558 138:0.184793 139:0.16118 140:-0.631939 141:-0.97167 142:-0.999382 143:-0.999996 144:-1 145:-1 146:-0.999997 147:-0.99974 148:-0.995771 149:-0.98274 150:-0.975666 151:-0.988232 152:-0.940907 153:-0.501216 154:0.263553 155:-0.015544 156:-0.73588 157:-0.983072 158:-0.999789 159:-1 160:-1 161:-1 162:-1 163:-0.999995 164:-0.999911 165:-0.999585 166:-0.99926 167:-0.992167 168:-0.865758 169:-0.304246 170:0.298723 171:-0.21499 172:-0.82803 173:-0.989791 174:-0.999884 175:-1 176:-1 177:-1 178:-1 179:-1 180:-0.999999 181:-0.999997 182:-0.999834 183:-0.98599 184:-0.773659 185:-0.089002 186:0.305248 187:-0.39549 188:-0.903268 189:-0.995008 190:-0.999945 191:-1 192:-1 193:-1 194:-1 195:-1 196:-1 197:-1 198:-0.99974 199:-0.979395 200:-0.684915 201:0.09887 202:0.278695 203:-0.537609 204:-0.954831 205:-0.998486 206:-0.999986 207:-1 208:-1 209:-1 210:-1 211:-1 212:-1 213:-0.999995 214:-0.999316 215:-0.969296 216:-0.605209 217:0.228434 218:0.224203 219:-0.615476 220:-0.973431 221:-0.999602 222:-0.999999 223:-1 224:-1 225:-1 226:-1 227:-1 228:-1 229:-0.999988 230:-0.998627 231:-0.956992 232:-0.544316 233:0.278358 234:0.114046 235:-0.678498 236:-0.979219 237:-0.999757 238:-1 239:-1 240:-1 241:-1 242:-1 243:-1 244:-1 245:-0.999992 246:-0.99909 247:-0.96851 248:-0.64819 249:-0.034203 250:-0.226234 251:-0.790082 252:-0.986682 253:-0.999847 254:-1 255:-1 256:-1 
40.28316732842305 1:-0.99999 2:-0.999011 3:-0.972335 4:-0.720582 5:-0.080942 6:0.322266 7:0.190659 8:-0.122252 9:-0.352338 10:-0.5275 11:-0.713823 12:-0.915505 13:-0.992148 14:-0.999734 15:-0.999997 16:-1 17:-0.999957 18:-0.996084 19:-0.922244 20:-0.47904 21:0.383627 22:0.716851 23:0.487932 24:0.374089 25:0.385836 26:0.314208 27:-0.015921 28:-0.615884 29:-0.935763 30:-0.995856 31:-0.999904 32:-0.999999 33:-0.999908 34:-0.991806 35:-0.857444 36:-0.276666 37:0.538514 38:0.505821 39:-0.132804 40:-0.198079 41:0.077869 42:0.324118 43:0.379254 44:-0.141548 45:-0.750142 46:-0.97186 47:-0.998821 48:-0.999988 49:-0.99989 50:-0.990285 51:-0.837197 52:-0.256348 53:0.395287 54:0.149783 55:-0.604484 56:-0.808568 57:-0.667253 58:-0.291883 59:0.328246 60:0.301717 61:-0.446744 62:-0.905153 63:-0.994872 64:-0.999943 65:-0.999944 66:-0.995043 67:-0.914237 68:-0.574342 69:-0.161081 70:-0.337522 71:-0.81077 72:-0.967977 73:-0.836287 74:-0.285814 75:0.495264 76:0.542139 77:-0.258174 78:-0.849682 79:-0.991266 80:-0.999901 81:-0.999989 82:-0.998999 83:-0.981719 84:-0.897417 85:-0.781336 86:-0.826767 87:-0.949519 88:-0.947436 89:-0.620648 90:0.157774 91:0.709111 92:0.451667 93:-0.413399 94:-0.901846 95:-0.994743 96:-0.999942 97:-0.999999 98:-0.999942 99:-0.99892 100:-0.993678 101:-0.986193 102:-0.988889 103:-0.986644 104:-0.83484 105:-0.240718 106:0.554528 107:0.710158 108:0.088185 109:-0.679799 110:-0.966684 111:-0.998722 112:-0.999987 113:-1 114:-0.999999 115:-0.999988 116:-0.999928 117:-0.999832 118:-0.998893 119:-0.968724 120:-0.650812 121:0.184044 122:0.738381 123:0.478562 124:-0.36181 125:-0.87891 126:-0.992391 127:-0.999862 128:-0.999999 129:-1 130:-1 131:-1 132:-0.999999 133:-0.999869 134:-0.994192 135:-0.906712 136:-0.416793 137:0.478978 138:0.683474 139:0.062313 140:-0.689061 141:-0.967605 142:-0.998745 143:-0.999987 144:-1 145:-1 146:-1 147:-1 148:-0.999983 149:-0.998462 150:-0.966391 151:-0.727705 152:-0.050234 153:0.618672 154:0.419854 155:-0.388408 156:-0.883148 157:-0.992696 158:-0.999871 159:-0.999999 160:-1 161:-1 162:-1 163:-0.999999 164:-0.999883 165:-0.99231 166:-0.874635 167:-0.371166 168:0.419313 169:0.656944 170:0.043609 171:-0.698516 172:-0.968061 173:-0.998735 174:-0.999987 175:-1 176:-1 177:-1 178:-1 179:-0.999993 180:-0.999197 181:-0.974025 182:-0.705247 183:0.056263 184:0.692799 185:0.527564 186:-0.314074 187:-0.865858 188:-0.991622 189:-0.999857 190:-0.999999 191:-1 192:-1 193:-1 194:-1 195:-0.999967 196:-0.996925 197:-0.933641 198:-0.495873 199:0.411936 200:0.722785 201:0.170047 202:-0.626042 203:-0.954202 204:-0.997959 205:-0.999978 206:-1 207:-1 208:-1 209:-1 210:-1 211:-0.999918 212:-0.992713 213:-0.870123 214:-0.300098 215:0.576281 216:0.59161 217:-0.265705 218:-0.851305 219:-0.989132 220:-0.999718 221:-0.999998 222:-1 223:-1 224:-1 225:-1 226:-1 227:-0.999883 228:-0.989711 229:-0.82821 230:-0.218427 231:0.534132 232:0.425955 233:-0.499076 234:-0.943184 235:-0.997603 236:-0.999969 237:-1 238:-1 239:-1 240:-1 241:-1 242:-1 243:-0.999938 244:-0.994488 245:-0.90465 246:-0.520524 247:0.043674 248:0.019854 249:-0.664204 250:-0.972828 251:-0.999339 252:-0.999995 253:-1 254:-1 255:-1 256:-1 
99.67440000000001 1:-1 2:-0.999997 3:-0.999636 4:-0.988801 5:-0.870398 6:-0.44372 7:0.100186 8:0.229155 9:0.121812 10:-0.001698 11:-0.14197 12:-0.572907 13:-0.909312 14:-0.99464 15:-0.999939 16:-1 17:-1 18:-0.99996 19:-0.99636 20:-0.931293 21:-0.578362 22:0.088502 23:0.359287 24:0.093604 25:-0.08107 26:0.091228 27:0.301547 28:-0.193335 29:-0.801628 30:-0.987724 31:-0.999859 32:-1 33:-1 34:-0.999895 35:-0.990816 36:-0.847756 37:-0.329953 38:0.166649 39:-0.108263 40:-0.588178 41:-0.722697 42:-0.369553 43:0.262052 44:-0.070798 45:-0.756945 46:-0.984725 47:-0.999824 48:-1 49:-1 50:-0.999932 51:-0.994018 52:-0.902146 53:-0.590016 54:-0.375628 55:-0.674748 56:-0.926615 57:-0.943882 58:-0.53625 59:0.21466 60:-0.117405 61:-0.77927 62:-0.986328 63:-0.999843 64:-1 65:-1 66:-0.999985 67:-0.998662 68:-0.977903 69:-0.905307 70:-0.85919 71:-0.942705 72:-0.99067 73:-0.932405 74:-0.470761 75:0.219136 76:-0.230714 77:-0.83124 78:-0.989996 79:-0.999887 80:-1 81:-1 82:-0.999999 83:-0.99992 84:-0.998676 85:-0.994266 86:-0.991504 87:-0.996743 88:-0.992614 89:-0.872105 90:-0.323111 91:0.233877 92:-0.361347 93:-0.888278 94:-0.993982 95:-0.999933 96:-1 97:-1 98:-1 99:-0.999999 100:-0.999985 101:-0.999935 102:-0.999903 103:-0.999817 104:-0.987275 105:-0.793025 106:-0.145403 107:0.23425 108:-0.482203 109:-0.93551 110:-0.997214 111:-0.999971 112:-1 113:-1 114:-1 115:-1 116:-1 117:-1 118:-0.999998 119:-0.999663 120:-0.979364 121:-0.702022 122:0.023225 123:0.172701 124:-0.593427 125:-0.966188 126:-0.999144 127:-0.999993 128:-1 129:-1 130:-1 131:-1 132:-1 133:-1 134:-0.99998 135:-0.998011 136:-0.950424 137:-0.562139 138:0.177125 139:0.04035 140:-0.694525 141:-0.979747 142:-0.999733 143:-1 144:-1 145:-1 146:-1 147:-1 148:-1 149:-1 150:-0.999908 151:-0.99234 152:-0.867329 153:-0.327875 154:0.259479 155:-0.18713 156:-0.808 157:-0.988291 158:-0.999866 159:-1 160:-1 161:-1 162:-1 163:-1 164:-1 165:-0.999997 166:-0.999597 167:-0.98047 168:-0.734236 169:-0.05701 170:0.187527 171:-0.484065 172:-0.920997 173:-0.996011 174:-0.999957 175:-1 176:-1 177:-1 178:-1 179:-1 180:-1 181:-0.999972 182:-0.997367 183:-0.940791 184:-0.533005 185:0.186111 186:0.003885 187:-0.699062 188:-0.97448 189:-0.999281 190:-0.999994 191:-1 192:-1 193:-1 194:-1 195:-1 196:-0.999999 197:-0.999828 198:-0.989643 199:-0.837948 200:-0.254628 201:0.283945 202:-0.23512 203:-0.830864 204:-0.989632 205:-0.999861 206:-1 207:-1 208:-1 209:-1 210:-1 211:-1 212:-0.999988 213:-0.998754 214:-0.96616 215:-0.668191 216:0.044199 217:0.213686 218:-0.503202 219:-0.929327 220:-0.996582 221:-0.999963 222:-1 223:-1 224:-1 225:-1 226:-1 227:-1 228:-0.999955 229:-0.995894 230:-0.918732 231:-0.470261 232:0.213566 233:-0.043667 234:-0.725427 235:-0.977112 236:-0.999364 237:-0.999995 238:-1 239:-1 240:-1 241:-1 242:-1 243:-1 244:-0.999944 245:-0.995017 246:-0.909873 247:-0.511018 248:-0.074097 249:-0.470257 250:-0.891993 251:-0.993507 252:-0.999908 253:-1 254:-1 255:-1 256:-1 
99.67440000000001 1:-1 2:-1 3:-0.999992 4:-0.99917 5:-0.977902 6:-0.787938 7:-0.341435 8:-0.120333 9:-0.116715 10:-0.029582 11:-0.290986 12:-0.7989 13:-0.987044 14:-0.99985 15:-1 16:-1 17:-1 18:-1 19:-0.999946 20:-0.995135 21:-0.911245 22:-0.506181 23:0.007296 24:-0.157329 25:-0.157005 26:0.168343 27:-0.134062 28:-0.761304 29:-0.984755 30:-0.999824 31:-1 32:-1 33:-1 34:-1 35:-0.999893 36:-0.990706 37:-0.852067 38:-0.434222 39:-0.235818 40:-0.601624 41:-0.521199 42:-0.011858 43:-0.286829 44:-0.818691 45:-0.988706 46:-0.99987 47:-1 48:-1 49:-1 50:-1 51:-0.999955 52:-0.99614 53:-0.940288 54:-0.794805 55:-0.767056 56:-0.88368 57:-0.599331 58:-0.023327 59:-0.437665 60:-0.893449 61:-0.994057 62:-0.999934 63:-1 64:-1 65:-1 66:-1 67:-0.999996 68:-0.999644 69:-0.994497 70:-0.98113 71:-0.976149 72:-0.929862 73:-0.517748 74:0.012755 75:-0.554752 76:-0.9523 77:-0.998265 78:-0.999983 79:-1 80:-1 81:-1 82:-1 83:-1 84:-0.99999 85:-0.999838 86:-0.999359 87:-0.993076 88:-0.889389 89:-0.439705 90:-0.058775 91:-0.639465 92:-0.974074 93:-0.999612 94:-0.999999 95:-1 96:-1 97:-1 98:-1 99:-1 100:-1 101:-0.999999 102:-0.999878 103:-0.989833 104:-0.837549 105:-0.371468 106:-0.173884 107:-0.709142 108:-0.980338 109:-0.999769 110:-1 111:-1 112:-1 113:-1 114:-1 115:-1 116:-1 117:-1 118:-0.999829 119:-0.985274 120:-0.775979 121:-0.281208 122:-0.281554 123:-0.776203 124:-0.98529 125:-0.999829 126:-1 127:-1 128:-1 129:-1 130:-1 131:-1 132:-1 133:-1 134:-0.999764 135:-0.979824 136:-0.702596 137:-0.17514 138:-0.414113 139:-0.857837 140:-0.991281 141:-0.9999 142:-1 143:-1 144:-1 145:-1 146:-1 147:-1 148:-1 149:-1 150:-0.999708 151:-0.975517 152:-0.645867 153:-0.097603 154:-0.528228 155:-0.925773 156:-0.996248 157:-0.999959 158:-1 159:-1 160:-1 161:-1 162:-1 163:-1 164:-1 165:-0.999999 166:-0.999597 167:-0.973001 168:-0.628666 169:-0.095239 170:-0.607008 171:-0.963843 172:-0.99896 173:-0.999991 174:-1 175:-1 176:-1 177:-1 178:-1 179:-1 180:-1 181:-0.999995 182:-0.999284 183:-0.969362 184:-0.632793 185:-0.136592 186:-0.645859 187:-0.974887 188:-0.999668 189:-0.999999 190:-1 191:-1 192:-1 193:-1 194:-1 195:-1 196:-1 197:-0.999991 198:-0.998989 199:-0.966451 200:-0.644978 201:-0.188973 202:-0.670213 203:-0.977122 204:-0.999731 205:-1 206:-1 207:-1 208:-1 209:-1 210:-1 211:-1 212:-1 213:-0.999991 214:-0.998994 215:-0.967786 216:-0.666308 217:-0.241737 218:-0.69198 219:-0.978641 220:-0.999749 221:-1 222:-1 223:-1 224:-1 225:-1 226:-1 227:-1 228:-1 229:-0.999993 230:-0.999189 231:-0.972119 232:-0.698954 233:-0.30893 234:-0.718755 235:-0.980492 236:-0.999771 237:-1 238:-1 239:-1 240:-1 241:-1 242:-1 243:-1 244:-1 245:-0.999998 246:-0.999672 247:-0.984808 248:-0.812425 249:-0.556508 250:-0.818562 251:-0.987403 252:-0.999852 253:-1 254:-1 255:-1 256:-1 
99.67440000000001 1:-0.999931 2:-0.999898 3:-0.999918 4:-0.999943 5:-0.999962 6:-0.999918 7:-0.999795 8:-0.999031 9:-0.994844 10:-0.983314 11:-0.940127 12:-0.804563 13:-0.558508 14:-0.256355 15:-0.248841 16:-0.676826 17:-0.993875 18:-0.990972 19:-0.992636 20:-0.994784 21:-0.996416 22:-0.992734 23:-0.984717 24:-0.967409 25:-0.902905 26:-0.761037 27:-0.548504 28:-0.164456 29:0.2887 30:0.584113 31:0.447306 32:-0.269137 33:-0.894834 34:-0.845936 35:-0.868537 36:-0.899838 37:-0.924058 38:-0.870403 39:-0.760702 40:-0.627743 41:-0.405772 42:-0.044941 43:0.301918 44:0.596383 45:0.779971 46:0.884756 47:0.753246 48:0.07672 49:-0.490749 50:-0.259596 51:-0.290725 52:-0.371171 53:-0.440298 54:-0.299862 55:-0.03193 56:0.236872 57:0.475856 58:0.656692 59:0.696361 60:0.617984 61:0.560697 62:0.755325 63:0.800787 64:0.24179 65:-0.051469 66:0.460808 67:0.571968 68:0.548573 69:0.50028 70:0.573775 71:0.651087 72:0.65186 73:0.591979 74:0.461506 75:0.197514 76:-0.072855 77:0.045287 78:0.617447 79:0.725151 80:0.078958 81:-0.331359 82:0.233316 83:0.476332 84:0.556944 85:0.566679 86:0.546068 87:0.4044 88:0.122248 89:-0.214034 90:-0.486962 91:-0.642431 92:-0.546363 93:0.074394 94:0.682644 95:0.518373 96:-0.303045 97:-0.826382 98:-0.620078 99:-0.466959 100:-0.35703 101:-0.324963 102:-0.3686 103:-0.515208 104:-0.685579 105:-0.835928 106:-0.93623 107:-0.90751 108:-0.485666 109:0.398295 110:0.711889 111:0.162347 112:-0.635649 113:-0.98868 114:-0.968061 115:-0.932787 116:-0.894886 117:-0.883121 118:-0.898272 119:-0.942434 120:-0.975296 121:-0.989489 122:-0.97972 123:-0.803121 124:-0.173447 125:0.608862 126:0.573553 127:-0.223588 128:-0.830273 129:-0.99984 130:-0.999128 131:-0.996996 132:-0.99445 133:-0.993653 134:-0.99467 135:-0.997545 136:-0.9992 137:-0.992822 138:-0.90441 139:-0.503156 140:0.236904 141:0.645419 142:0.211197 143:-0.585498 144:-0.943484 145:-1 146:-0.999993 147:-0.999969 148:-0.999939 149:-0.99993 150:-0.999941 151:-0.999943 152:-0.997485 153:-0.950553 154:-0.652526 155:0.04754 156:0.614532 157:0.469245 158:-0.29986 159:-0.847752 160:-0.988288 161:-1 162:-1 163:-1 164:-1 165:-1 166:-0.999998 167:-0.999686 168:-0.986772 169:-0.820452 170:-0.225504 171:0.531985 172:0.681213 173:0.07719 174:-0.672112 175:-0.961925 176:-0.998286 177:-1 178:-1 179:-1 180:-1 181:-1 182:-0.999972 183:-0.997359 184:-0.943931 185:-0.579315 186:0.239263 187:0.740554 188:0.44639 189:-0.383542 190:-0.883441 191:-0.992502 192:-0.999851 193:-1 194:-1 195:-1 196:-1 197:-1 198:-0.999896 199:-0.990842 200:-0.844196 201:-0.251144 202:0.575679 203:0.721113 204:0.065705 205:-0.694635 206:-0.969199 207:-0.998844 208:-0.999988 209:-1 210:-1 211:-1 212:-1 213:-1 214:-0.999841 215:-0.986139 216:-0.775461 217:-0.069748 218:0.661691 219:0.555672 220:-0.322609 221:-0.875382 222:-0.99246 223:-0.999874 224:-0.999999 225:-1 226:-1 227:-1 228:-1 229:-1 230:-0.999885 231:-0.989961 232:-0.834954 233:-0.283856 234:0.332279 235:0.195871 236:-0.597123 237:-0.958948 238:-0.998509 239:-0.999985 240:-1 241:-1 242:-1 243:-1 244:-1 245:-1 246:-0.999969 247:-0.997197 248:-0.950589 249:-0.740073 250:-0.41967 251:-0.439244 252:-0.821166 253:-0.987281 254:-0.999788 255:-0.999999 256:-1 
99.67440000000001 1:-1 2:-0.999996 3:-0.999652 4:-0.993017 5:-0.950396 6:-0.830548 7:-0.629798 8:-0.349414 9:-0.051903 10:0.061513 11:-0.289746 12:-0.807499 13:-0.987734 14:-0.999858 15:-1 16:-1 17:-1 18:-0.999952 19:-0.995797 20:-0.931072 21:-0.69903 22:-0.36723 23:-0.110551 24:-0.071684 25:-0.147818 26:0.000205 27:0.012958 28:-0.657446 29:-0.976909 30:-0.999723 31:-1 32:-1 33:-1 34:-0.999883 35:-0.989843 36:-0.841491 37:-0.428134 38:-0.178205 39:-0.305623 40:-0.572683 41:-0.701382 42:-0.371859 43:0.057295 44:-0.587379 45:-0.969937 46:-0.99953 47:-0.999998 48:-1 49:-1 50:-0.999944 51:-0.995183 52:-0.926175 53:-0.753418 54:-0.70245 55:-0.811786 56:-0.931264 57:-0.928919 58:-0.517679 59:0.044882 60:-0.568658 61:-0.965793 62:-0.999297 63:-0.999996 64:-1 65:-1 66:-0.999993 67:-0.999392 68:-0.990947 69:-0.973436 70:-0.975976 71:-0.987763 72:-0.993801 73:-0.936396 74:-0.514058 75:0.010297 76:-0.591037 77:-0.96938 78:-0.999478 79:-0.999998 80:-1 81:-1 82:-1 83:-0.999974 84:-0.99962 85:-0.999023 86:-0.999446 87:-0.999769 88:-0.99362 89:-0.888956 90:-0.445444 91:-0.079706 92:-0.650507 93:-0.975672 94:-0.999688 95:-1 96:-1 97:-1 98:-1 99:-1 100:-0.999996 101:-0.999991 102:-0.999996 103:-0.999871 104:-0.988839 105:-0.82405 106:-0.350872 107:-0.195164 108:-0.722861 109:-0.981354 110:-0.999781 111:-1 112:-1 113:-1 114:-1 115:-1 116:-0.999995 117:-0.999952 118:-0.999845 119:-0.999558 120:-0.982725 121:-0.747661 122:-0.235451 123:-0.31464 124:-0.799704 125:-0.987003 126:-0.999847 127:-1 128:-1 129:-1 130:-1 131:-0.999986 132:-0.999595 133:-0.995838 134:-0.986728 135:-0.979921 136:-0.950956 137:-0.644013 138:-0.116481 139:-0.449468 140:-0.876033 141:-0.98956 142:-0.999664 143:-0.999997 144:-1 145:-1 146:-0.999998 147:-0.999791 148:-0.993897 149:-0.937031 150:-0.799931 151:-0.70732 152:-0.626248 153:-0.302119 154:0.143697 155:-0.297731 156:-0.736436 157:-0.938415 158:-0.996166 159:-0.999956 160:-1 161:-1 162:-0.999994 163:-0.999376 164:-0.981221 165:-0.802574 166:-0.382397 167:-0.139079 168:0.006786 169:0.243857 170:0.411849 171:0.043117 172:-0.442303 173:-0.853753 174:-0.99071 175:-0.999893 176:-1 177:-1 178:-0.999995 179:-0.999464 180:-0.982713 181:-0.81118 182:-0.427495 183:-0.276087 184:-0.154726 185:0.110283 186:0.032631 187:-0.437358 188:-0.759001 189:-0.939524 190:-0.996178 191:-0.999956 192:-1 193:-1 194:-0.999999 195:-0.999848 196:-0.994866 197:-0.942621 198:-0.829101 199:-0.785682 200:-0.586589 201:-0.161078 202:-0.325422 203:-0.792251 204:-0.971048 205:-0.995556 206:-0.999733 207:-0.999997 208:-1 209:-1 210:-1 211:-0.99999 212:-0.999666 213:-0.996251 214:-0.988658 215:-0.966884 216:-0.689783 217:-0.191585 218:-0.490877 219:-0.891118 220:-0.993335 221:-0.999869 222:-0.999997 223:-1 224:-1 225:-1 226:-1 227:-1 228:-0.999996 229:-0.999956 230:-0.999626 231:-0.978918 232:-0.696699 233:-0.235599 234:-0.620409 235:-0.946757 236:-0.997506 237:-0.999973 238:-1 239:-1 240:-1 241:-1 242:-1 243:-1 244:-1 245:-1 246:-0.999826 247:-0.985215 248:-0.786853 249:-0.476326 250:-0.772038 251:-0.97895 252:-0.999391 253:-0.999995 254:-1 255:-1 256:-1 
99.67440000000001 1:-0.999994 2:-0.999467 3:-0.98848 4:-0.910184 5:-0.710822 6:-0.467619 7:-0.200433 8:-0.027804 9:-0.199009 10:-0.734366 11:-0.974393 12:-0.99914 13:-0.999992 14:-1 15:-1 16:-1 17:-0.999968 18:-0.997111 19:-0.946928 20:-0.694149 21:-0.270651 22:-0.145368 23:-0.258454 24:-0.170298 25:0.041506 26:-0.548347 27:-0.94042 28:-0.997307 29:-0.999972 30:-1 31:-1 32:-1 33:-0.999942 34:-0.994936 35:-0.917116 36:-0.64978 37:-0.42573 38:-0.578676 39:-0.752796 40:-0.52548 41:-0.025426 42:-0.513601 43:-0.927672 44:-0.996468 45:-0.999962 46:-1 47:-1 48:-1 49:-0.999978 50:-0.998055 51:-0.969134 52:-0.883238 53:-0.844795 54:-0.928297 55:-0.954914 56:-0.618486 57:-0.06292 58:-0.55089 59:-0.942242 60:-0.997476 61:-0.999974 62:-1 63:-1 64:-1 65:-0.999998 66:-0.999866 67:-0.997893 68:-0.992206 69:-0.990149 70:-0.994907 71:-0.95813 72:-0.573278 73:-0.02187 74:-0.578281 75:-0.960704 76:-0.99884 77:-0.99999 78:-1 79:-1 80:-1 81:-1 82:-0.999998 83:-0.999975 84:-0.999909 85:-0.999838 86:-0.995528 87:-0.914637 88:-0.481291 89:-0.028276 90:-0.616275 91:-0.971676 92:-0.999454 93:-0.999932 94:-0.999981 95:-0.999999 96:-1 97:-1 98:-1 99:-0.999997 100:-0.999963 101:-0.999764 102:-0.990604 103:-0.849609 104:-0.376903 105:-0.116201 106:-0.677734 107:-0.973106 108:-0.992172 109:-0.99428 110:-0.998405 111:-0.999898 112:-0.999999 113:-1 114:-0.999997 115:-0.999794 116:-0.996811 117:-0.988571 118:-0.966701 119:-0.743398 120:-0.243017 121:-0.265254 122:-0.721705 123:-0.892182 124:-0.877653 125:-0.913059 126:-0.97638 127:-0.998497 128:-0.999983 129:-1 130:-0.999964 131:-0.996935 132:-0.952576 133:-0.832139 134:-0.715359 135:-0.397938 136:0.0838 137:-0.095661 138:-0.389145 139:-0.472885 140:-0.511434 141:-0.721959 142:-0.932909 143:-0.995863 144:-0.999953 145:-1 146:-0.999897 147:-0.991144 148:-0.862633 149:-0.509016 150:-0.191862 151:0.164419 152:0.4169 153:0.236079 154:0.069359 155:-0.074058 156:-0.33388 157:-0.723779 158:-0.948977 159:-0.997133 160:-0.999968 161:-1 162:-0.999918 163:-0.992952 164:-0.889942 165:-0.59235 166:-0.249865 167:0.095391 168:0.020107 169:-0.392325 170:-0.573139 171:-0.643529 172:-0.762434 173:-0.914242 174:-0.986818 175:-0.999321 176:-0.999992 177:-1 178:-0.999978 179:-0.998109 180:-0.97012 181:-0.872594 182:-0.571046 183:-0.121131 184:-0.391403 185:-0.830625 186:-0.962811 187:-0.975427 188:-0.983919 189:-0.994368 190:-0.999176 191:-0.999959 192:-1 193:-1 194:-0.999999 195:-0.999873 196:-0.997208 197:-0.960735 198:-0.633344 199:-0.140255 200:-0.575888 201:-0.939603 202:-0.996829 203:-0.999683 204:-0.999812 205:-0.999935 206:-0.99999 207:-0.999999 208:-1 209:-1 210:-1 211:-0.999969 212:-0.997218 213:-0.941697 214:-0.591875 215:-0.180236 216:-0.665326 217:-0.972796 218:-0.999396 219:-0.999996 220:-1 221:-1 222:-1 223:-1 224:-1 225:-1 226:-1 227:-0.999949 228:-0.995484 229:-0.920179 230:-0.592312 231:-0.312805 232:-0.738177 233:-0.981859 234:-0.999774 235:-1 236:-1 237:-1 238:-1 239:-1 240:-1 241:-1 242:-1 243:-0.999951 244:-0.99574 245:-0.929646 246:-0.698767 247:-0.559692 248:-0.839297 249:-0.98907 250:-0.999872 251:-1 252:-1 253:-1 254:-1 255:-1 256:-1 
99.67440000000001 1:-1 2:-0.99998 3:-0.998207 4:-0.967804 5:-0.819906 6:-0.524492 7:-0.236269 8:-0.063329 9:-0.214336 10:-0.727956 11:-0.970119 12:-0.998826 13:-0.999988 14:-1 15:-1 16:-1 17:-1 18:-0.99993 19:-0.993902 20:-0.900625 21:-0.583781 22:-0.291535 23:-0.34671 24:-0.269794 25:-0.043893 26:-0.512371 27:-0.910926 28:-0.995089 29:-0.999945 30:-1 31:-1 32:-1 33:-1 34:-0.99992 35:-0.993134 36:-0.895899 37:-0.668887 38:-0.646026 39:-0.786733 40:-0.646736 41:-0.189277 42:-0.379965 43:-0.836589 44:-0.989716 45:-0.999882 46:-1 47:-1 48:-1 49:-1 50:-0.999973 51:-0.997729 52:-0.966624 53:-0.908712 54:-0.935985 55:-0.965753 56:-0.780435 57:-0.322467 58:-0.347313 59:-0.800713 60:-0.986963 61:-0.999849 62:-1 63:-1 64:-1 65:-1 66:-0.999998 67:-0.999849 68:-0.997791 69:-0.994179 70:-0.996333 71:-0.985331 72:-0.789867 73:-0.348026 74:-0.388924 75:-0.81651 76:-0.988046 77:-0.999861 78:-1 79:-1 80:-1 81:-1 82:-1 83:-0.999998 84:-0.999974 85:-0.999932 86:-0.999755 87:-0.982447 88:-0.740223 89:-0.261712 90:-0.437546 91:-0.854466 92:-0.990894 93:-0.999895 94:-1 95:-1 96:-1 97:-1 98:-1 99:-0.999998 100:-0.999967 101:-0.999834 102:-0.999366 103:-0.976918 104:-0.678372 105:-0.166926 106:-0.522646 107:-0.911158 108:-0.994986 109:-0.999911 110:-0.999998 111:-1 112:-1 113:-1 114:-0.999998 115:-0.999841 116:-0.997328 117:-0.987808 118:-0.976565 119:-0.943016 120:-0.607594 121:-0.124048 122:-0.609492 123:-0.949663 124:-0.989104 125:-0.9971 126:-0.999811 127:-0.999998 128:-1 129:-1 130:-0.999974 131:-0.99771 132:-0.961787 133:-0.82796 134:-0.682528 135:-0.653476 136:-0.417339 137:-0.158787 138:-0.618422 139:-0.820224 140:-0.859981 141:-0.958235 142:-0.997279 143:-0.999968 144:-1 145:-1 146:-0.999937 147:-0.994419 148:-0.906085 149:-0.565016 150:-0.14896 151:-0.047237 152:0.030818 153:-0.040344 154:-0.348722 155:-0.434095 156:-0.616091 157:-0.895321 158:-0.993324 159:-0.999923 160:-1 161:-1 162:-0.999974 163:-0.997676 164:-0.958736 165:-0.776343 166:-0.430485 167:-0.021717 168:0.359124 169:0.237454 170:-0.026467 171:-0.350744 172:-0.734956 173:-0.949444 174:-0.997113 175:-0.999967 176:-1 177:-1 178:-0.999998 179:-0.999826 180:-0.996028 181:-0.964963 182:-0.842506 183:-0.434433 184:0.100985 185:-0.167196 186:-0.530637 187:-0.767159 188:-0.936649 189:-0.993386 190:-0.999741 191:-0.999997 192:-1 193:-1 194:-1 195:-0.999997 196:-0.999835 197:-0.994481 198:-0.920046 199:-0.558638 200:-0.173537 201:-0.597574 202:-0.912236 203:-0.977606 204:-0.995785 205:-0.999703 206:-0.999993 207:-1 208:-1 209:-1 210:-1 211:-1 212:-0.999911 213:-0.992303 214:-0.876023 215:-0.505778 216:-0.326298 217:-0.755169 218:-0.98051 219:-0.999095 220:-0.999927 221:-0.999997 222:-1 223:-1 224:-1 225:-1 226:-1 227:-1 228:-0.999864 229:-0.988312 230:-0.822912 231:-0.441429 232:-0.459436 233:-0.834562 234:-0.989141 235:-0.999868 236:-1 237:-1 238:-1 239:-1 240:-1 241:-1 242:-1 243:-1 244:-0.999865 245:-0.988479 246:-0.830216 247:-0.529754 248:-0.667398 249:-0.919631 250:-0.995078 251:-0.999944 252:-1 253:-1 254:-1 255:-1 256:-1 
99.67440000000001 1:-0.997386 2:-0.993438 3:-0.981595 4:-0.920441 5:-0.711923 6:-0.312962 7:0.130077 8:0.105655 9:-0.519734 10:-0.91682 11:-0.995487 12:-0.99995 13:-1 14:-1 15:-1 16:-1 17:-0.951439 18:-0.8852 19:-0.755268 20:-0.492304 21:-0.043488 22:0.436763 23:0.715219 24:0.515859 25:-0.344852 26:-0.884584 27:-0.993682 28:-0.99993 29:-1 30:-1 31:-1 32:-1 33:-0.724378 34:-0.415201 35:-0.071787 36:0.282236 37:0.441004 38:0.516472 39:0.679606 40:0.483944 41:-0.424457 42:-0.919471 43:-0.996117 44:-0.999882 45:-0.999858 46:-0.999823 47:-0.999832 48:-0.999915 49:-0.503574 50:-0.015461 51:0.234311 52:0.249021 53:-0.034387 54:-0.113071 55:0.415195 56:0.367167 57:-0.53238 58:-0.954931 59:-0.996637 60:-0.993136 61:-0.987532 62:-0.9846 63:-0.985443 64:-0.992636 65:-0.808004 66:-0.625663 67:-0.563166 68:-0.608589 69:-0.724221 70:-0.478542 71:0.316779 72:0.228034 73:-0.615071 74:-0.952404 75:-0.94975 76:-0.876406 77:-0.795597 78:-0.755283 79:-0.77244 80:-0.884056 81:-0.986777 82:-0.974238 83:-0.970207 84:-0.971197 85:-0.923858 86:-0.477826 87:0.351842 88:0.164999 89:-0.533316 90:-0.679383 91:-0.537246 92:-0.329323 93:-0.137775 94:-0.07024 95:-0.186089 96:-0.574567 97:-0.99772 98:-0.990368 99:-0.980309 100:-0.963974 101:-0.858305 102:-0.344886 103:0.4506 104:0.350737 105:-0.027966 106:0.063115 107:0.254785 108:0.324992 109:0.325864 110:0.228902 111:-0.025487 112:-0.475893 113:-0.967671 114:-0.858305 115:-0.712914 116:-0.598571 117:-0.401954 118:0.085585 119:0.683078 120:0.719365 121:0.492007 122:0.306661 123:0.107911 124:-0.112991 125:-0.30545 126:-0.486245 127:-0.653331 128:-0.819097 129:-0.896295 130:-0.548143 131:-0.108377 132:0.145055 133:0.344249 134:0.602207 135:0.778636 136:0.53165 137:0.097494 138:-0.352098 139:-0.641738 140:-0.782967 141:-0.866478 142:-0.931193 143:-0.970016 144:-0.987457 145:-0.896389 146:-0.553443 147:-0.158726 148:-0.020322 149:0.112237 150:0.439816 151:0.545947 152:-0.098062 153:-0.629356 154:-0.868331 155:-0.9619 156:-0.985839 157:-0.992452 158:-0.996833 159:-0.999183 160:-0.999826 161:-0.967733 162:-0.861756 163:-0.746208 164:-0.710856 165:-0.513413 166:0.100184 167:0.352166 168:-0.414384 169:-0.903019 170:-0.988949 171:-0.998494 172:-0.999781 173:-0.999915 174:-0.999967 175:-0.999993 176:-1 177:-0.997879 178:-0.990927 179:-0.983247 180:-0.963961 181:-0.695795 182:0.047183 183:0.258074 184:-0.539733 185:-0.955392 186:-0.998461 187:-0.999972 188:-0.999999 189:-1 190:-1 191:-1 192:-1 193:-0.999975 194:-0.999895 195:-0.999571 196:-0.979308 197:-0.684107 198:0.068205 199:0.170923 200:-0.613623 201:-0.972554 202:-0.999558 203:-0.999998 204:-1 205:-1 206:-1 207:-1 208:-1 209:-1 210:-1 211:-0.999753 212:-0.978674 213:-0.674714 214:0.055593 215:0.07708 216:-0.660574 217:-0.977549 218:-0.999734 219:-1 220:-1 221:-1 222:-1 223:-1 224:-1 225:-1 226:-1 227:-0.999747 228:-0.978251 229:-0.671949 230:0.014359 231:-0.056606 232:-0.718047 233:-0.981651 234:-0.999787 235:-1 236:-1 237:-1 238:-1 239:-1 240:-1 241:-1 242:-1 243:-0.999812 244:-0.983911 245:-0.758926 246:-0.276603 247:-0.369352 248:-0.819177 249:-0.988357 250:-0.999865 251:-1 252:-1 253:-1 254:-1 255:-1 256:-1 
99.67440000000001 1:-1 2:-1 3:-1 4:-0.999996 5:-0.999762 6:-0.994855 7:-0.953224 8:-0.7982 9:-0.547704 10:-0.324282 11:-0.056206 12:0.155216 13:0.225802 14:-0.159126 15:-0.730196 16:-0.966873 17:-0.999999 18:-0.99999 19:-0.999933 20:-0.999661 21:-0.99487 22:-0.939924 23:-0.706039 24:-0.225676 25:0.292036 26:0.563384 27:0.677717 28:0.709815 29:0.684215 30:0.388668 31:-0.340513 32:-0.855998 33:-0.999842 34:-0.998892 35:-0.994084 36:-0.981695 37:-0.938295 38:-0.718762 39:-0.154431 40:0.488798 41:0.805789 42:0.784768 43:0.597287 44:0.436325 45:0.485736 46:0.602386 47:0.17497 48:-0.575442 49:-0.989642 50:-0.967735 51:-0.893262 52:-0.732978 53:-0.523436 54:-0.161654 55:0.412812 56:0.822866 57:0.77132 58:0.312025 59:-0.153175 60:-0.18903 61:0.369468 62:0.790297 63:0.607491 64:-0.156103 65:-0.843727 66:-0.664092 67:-0.401694 68:0.022121 69:0.404478 70:0.641547 71:0.835284 72:0.836887 73:0.386895 74:-0.348711 75:-0.653021 76:-0.257412 77:0.562062 78:0.925754 79:0.775371 80:0.085303 81:-0.397948 82:0.109745 83:0.450025 84:0.728542 85:0.900918 86:0.933932 87:0.856452 88:0.536337 89:-0.170766 90:-0.712834 91:-0.594899 92:0.097175 93:0.767082 94:0.936448 95:0.645592 96:-0.113075 97:-0.104377 98:0.592743 99:0.875436 100:0.945741 101:0.92235 102:0.74167 103:0.379804 104:-0.110851 105:-0.650195 106:-0.710828 107:-0.123155 108:0.586279 109:0.91579 110:0.833161 111:0.279495 112:-0.503755 113:-0.395072 114:0.368866 115:0.694945 116:0.652456 117:0.464822 118:0.078629 119:-0.421641 120:-0.744214 121:-0.847474 122:-0.457126 123:0.396784 124:0.880769 125:0.92153 126:0.570721 127:-0.189481 128:-0.791188 129:-0.764727 130:-0.29189 131:-0.060939 132:-0.221078 133:-0.49174 134:-0.707371 135:-0.890988 136:-0.960829 137:-0.783966 138:-0.10486 139:0.687733 140:0.957379 141:0.781584 142:0.11603 143:-0.626513 144:-0.943578 145:-0.951994 146:-0.833286 147:-0.771556 148:-0.840448 149:-0.938788 150:-0.979618 151:-0.99251 152:-0.961965 153:-0.62186 154:0.237983 155:0.840774 156:0.94761 157:0.596672 158:-0.274066 159:-0.851788 160:-0.989478 161:-0.997166 162:-0.989768 163:-0.985859 164:-0.990681 165:-0.997363 166:-0.999589 167:-0.995234 168:-0.90954 169:-0.414714 170:0.512594 171:0.933837 172:0.881778 173:0.348311 174:-0.551853 175:-0.947763 176:-0.99778 177:-0.999968 178:-0.999883 179:-0.999838 180:-0.999895 181:-0.999971 182:-0.999741 183:-0.987419 184:-0.817122 185:-0.174286 186:0.671492 187:0.964531 188:0.806598 189:0.139776 190:-0.688196 191:-0.978102 192:-0.999607 193:-1 194:-1 195:-1 196:-1 197:-0.999982 198:-0.998266 199:-0.958223 200:-0.63154 201:0.18322 202:0.817973 203:0.975805 204:0.811845 205:0.161789 206:-0.679317 207:-0.977843 208:-0.99963 209:-1 210:-1 211:-1 212:-1 213:-0.999932 214:-0.993929 215:-0.889445 216:-0.372632 217:0.511956 218:0.927991 219:0.954446 220:0.734575 221:0.093862 222:-0.693871 223:-0.97654 224:-0.99946 225:-1 226:-1 227:-1 228:-1 229:-0.999902 230:-0.991374 231:-0.852734 232:-0.285169 233:0.530125 234:0.859774 235:0.754035 236:0.270573 237:-0.448076 238:-0.885262 239:-0.991689 240:-0.999795 241:-1 242:-1 243:-1 244:-1 245:-0.999958 246:-0.996216 247:-0.930514 248:-0.59682 249:0.008914 250:0.314544 251:0.132943 252:-0.400218 253:-0.844606 254:-0.984724 255:-0.999326 256:-0.999985 
99.67440000000001 1:-1 2:-1 3:-0.999899 4:-0.991342 5:-0.867607 6:-0.554447 7:-0.33724 8:-0.125411 9:0.015228 10:-0.090101 11:-0.627195 12:-0.942047 13:-0.997032 14:-0.999968 15:-1 16:-1 17:-1 18:-1 19:-0.999784 20:-0.981367 21:-0.712625 22:-0.010839 23:0.322158 24:0.155766 25:0.066114 26:0.135251 27:-0.297008 28:-0.82473 29:-0.989104 30:-0.999875 31:-1 32:-1 33:-1 34:-1 35:-0.999791 36:-0.981911 37:-0.719638 38:-0.024966 39:0.186161 40:-0.351946 41:-0.425544 42:0.074788 43:-0.055737 44:-0.719085 45:-0.981725 46:-0.999788 47:-1 48:-1 49:-1 50:-1 51:-0.999904 52:-0.99166 53:-0.868389 54:-0.512716 55:-0.386146 56:-0.729892 57:-0.554392 58:0.137292 59:-0.047064 60:-0.731373 61:-0.982775 62:-0.999801 63:-1 64:-1 65:-1 66:-1 67:-0.999981 68:-0.998334 69:-0.973082 70:-0.892145 71:-0.847029 72:-0.842245 73:-0.385001 74:0.244175 75:-0.197923 76:-0.81445 77:-0.98878 78:-0.999872 79:-1 80:-1 81:-1 82:-1 83:-0.999999 84:-0.999903 85:-0.998427 86:-0.993378 87:-0.978667 88:-0.797307 89:-0.159228 90:0.262807 91:-0.409569 92:-0.906507 93:-0.995211 94:-0.999948 95:-1 96:-1 97:-1 98:-1 99:-1 100:-0.999999 101:-0.999981 102:-0.999588 103:-0.978823 104:-0.694289 105:0.051082 106:0.211633 107:-0.564658 108:-0.957965 109:-0.998613 110:-0.999987 111:-1 112:-1 113:-1 114:-1 115:-1 116:-1 117:-0.999989 118:-0.998726 119:-0.959524 120:-0.566453 121:0.231209 122:0.098792 123:-0.67395 124:-0.977102 125:-0.999612 126:-0.999998 127:-1 128:-1 129:-1 130:-1 131:-1 132:-1 133:-0.999952 134:-0.995538 135:-0.910957 136:-0.414751 137:0.301907 138:-0.07283 139:-0.766157 140:-0.985379 141:-0.999826 142:-1 143:-1 144:-1 145:-1 146:-1 147:-1 148:-1 149:-0.999884 150:-0.989772 151:-0.827562 152:-0.210581 153:0.321185 154:-0.263238 155:-0.849826 156:-0.99132 157:-0.999902 158:-1 159:-1 160:-1 161:-1 162:-1 163:-1 164:-1 165:-0.999813 166:-0.983756 167:-0.741295 168:-0.009355 169:0.324744 170:-0.437145 171:-0.922188 172:-0.996335 173:-0.999961 174:-1 175:-1 176:-1 177:-1 178:-1 179:-1 180:-1 181:-0.99975 182:-0.978386 183:-0.665613 184:0.149766 185:0.300637 186:-0.545645 187:-0.959671 188:-0.998835 189:-0.99999 190:-1 191:-1 192:-1 193:-1 194:-1 195:-1 196:-1 197:-0.99971 198:-0.974997 199:-0.620259 200:0.21029 201:0.196182 202:-0.626049 203:-0.973909 204:-0.99959 205:-0.999998 206:-1 207:-1 208:-1 209:-1 210:-1 211:-1 212:-1 213:-0.999696 214:-0.973857 215:-0.60586 216:0.216284 217:0.12716 218:-0.662362 219:-0.9774 220:-0.999694 221:-0.999999 222:-1 223:-1 224:-1 225:-1 226:-1 227:-1 228:-1 229:-0.999742 230:-0.977743 231:-0.661022 232:0.093718 233:0.112119 234:-0.631592 235:-0.967723 236:-0.999072 237:-0.999992 238:-1 239:-1 240:-1 241:-1 242:-1 243:-1 244:-1 245:-0.99986 246:-0.987812 247:-0.807496 248:-0.284299 249:-0.085088 250:-0.635582 251:-0.956038 252:-0.998142 253:-0.999981 254:-1 255:-1 256:-1 
99.67440000000001 1:-0.999968 2:-0.997121 3:-0.949662 4:-0.737426 5:-0.366192 6:-0.097378 7:0.012484 8:0.072948 9:0.081272 10:0.068816 11:-0.013837 12:-0.183576 13:-0.451752 14:-0.799611 15:-0.969085 16:-0.998407 17:-0.999862 18:-0.988378 19:-0.815393 20:-0.276591 21:0.159123 22:0.045827 23:-0.212428 24:-0.384317 25:-0.489391 26:-0.444782 27:-0.263487 28:0.031937 29:0.139469 30:-0.461086 31:-0.902852 32:-0.994653 33:-0.999583 34:-0.975995 35:-0.668069 36:0.014789 37:0.011209 38:-0.499759 39:-0.782979 40:-0.885326 41:-0.937267 42:-0.907603 43:-0.710506 44:-0.160597 45:0.265418 46:-0.361934 47:-0.885836 48:-0.993766 49:-0.997874 50:-0.946376 51:-0.531218 52:0.114843 53:-0.298204 54:-0.835341 55:-0.978639 56:-0.993563 57:-0.996768 58:-0.974011 59:-0.728856 60:-0.073803 61:0.160815 62:-0.523622 63:-0.936533 64:-0.997084 65:-0.994757 66:-0.901941 67:-0.433768 68:0.063931 69:-0.501599 70:-0.930468 71:-0.996604 72:-0.999819 73:-0.995581 74:-0.921659 75:-0.498521 76:0.155253 77:-0.069249 78:-0.728204 79:-0.977212 80:-0.999364 81:-0.995833 82:-0.925374 83:-0.607048 84:-0.315836 85:-0.71735 86:-0.972016 87:-0.999068 88:-0.999189 89:-0.977466 90:-0.765148 91:-0.14474 92:0.228268 93:-0.365274 94:-0.876529 95:-0.992706 96:-0.999898 97:-0.998865 98:-0.979674 99:-0.893005 100:-0.814869 101:-0.926318 102:-0.99376 103:-0.999788 104:-0.995362 105:-0.914606 106:-0.49145 107:0.174518 108:0.060617 109:-0.640295 110:-0.959387 111:-0.998343 112:-0.999983 113:-0.999928 114:-0.998707 115:-0.99318 116:-0.988199 117:-0.99534 118:-0.999618 119:-0.999637 120:-0.983897 121:-0.780625 122:-0.149262 123:0.261213 124:-0.27787 125:-0.838104 126:-0.989174 127:-0.999797 128:-0.999999 129:-0.999999 130:-0.999985 131:-0.999921 132:-0.999864 133:-0.999946 134:-0.999965 135:-0.997396 136:-0.944402 137:-0.579097 138:0.101071 139:0.047617 140:-0.619702 141:-0.95009 142:-0.997674 143:-0.999974 144:-1 145:-1 146:-1 147:-1 148:-1 149:-0.999998 150:-0.999734 151:-0.987836 152:-0.82896 153:-0.269498 154:0.182558 155:-0.329484 156:-0.85424 157:-0.989558 158:-0.999752 159:-0.999998 160:-1 161:-1 162:-1 163:-1 164:-1 165:-0.999976 166:-0.997729 167:-0.950231 168:-0.615513 169:0.037388 170:0.03 171:-0.636341 172:-0.958871 173:-0.998291 174:-0.999979 175:-1 176:-1 177:-1 178:-1 179:-1 180:-0.999999 181:-0.999858 182:-0.990609 183:-0.851117 184:-0.330677 185:0.125084 186:-0.338946 187:-0.853581 188:-0.990352 189:-0.999825 190:-0.999999 191:-1 192:-1 193:-1 194:-1 195:-1 196:-0.999991 197:-0.999047 198:-0.971093 199:-0.696194 200:-0.089985 201:-0.068874 202:-0.663553 203:-0.96016 204:-0.998308 205:-0.999982 206:-1 207:-1 208:-1 209:-1 210:-1 211:-1 212:-0.999956 213:-0.995944 214:-0.920993 215:-0.50498 216:0.025254 217:-0.382987 218:-0.867071 219:-0.991228 220:-0.999833 221:-0.999999 222:-1 223:-1 224:-1 225:-1 226:-1 227:-1 228:-0.999899 229:-0.991147 230:-0.855344 231:-0.398875 232:-0.131208 233:-0.646703 234:-0.960114 235:-0.998422 236:-0.999984 237:-1 238:-1 239:-1 240:-1 241:-1 242:-1 243:-1 244:-0.999893 245:-0.990807 246:-0.859166 247:-0.534685 248:-0.509272 249:-0.840718 250:-0.988574 251:-0.999806 252:-0.999999 253:-1 254:-1 255:-1 256:-1 
99.67440000000001 1:-1 2:-0.999999 3:-0.999918 4:-0.997679 5:-0.966794 6:-0.745632 7:-0.279007 8:-0.137926 9:-0.254633 10:-0.092213 11:0.014111 12:-0.480437 13:-0.894418 14:-0.993881 15:-0.999931 16:-1 17:-1 18:-0.999987 19:-0.998781 20:-0.975407 21:-0.819263 22:-0.331082 23:0.30804 24:0.416725 25:0.129019 26:0.06393 27:0.253397 28:-0.228201 29:-0.814408 30:-0.988603 31:-0.99987 32:-1 33:-1 34:-0.999944 35:-0.994992 36:-0.910261 37:-0.508365 38:0.157102 39:0.375071 40:0.045411 41:-0.39601 42:-0.352518 43:0.141491 44:-0.214346 45:-0.806377 46:-0.98805 47:-0.999863 48:-1 49:-1 50:-0.999919 51:-0.992858 52:-0.880215 53:-0.454799 54:-0.021601 55:-0.237631 56:-0.645434 57:-0.82894 58:-0.486881 59:0.134989 60:-0.315349 61:-0.858107 62:-0.991771 63:-0.999907 64:-1 65:-1 66:-0.99997 67:-0.99739 68:-0.956922 69:-0.813999 70:-0.698584 71:-0.816631 72:-0.942702 73:-0.871065 74:-0.354992 75:0.152814 76:-0.46499 77:-0.925171 78:-0.99648 79:-0.999963 80:-1 81:-1 82:-0.999998 83:-0.999813 84:-0.996848 85:-0.985578 86:-0.976055 87:-0.986888 88:-0.984394 89:-0.791724 90:-0.182633 91:0.100838 92:-0.590753 93:-0.964537 94:-0.999046 95:-0.999992 96:-1 97:-1 98:-1 99:-0.999997 100:-0.999947 101:-0.999693 102:-0.999424 103:-0.999444 104:-0.979459 105:-0.698275 106:-0.026602 107:-0.006668 108:-0.685477 109:-0.978618 110:-0.999706 111:-0.999999 112:-1 113:-1 114:-1 115:-1 116:-1 117:-0.999998 118:-0.999985 119:-0.998809 120:-0.96203 121:-0.596001 122:0.089773 123:-0.141608 124:-0.769836 125:-0.985425 126:-0.999831 127:-1 128:-1 129:-1 130:-1 131:-1 132:-1 133:-1 134:-0.999945 135:-0.995042 136:-0.905165 137:-0.424687 138:0.162284 139:-0.326012 140:-0.863448 141:-0.992144 142:-0.999911 143:-1 144:-1 145:-1 146:-1 147:-1 148:-1 149:-1 150:-0.999828 151:-0.987002 152:-0.795863 153:-0.191116 154:0.121492 155:-0.537597 156:-0.943156 157:-0.997567 158:-0.999975 159:-1 160:-1 161:-1 162:-1 163:-1 164:-1 165:-0.999994 166:-0.999241 167:-0.97108 168:-0.65424 169:0.049364 170:0.034662 171:-0.650783 172:-0.964984 173:-0.998759 174:-0.999988 175:-1 176:-1 177:-1 178:-1 179:-1 180:-1 181:-0.999962 182:-0.996477 183:-0.925919 184:-0.468177 185:0.290877 186:0.09201 187:-0.604295 188:-0.93908 189:-0.996854 190:-0.999966 191:-1 192:-1 193:-1 194:-1 195:-1 196:-1 197:-0.999873 198:-0.989463 199:-0.825036 200:-0.1999 201:0.485373 202:0.214285 203:-0.544317 204:-0.926299 205:-0.996098 206:-0.999957 207:-1 208:-1 209:-1 210:-1 211:-1 212:-0.999998 213:-0.999639 214:-0.978367 215:-0.687206 216:0.115378 217:0.545042 218:0.06003 219:-0.677869 220:-0.964183 221:-0.998532 222:-0.999985 223:-1 224:-1 225:-1 226:-1 227:-1 228:-0.999996 229:-0.999381 230:-0.969865 231:-0.599976 232:0.27269 233:0.39824 234:-0.317563 235:-0.856459 236:-0.990549 237:-0.999822 238:-0.999999 239:-1 240:-1 241:-1 242:-1 243:-1 244:-0.999998 245:-0.999637 246:-0.97832 247:-0.697362 248:-0.077655 249:-0.126787 250:-0.690017 251:-0.960118 252:-0.99817 253:-0.99998 254:-1 255:-1 256:-1 
99.67440000000001 1:-1 2:-0.999995 3:-0.999421 4:-0.979328 5:-0.758038 6:-0.218825 7:0.022437 8:-0.06381 9:-0.069927 10:0.057464 11:0.077481 12:-0.455654 13:-0.888682 14:-0.993527 15:-0.999927 16:-1 17:-1 18:-0.999966 19:-0.996846 20:-0.933356 21:-0.51712 22:0.203804 23:0.209785 24:-0.043782 25:-0.116243 26:0.041917 27:0.3127 28:-0.21078 29:-0.816495 30:-0.988857 31:-0.999873 32:-1 33:-1 34:-0.999912 35:-0.992211 36:-0.864656 37:-0.329049 38:0.21556 39:-0.213497 40:-0.633738 41:-0.695536 42:-0.359531 43:0.23499 44:-0.195736 45:-0.813109 46:-0.988685 47:-0.999871 48:-1 49:-1 50:-0.999913 51:-0.992396 52:-0.87402 53:-0.453699 54:-0.166412 55:-0.626124 56:-0.931183 57:-0.900265 58:-0.428189 59:0.202303 60:-0.312697 61:-0.865474 62:-0.992376 63:-0.999914 64:-1 65:-1 66:-0.999973 67:-0.997616 68:-0.960925 69:-0.836203 70:-0.762743 71:-0.906974 72:-0.981815 73:-0.846928 74:-0.279714 75:0.179977 76:-0.470041 77:-0.927871 78:-0.996666 79:-0.999965 80:-1 81:-1 82:-0.999998 83:-0.999843 84:-0.997432 85:-0.989305 86:-0.984672 87:-0.993922 88:-0.982177 89:-0.740434 90:-0.076386 91:0.107617 92:-0.606408 93:-0.96628 94:-0.999098 95:-0.999993 96:-1 97:-1 98:-1 99:-0.999998 100:-0.99997 101:-0.999876 102:-0.999812 103:-0.998776 104:-0.963017 105:-0.603267 106:0.115523 107:-0.028972 108:-0.719063 109:-0.981417 110:-0.999753 111:-1 112:-1 113:-1 114:-1 115:-1 116:-1 117:-1 118:-0.999956 119:-0.995894 120:-0.916692 121:-0.44019 122:0.223211 123:-0.204442 124:-0.816986 125:-0.988953 126:-0.999874 127:-1 128:-1 129:-1 130:-1 131:-1 132:-1 133:-1 134:-0.999895 135:-0.990706 136:-0.84178 137:-0.258832 138:0.226909 139:-0.400683 140:-0.901768 141:-0.99488 142:-0.999944 143:-1 144:-1 145:-1 146:-1 147:-1 148:-1 149:-1 150:-0.999784 151:-0.982702 152:-0.733306 153:-0.047093 154:0.148677 155:-0.575726 156:-0.957418 157:-0.998525 158:-0.999986 159:-1 160:-1 161:-1 162:-1 163:-1 164:-1 165:-0.999995 166:-0.999304 167:-0.9695 168:-0.616766 169:0.115536 170:-0.025599 171:-0.716152 172:-0.980294 173:-0.999675 174:-0.999999 175:-1 176:-1 177:-1 178:-1 179:-1 180:-1 181:-0.999964 182:-0.99666 183:-0.928032 184:-0.471034 185:0.203798 186:-0.205811 187:-0.815768 188:-0.988807 189:-0.999869 190:-1 191:-1 192:-1 193:-1 194:-1 195:-1 196:-0.999999 197:-0.999841 198:-0.989203 199:-0.827733 200:-0.22876 201:0.242477 202:-0.383847 203:-0.894575 204:-0.994373 205:-0.999938 206:-1 207:-1 208:-1 209:-1 210:-1 211:-1 212:-0.999992 213:-0.999117 214:-0.9715 215:-0.682827 216:0.031029 217:0.182241 218:-0.565529 219:-0.95428 220:-0.998312 221:-0.999984 222:-1 223:-1 224:-1 225:-1 226:-1 227:-1 228:-0.999975 229:-0.997587 230:-0.94429 231:-0.54903 232:0.148176 233:-0.047481 234:-0.72841 235:-0.981005 236:-0.999671 237:-0.999998 238:-1 239:-1 240:-1 241:-1 242:-1 243:-1 244:-0.999975 245:-0.997661 246:-0.949356 247:-0.626904 248:-0.158548 249:-0.463559 250:-0.880152 251:-0.992793 252:-0.999914 253:-1 254:-1 255:-1 256:-1 
99.67440000000001 1:-0.999999 2:-0.99994 3:-0.998643 4:-0.985943 5:-0.915893 6:-0.73367 7:-0.45382 8:-0.043552 9:0.32562 10:0.311526 11:0.164062 12:0.059524 13:-0.219964 14:-0.698454 15:-0.950794 16:-0.997392 17:-0.999971 18:-0.998691 19:-0.978892 20:-0.86059 21:-0.526452 22:-0.038382 23:0.358353 24:0.597057 25:0.749003 26:0.771054 27:0.773862 28:0.751887 29:0.448747 30:-0.300366 31:-0.850506 32:-0.991127 33:-0.999516 34:-0.98747 35:-0.872938 36:-0.454507 37:0.197021 38:0.585244 39:0.54789 40:0.347542 41:0.272312 42:0.35696 43:0.618444 44:0.871434 45:0.676807 46:-0.132217 47:-0.803035 48:-0.988072 49:-0.996429 50:-0.933078 51:-0.590615 52:0.124659 53:0.66027 54:0.550761 55:-0.058954 56:-0.504391 57:-0.619025 58:-0.503053 59:-0.007287 60:0.691553 61:0.635273 62:-0.220508 63:-0.840082 64:-0.990655 65:-0.98991 66:-0.831643 67:-0.233781 68:0.537374 69:0.677661 70:0.099472 71:-0.61625 72:-0.91945 73:-0.942381 74:-0.714664 75:-0.035259 76:0.655836 77:0.465235 78:-0.417034 79:-0.905585 80:-0.995027 81:-0.988847 82:-0.816723 83:-0.207944 84:0.441242 85:0.296752 86:-0.418903 87:-0.879995 88:-0.984422 89:-0.89702 90:-0.424342 91:0.403542 92:0.665033 93:0.062474 94:-0.685123 95:-0.964786 96:-0.998541 97:-0.995498 98:-0.921159 99:-0.597293 100:-0.194914 101:-0.35933 102:-0.780909 103:-0.95546 104:-0.960252 105:-0.744265 106:-0.051724 107:0.654867 108:0.509188 109:-0.368856 110:-0.885788 111:-0.99158 112:-0.999757 113:-0.999355 114:-0.98701 115:-0.912913 116:-0.797238 117:-0.799078 118:-0.77553 119:-0.707831 120:-0.666182 121:-0.369633 122:0.370343 123:0.761534 124:0.374327 125:-0.456528 126:-0.884855 127:-0.983782 128:-0.999143 129:-0.999969 130:-0.999286 131:-0.992322 132:-0.940538 133:-0.70239 134:-0.231363 135:0.075769 136:0.130548 137:0.308853 138:0.735447 139:0.844364 140:0.520947 141:-0.088435 142:-0.678995 143:-0.946634 144:-0.997118 145:-1 146:-0.999928 147:-0.994198 148:-0.898905 149:-0.471157 150:0.211538 151:0.53623 152:0.613664 153:0.75286 154:0.85408 155:0.653128 156:0.33542 157:-7.6e-005 158:-0.605345 159:-0.937997 160:-0.996794 161:-1 162:-0.999972 163:-0.99744 164:-0.951311 165:-0.698283 166:-0.23242 167:0.014084 168:0.231744 169:0.656142 170:0.72719 171:0.163788 172:-0.401639 173:-0.603292 174:-0.843763 175:-0.977829 176:-0.99893 177:-1 178:-0.999997 179:-0.999727 180:-0.993177 181:-0.938364 182:-0.81029 183:-0.667551 184:-0.238648 185:0.520831 186:0.644386 187:-0.08913 188:-0.757746 189:-0.940536 190:-0.980891 191:-0.997932 192:-0.999922 193:-1 194:-1 195:-0.99999 196:-0.99968 197:-0.996346 198:-0.980049 199:-0.836733 200:-0.247015 201:0.597717 202:0.640912 203:-0.177854 204:-0.822172 205:-0.987487 206:-0.999073 207:-0.999935 208:-0.999999 209:-1 210:-1 211:-1 212:-0.999997 213:-0.999864 214:-0.991309 215:-0.851116 216:-0.246912 217:0.617004 218:0.589813 219:-0.310918 220:-0.876757 221:-0.993178 222:-0.999916 223:-0.999999 224:-1 225:-1 226:-1 227:-1 228:-1 229:-0.999918 230:-0.992701 231:-0.870433 232:-0.310795 233:0.499872 234:0.380199 235:-0.503634 236:-0.936353 237:-0.997113 238:-0.99997 239:-1 240:-1 241:-1 242:-1 243:-1 244:-1 245:-0.999959 246:-0.996277 247:-0.928476 248:-0.556181 249:0.006616 250:-0.177233 251:-0.753513 252:-0.978024 253:-0.999322 254:-0.999994 255:-1 256:-1 
53.87726564950204 1:-1 2:-0.999829 3:-0.985261 4:-0.772461 5:-0.219319 6:-0.040136 7:-0.289759 8:-0.116242 9:0.238998 10:0.277456 11:-0.121345 12:-0.66453 13:-0.941268 14:-0.996764 15:-0.999964 16:-1 17:-1 18:-0.999869 19:-0.988525 20:-0.812471 21:-0.205232 22:0.408016 23:0.480218 24:0.562342 25:0.623423 26:0.655443 27:0.476237 28:-0.190668 29:-0.806564 30:-0.988095 31:-0.999864 32:-1 33:-1 34:-0.999966 35:-0.996787 36:-0.932132 37:-0.500562 38:0.374957 39:0.753311 40:0.545436 41:0.153826 42:0.300559 43:0.599554 44:0.11343 45:-0.69764 46:-0.980745 47:-0.999778 48:-1 49:-1 50:-0.999997 51:-0.999499 52:-0.972713 53:-0.620195 54:0.287132 55:0.655621 56:0.131264 57:-0.330997 58:0.12464 59:0.570482 60:0.071611 61:-0.715789 62:-0.982021 63:-0.999793 64:-1 65:-1 66:-0.999999 67:-0.999616 68:-0.973983 69:-0.617649 70:0.2904 71:0.538876 72:-0.169234 73:-0.453678 74:0.254401 75:0.55929 76:-0.118953 77:-0.795824 78:-0.987582 79:-0.999858 80:-1 81:-1 82:-0.999999 83:-0.999739 84:-0.980282 85:-0.70271 86:0.016777 87:0.187586 88:-0.423359 89:-0.400775 90:0.418108 91:0.500592 92:-0.341987 93:-0.883796 94:-0.993633 95:-0.999929 96:-1 97:-1 98:-1 99:-0.999924 100:-0.993612 101:-0.899792 102:-0.62981 103:-0.521246 104:-0.648188 105:-0.192477 106:0.542195 107:0.352325 108:-0.532316 109:-0.944025 110:-0.997596 111:-0.999975 112:-1 113:-1 114:-1 115:-0.999992 116:-0.999339 117:-0.988904 118:-0.949727 119:-0.900921 120:-0.668589 121:0.097655 122:0.599424 123:0.131114 124:-0.679401 125:-0.97457 126:-0.999364 127:-0.999995 128:-1 129:-1 130:-1 131:-1 132:-0.999975 133:-0.999519 134:-0.994075 135:-0.923353 136:-0.495149 137:0.361741 138:0.572574 139:-0.15627 140:-0.810258 141:-0.988286 142:-0.999847 143:-1 144:-1 145:-1 146:-1 147:-1 148:-0.999999 149:-0.999847 150:-0.988113 151:-0.807593 152:-0.158897 153:0.576532 154:0.440128 155:-0.440797 156:-0.915689 157:-0.995735 158:-0.999953 159:-1 160:-1 161:-1 162:-1 163:-1 164:-0.999996 165:-0.999479 166:-0.976307 167:-0.684716 168:0.127556 169:0.621502 170:0.159491 171:-0.659248 172:-0.96959 173:-0.999057 174:-0.999992 175:-1 176:-1 177:-1 178:-1 179:-1 180:-0.999979 181:-0.997943 182:-0.948347 183:-0.532623 184:0.386603 185:0.612745 186:-0.108619 187:-0.791356 188:-0.986729 189:-0.999811 190:-0.999999 191:-1 192:-1 193:-1 194:-1 195:-1 196:-0.99993 197:-0.993745 198:-0.885084 199:-0.338847 200:0.542643 201:0.52045 202:-0.377685 203:-0.898893 204:-0.994667 205:-0.999941 206:-1 207:-1 208:-1 209:-1 210:-1 211:-1 212:-0.99986 213:-0.987709 214:-0.797672 215:-0.121197 216:0.601417 217:0.361883 218:-0.563432 219:-0.959032 220:-0.998662 221:-0.999988 222:-1 223:-1 224:-1 225:-1 226:-1 227:-1 228:-0.999852 229:-0.987104 230:-0.789926 231:-0.120077 232:0.499848 233:0.158681 234:-0.669272 235:-0.977565 236:-0.999661 237:-0.999999 238:-1 239:-1 240:-1 241:-1 242:-1 243:-1 244:-0.999928 245:-0.993618 246:-0.890184 247:-0.464023 248:0.021814 249:-0.240708 250:-0.79565 251:-0.987001 252:-0.999847 253:-1 254:-1 255:-1 256:-1 
99.67440000000001 1:-1 2:-0.999988 3:-0.999633 4:-0.993849 5:-0.944303 6:-0.785248 7:-0.519272 8:-0.157493 9:0.175053 10:0.274334 11:0.146592 12:-0.258542 13:-0.781903 14:-0.980401 15:-0.999387 16:-0.999994 17:-0.999996 18:-0.999647 19:-0.992102 20:-0.9297 21:-0.678452 22:-0.189027 23:0.23475 24:0.359584 25:0.278974 26:0.240409 27:0.449347 28:0.229346 29:-0.584826 30:-0.957888 31:-0.998489 32:-0.999985 33:-0.999959 34:-0.996333 35:-0.935873 36:-0.662755 37:-0.143689 38:0.289605 39:0.286458 40:-0.089779 41:-0.461573 42:-0.359091 43:0.315194 44:0.328342 45:-0.552649 46:-0.961274 47:-0.99892 48:-0.999991 49:-0.999877 50:-0.989254 51:-0.827425 52:-0.309788 53:0.128731 54:-0.024894 55:-0.43311 56:-0.746077 57:-0.876015 58:-0.522263 59:0.318884 60:0.239098 61:-0.61945 62:-0.973027 63:-0.999541 64:-0.999998 65:-0.99988 66:-0.989606 67:-0.838814 68:-0.437803 69:-0.307246 70:-0.634786 71:-0.892199 72:-0.970245 73:-0.901408 74:-0.397983 75:0.370133 76:0.083672 77:-0.701463 78:-0.980749 79:-0.999762 80:-1 81:-0.999963 82:-0.996803 83:-0.951118 84:-0.839618 85:-0.830175 86:-0.937746 87:-0.991277 88:-0.987233 89:-0.808417 90:-0.161489 91:0.405728 92:-0.099484 93:-0.782903 94:-0.986661 95:-0.999847 96:-1 97:-0.999997 98:-0.99979 99:-0.996806 100:-0.989635 101:-0.98895 102:-0.994995 103:-0.997584 104:-0.97172 105:-0.661521 106:0.144856 107:0.416657 108:-0.315562 109:-0.870543 110:-0.992681 111:-0.999916 112:-1 113:-1 114:-0.999997 115:-0.999943 116:-0.99885 117:-0.98613 118:-0.958491 119:-0.95312 120:-0.889732 121:-0.429503 122:0.392908 123:0.323343 124:-0.520771 125:-0.932296 126:-0.994188 127:-0.999755 128:-0.999997 129:-1 130:-0.999998 131:-0.999773 132:-0.990464 133:-0.880882 134:-0.630278 135:-0.547584 136:-0.452534 137:0.038302 138:0.586682 139:0.312789 140:-0.398857 141:-0.782526 142:-0.9485 143:-0.996779 144:-0.999963 145:-1 146:-0.999996 147:-0.999464 148:-0.978144 149:-0.727456 150:-0.108549 151:0.235502 152:0.387986 153:0.644296 154:0.800797 155:0.555165 156:0.061121 157:-0.460143 158:-0.86669 159:-0.991681 160:-0.999904 161:-1 162:-0.999998 163:-0.999758 164:-0.98906 165:-0.85221 166:-0.425262 167:0.073872 168:0.496441 169:0.798531 170:0.703647 171:0.264774 172:-0.213354 173:-0.649955 174:-0.923312 175:-0.995387 176:-0.999947 177:-1 178:-1 179:-0.999973 180:-0.998375 181:-0.974067 182:-0.867543 183:-0.614585 184:-0.073973 185:0.568212 186:0.345466 187:-0.397218 188:-0.777395 189:-0.922218 190:-0.985666 191:-0.999189 192:-0.999991 193:-1 194:-1 195:-0.999999 196:-0.999921 197:-0.998487 198:-0.98196 199:-0.806652 200:-0.173737 201:0.484885 202:0.112426 203:-0.683023 204:-0.968283 205:-0.99517 206:-0.999206 207:-0.999956 208:-0.999999 209:-1 210:-1 211:-1 212:-0.999999 213:-0.999797 214:-0.983626 215:-0.740084 216:0.007986 217:0.489827 218:-0.063485 219:-0.770286 220:-0.985671 221:-0.999785 222:-0.999991 223:-0.999999 224:-1 225:-1 226:-1 227:-1 228:-1 229:-0.999803 230:-0.982874 231:-0.72923 232:0.016418 233:0.406344 234:-0.208432 235:-0.824309 236:-0.989486 237:-0.99988 238:-1 239:-1 240:-1 241:-1 242:-1 243:-1 244:-1 245:-0.999896 246:-0.990929 247:-0.851719 248:-0.378988 249:-0.038224 250:-0.464591 251:-0.887917 252:-0.993447 253:-0.999926 254:-1 255:-1 256:-1 
99.67440000000001 1:-1 2:-1 3:-0.999996 4:-0.999934 5:-0.999479 6:-0.998041 7:-0.994945 8:-0.989185 9:-0.979207 10:-0.939786 11:-0.779369 12:-0.3626 13:-0.005915 14:-0.425458 15:-0.875832 16:-0.992657 17:-1 18:-0.999989 19:-0.999644 20:-0.995646 21:-0.980097 22:-0.95074 23:-0.903072 24:-0.821596 25:-0.716952 26:-0.550483 27:-0.189528 28:0.357061 29:0.458177 30:-0.293345 31:-0.861928 32:-0.992111 33:-0.999995 34:-0.999555 35:-0.99045 36:-0.925122 37:-0.751062 38:-0.557415 39:-0.403702 40:-0.215835 41:-0.038567 42:0.108342 43:0.341187 44:0.695357 45:0.475172 46:-0.422938 47:-0.912547 48:-0.99557 49:-0.99992 50:-0.994186 51:-0.906367 52:-0.572864 53:-0.072237 54:0.262444 55:0.30437 56:0.254965 57:0.115067 58:-0.075584 59:0.041938 60:0.537101 61:0.255319 62:-0.604905 63:-0.962502 64:-0.998747 65:-0.999479 66:-0.976595 67:-0.692643 68:0.065911 69:0.542218 70:0.417256 71:0.007289 72:-0.333636 73:-0.571874 74:-0.602155 75:-0.134656 76:0.458591 77:0.064644 78:-0.712496 79:-0.981043 80:-0.999731 81:-0.997839 82:-0.945375 83:-0.504392 84:0.447592 85:0.653633 86:-0.004998 87:-0.616768 88:-0.86482 89:-0.936457 90:-0.734248 91:-0.017028 92:0.446205 93:-0.141614 94:-0.802013 95:-0.987995 96:-0.999863 97:-0.994403 98:-0.894148 99:-0.355233 100:0.547103 101:0.526851 102:-0.354944 103:-0.880324 104:-0.986641 105:-0.971525 106:-0.661679 107:0.150236 108:0.384392 109:-0.411954 110:-0.911089 111:-0.995538 112:-0.999952 113:-0.992221 114:-0.864484 115:-0.313596 116:0.407743 117:0.201767 118:-0.610722 119:-0.959642 120:-0.995773 121:-0.939862 122:-0.517267 123:0.325725 124:0.313304 125:-0.571365 126:-0.964559 127:-0.99909 128:-0.999993 129:-0.995014 130:-0.91259 131:-0.554755 132:-0.144974 133:-0.405313 134:-0.847231 135:-0.989483 136:-0.991829 137:-0.860406 138:-0.287286 139:0.452538 140:0.190307 141:-0.657608 142:-0.977559 143:-0.999716 144:-1 145:-0.998748 146:-0.977609 147:-0.88135 148:-0.776229 149:-0.866612 150:-0.971352 151:-0.998066 152:-0.983167 153:-0.741695 154:0.000631 155:0.496987 156:-0.033036 157:-0.757432 158:-0.984901 159:-0.999826 160:-1 161:-0.999922 162:-0.998597 163:-0.992473 164:-0.985858 165:-0.991943 166:-0.998363 167:-0.998773 168:-0.964534 169:-0.614821 170:0.228631 171:0.439386 172:-0.320574 173:-0.872161 174:-0.992809 175:-0.999919 176:-1 177:-0.999999 178:-0.999984 179:-0.999913 180:-0.999837 181:-0.999908 182:-0.999935 183:-0.995712 184:-0.915081 185:-0.43935 186:0.381275 187:0.293531 188:-0.554389 189:-0.949636 190:-0.997953 191:-0.999979 192:-1 193:-1 194:-1 195:-1 196:-1 197:-1 198:-0.999898 199:-0.990981 200:-0.845121 201:-0.24591 202:0.466767 203:0.160863 204:-0.667136 205:-0.976132 206:-0.999552 207:-0.999997 208:-1 209:-1 210:-1 211:-1 212:-1 213:-1 214:-0.99987 215:-0.98857 216:-0.810181 217:-0.157761 218:0.506305 219:0.152769 220:-0.676687 221:-0.978383 222:-0.999687 223:-0.999999 224:-1 225:-1 226:-1 227:-1 228:-1 229:-1 230:-0.999913 231:-0.992238 232:-0.865265 233:-0.322606 234:0.394402 235:0.203116 236:-0.638186 237:-0.974473 238:-0.999567 239:-0.999998 240:-1 241:-1 242:-1 243:-1 244:-1 245:-1 246:-0.999976 247:-0.997751 248:-0.953213 249:-0.664382 250:-0.115662 251:-0.127787 252:-0.724155 253:-0.980931 254:-0.999716 255:-0.999999 256:-1 
99.67440000000001 1:-0.999876 2:-0.989385 3:-0.831329 4:-0.346104 5:0.015465 6:0.008072 7:0.188988 8:0.237464 9:0.259383 10:0.287015 11:0.121188 12:-0.22949 13:-0.640957 14:-0.918596 15:-0.994761 16:-0.999919 17:-0.999754 18:-0.981398 19:-0.715012 20:0.053769 21:0.628241 22:0.663246 23:0.487231 24:0.187954 25:0.15568 26:0.269797 27:0.451988 28:0.469496 29:-0.024416 30:-0.725603 31:-0.979543 32:-0.999564 33:-0.999507 34:-0.972182 35:-0.609449 36:0.322564 37:0.799994 38:0.586939 39:-0.006784 40:-0.52759 41:-0.641529 42:-0.467274 43:0.098773 44:0.619816 45:0.262851 46:-0.619458 47:-0.968905 48:-0.999194 49:-0.999138 50:-0.964373 51:-0.555179 52:0.413331 53:0.659852 54:0.048571 55:-0.611309 56:-0.913743 57:-0.94126 58:-0.626038 59:0.186992 60:0.60157 61:0.064199 62:-0.71267 63:-0.979202 64:-0.99958 65:-0.99907 66:-0.96781 67:-0.632076 68:0.134267 69:0.22296 70:-0.447048 71:-0.890229 72:-0.985071 73:-0.896975 74:-0.391935 75:0.447215 76:0.45664 77:-0.33937 78:-0.872721 79:-0.992568 80:-0.999904 81:-0.999669 82:-0.988257 83:-0.863373 84:-0.569708 85:-0.534594 86:-0.821558 87:-0.975991 88:-0.978399 89:-0.749609 90:-0.05019 91:0.484428 92:0.049298 93:-0.682286 94:-0.964372 95:-0.998523 96:-0.999985 97:-0.999971 98:-0.998623 99:-0.981597 100:-0.937506 101:-0.927919 102:-0.974334 103:-0.993571 104:-0.921609 105:-0.497706 106:0.271435 107:0.327019 108:-0.430451 109:-0.900527 110:-0.993616 111:-0.99986 112:-0.999999 113:-0.999999 114:-0.999943 115:-0.999137 116:-0.996913 117:-0.996289 118:-0.998379 119:-0.984004 120:-0.779911 121:-0.114032 122:0.449261 123:0.039016 124:-0.707139 125:-0.975658 126:-0.999304 127:-0.999993 128:-1 129:-1 130:-0.999999 131:-0.999991 132:-0.999967 133:-0.999926 134:-0.996911 135:-0.936948 136:-0.551613 137:0.24864 138:0.459157 139:-0.279876 140:-0.855832 141:-0.991489 142:-0.99989 143:-1 144:-1 145:-1 146:-1 147:-1 148:-0.999999 149:-0.999833 150:-0.988074 151:-0.810826 152:-0.178327 153:0.506495 154:0.29587 155:-0.556226 156:-0.948009 157:-0.997807 158:-0.999977 159:-1 160:-1 161:-1 162:-1 163:-1 164:-0.999992 165:-0.999097 166:-0.969412 167:-0.648365 168:0.179563 169:0.551831 170:-0.042094 171:-0.756825 172:-0.983044 173:-0.99968 174:-0.999998 175:-1 176:-1 177:-1 178:-1 179:-1 180:-0.999957 181:-0.996012 182:-0.919249 183:-0.445187 184:0.425757 185:0.447945 186:-0.382014 187:-0.892577 188:-0.994103 189:-0.999931 190:-1 191:-1 192:-1 193:-1 194:-1 195:-1 196:-0.999873 197:-0.988797 198:-0.813511 199:-0.165328 200:0.525175 201:0.224944 202:-0.617473 203:-0.962345 204:-0.998671 205:-0.999987 206:-1 207:-1 208:-1 209:-1 210:-1 211:-1 212:-0.999761 213:-0.979451 214:-0.679286 215:0.157194 216:0.569931 217:-0.010829 218:-0.748608 219:-0.983557 220:-0.999759 221:-0.999999 222:-1 223:-1 224:-1 225:-1 226:-1 227:-0.999999 228:-0.999681 229:-0.974831 230:-0.619248 231:0.279942 232:0.497005 233:-0.242182 234:-0.840973 235:-0.990639 236:-0.999893 237:-1 238:-1 239:-1 240:-1 241:-1 242:-1 243:-0.999999 244:-0.999698 245:-0.979782 246:-0.705318 247:-0.033043 248:0.05464 249:-0.571059 250:-0.935159 251:-0.996731 252:-0.999964 253:-1 254:-1 255:-1 256:-1 
99.67440000000001 1:-0.999884 2:-0.9899 3:-0.836153 4:-0.321372 5:0.170224 6:0.057166 7:-0.381726 8:-0.705837 9:-0.88242 10:-0.955604 11:-0.973151 12:-0.981834 13:-0.993704 14:-0.999157 15:-0.99996 16:-0.999999 17:-0.999825 18:-0.984732 19:-0.755513 20:-0.026749 21:0.663302 22:0.754665 23:0.482589 24:0.051462 25:-0.329963 26:-0.520459 27:-0.598499 28:-0.715829 29:-0.895526 30:-0.984243 31:-0.9992 32:-0.999991 33:-0.999832 34:-0.985372 35:-0.763899 36:-0.033079 37:0.73214 38:0.956289 39:0.894617 40:0.745497 41:0.589922 42:0.481397 43:0.362842 44:0.04214 45:-0.532888 46:-0.905908 47:-0.994528 48:-0.999938 49:-0.999839 50:-0.985964 51:-0.772388 52:-0.05312 53:0.722776 54:0.893433 55:0.726711 56:0.720915 57:0.822753 58:0.90381 59:0.886527 60:0.622704 61:-0.084649 62:-0.77224 63:-0.985804 64:-0.999837 65:-0.999823 66:-0.984612 67:-0.752934 68:-0.005926 69:0.730846 70:0.720654 71:0.154957 72:0.039579 73:0.387946 74:0.816821 75:0.960773 76:0.746746 77:0.011102 78:-0.744828 79:-0.984035 80:-0.999817 81:-0.999811 82:-0.983532 83:-0.737405 84:0.031559 85:0.742425 86:0.670186 87:-0.103357 88:-0.486937 89:-0.043257 90:0.686885 91:0.927748 92:0.617097 93:-0.215792 94:-0.831897 95:-0.990012 96:-0.999887 97:-0.999821 98:-0.984381 99:-0.750164 100:-0.007938 101:0.698586 102:0.665585 103:-0.048758 104:-0.429171 105:0.145455 106:0.77834 107:0.835027 108:0.28505 109:-0.556606 110:-0.93972 111:-0.997125 112:-0.999969 113:-0.99991 114:-0.992028 115:-0.866065 116:-0.379711 117:0.23971 118:0.25167 119:-0.209894 120:-0.150566 121:0.541989 122:0.880025 123:0.605874 124:-0.190655 125:-0.812674 126:-0.986231 127:-0.999675 128:-0.999998 129:-0.999981 130:-0.998304 131:-0.96976 132:-0.837138 133:-0.633751 134:-0.590371 135:-0.454484 136:0.212705 137:0.796415 138:0.806827 139:0.213861 140:-0.595337 141:-0.946298 142:-0.997417 143:-0.999968 144:-1 145:-0.999999 146:-0.9999 147:-0.998175 148:-0.989587 149:-0.968005 150:-0.839106 151:-0.293002 152:0.556249 153:0.893255 154:0.590553 155:-0.247171 156:-0.838943 157:-0.988856 158:-0.99976 159:-0.999998 160:-1 161:-1 162:-0.999999 163:-0.999971 164:-0.998984 165:-0.971401 166:-0.684095 167:0.110839 168:0.778571 169:0.833319 170:0.262942 171:-0.590214 172:-0.951949 173:-0.997938 174:-0.999977 175:-1 176:-1 177:-1 178:-1 179:-0.99993 180:-0.994582 181:-0.901643 182:-0.412542 183:0.472028 184:0.884847 185:0.644956 186:-0.166495 187:-0.810475 188:-0.987305 189:-0.999769 190:-0.999999 191:-1 192:-1 193:-1 194:-0.999997 195:-0.999571 196:-0.980806 197:-0.741529 198:-0.0021 199:0.726284 200:0.860298 201:0.356283 202:-0.52544 203:-0.936592 204:-0.997008 205:-0.999967 206:-1 207:-1 208:-1 209:-1 210:-0.999981 211:-0.998103 212:-0.951617 213:-0.55412 214:0.363102 215:0.867021 216:0.714809 217:-0.031893 218:-0.753589 219:-0.98153 220:-0.999572 221:-0.999997 222:-1 223:-1 224:-1 225:-1 226:-0.999964 227:-0.996608 228:-0.929048 229:-0.484698 230:0.415125 231:0.79899 232:0.439454 233:-0.418284 234:-0.90096 235:-0.994537 236:-0.999931 237:-1 238:-1 239:-1 240:-1 241:-1 242:-0.999986 243:-0.998596 244:-0.965885 245:-0.6985 246:-0.067125 247:0.251782 248:-0.104836 249:-0.725053 250:-0.972113 251:-0.998973 252:-0.99999 253:-1 254:-1 255:-1 256:-1 
99.67440000000001 1:-1 2:-0.999845 3:-0.988173 4:-0.81422 5:-0.251704 6:0.275739 7:0.191459 8:-0.310396 9:-0.731972 10:-0.925394 11:-0.982243 12:-0.996225 13:-0.999526 14:-0.99997 15:-0.999999 16:-1 17:-0.999995 18:-0.999301 19:-0.971313 20:-0.637099 21:0.237803 22:0.801069 23:0.807393 24:0.461613 25:-0.080732 26:-0.523893 27:-0.785871 28:-0.92996 29:-0.986276 30:-0.998539 31:-0.999934 32:-0.999999 33:-0.999947 34:-0.996554 35:-0.929991 36:-0.462579 37:0.49993 38:0.939597 39:0.976039 40:0.88949 41:0.661951 42:0.308079 43:-0.128372 44:-0.540469 45:-0.849262 46:-0.976042 47:-0.998585 48:-0.999974 49:-0.999565 50:-0.984819 51:-0.810233 52:-0.170468 53:0.671082 54:0.969504 55:0.950656 56:0.888128 57:0.905163 58:0.849765 59:0.656952 60:0.263298 61:-0.378134 62:-0.853413 63:-0.988499 64:-0.999689 65:-0.998642 66:-0.962309 67:-0.622498 68:0.233005 69:0.838859 70:0.957346 71:0.764097 72:0.463172 73:0.630698 74:0.902256 75:0.954805 76:0.798607 77:0.234041 78:-0.617869 79:-0.962892 80:-0.998716 81:-0.998443 82:-0.958208 83:-0.594855 84:0.283559 85:0.842167 86:0.880315 87:0.440999 88:-0.181273 89:0.098454 90:0.756445 91:0.979057 92:0.916261 93:0.430655 94:-0.525199 95:-0.949125 96:-0.998041 97:-0.999426 98:-0.981428 99:-0.785547 100:-0.178953 101:0.450812 102:0.518891 103:0.021951 104:-0.418604 105:0.09761 106:0.778293 107:0.964338 108:0.785217 109:0.144328 110:-0.669671 111:-0.971409 112:-0.999156 113:-0.999939 114:-0.996731 115:-0.94737 116:-0.711975 117:-0.336461 118:-0.290278 119:-0.509266 120:-0.336302 121:0.439214 122:0.899342 123:0.900696 124:0.463164 125:-0.360145 126:-0.874011 127:-0.992246 128:-0.999877 129:-0.999998 130:-0.999795 131:-0.994839 132:-0.952614 133:-0.861922 134:-0.81618 135:-0.619819 136:0.041147 137:0.732552 138:0.945173 139:0.723475 140:0.01863 141:-0.709366 142:-0.969737 143:-0.998824 144:-0.999988 145:-1 146:-0.999996 147:-0.999802 148:-0.997091 149:-0.979208 150:-0.829651 151:-0.278744 152:0.508401 153:0.907566 154:0.878514 155:0.388274 156:-0.445151 157:-0.902069 158:-0.994039 159:-0.999893 160:-0.999999 161:-1 162:-1 163:-0.999939 164:-0.995805 165:-0.924847 166:-0.539651 167:0.244214 168:0.816878 169:0.946704 170:0.676503 171:-0.078535 172:-0.757705 173:-0.977151 174:-0.999193 175:-0.999992 176:-1 177:-1 178:-0.999996 179:-0.999481 180:-0.980432 181:-0.75499 182:-0.058595 183:0.668606 184:0.947772 185:0.872172 186:0.345453 187:-0.504047 188:-0.923543 189:-0.995717 190:-0.999928 191:-1 192:-1 193:-1 194:-0.999965 195:-0.996723 196:-0.932111 197:-0.511964 198:0.367547 199:0.883187 200:0.970295 201:0.717371 202:-0.052398 203:-0.759785 204:-0.980659 205:-0.999467 206:-0.999995 207:-1 208:-1 209:-1 210:-0.999894 211:-0.990648 212:-0.84086 213:-0.234883 214:0.616428 215:0.954092 216:0.928235 217:0.509275 218:-0.388036 219:-0.896171 220:-0.994236 221:-0.999924 222:-1 223:-1 224:-1 225:-1 226:-0.99988 227:-0.989487 228:-0.826053 229:-0.22679 230:0.542075 231:0.858449 232:0.712069 233:0.124095 234:-0.656821 235:-0.965291 236:-0.998726 237:-0.999987 238:-1 239:-1 240:-1 241:-1 242:-0.999958 243:-0.996253 244:-0.932583 245:-0.623429 246:-0.045207 247:0.303355 248:0.091199 249:-0.464275 250:-0.877843 251:-0.991864 252:-0.999856 253:-0.999999 254:-1 255:-1 256:-1 
99.67440000000001 1:-0.99985 2:-0.98695 3:-0.792624 4:-0.197027 5:0.318078 6:0.38926 7:0.343122 8:0.290623 9:0.135466 10:-0.149343 11:-0.50759 12:-0.819553 13:-0.965347 14:-0.997132 15:-0.999905 16:-0.999999 17:-0.999759 18:-0.97917 19:-0.675135 20:0.166787 21:0.635473 22:0.38395 23:0.177584 24:0.218501 25:0.317555 26:0.323331 27:0.156428 28:-0.327682 29:-0.792584 30:-0.971261 31:-0.998588 32:-0.999985 33:-0.999753 34:-0.978593 35:-0.666609 36:0.182666 37:0.502525 38:-0.146237 39:-0.588856 40:-0.608942 41:-0.467095 42:-0.213406 43:0.195336 44:0.220686 45:-0.408998 46:-0.881753 47:-0.993171 48:-0.999923 49:-0.999779 50:-0.980796 51:-0.698871 52:0.091516 53:0.365242 54:-0.419602 55:-0.900565 56:-0.962584 57:-0.922057 58:-0.756913 59:-0.205246 60:0.393787 61:-0.027921 62:-0.749838 63:-0.984337 64:-0.99982 65:-0.999837 66:-0.985785 67:-0.772597 68:-0.117319 69:0.179987 70:-0.544288 71:-0.95294 72:-0.997215 73:-0.988256 74:-0.858847 75:-0.287813 76:0.460067 77:0.160744 78:-0.6747 79:-0.979153 80:-0.999759 81:-0.999912 82:-0.992311 83:-0.872208 84:-0.442409 85:-0.16745 86:-0.686519 87:-0.975359 88:-0.997201 89:-0.964102 90:-0.7132 91:-0.01899 92:0.530591 93:0.08709 94:-0.707491 95:-0.981432 96:-0.999786 97:-0.999978 98:-0.998019 99:-0.964902 100:-0.819853 101:-0.695226 102:-0.883498 103:-0.990411 104:-0.974854 105:-0.813045 106:-0.308069 107:0.37727 108:0.482235 109:-0.204692 110:-0.819786 111:-0.989108 112:-0.999876 113:-0.999999 114:-0.999867 115:-0.997057 116:-0.97807 117:-0.955041 118:-0.981511 119:-0.984337 120:-0.855266 121:-0.386233 122:0.292075 123:0.524767 124:0.093677 125:-0.60591 126:-0.939971 127:-0.996923 128:-0.999966 129:-1 130:-0.999998 131:-0.999916 132:-0.999032 133:-0.997497 134:-0.991225 135:-0.902519 136:-0.507519 137:0.193921 138:0.522474 139:0.116842 140:-0.513844 141:-0.890849 142:-0.990629 143:-0.999696 144:-0.999997 145:-1 146:-1 147:-0.999999 148:-0.999921 149:-0.996231 150:-0.937449 151:-0.621221 152:0.052806 153:0.517058 154:0.224223 155:-0.475268 156:-0.880458 157:-0.985363 158:-0.999229 159:-0.999986 160:-1 161:-1 162:-1 163:-0.999992 164:-0.999207 165:-0.977666 166:-0.766478 167:-0.130979 168:0.479087 169:0.343722 170:-0.347405 171:-0.842088 172:-0.982889 173:-0.999001 174:-0.999969 175:-1 176:-1 177:-1 178:-1 179:-0.99995 180:-0.995508 181:-0.915117 182:-0.479803 183:0.312062 184:0.487366 185:-0.16748 186:-0.768259 187:-0.969978 188:-0.998311 189:-0.99996 190:-0.999999 191:-1 192:-1 193:-1 194:-1 195:-0.999855 196:-0.987282 197:-0.79241 198:-0.12564 199:0.491505 200:0.166206 201:-0.595055 202:-0.941176 203:-0.99631 204:-0.999903 205:-0.999999 206:-1 207:-1 208:-1 209:-1 210:-1 211:-0.999777 212:-0.980629 213:-0.696209 214:0.105574 215:0.44486 216:-0.249939 217:-0.839535 218:-0.98768 219:-0.999649 220:-0.999996 221:-1 222:-1 223:-1 224:-1 225:-1 226:-1 227:-0.999807 228:-0.98323 229:-0.735071 230:-0.01224 231:0.298867 232:-0.402409 233:-0.899792 234:-0.994576 235:-0.999933 236:-1 237:-1 238:-1 239:-1 240:-1 241:-1 242:-1 243:-0.999922 244:-0.993139 245:-0.883901 246:-0.462006 247:-0.073296 248:-0.441672 249:-0.8753 250:-0.99254 251:-0.999915 252:-1 253:-1 254:-1 255:-1 256:-1 
69.67398253933746 1:-1 2:-0.999978 3:-0.998881 4:-0.977644 5:-0.81639 6:-0.469356 7:-0.240813 8:0.027501 9:0.304561 10:0.333224 11:0.113573 12:-0.144176 13:-0.378979 14:-0.707501 15:-0.93729 16:-0.996265 17:-0.999995 18:-0.99956 19:-0.988236 20:-0.871043 21:-0.39936 22:0.298701 23:0.512245 24:0.447408 25:0.433707 26:0.516882 27:0.575722 28:0.601758 29:0.418364 30:-0.201076 31:-0.802247 32:-0.987308 33:-0.999856 34:-0.994767 35:-0.925168 36:-0.565861 37:0.177395 38:0.676687 39:0.45664 40:-0.101173 41:-0.403569 42:-0.282782 43:0.0981 44:0.588355 45:0.74874 46:0.221865 47:-0.641603 48:-0.971079 49:-0.997688 50:-0.959912 51:-0.713556 52:-0.062535 53:0.62705 54:0.673149 55:-0.008456 56:-0.665915 57:-0.898946 58:-0.848096 59:-0.513118 60:0.220934 61:0.721193 62:0.363456 63:-0.562342 64:-0.957187 65:-0.984159 66:-0.821696 67:-0.266275 68:0.477554 69:0.831079 70:0.510632 71:-0.375047 72:-0.886961 73:-0.987828 74:-0.946369 75:-0.599454 76:0.210113 77:0.626462 78:0.107225 79:-0.687144 80:-0.97388 81:-0.963168 82:-0.630372 83:0.201773 84:0.763315 85:0.737794 86:0.159747 87:-0.6429 88:-0.962909 89:-0.988521 90:-0.846396 91:-0.276756 92:0.510143 93:0.543998 94:-0.268669 95:-0.853078 96:-0.990947 97:-0.972554 98:-0.691574 99:0.021683 100:0.435625 101:0.214096 102:-0.414705 103:-0.870233 104:-0.98949 105:-0.958457 106:-0.635762 107:0.164657 108:0.684915 109:0.321598 110:-0.557544 111:-0.9484 112:-0.997812 113:-0.992655 114:-0.90568 115:-0.644748 116:-0.43814 117:-0.55811 118:-0.840768 119:-0.976182 120:-0.988499 121:-0.850639 122:-0.288495 123:0.515604 124:0.617014 125:-0.104528 126:-0.782346 127:-0.984345 128:-0.999663 129:-0.999457 130:-0.991732 131:-0.956555 132:-0.911275 133:-0.932402 134:-0.980097 135:-0.996634 136:-0.962344 137:-0.639176 138:0.176182 139:0.699446 140:0.363923 141:-0.50156 142:-0.928576 143:-0.996402 144:-0.999955 145:-0.999988 146:-0.999754 147:-0.998099 148:-0.995391 149:-0.996531 150:-0.998968 151:-0.993366 152:-0.889162 153:-0.37116 154:0.501455 155:0.6598 156:-0.041857 157:-0.756061 158:-0.981243 159:-0.999535 160:-0.999996 161:-1 162:-0.999998 163:-0.99998 164:-0.999949 165:-0.999952 166:-0.998984 167:-0.972544 168:-0.722032 169:0.003489 170:0.665896 171:0.457983 172:-0.428356 173:-0.909878 174:-0.995202 175:-0.999939 176:-1 177:-1 178:-1 179:-1 180:-1 181:-0.999929 182:-0.994024 183:-0.893494 184:-0.40976 185:0.416776 186:0.690719 187:0.116514 188:-0.681945 189:-0.972586 190:-0.999189 191:-0.999993 192:-1 193:-1 194:-1 195:-1 196:-0.999998 197:-0.999675 198:-0.981597 199:-0.733541 200:0.020009 201:0.679603 202:0.540115 203:-0.27978 204:-0.852571 205:-0.991052 206:-0.999875 207:-1 208:-1 209:-1 210:-1 211:-1 212:-0.999985 213:-0.998426 214:-0.95653 215:-0.570258 216:0.336456 217:0.715689 218:0.213015 219:-0.608602 220:-0.953461 221:-0.997987 222:-0.999979 223:-1 224:-1 225:-1 226:-1 227:-1 228:-0.999965 229:-0.996704 230:-0.930557 231:-0.491095 232:0.381269 233:0.531398 234:-0.211094 235:-0.825017 236:-0.988269 237:-0.999779 238:-0.999999 239:-1 240:-1 241:-1 242:-1 243:-1 244:-0.999982 245:-0.998247 246:-0.960296 247:-0.678475 248:-0.076751 249:0.00863 250:-0.60467 251:-0.94658 252:-0.997489 253:-0.999972 254:-1 255:-1 256:-1 
99.67440000000001 1:-0.999998 2:-0.999878 3:-0.99713 4:-0.971051 5:-0.852013 6:-0.5829 7:-0.285645 8:-0.071652 9:0.153501 10:0.277407 11:0.295603 12:0.25891 13:-0.027574 14:-0.678955 15:-0.968515 16:-0.998916 17:-0.999947 18:-0.997632 19:-0.963874 20:-0.791026 21:-0.370082 22:0.141368 23:0.339072 24:0.178546 25:0.061834 26:0.047494 27:0.205313 28:0.56042 29:0.349064 30:-0.538722 31:-0.9513 32:-0.998167 33:-0.999416 34:-0.983152 35:-0.818867 36:-0.294421 37:0.338679 38:0.535782 39:0.136186 40:-0.436129 41:-0.673677 42:-0.677464 43:-0.313529 44:0.428161 45:0.27137 46:-0.600766 47:-0.966127 48:-0.999065 49:-0.998413 50:-0.958765 51:-0.611788 52:0.212034 53:0.622522 54:0.25681 55:-0.450502 56:-0.873307 57:-0.968058 58:-0.875427 59:-0.364533 60:0.312921 61:-0.057121 62:-0.755572 63:-0.983836 64:-0.999754 65:-0.99875 66:-0.965308 67:-0.656948 68:0.041013 69:0.193749 70:-0.365148 71:-0.836925 72:-0.980716 73:-0.980821 74:-0.739666 75:-0.018154 76:0.345155 77:-0.353632 78:-0.885857 79:-0.993756 80:-0.999928 81:-0.99966 82:-0.989676 83:-0.890383 84:-0.657834 85:-0.617144 86:-0.838106 87:-0.973304 88:-0.996128 89:-0.948885 90:-0.551665 91:0.295416 92:0.352242 93:-0.515453 94:-0.946576 95:-0.997903 96:-0.999979 97:-0.999976 98:-0.999155 99:-0.989951 100:-0.966068 101:-0.959467 102:-0.984429 103:-0.998092 104:-0.992213 105:-0.86553 106:-0.301887 107:0.443517 108:0.195222 109:-0.645209 110:-0.972788 111:-0.999389 112:-0.999996 113:-1 114:-0.999978 115:-0.999683 116:-0.998809 117:-0.998447 118:-0.999433 119:-0.999577 120:-0.981191 121:-0.737123 122:-0.000597 123:0.475956 124:-0.076033 125:-0.773953 126:-0.985792 127:-0.99982 128:-1 129:-1 130:-1 131:-0.999997 132:-0.999989 133:-0.999985 134:-0.999969 135:-0.997529 136:-0.943664 137:-0.540934 138:0.305001 139:0.421923 140:-0.380166 141:-0.893707 142:-0.99426 143:-0.999936 144:-1 145:-1 146:-1 147:-1 148:-1 149:-1 150:-0.999885 151:-0.990552 152:-0.841097 153:-0.243076 154:0.46337 155:0.194561 156:-0.626142 157:-0.963245 158:-0.998705 159:-0.999988 160:-1 161:-1 162:-1 163:-1 164:-1 165:-0.999997 166:-0.999545 167:-0.977554 168:-0.692585 169:0.097774 170:0.473737 171:-0.155646 172:-0.804811 173:-0.987452 174:-0.999807 175:-0.999999 176:-1 177:-1 178:-1 179:-1 180:-1 181:-0.999974 182:-0.997512 183:-0.942185 184:-0.520042 185:0.33888 186:0.370463 187:-0.467518 188:-0.923927 189:-0.996282 190:-0.999959 191:-1 192:-1 193:-1 194:-1 195:-1 196:-1 197:-0.999869 198:-0.990897 199:-0.850085 200:-0.263978 201:0.450261 202:0.158406 203:-0.659052 204:-0.972476 205:-0.999295 206:-0.999995 207:-1 208:-1 209:-1 210:-1 211:-1 212:-0.999994 213:-0.999299 214:-0.975011 215:-0.7003 216:0.067755 217:0.491691 218:-0.107335 219:-0.788003 220:-0.986759 221:-0.99983 222:-1 223:-1 224:-1 225:-1 226:-1 227:-1 228:-0.999986 229:-0.998525 230:-0.959256 231:-0.597063 232:0.242149 233:0.411739 234:-0.37744 235:-0.893886 236:-0.994294 237:-0.999937 238:-1 239:-1 240:-1 241:-1 242:-1 243:-1 244:-0.999994 245:-0.99933 246:-0.977768 247:-0.748505 248:-0.181428 249:-0.063827 250:-0.653953 251:-0.962636 252:-0.998578 253:-0.999986 254:-1 255:-1 256:-1 
99.67440000000001 1:-1 2:-0.999999 3:-0.999932 4:-0.998281 5:-0.984507 6:-0.949565 7:-0.806244 8:-0.338645 9:0.128157 10:0.173581 11:0.043491 12:-0.291057 13:-0.793057 14:-0.984598 15:-0.999682 16:-0.999998 17:-1 18:-0.999988 19:-0.998929 20:-0.977975 21:-0.846294 22:-0.604807 23:-0.356328 24:0.136802 25:0.181574 26:-0.141176 27:-0.075374 28:0.054194 29:-0.574346 30:-0.949022 31:-0.997868 32:-0.999978 33:-1 34:-0.999943 35:-0.994886 36:-0.907127 37:-0.481087 38:0.163861 39:0.310467 40:0.165992 41:-0.376234 42:-0.706583 43:-0.364182 44:0.186978 45:-0.3661 46:-0.885986 47:-0.99378 48:-0.999931 49:-1 50:-0.999843 51:-0.987449 52:-0.797302 53:-0.130072 54:0.576055 55:0.463289 56:-0.221771 57:-0.780628 58:-0.870484 59:-0.381097 60:0.235284 61:-0.306648 62:-0.865815 63:-0.992429 64:-0.999915 65:-0.999996 66:-0.999423 67:-0.974648 68:-0.6694 69:0.145846 70:0.559175 71:0.068876 72:-0.645611 73:-0.938209 74:-0.822659 75:-0.216512 76:0.248721 77:-0.405661 78:-0.905699 79:-0.995171 80:-0.999947 81:-0.999972 82:-0.997305 83:-0.938816 84:-0.510167 85:0.306015 86:0.276219 87:-0.449556 88:-0.894522 89:-0.975946 90:-0.741668 91:-0.047567 92:0.198854 93:-0.54549 94:-0.952713 95:-0.998291 96:-0.999984 97:-0.999942 98:-0.994734 99:-0.902805 100:-0.44654 101:0.128889 102:-0.226822 103:-0.791021 104:-0.978648 105:-0.974224 106:-0.658772 107:0.0864 108:0.108525 109:-0.645044 110:-0.9743 111:-0.999542 112:-0.999998 113:-0.999971 114:-0.997342 115:-0.949984 116:-0.707064 117:-0.433211 118:-0.70443 119:-0.948015 120:-0.994843 121:-0.94848 122:-0.537287 123:0.21425 124:-0.000902 125:-0.721464 126:-0.982084 127:-0.999785 128:-1 129:-0.999995 130:-0.999573 131:-0.99106 132:-0.937893 133:-0.873794 134:-0.94377 135:-0.993431 136:-0.992413 137:-0.875261 138:-0.342272 139:0.250096 140:-0.235359 141:-0.830884 142:-0.989928 143:-0.999886 144:-1 145:-1 146:-0.999978 147:-0.999513 148:-0.996341 149:-0.992402 150:-0.99677 151:-0.9989 152:-0.975271 153:-0.727772 154:-0.069515 155:0.169163 156:-0.516191 157:-0.934285 158:-0.996937 159:-0.999968 160:-1 161:-1 162:-1 163:-0.999995 164:-0.999959 165:-0.999913 166:-0.999883 167:-0.994685 168:-0.906982 169:-0.458633 170:0.187782 171:-0.044356 172:-0.723829 173:-0.978656 174:-0.999502 175:-0.999996 176:-1 177:-1 178:-1 179:-1 180:-1 181:-0.999992 182:-0.999238 183:-0.976446 184:-0.738404 185:-0.085092 186:0.23009 187:-0.36685 188:-0.873797 189:-0.992604 190:-0.999906 191:-1 192:-1 193:-1 194:-1 195:-1 196:-0.999999 197:-0.999869 198:-0.994009 199:-0.90597 200:-0.458505 201:0.202177 202:0.003397 203:-0.671932 204:-0.961724 205:-0.998375 206:-0.999983 207:-1 208:-1 209:-1 210:-1 211:-1 212:-0.999987 213:-0.998684 214:-0.968124 215:-0.713555 216:-0.040363 217:0.314016 218:-0.308782 219:-0.857543 220:-0.990739 221:-0.999826 222:-0.999999 223:-1 224:-1 225:-1 226:-1 227:-1 228:-0.999964 229:-0.996626 230:-0.931416 231:-0.526042 232:0.216877 233:0.193997 234:-0.575711 235:-0.950686 236:-0.997939 237:-0.999978 238:-1 239:-1 240:-1 241:-1 242:-1 243:-1 244:-0.999976 245:-0.997716 246:-0.951938 247:-0.653055 248:-0.133029 249:-0.239543 250:-0.773096 251:-0.983632 252:-0.999696 253:-0.999998 254:-1 255:-1 256:-1 
51.15839867695812 1:-0.999943 2:-0.994964 3:-0.915561 4:-0.610809 5:-0.212629 6:-0.049955 7:0.056363 8:0.220068 9:0.313476 10:0.178896 11:-0.176871 12:-0.637947 13:-0.92203 14:-0.994194 15:-0.999852 16:-0.999999 17:-0.999843 18:-0.986374 19:-0.781851 20:-0.130713 21:0.511593 22:0.720321 23:0.773511 24:0.840907 25:0.878911 26:0.812466 27:0.559288 28:-0.018131 29:-0.686232 30:-0.960425 31:-0.9982 32:-0.999981 33:-0.999824 34:-0.984668 35:-0.754453 36:-0.020012 37:0.71188 38:0.953353 39:0.97564 40:0.97837 41:0.984733 42:0.981158 43:0.902403 44:0.489767 45:-0.346562 46:-0.873995 47:-0.992802 48:-0.999919 49:-0.9999 50:-0.991186 51:-0.851551 52:-0.304898 53:0.455737 54:0.803335 55:0.830845 56:0.799805 57:0.865957 58:0.963832 59:0.973946 60:0.710423 61:-0.067982 62:-0.776502 63:-0.986226 64:-0.999842 65:-0.999976 66:-0.997768 67:-0.95565 68:-0.700176 69:-0.163696 70:0.184481 71:0.201135 72:0.174019 73:0.489215 74:0.869766 75:0.976805 76:0.762775 77:0.031973 78:-0.737292 79:-0.983524 80:-0.999811 81:-0.999998 82:-0.99983 83:-0.994504 84:-0.93812 85:-0.786308 86:-0.670911 87:-0.651165 88:-0.462003 89:0.225895 90:0.821351 91:0.967774 92:0.710235 93:-0.079822 94:-0.782145 95:-0.986627 96:-0.999847 97:-1 98:-0.999996 99:-0.99975 100:-0.996356 101:-0.986535 102:-0.975566 103:-0.910674 104:-0.494304 105:0.3815 106:0.88928 107:0.943609 108:0.558915 109:-0.33843 110:-0.880846 111:-0.993396 112:-0.999926 113:-1 114:-1 115:-0.999997 116:-0.999957 117:-0.999568 118:-0.985862 119:-0.7996 120:-0.14403 121:0.655712 122:0.956854 123:0.878938 124:0.332529 125:-0.573606 126:-0.955609 127:-0.998333 128:-0.999984 129:-1 130:-1 131:-1 132:-0.999971 133:-0.99763 134:-0.948637 135:-0.590841 136:0.242293 137:0.837713 138:0.973197 139:0.767866 140:0.05544 141:-0.724537 142:-0.981635 143:-0.999719 144:-0.999999 145:-1 146:-1 147:-0.999997 148:-0.999688 149:-0.987342 150:-0.828611 151:-0.229783 152:0.592441 153:0.945246 154:0.944102 155:0.575067 156:-0.274688 157:-0.85291 158:-0.991424 159:-0.999902 160:-1 161:-1 162:-1 163:-0.999969 164:-0.99714 165:-0.941233 166:-0.578983 167:0.230703 168:0.828512 169:0.9774 170:0.834767 171:0.234057 172:-0.597739 173:-0.950707 174:-0.997819 175:-0.999977 176:-1 177:-1 178:-1 179:-0.999892 180:-0.99045 181:-0.838663 182:-0.238935 183:0.592279 184:0.947104 185:0.957655 186:0.636119 187:-0.179326 188:-0.814067 189:-0.98736 190:-0.999757 191:-0.999999 192:-1 193:-1 194:-1 195:-0.999838 196:-0.985842 197:-0.770735 198:-0.05053 199:0.726038 200:0.973473 201:0.867332 202:0.321395 203:-0.531683 204:-0.933556 205:-0.996729 206:-0.999964 207:-1 208:-1 209:-1 210:-1 211:-0.999859 212:-0.987676 213:-0.797208 214:-0.116155 215:0.694933 216:0.952198 217:0.702268 218:-0.079846 219:-0.769912 220:-0.981089 221:-0.999457 222:-0.999995 223:-1 224:-1 225:-1 226:-1 227:-0.99994 228:-0.994616 229:-0.899835 230:-0.406286 231:0.460138 232:0.790223 233:0.421346 234:-0.420488 235:-0.899383 236:-0.994292 237:-0.999921 238:-1 239:-1 240:-1 241:-1 242:-1 243:-0.999989 244:-0.998909 245:-0.97084 246:-0.717878 247:-0.106007 248:0.185084 249:-0.175239 250:-0.740962 251:-0.96988 252:-0.998717 253:-0.999987 254:-1 255:-1 256:-1 
99.67440000000001 1:-1 2:-1 3:-1 4:-0.999942 5:-0.994919 6:-0.909051 7:-0.515906 8:-0.107044 9:-0.474368 10:-0.744485 11:-0.845294 12:-0.956658 13:-0.99718 14:-0.999965 15:-1 16:-1 17:-1 18:-1 19:-0.999999 20:-0.999748 21:-0.985386 22:-0.783796 23:-0.136715 24:0.335343 25:0.020336 26:-0.147287 27:-0.385103 28:-0.819209 29:-0.986991 30:-0.99976 31:-0.999999 32:-1 33:-1 34:-1 35:-0.999979 36:-0.998008 37:-0.952669 38:-0.596902 39:0.134982 40:0.359095 41:0.261565 42:0.249173 43:0.045592 44:-0.630542 45:-0.958978 46:-0.998377 47:-0.999984 48:-1 49:-1 50:-0.999999 51:-0.999836 52:-0.990423 53:-0.850897 54:-0.309948 55:0.192549 56:-0.169004 57:-0.355197 58:-0.177867 59:0.104273 60:-0.467055 61:-0.912833 62:-0.995461 63:-0.99995 64:-1 65:-1 66:-0.999989 67:-0.998818 68:-0.967062 69:-0.672452 70:0.000697 71:0.083111 72:-0.5806 73:-0.787609 74:-0.386674 75:0.116857 76:-0.444248 77:-0.911624 78:-0.995485 79:-0.999951 80:-1 81:-1 82:-0.99997 83:-0.99724 84:-0.941696 85:-0.582233 86:-0.033269 87:-0.304052 88:-0.80819 89:-0.784221 90:-0.201816 91:0.103018 92:-0.56354 93:-0.953042 94:-0.998246 95:-0.999983 96:-1 97:-1 98:-0.999983 99:-0.998445 100:-0.96828 101:-0.786675 102:-0.554834 103:-0.757509 104:-0.9273 105:-0.653994 106:0.056731 107:0.062114 108:-0.662612 109:-0.975872 110:-0.999587 111:-0.999998 112:-1 113:-1 114:-0.999997 115:-0.999712 116:-0.993979 117:-0.958289 118:-0.915323 119:-0.957836 120:-0.907898 121:-0.446938 122:0.247546 123:-0.019939 124:-0.731396 125:-0.982825 126:-0.999797 127:-1 128:-1 129:-1 130:-1 131:-0.999984 132:-0.999663 133:-0.997622 134:-0.995012 135:-0.983647 136:-0.777517 137:-0.1378 138:0.216502 139:-0.382349 140:-0.882257 141:-0.993365 142:-0.999926 143:-1 144:-1 145:-1 146:-1 147:-1 148:-0.999996 149:-0.999965 150:-0.998969 151:-0.966839 152:-0.629952 153:0.071914 154:-0.012698 155:-0.68111 156:-0.968925 157:-0.998927 158:-0.99999 159:-1 160:-1 161:-1 162:-1 163:-1 164:-1 165:-0.999955 166:-0.995885 167:-0.917633 168:-0.459704 169:0.148604 170:-0.296599 171:-0.847503 172:-0.990528 173:-0.999859 174:-0.999999 175:-1 176:-1 177:-1 178:-1 179:-1 180:-1 181:-0.99988 182:-0.989442 183:-0.825663 184:-0.251818 185:0.122888 186:-0.521359 187:-0.939628 188:-0.997362 189:-0.999972 190:-1 191:-1 192:-1 193:-1 194:-1 195:-1 196:-1 197:-0.999788 198:-0.981776 199:-0.720158 200:-0.065153 201:0.006901 202:-0.663645 203:-0.973247 204:-0.999381 205:-0.999996 206:-1 207:-1 208:-1 209:-1 210:-1 211:-1 212:-1 213:-0.999713 214:-0.975831 215:-0.638743 216:0.088756 217:-0.028359 218:-0.687703 219:-0.967265 220:-0.998756 221:-0.999988 222:-1 223:-1 224:-1 225:-1 226:-1 227:-1 228:-1 229:-0.999694 230:-0.97483 231:-0.623505 232:0.161808 233:0.10819 234:-0.592115 235:-0.942774 236:-0.997225 237:-0.99997 238:-1 239:-1 240:-1 241:-1 242:-1 243:-1 244:-1 245:-0.999805 246:-0.983662 247:-0.752509 248:-0.203147 249:-0.18398 250:-0.71001 251:-0.967032 252:-0.99866 253:-0.999986 254:-1 255:-1 256:-1 
85.90499638133645 1:-1 2:-1 3:-0.999997 4:-0.999798 5:-0.993594 6:-0.927238 7:-0.753706 8:-0.560024 9:-0.274865 10:0.017046 11:0.046341 12:-0.514375 13:-0.911529 14:-0.995098 15:-0.999945 16:-1 17:-1 18:-0.999999 19:-0.999895 20:-0.996402 21:-0.947813 22:-0.664737 23:-0.11714 24:0.140601 25:0.152253 26:0.209314 27:0.329242 28:-0.28004 29:-0.846371 30:-0.990938 31:-0.999897 32:-1 33:-1 34:-0.999985 35:-0.998629 36:-0.970675 37:-0.769436 38:-0.197142 39:0.343754 40:0.1421 41:-0.32013 42:-0.250509 43:0.202558 44:-0.313933 45:-0.861341 46:-0.992028 47:-0.99991 48:-1 49:-1 50:-0.999945 51:-0.995031 52:-0.908321 53:-0.466861 54:0.267834 55:0.30557 56:-0.388019 57:-0.764204 58:-0.422735 59:0.121437 60:-0.447311 61:-0.916095 62:-0.995838 63:-0.999955 64:-1 65:-1 66:-0.999929 67:-0.993705 68:-0.88813 69:-0.408772 70:0.208234 71:-0.053237 72:-0.711971 73:-0.816128 74:-0.312149 75:0.029014 76:-0.595945 77:-0.961645 78:-0.998799 79:-0.999989 80:-1 81:-1 82:-0.999975 83:-0.997746 84:-0.955908 85:-0.719711 86:-0.387807 87:-0.567754 88:-0.874206 89:-0.735258 90:-0.154287 91:-0.117093 92:-0.716916 93:-0.980591 94:-0.999726 95:-0.999999 96:-1 97:-1 98:-0.999998 99:-0.99982 100:-0.994671 101:-0.946485 102:-0.864529 103:-0.907247 104:-0.949126 105:-0.629582 106:0.010096 107:-0.252446 108:-0.810726 109:-0.988224 110:-0.999864 111:-1 112:-1 113:-1 114:-1 115:-0.999996 116:-0.999774 117:-0.99697 118:-0.991835 119:-0.991625 120:-0.93356 121:-0.498757 122:0.105452 123:-0.392877 124:-0.890017 125:-0.993988 126:-0.999933 127:-1 128:-1 129:-1 130:-1 131:-1 132:-0.999998 133:-0.999966 134:-0.999808 135:-0.991179 136:-0.851513 137:-0.314803 138:0.090509 139:-0.541617 140:-0.947437 141:-0.997911 142:-0.999979 143:-1 144:-1 145:-1 146:-1 147:-1 148:-1 149:-1 150:-0.999812 151:-0.983796 152:-0.748712 153:-0.127954 154:-0.003897 155:-0.660943 156:-0.974094 157:-0.999471 158:-0.999997 159:-1 160:-1 161:-1 162:-1 163:-1 164:-1 165:-1 166:-0.999725 167:-0.97736 168:-0.663629 169:0.00378 170:-0.133388 171:-0.75273 172:-0.983933 173:-0.999802 174:-1 175:-1 176:-1 177:-1 178:-1 179:-1 180:-1 181:-0.999997 182:-0.999434 183:-0.969782 184:-0.601527 185:0.059188 186:-0.303127 187:-0.843597 188:-0.990658 189:-0.999894 190:-1 191:-1 192:-1 193:-1 194:-1 195:-1 196:-1 197:-0.999983 198:-0.998239 199:-0.951234 200:-0.541237 201:0.05902 202:-0.46387 203:-0.918518 204:-0.995964 205:-0.999956 206:-1 207:-1 208:-1 209:-1 210:-1 211:-1 212:-1 213:-0.999959 214:-0.996206 215:-0.923131 216:-0.491961 217:-0.000887 218:-0.583088 219:-0.961665 220:-0.998885 221:-0.999991 222:-1 223:-1 224:-1 225:-1 226:-1 227:-1 228:-1 229:-0.999947 230:-0.995191 231:-0.909923 232:-0.480505 233:-0.05513 234:-0.632192 235:-0.974065 236:-0.999652 237:-0.999999 238:-1 239:-1 240:-1 241:-1 242:-1 243:-1 244:-1 245:-0.999957 246:-0.996126 247:-0.928848 248:-0.605269 249:-0.298543 250:-0.729569 251:-0.981409 252:-0.999781 253:-1 254:-1 255:-1 256:-1 
99.67440000000001 1:-0.928302 2:-0.688254 3:-0.381912 4:-0.157718 5:0.081991 6:0.269988 7:0.443616 8:0.490317 9:0.307068 10:-0.2662 11:-0.818657 12:-0.988392 13:-0.999843 14:-1 15:-1 16:-1 17:-0.787622 18:-0.17185 19:0.400563 20:0.588837 21:0.647355 22:0.650065 23:0.647561 24:0.692181 25:0.752552 26:0.279824 27:-0.614614 28:-0.968835 29:-0.999206 30:-0.999974 31:-0.999983 32:-0.999995 33:-0.80196 34:-0.214309 35:0.32622 36:0.393185 37:0.273817 38:0.079039 39:-0.096816 40:0.053671 41:0.624972 42:0.478236 43:-0.461677 44:-0.931116 45:-0.99614 46:-0.998023 47:-0.998373 48:-0.999541 49:-0.936893 50:-0.726316 51:-0.465677 52:-0.335216 53:-0.361275 54:-0.596601 55:-0.720054 56:-0.364656 57:0.489958 58:0.530042 59:-0.34877 60:-0.881657 61:-0.96899 62:-0.952662 63:-0.962377 64:-0.989385 65:-0.994213 66:-0.957087 67:-0.7409 68:-0.219344 69:0.009132 70:-0.431066 71:-0.69118 72:-0.2839 73:0.549635 74:0.50813 75:-0.370862 76:-0.775115 77:-0.707854 78:-0.591348 79:-0.698046 80:-0.915588 81:-0.999632 82:-0.981662 83:-0.727352 84:0.01271 85:0.497993 86:0.223598 87:-0.093038 88:0.147635 89:0.694242 90:0.543587 91:-0.165446 92:-0.26153 93:0.01205 94:0.116343 95:-0.277688 96:-0.808929 97:-0.999878 98:-0.989433 99:-0.828297 100:-0.276467 101:0.371691 102:0.650681 103:0.670203 104:0.754052 105:0.89514 106:0.774786 107:0.474473 108:0.474504 109:0.437818 110:0.083042 111:-0.490899 112:-0.888709 113:-0.99997 114:-0.997377 115:-0.954867 116:-0.766571 117:-0.33018 118:0.302187 119:0.761935 120:0.922312 121:0.877224 122:0.719784 123:0.512216 124:0.304097 125:-0.058328 126:-0.5523 127:-0.867056 128:-0.977902 129:-0.999998 130:-0.99983 131:-0.996538 132:-0.971425 133:-0.840473 134:-0.36932 135:0.420439 136:0.73321 137:0.435537 138:0.03602 139:-0.304797 140:-0.562819 141:-0.754977 142:-0.922544 143:-0.98855 144:-0.998694 145:-1 146:-0.999997 147:-0.999898 148:-0.996945 149:-0.944225 150:-0.531466 151:0.331039 152:0.430363 153:-0.260763 154:-0.698057 155:-0.867062 156:-0.952763 157:-0.983497 158:-0.995769 159:-0.999646 160:-0.999982 161:-1 162:-0.999999 163:-0.999873 164:-0.992024 165:-0.868556 166:-0.318739 167:0.389675 168:0.107189 169:-0.655684 170:-0.955318 171:-0.991722 172:-0.998156 173:-0.999733 174:-0.999952 175:-0.999997 176:-1 177:-1 178:-0.99999 179:-0.998951 180:-0.970935 181:-0.704271 182:0.006892 183:0.353585 184:-0.278319 185:-0.847921 186:-0.990369 187:-0.999772 188:-0.999981 189:-0.999999 190:-1 191:-1 192:-1 193:-0.999999 194:-0.999894 195:-0.99354 196:-0.892015 197:-0.406385 198:0.33111 199:0.230851 200:-0.569852 201:-0.949334 202:-0.997854 203:-0.999978 204:-1 205:-1 206:-1 207:-1 208:-1 209:-0.999993 210:-0.999221 211:-0.974976 212:-0.716247 213:0.021432 214:0.532178 215:0.072996 216:-0.707061 217:-0.979553 218:-0.999637 219:-0.999998 220:-1 221:-1 222:-1 223:-1 224:-1 225:-0.999981 226:-0.998085 227:-0.952372 228:-0.572079 229:0.278963 230:0.489982 231:-0.225509 232:-0.832587 233:-0.989995 234:-0.999883 235:-1 236:-1 237:-1 238:-1 239:-1 240:-1 241:-0.999986 242:-0.998616 243:-0.964706 244:-0.676143 245:-0.045413 246:0.020943 247:-0.602348 248:-0.945476 249:-0.99742 250:-0.999972 251:-1 252:-1 253:-1 254:-1 255:-1 256:-1 
99.67440000000001 1:-1 2:-1 3:-1 4:-0.999999 5:-0.999989 6:-0.99995 7:-0.999849 8:-0.999392 9:-0.996975 10:-0.99047 11:-0.980153 12:-0.948525 13:-0.855267 14:-0.731552 15:-0.684711 16:-0.788275 17:-0.999999 18:-0.999988 19:-0.999927 20:-0.999709 21:-0.998759 22:-0.995394 23:-0.988062 24:-0.974298 25:-0.934108 26:-0.838186 27:-0.708034 28:-0.545073 29:-0.273576 30:0.039331 31:0.132637 32:-0.233112 33:-0.999835 34:-0.998748 35:-0.993901 36:-0.983081 37:-0.962227 38:-0.909475 39:-0.805944 40:-0.669091 41:-0.494937 42:-0.230585 43:0.073686 44:0.320089 45:0.50861 46:0.687258 47:0.705701 48:0.197055 49:-0.989763 50:-0.966065 51:-0.891324 52:-0.751737 53:-0.59779 54:-0.409758 55:-0.148394 56:0.152539 57:0.383164 58:0.492729 59:0.500628 60:0.423292 61:0.409594 62:0.647556 63:0.800692 64:0.330728 65:-0.846671 66:-0.668058 67:-0.405657 68:-0.039117 69:0.269195 70:0.445291 71:0.49913 72:0.525619 73:0.465158 74:0.239896 75:-0.074942 76:-0.347171 77:-0.196224 78:0.422723 79:0.67753 80:0.131308 81:-0.40174 82:0.035594 83:0.283744 84:0.439161 85:0.46999 86:0.356342 87:0.122533 88:-0.110914 89:-0.362013 90:-0.601199 91:-0.756041 92:-0.693071 93:-0.115456 94:0.545301 95:0.433553 96:-0.337984 97:-0.187729 98:0.171028 99:0.097307 100:-0.089424 101:-0.312789 102:-0.521196 103:-0.681013 104:-0.790699 105:-0.888476 106:-0.954679 107:-0.911399 108:-0.515472 109:0.289368 110:0.59784 111:0.021525 112:-0.700975 113:-0.689508 114:-0.566233 115:-0.660814 116:-0.775102 117:-0.871768 118:-0.941801 119:-0.975088 120:-0.986973 121:-0.993683 122:-0.984164 123:-0.785194 124:-0.115183 125:0.562654 126:0.393717 127:-0.426317 128:-0.899563 129:-0.970019 130:-0.952334 131:-0.970502 132:-0.985571 133:-0.992805 134:-0.997472 135:-0.999398 136:-0.99982 137:-0.998462 138:-0.959795 139:-0.604782 140:0.240213 141:0.557456 142:-0.043609 143:-0.740334 144:-0.97564 145:-0.999028 146:-0.998149 147:-0.999141 148:-0.999799 149:-0.999919 150:-0.999974 151:-0.999995 152:-0.999932 153:-0.993914 154:-0.888424 155:-0.362775 156:0.453238 157:0.367345 158:-0.470623 159:-0.918877 160:-0.995486 161:-0.999991 162:-0.999982 163:-0.999993 164:-0.999999 165:-1 166:-1 167:-1 168:-0.999844 169:-0.986626 170:-0.782853 171:-0.090888 172:0.536973 173:0.162737 174:-0.666596 175:-0.974807 176:-0.999442 177:-1 178:-1 179:-1 180:-1 181:-1 182:-1 183:-0.999999 184:-0.999669 185:-0.979223 186:-0.694368 187:0.114388 188:0.56506 189:0.017326 190:-0.738307 191:-0.983475 192:-0.999802 193:-1 194:-1 195:-1 196:-1 197:-1 198:-1 199:-0.999988 200:-0.998676 201:-0.9599 202:-0.575507 203:0.325415 204:0.54035 205:-0.212598 206:-0.83284 207:-0.990126 208:-0.999888 209:-1 210:-1 211:-1 212:-1 213:-1 214:-1 215:-0.999971 216:-0.997199 217:-0.937611 218:-0.510508 219:0.31358 220:0.294381 221:-0.501203 222:-0.927145 223:-0.996388 224:-0.999961 225:-1 226:-1 227:-1 228:-1 229:-1 230:-1 231:-0.999982 232:-0.998274 233:-0.960908 234:-0.69011 235:-0.210866 236:-0.327875 237:-0.791376 238:-0.979723 239:-0.999294 240:-0.999993 241:-1 242:-1 243:-1 244:-1 245:-1 246:-1 247:-0.999996 248:-0.999628 249:-0.990831 250:-0.920742 251:-0.799381 252:-0.84487 253:-0.957852 254:-0.996964 255:-0.999939 256:-1 
99.67440000000001 1:-1 2:-0.999989 3:-0.999025 4:-0.980909 5:-0.874164 6:-0.655355 7:-0.436931 8:-0.108308 9:0.202676 10:0.307495 11:0.275591 12:0.026839 13:-0.536223 14:-0.908422 15:-0.994722 16:-0.99994 17:-1 18:-0.999925 19:-0.994534 20:-0.906703 21:-0.505676 22:0.135333 23:0.402308 24:0.380689 25:0.287711 26:0.195651 27:0.352402 28:0.444979 29:-0.166236 30:-0.802585 31:-0.987914 32:-0.999862 33:-0.999995 34:-0.999456 35:-0.979954 36:-0.75207 37:-0.057636 38:0.549919 39:0.393999 40:-0.142137 41:-0.505338 42:-0.494702 43:0.035298 44:0.442786 45:-0.141183 46:-0.80133 47:-0.987951 48:-0.999863 49:-0.999963 50:-0.996527 51:-0.928878 52:-0.499504 53:0.34744 54:0.530348 55:-0.144745 56:-0.72246 57:-0.90883 58:-0.676717 59:0.066298 60:0.374983 61:-0.351546 62:-0.885644 63:-0.993773 64:-0.999931 65:-0.999888 66:-0.990157 67:-0.833686 68:-0.222471 69:0.492164 70:0.259469 71:-0.556851 72:-0.932926 73:-0.921555 74:-0.515722 75:0.240533 76:0.25849 77:-0.556813 78:-0.953109 79:-0.99824 80:-0.999983 81:-0.999875 82:-0.989058 83:-0.821096 84:-0.247208 85:0.217014 86:-0.211671 87:-0.799836 88:-0.974246 89:-0.820834 90:-0.206668 91:0.401886 92:0.037082 93:-0.713737 94:-0.97994 95:-0.999641 96:-0.999998 97:-0.999956 98:-0.996103 99:-0.933171 100:-0.68029 101:-0.450534 102:-0.702888 103:-0.942287 104:-0.977492 105:-0.703188 106:0.087868 107:0.443574 108:-0.242199 109:-0.843352 110:-0.990791 111:-0.999891 112:-1 113:-0.999996 114:-0.999628 115:-0.992278 116:-0.946891 117:-0.890742 118:-0.946911 119:-0.991633 120:-0.969246 121:-0.601112 122:0.291437 123:0.407388 124:-0.456764 125:-0.927964 126:-0.996674 127:-0.999965 128:-1 129:-1 130:-0.999988 131:-0.999684 132:-0.997179 133:-0.993684 134:-0.997007 135:-0.996421 136:-0.930075 137:-0.461427 138:0.411595 139:0.307344 140:-0.58901 141:-0.966461 142:-0.999148 143:-0.999993 144:-1 145:-1 146:-1 147:-0.999997 148:-0.999969 149:-0.999928 150:-0.999752 151:-0.987682 152:-0.812955 153:-0.172804 154:0.484548 155:0.119364 156:-0.691002 157:-0.979863 158:-0.999739 159:-1 160:-1 161:-1 162:-1 163:-1 164:-1 165:-0.999986 166:-0.9986 167:-0.961505 168:-0.618869 169:0.2024 170:0.47027 171:-0.215201 172:-0.828562 173:-0.989773 174:-0.999883 175:-1 176:-1 177:-1 178:-1 179:-1 180:-1 181:-0.999936 182:-0.994226 183:-0.893063 184:-0.377158 185:0.417513 186:0.283823 187:-0.541284 188:-0.939885 189:-0.997221 190:-0.999971 191:-1 192:-1 193:-1 194:-1 195:-1 196:-1 197:-0.99983 198:-0.986271 199:-0.779757 200:-0.089172 201:0.474726 202:0.008373 203:-0.732236 204:-0.980374 205:-0.999581 206:-0.999997 207:-1 208:-1 209:-1 210:-1 211:-1 212:-0.999997 213:-0.999537 214:-0.975601 215:-0.661396 216:0.173704 217:0.479311 218:-0.221973 219:-0.834765 220:-0.99016 221:-0.999882 222:-1 223:-1 224:-1 225:-1 226:-1 227:-1 228:-0.999993 229:-0.999164 230:-0.967134 231:-0.598381 232:0.264225 233:0.34682 234:-0.475234 235:-0.926835 236:-0.996494 237:-0.999962 238:-1 239:-1 240:-1 241:-1 242:-1 243:-1 244:-0.999997 245:-0.99953 246:-0.978459 247:-0.720238 248:-0.118077 249:-0.098146 250:-0.702662 251:-0.975083 252:-0.999344 253:-0.999995 254:-1 255:-1 256:-1 
