svm_type c_svc
kernel_type rbf
gamma 0.00390625
nr_class 2
total_sv 476
rho 0
label 1 -1
nr_sv 232 244
SV
1 1:-1 2:-1 3:-0.999959 4:-0.996764 5:-0.942374 6:-0.66799 7:-0.115474 8:0.310157 9:0.382698 10:0.320038 11:0.029743 12:-0.474939 13:-0.858269 14:-0.983501 15:-0.999277 16:-0.999992 17:-1 18:-0.999998 19:-0.999726 20:-0.985243 21:-0.787905 22:-0.169308 23:0.403269 24:0.426856 25:0.295272 26:0.427869 27:0.540729 28:0.175335 29:-0.548933 30:-0.927396 31:-0.996179 32:-0.999958 33:-1 34:-0.99999 35:-0.998858 36:-0.96342 37:-0.601123 38:0.213594 39:0.332898 40:-0.252955 41:-0.496031 42:-0.135411 43:0.499183 44:0.483986 45:-0.319921 46:-0.870245 47:-0.992641 48:-0.999917 49:-1 50:-0.999977 51:-0.997769 52:-0.946953 53:-0.556981 54:0.13285 55:-0.02948 56:-0.525186 57:-0.485291 58:0.039422 59:0.59294 60:0.400079 61:-0.4439 62:-0.91113 63:-0.995355 64:-0.999949 65:-1 66:-0.999983 67:-0.998476 68:-0.966451 69:-0.738586 70:-0.304691 71:-0.18417 72:-0.078408 73:0.273999 74:0.58725 75:0.51809 76:-0.053592 77:-0.720587 78:-0.970587 79:-0.998858 80:-0.999989 81:-0.999996 82:-0.999855 83:-0.99791 84:-0.985622 85:-0.899254 86:-0.52823 87:0.131042 88:0.571521 89:0.794326 90:0.709133 91:0.122163 92:-0.564226 93:-0.914975 94:-0.993768 95:-0.99983 96:-0.999998 97:-0.999771 98:-0.995287 99:-0.964822 100:-0.913571 101:-0.904185 102:-0.70814 103:-0.114291 104:0.389258 105:0.689956 106:0.69585 107:0.201595 108:-0.454322 109:-0.847233 110:-0.975724 111:-0.998246 112:-0.999948 113:-0.995471 114:-0.94185 115:-0.746236 116:-0.574473 117:-0.75163 118:-0.877926 119:-0.728975 120:-0.440051 121:-0.011611 122:0.383695 123:0.499021 124:0.203517 125:-0.390702 126:-0.83551 127:-0.979977 128:-0.999078 129:-0.965794 130:-0.736116 131:-0.230145 132:-0.116449 133:-0.657245 134:-0.953048 135:-0.973128 136:-0.905127 137:-0.729791 138:-0.398579 139:0.126635 140:0.470908 141:0.235858 142:-0.442804 143:-0.886529 144:-0.992528 145:-0.890084 146:-0.409764 147:0.208026 148:-0.078003 149:-0.741458 150:-0.979988 151:-0.998692 152:-0.99456 153:-0.974881 154:-0.880498 155:-0.551142 156:0.062535 157:0.487138 158:0.083975 159:-0.663115 160:-0.963566 161:-0.81912 162:-0.191414 163:0.353488 164:-0.180077 165:-0.805443 166:-0.983439 167:-0.998882 168:-0.999739 169:-0.999033 170:-0.988779 171:-0.887374 172:-0.416675 173:0.375094 174:0.422584 175:-0.37798 176:-0.890357 177:-0.825837 178:-0.21321 179:0.388087 180:0.025949 181:-0.586779 182:-0.885936 183:-0.968872 184:-0.987067 185:-0.99379 186:-0.996589 187:-0.964437 188:-0.629076 189:0.21006 190:0.526479 191:-0.153378 192:-0.808782 193:-0.914587 194:-0.50877 195:0.180409 196:0.382378 197:0.045438 198:-0.396561 199:-0.655643 200:-0.794557 201:-0.885911 202:-0.941905 203:-0.909786 204:-0.548108 205:0.25831 206:0.532801 207:-0.15831 208:-0.810632 209:-0.980909 210:-0.845773 211:-0.441177 212:0.09702 213:0.406136 214:0.381817 215:0.151829 216:-0.121178 217:-0.341353 218:-0.492845 219:-0.450502 220:-0.047604 221:0.514173 222:0.406989 223:-0.37807 224:-0.883781 225:-0.998394 226:-0.979724 227:-0.874994 228:-0.57152 229:-0.088843 230:0.326744 231:0.488379 232:0.516912 233:0.503738 234:0.442455 235:0.445957 236:0.545287 237:0.473257 238:-0.07791 239:-0.711715 240:-0.962898 241:-0.999948 242:-0.998895 243:-0.988254 244:-0.925797 245:-0.753193 246:-0.489165 247:-0.169289 248:0.134089 249:0.355239 250:0.441731 251:0.41812 252:0.246282 253:-0.148226 254:-0.652616 255:-0.931347 256:-0.994897 
1 1:-0.999998 2:-0.999852 3:-0.997328 4:-0.983275 5:-0.925223 6:-0.748803 7:-0.37542 8:0.078958 9:0.187709 10:0.003607 11:-0.274643 12:-0.526863 13:-0.810003 14:-0.965835 15:-0.998101 16:-0.999979 17:-0.999974 18:-0.997736 19:-0.96168 20:-0.813564 21:-0.523241 22:-0.098419 23:0.359913 24:0.541102 25:0.426352 26:0.329182 27:0.3233 28:0.214103 29:-0.36755 30:-0.859936 31:-0.9916 32:-0.999904 33:-0.999912 34:-0.99227 35:-0.871622 36:-0.423354 37:0.157205 38:0.413496 39:0.391336 40:0.080875 41:-0.296344 42:-0.304138 43:0.117967 44:0.478417 45:-0.037428 46:-0.755202 47:-0.984702 48:-0.999824 49:-0.999902 50:-0.991387 51:-0.858778 52:-0.395513 53:0.073013 54:-0.012125 55:-0.344036 56:-0.579024 57:-0.603314 58:-0.281005 59:0.30117 60:0.506319 61:-0.122962 62:-0.790284 63:-0.987118 64:-0.999853 65:-0.999968 66:-0.997119 67:-0.949675 68:-0.740344 69:-0.412156 70:-0.287429 71:-0.35444 72:-0.329096 73:-0.034925 74:0.386007 75:0.557381 76:0.222517 77:-0.479829 78:-0.902076 79:-0.994455 80:-0.999938 81:-0.999998 82:-0.999668 83:-0.984487 84:-0.789783 85:-0.216397 86:0.295922 87:0.44052 88:0.438887 89:0.537646 90:0.653288 91:0.387994 92:-0.273715 93:-0.796524 94:-0.9738 95:-0.99876 96:-0.999987 97:-1 98:-0.999874 99:-0.989196 100:-0.828761 101:-0.334944 102:0.133137 103:0.268071 104:0.169778 105:0.129488 106:0.279535 107:0.330816 108:-0.134236 109:-0.715357 110:-0.958942 111:-0.997859 112:-0.99997 113:-1 114:-0.999965 115:-0.996922 116:-0.950993 117:-0.808138 118:-0.668404 119:-0.62816 120:-0.670479 121:-0.681747 122:-0.488304 123:-0.006364 124:0.197624 125:-0.308827 126:-0.829986 127:-0.986257 128:-0.999613 129:-0.999998 130:-0.999969 131:-0.999727 132:-0.996801 133:-0.987614 134:-0.978528 135:-0.975908 136:-0.978824 137:-0.976125 138:-0.899296 139:-0.520342 140:0.109797 141:0.122202 142:-0.54387 143:-0.929011 144:-0.996355 145:-0.999829 146:-0.997505 147:-0.99344 148:-0.996077 149:-0.999098 150:-0.999709 151:-0.999721 152:-0.999752 153:-0.999353 154:-0.985792 155:-0.829309 156:-0.257831 157:0.297231 158:-0.152902 159:-0.794196 160:-0.987338 161:-0.997215 162:-0.959263 163:-0.891416 164:-0.932238 165:-0.985709 166:-0.99911 167:-0.999973 168:-0.999996 169:-0.99995 170:-0.997424 171:-0.941504 172:-0.501962 173:0.313739 174:0.135711 175:-0.672157 176:-0.978845 177:-0.988385 178:-0.828486 179:-0.520021 180:-0.647532 181:-0.904926 182:-0.988823 183:-0.998073 184:-0.999342 185:-0.997986 186:-0.989126 187:-0.916712 188:-0.460199 189:0.373811 190:0.237261 191:-0.631654 192:-0.976042 193:-0.98081 194:-0.710785 195:-0.106361 196:-0.130377 197:-0.618682 198:-0.876161 199:-0.949655 200:-0.968313 201:-0.948481 202:-0.85418 203:-0.603393 204:-0.054746 205:0.476538 206:0.079558 207:-0.705536 208:-0.981245 209:-0.985561 210:-0.771785 211:-0.140142 212:0.261432 213:-0.019693 214:-0.353144 215:-0.527323 216:-0.583996 217:-0.524728 218:-0.283703 219:0.126491 220:0.487507 221:0.3818 222:-0.309392 223:-0.850736 224:-0.991114 225:-0.994119 226:-0.898399 227:-0.492536 228:0.091001 229:0.286635 230:0.2764 231:0.261806 232:0.272301 233:0.34507 234:0.458358 235:0.521913 236:0.357429 237:-0.170429 238:-0.727645 239:-0.960212 240:-0.997993 241:-0.998827 242:-0.978003 243:-0.865385 244:-0.630901 245:-0.408493 246:-0.190075 247:0.049758 248:0.214591 249:0.291285 250:0.204046 251:-0.042725 252:-0.423806 253:-0.763049 254:-0.946792 255:-0.995472 256:-0.999856 
1 1:-1 2:-0.999973 3:-0.997601 4:-0.956198 5:-0.745113 6:-0.301381 7:0.135023 8:0.363989 9:0.34091 10:0.121322 11:-0.304191 12:-0.729227 13:-0.947839 14:-0.996998 15:-0.999966 16:-1 17:-1 18:-0.999892 19:-0.990492 20:-0.842653 21:-0.299565 22:0.408781 23:0.754455 24:0.709755 25:0.437059 26:0.471752 27:0.386167 28:-0.209349 29:-0.80561 30:-0.987936 31:-0.999862 32:-1 33:-1 34:-0.999846 35:-0.986584 36:-0.784146 37:-0.12614 38:0.530214 39:0.646547 40:0.308011 41:-0.225397 42:0.002813 43:0.550689 44:0.209799 45:-0.654734 46:-0.977737 47:-0.999742 48:-1 49:-1 50:-0.999936 51:-0.994301 52:-0.903216 53:-0.541079 54:-0.100587 55:-0.138304 56:-0.466639 57:-0.741979 58:-0.378544 59:0.494425 60:0.375276 61:-0.582876 62:-0.972479 63:-0.999662 64:-1 65:-1 66:-0.999992 67:-0.99925 68:-0.985201 69:-0.903824 70:-0.775355 71:-0.78613 72:-0.801477 73:-0.658986 74:-0.207166 75:0.567266 76:0.434791 77:-0.553946 78:-0.968251 79:-0.999458 80:-0.999997 81:-1 82:-1 83:-0.999966 84:-0.999256 85:-0.994324 86:-0.982943 87:-0.928646 88:-0.627478 89:-0.049736 90:0.390541 91:0.730941 92:0.376254 93:-0.575008 94:-0.965838 95:-0.999159 96:-0.999994 97:-0.999998 98:-0.999976 99:-0.999911 100:-0.999876 101:-0.999846 102:-0.99626 103:-0.931247 104:-0.564439 105:0.15924 106:0.648333 107:0.768196 108:0.270312 109:-0.588363 110:-0.95353 111:-0.998093 112:-0.99998 113:-0.999867 114:-0.997907 115:-0.992239 116:-0.989883 117:-0.995393 118:-0.998039 119:-0.975299 120:-0.820206 121:-0.397723 122:0.170954 123:0.58702 124:0.421037 125:-0.3124 126:-0.85367 127:-0.991208 128:-0.999892 129:-0.997866 130:-0.966316 131:-0.874696 132:-0.833538 133:-0.918119 134:-0.984418 135:-0.996679 136:-0.974037 137:-0.865195 138:-0.536507 139:0.090185 140:0.548772 141:0.163312 142:-0.661602 143:-0.974955 144:-0.999487 145:-0.991392 146:-0.863879 147:-0.487646 148:-0.273743 149:-0.552108 150:-0.881997 151:-0.98872 152:-0.998249 153:-0.987271 154:-0.880495 155:-0.381962 156:0.443218 157:0.430474 158:-0.473862 159:-0.934695 160:-0.99713 161:-0.985596 162:-0.770703 163:-0.110232 164:0.401039 165:0.128213 166:-0.538269 167:-0.908402 168:-0.991171 169:-0.998041 170:-0.965239 171:-0.62382 172:0.225327 173:0.499135 174:-0.243783 175:-0.846657 176:-0.99111 177:-0.988126 178:-0.80613 179:-0.175076 180:0.539048 181:0.623454 182:0.061915 183:-0.597668 184:-0.904071 185:-0.973766 186:-0.961926 187:-0.709257 188:0.032294 189:0.500587 190:-0.056947 191:-0.768205 192:-0.985662 193:-0.996003 194:-0.927599 195:-0.58754 196:0.088547 197:0.616296 198:0.572836 199:0.026417 200:-0.476213 201:-0.695258 202:-0.693093 203:-0.408297 204:0.231356 205:0.557821 206:-0.022427 207:-0.753727 208:-0.984639 209:-0.999536 210:-0.988975 211:-0.896094 212:-0.537509 213:0.106249 214:0.597467 215:0.620329 216:0.337843 217:0.092481 218:0.093614 219:0.338916 220:0.586424 221:0.409993 222:-0.276952 223:-0.836334 224:-0.990095 225:-0.999979 226:-0.999292 227:-0.987573 228:-0.886378 229:-0.53219 230:0.043558 231:0.511768 232:0.678511 233:0.715606 234:0.719264 235:0.642699 236:0.323545 237:-0.226809 238:-0.720802 239:-0.949925 240:-0.997196 241:-1 242:-0.999978 243:-0.999049 244:-0.984617 245:-0.899667 246:-0.650167 247:-0.251158 248:0.138414 249:0.419641 250:0.431388 251:0.12458 252:-0.391753 253:-0.782771 254:-0.951919 255:-0.994518 256:-0.999754 
1 1:-0.999694 2:-0.993382 3:-0.948053 4:-0.830078 5:-0.694513 6:-0.54177 7:-0.278229 8:0.093293 9:0.395822 10:0.450719 11:0.370088 12:0.19398 13:-0.10529 14:-0.555074 15:-0.893416 16:-0.991628 17:-0.996978 18:-0.946151 19:-0.705736 20:-0.258668 21:0.117459 22:0.372194 23:0.548993 24:0.643584 25:0.602086 26:0.472443 27:0.432997 28:0.523537 29:0.549412 30:0.112694 31:-0.613975 32:-0.94732 33:-0.992129 34:-0.866817 35:-0.368379 36:0.335657 37:0.658599 38:0.692534 39:0.592382 40:0.337628 41:-0.016752 42:-0.234875 43:-0.165523 44:0.248176 45:0.705444 46:0.509121 47:-0.338903 48:-0.876673 49:-0.994086 50:-0.898196 51:-0.492579 52:0.139453 53:0.450003 54:0.360713 55:0.127966 56:-0.04968 57:-0.087702 58:0.011818 59:0.214412 60:0.557757 61:0.75163 62:0.381864 63:-0.432946 64:-0.899432 65:-0.998466 66:-0.972506 67:-0.838154 68:-0.44055 69:0.15011 70:0.379852 71:0.394954 72:0.498222 73:0.622507 74:0.710285 75:0.726617 76:0.664909 77:0.386592 78:-0.225004 79:-0.76679 80:-0.968327 81:-0.999897 82:-0.99744 83:-0.962931 84:-0.668132 85:0.033175 86:0.437291 87:0.514346 88:0.616668 89:0.791143 90:0.878598 91:0.668739 92:0.145826 93:-0.361487 94:-0.765529 95:-0.955847 96:-0.996446 97:-0.999996 98:-0.999664 99:-0.989111 100:-0.873142 101:-0.539969 102:-0.266858 103:-0.248844 104:-0.15738 105:0.209222 106:0.581714 107:0.525559 108:-0.110298 109:-0.672304 110:-0.928006 111:-0.992875 112:-0.999709 113:-1 114:-0.999974 115:-0.998836 116:-0.983391 117:-0.92257 118:-0.849703 119:-0.84923 120:-0.808663 121:-0.579631 122:-0.114375 123:0.335152 124:0.272341 125:-0.26199 126:-0.757309 127:-0.961014 128:-0.997876 129:-1 130:-0.999999 131:-0.999956 132:-0.999246 133:-0.995876 134:-0.991255 135:-0.991262 136:-0.986287 137:-0.935114 138:-0.726906 139:-0.243944 140:0.326461 141:0.334527 142:-0.270478 143:-0.82094 144:-0.986364 145:-0.999974 146:-0.999885 147:-0.999801 148:-0.999858 149:-0.999921 150:-0.999899 151:-0.999899 152:-0.999678 153:-0.995454 154:-0.956659 155:-0.743461 156:-0.151444 157:0.481298 158:0.275555 159:-0.528639 160:-0.93244 161:-0.997813 162:-0.990125 163:-0.982774 164:-0.988287 165:-0.996956 166:-0.999746 167:-0.99996 168:-0.999946 169:-0.99969 170:-0.993908 171:-0.919724 172:-0.473654 173:0.399728 174:0.550486 175:-0.211752 176:-0.831184 177:-0.966635 178:-0.848505 179:-0.731985 180:-0.810138 181:-0.943437 182:-0.990666 183:-0.996377 184:-0.995394 185:-0.991029 186:-0.964719 187:-0.81707 188:-0.286717 189:0.529342 190:0.60893 191:-0.179825 192:-0.821723 193:-0.891614 194:-0.495227 195:-0.051631 196:-0.215124 197:-0.656307 198:-0.87161 199:-0.923697 200:-0.908822 201:-0.855817 202:-0.693945 203:-0.316233 204:0.301115 205:0.740486 206:0.470461 207:-0.411654 208:-0.904115 209:-0.888085 210:-0.441269 211:0.213429 212:0.349243 213:-0.028617 214:-0.334123 215:-0.444567 216:-0.396171 217:-0.264524 218:0.046138 219:0.459265 220:0.733877 221:0.633568 222:0.051507 223:-0.685774 224:-0.968687 225:-0.961786 226:-0.768766 227:-0.327285 228:0.111784 229:0.262967 230:0.308683 231:0.377921 232:0.501048 233:0.572607 234:0.620729 235:0.648175 236:0.490516 237:0.03692 238:-0.545433 239:-0.903501 240:-0.993645 241:-0.996307 242:-0.964156 243:-0.847069 244:-0.646057 245:-0.41819 246:-0.130374 247:0.175592 248:0.405992 249:0.420931 250:0.236886 251:-0.010162 252:-0.329827 253:-0.672209 254:-0.905922 255:-0.987214 256:-0.999367 
1 1:-0.988638 2:-0.817083 3:-0.258009 4:0.299766 5:0.376079 6:0.204423 7:0.091444 8:-0.106305 9:-0.397395 10:-0.689076 11:-0.902399 12:-0.984025 13:-0.998555 14:-0.999938 15:-0.999999 16:-1 17:-0.986344 18:-0.781242 19:-0.129022 20:0.472342 21:0.510642 22:0.366075 23:0.36129 24:0.362815 25:0.282011 26:-0.027283 27:-0.519135 28:-0.860026 29:-0.977939 30:-0.998446 31:-0.999956 32:-1 33:-0.993982 34:-0.900044 35:-0.556295 36:-0.201971 37:-0.297615 38:-0.468542 39:-0.411599 40:-0.229647 41:0.055908 42:0.231253 43:0.045277 44:-0.454669 45:-0.853094 46:-0.98299 47:-0.999257 48:-0.999992 49:-0.999012 50:-0.982353 51:-0.906178 52:-0.813565 53:-0.860382 54:-0.925391 55:-0.902118 56:-0.819221 57:-0.622715 58:-0.21755 59:0.252778 60:0.127397 61:-0.5206 62:-0.913728 63:-0.995218 64:-0.999947 65:-0.999946 66:-0.998887 67:-0.991094 68:-0.961406 69:-0.914492 70:-0.888697 71:-0.856352 72:-0.782887 73:-0.595074 74:-0.192335 75:0.39145 76:0.508488 77:-0.164394 78:-0.805936 79:-0.98818 80:-0.999865 81:-0.999977 82:-0.997997 83:-0.963388 84:-0.789878 85:-0.496797 86:-0.357221 87:-0.272533 88:-0.113954 89:0.195415 90:0.51695 91:0.727306 92:0.558967 93:-0.174161 94:-0.808936 95:-0.98836 96:-0.999867 97:-0.999935 98:-0.994235 99:-0.897887 100:-0.456911 101:0.236113 102:0.527796 103:0.584342 104:0.611543 105:0.697691 106:0.741776 107:0.563883 108:0.111729 109:-0.53161 110:-0.90975 111:-0.994796 112:-0.999934 113:-0.999946 114:-0.995183 115:-0.912854 116:-0.512953 117:0.15525 118:0.453319 119:0.46263 120:0.361039 121:0.28603 122:0.218361 123:-0.054579 124:-0.49764 125:-0.840659 126:-0.968941 127:-0.994813 128:-0.999301 129:-0.999985 130:-0.998646 131:-0.975155 132:-0.855161 133:-0.644874 134:-0.544777 135:-0.541737 136:-0.581088 137:-0.59463 138:-0.448494 139:-0.193151 140:-0.339181 141:-0.646987 142:-0.812507 143:-0.927896 144:-0.987368 145:-0.999929 146:-0.998921 147:-0.993161 148:-0.973719 149:-0.934292 150:-0.884237 151:-0.825137 152:-0.758386 153:-0.664742 154:-0.36645 155:0.173172 156:0.383645 157:0.11209 158:-0.229688 159:-0.655115 160:-0.929713 161:-0.997454 162:-0.977291 163:-0.906784 164:-0.771182 165:-0.592007 166:-0.420753 167:-0.264777 168:-0.104495 169:0.06414 170:0.364113 171:0.713524 172:0.855597 173:0.681643 174:0.243002 175:-0.411883 176:-0.871057 177:-0.968909 178:-0.811507 179:-0.467833 180:-0.085186 181:0.251663 182:0.431901 183:0.473339 184:0.462102 185:0.459417 186:0.627103 187:0.878838 188:0.919684 189:0.586518 190:-0.124612 191:-0.689649 192:-0.940572 193:-0.884674 194:-0.421837 195:0.287485 196:0.625264 197:0.616812 198:0.497566 199:0.400441 200:0.289806 201:0.258427 202:0.532756 203:0.850909 204:0.816677 205:0.255599 206:-0.566187 207:-0.929218 208:-0.991789 209:-0.837126 210:-0.237797 211:0.57023 212:0.802306 213:0.547015 214:0.324618 215:0.36085 216:0.469642 217:0.599663 218:0.76716 219:0.799847 220:0.495075 221:-0.177154 222:-0.791651 223:-0.984651 224:-0.999484 225:-0.914979 226:-0.511843 227:0.215029 228:0.637423 229:0.722835 230:0.68481 231:0.663556 232:0.699185 233:0.729723 234:0.628732 235:0.306892 236:-0.207482 237:-0.695114 238:-0.941952 239:-0.996642 240:-0.999958 241:-0.98254 242:-0.860923 243:-0.519345 244:-0.056149 245:0.336315 246:0.420501 247:0.276398 248:0.191961 249:0.111783 250:-0.150604 251:-0.523202 252:-0.802216 253:-0.95021 254:-0.994529 255:-0.99977 256:-0.999998 
1 1:-0.999967 2:-0.99715 3:-0.953785 4:-0.804002 5:-0.60149 6:-0.396651 7:-0.247933 8:-0.402418 9:-0.68401 10:-0.774925 11:-0.807646 12:-0.888355 13:-0.959778 14:-0.989859 15:-0.998229 16:-0.999873 17:-0.999867 18:-0.989117 19:-0.827709 20:-0.312141 21:0.237999 22:0.525477 23:0.601715 24:0.400224 25:0.008758 26:-0.119664 27:-0.176609 28:-0.380404 29:-0.632994 30:-0.849227 31:-0.963413 32:-0.995461 33:-0.999816 34:-0.985794 35:-0.779038 36:-0.145847 37:0.445321 38:0.622927 39:0.548692 40:0.396798 41:0.239305 42:0.198988 43:0.231266 44:0.181926 45:0.001882 46:-0.357092 47:-0.732219 48:-0.943555 49:-0.999932 50:-0.994733 51:-0.914385 52:-0.615415 53:-0.244384 54:-0.187541 55:-0.374825 56:-0.506456 57:-0.542008 58:-0.539741 59:-0.479412 60:-0.334821 61:-0.028825 62:0.191074 63:-0.191413 64:-0.762892 65:-0.999994 66:-0.999526 67:-0.990593 68:-0.935535 69:-0.832433 70:-0.816239 71:-0.884225 72:-0.92656 73:-0.938178 74:-0.940293 75:-0.922678 76:-0.824854 77:-0.396149 78:0.337666 79:0.298897 80:-0.468403 81:-1 82:-0.999982 83:-0.999224 84:-0.988356 85:-0.934073 86:-0.824844 87:-0.725971 88:-0.67778 89:-0.709831 90:-0.760476 91:-0.795287 92:-0.686728 93:-0.217735 94:0.515905 95:0.546257 96:-0.24536 97:-1 98:-0.999948 99:-0.995465 100:-0.924257 101:-0.651506 102:-0.25046 103:0.043633 104:0.171821 105:0.095472 106:-0.02803 107:-0.120309 108:0.036015 109:0.45677 110:0.753607 111:0.438972 112:-0.404399 113:-0.999922 114:-0.999764 115:-0.988176 116:-0.810206 117:-0.22417 118:0.419339 119:0.718173 120:0.796839 121:0.765805 122:0.711284 123:0.671622 124:0.72975 125:0.83729 126:0.67329 127:0.015946 128:-0.699645 129:-0.993138 130:-0.991013 131:-0.987302 132:-0.86387 133:-0.399202 134:0.208571 135:0.524272 136:0.623726 137:0.614354 138:0.556545 139:0.533699 140:0.558849 141:0.614577 142:0.411794 143:-0.295005 144:-0.840832 145:-0.884815 146:-0.848472 147:-0.911003 148:-0.939216 149:-0.827522 150:-0.610643 151:-0.418405 152:-0.277841 153:-0.300274 154:-0.43241 155:-0.481384 156:-0.416695 157:-0.08727 158:0.325678 159:0.006657 160:-0.65241 161:-0.470671 162:-0.273977 163:-0.457071 164:-0.728543 165:-0.897897 166:-0.936949 167:-0.907855 168:-0.861723 169:-0.873105 170:-0.927773 171:-0.947183 172:-0.905921 173:-0.570575 174:0.182911 175:0.393498 176:-0.260865 177:0.010102 178:0.455344 179:0.28103 180:-0.145568 181:-0.49658 182:-0.708129 183:-0.856912 184:-0.928984 185:-0.958419 186:-0.968491 187:-0.960451 188:-0.91744 189:-0.616474 190:0.162266 191:0.592681 192:0.068682 193:-0.109278 194:0.428142 195:0.39494 196:0.222827 197:0.123534 198:-0.051824 199:-0.300935 200:-0.468769 201:-0.571433 202:-0.602912 203:-0.563294 204:-0.456031 205:-0.139218 206:0.502402 207:0.750241 208:0.216816 209:-0.628514 210:-0.161988 211:0.141896 212:0.209631 213:0.228127 214:0.382091 215:0.521026 216:0.497811 217:0.380453 218:0.330187 219:0.386775 220:0.508786 221:0.646364 222:0.829337 223:0.753382 224:0.154928 225:-0.931567 226:-0.763259 227:-0.507617 228:-0.223091 229:0.019917 230:0.305829 231:0.550027 232:0.629077 233:0.64728 234:0.65506 235:0.660877 236:0.65015 237:0.615291 238:0.527423 239:0.288643 240:-0.239512 241:-0.99576 242:-0.976867 243:-0.912982 244:-0.789 245:-0.657917 246:-0.489414 247:-0.297185 248:-0.178337 249:-0.039388 250:0.02622 251:-0.009303 252:-0.136607 253:-0.270989 254:-0.442583 255:-0.599479 256:-0.786131 
1 1:-1 2:-1 3:-0.999999 4:-0.999972 5:-0.999339 6:-0.990184 7:-0.910343 8:-0.599973 9:-0.125543 10:-0.120142 11:-0.690049 12:-0.968222 13:-0.998854 14:-0.999989 15:-1 16:-1 17:-1 18:-1 19:-0.999963 20:-0.998918 21:-0.986086 22:-0.903386 23:-0.585363 24:0.045313 25:0.545516 26:0.312627 27:-0.559024 28:-0.954658 29:-0.998338 30:-0.999984 31:-1 32:-1 33:-1 34:-0.999993 35:-0.999346 36:-0.985061 37:-0.871379 38:-0.51657 39:0.052487 40:0.628493 41:0.838336 42:0.459494 43:-0.427345 44:-0.90765 45:-0.994827 46:-0.99992 47:-1 48:-1 49:-1 50:-0.999959 51:-0.996325 52:-0.929927 53:-0.560785 54:0.166367 55:0.635661 56:0.755022 57:0.751773 58:0.631006 59:-0.029748 60:-0.743339 61:-0.979128 62:-0.999429 63:-0.999995 64:-1 65:-1 66:-0.999925 67:-0.993365 68:-0.883947 69:-0.401723 70:0.320034 71:0.49319 72:0.221276 73:0.206694 74:0.635959 75:0.361022 76:-0.565433 77:-0.959818 78:-0.998717 79:-0.999988 80:-1 81:-1 82:-0.999971 83:-0.997368 84:-0.950573 85:-0.703893 86:-0.306529 87:-0.296303 88:-0.492958 89:-0.208164 90:0.554559 91:0.420435 92:-0.552039 93:-0.964879 94:-0.999194 95:-0.999994 96:-1 97:-1 98:-0.999998 99:-0.999792 100:-0.994277 101:-0.943132 102:-0.813574 103:-0.680415 104:-0.452052 105:0.048772 106:0.618641 107:0.317241 108:-0.608121 109:-0.972739 110:-0.99956 111:-0.999998 112:-1 113:-1 114:-1 115:-0.999995 116:-0.999647 117:-0.988762 118:-0.861363 119:-0.401169 120:0.24843 121:0.66489 122:0.740679 123:0.165001 124:-0.678707 125:-0.978661 126:-0.999699 127:-0.999999 128:-1 129:-1 130:-1 131:-0.99997 132:-0.998774 133:-0.976869 134:-0.794009 135:-0.217827 136:0.488827 137:0.794645 138:0.756598 139:0.162617 140:-0.669063 141:-0.974061 142:-0.999373 143:-0.999995 144:-1 145:-1 146:-0.999995 147:-0.999524 148:-0.98743 149:-0.877486 150:-0.573257 151:-0.227466 152:0.061189 153:0.304312 154:0.616363 155:0.357322 156:-0.518109 157:-0.940575 158:-0.997391 159:-0.999973 160:-1 161:-1 162:-0.999971 163:-0.997272 164:-0.943734 165:-0.601637 166:0.04686 167:0.095426 168:-0.422727 169:-0.37202 170:0.336524 171:0.476676 172:-0.323334 173:-0.877091 174:-0.993191 175:-0.999924 176:-1 177:-1 178:-0.999931 179:-0.99384 180:-0.887426 181:-0.361563 182:0.445788 183:0.315857 184:-0.552438 185:-0.581095 186:0.271436 187:0.537299 188:-0.202757 189:-0.830778 190:-0.990013 191:-0.999887 192:-1 193:-1 194:-0.999939 195:-0.994444 196:-0.895681 197:-0.373175 198:0.496445 199:0.4747 200:-0.342044 201:-0.413187 202:0.386354 203:0.561225 204:-0.226389 205:-0.841258 206:-0.990741 207:-0.999895 208:-1 209:-1 210:-0.999976 211:-0.997727 212:-0.948335 213:-0.577834 214:0.252484 215:0.607419 216:0.238401 217:0.142804 218:0.631369 219:0.54609 220:-0.309711 221:-0.870627 222:-0.992711 223:-0.999918 224:-1 225:-1 226:-0.999996 227:-0.99956 228:-0.98509 229:-0.820498 230:-0.269476 231:0.392305 232:0.64793 233:0.70791 234:0.737269 235:0.281862 236:-0.548925 237:-0.938376 238:-0.997058 239:-0.999969 240:-1 241:-1 242:-1 243:-0.99996 244:-0.997635 245:-0.959571 246:-0.751993 247:-0.272112 248:0.224543 249:0.431998 250:0.271267 251:-0.275059 252:-0.807374 253:-0.983377 254:-0.999494 255:-0.999995 256:-1 
1 1:-1 2:-0.999999 3:-0.99993 4:-0.998598 5:-0.987065 6:-0.904196 7:-0.621288 8:-0.147346 9:0.193507 10:0.014627 11:-0.411756 12:-0.829609 13:-0.983157 14:-0.999393 15:-0.999994 16:-1 17:-1 18:-0.999987 19:-0.998856 20:-0.978529 21:-0.861853 22:-0.512171 23:0.072557 24:0.566776 25:0.753582 26:0.678734 27:0.269356 28:-0.53315 29:-0.934461 30:-0.996828 31:-0.999966 32:-1 33:-1 34:-0.999947 35:-0.995246 36:-0.914977 37:-0.532123 38:0.166993 39:0.633395 40:0.657999 41:0.556148 42:0.720065 43:0.558962 44:-0.291054 45:-0.865391 46:-0.992381 47:-0.999915 48:-1 49:-1 50:-0.999924 51:-0.993222 52:-0.88206 53:-0.398718 54:0.325924 55:0.485576 56:0.074065 57:-0.057076 58:0.5278 59:0.587961 60:-0.224136 61:-0.840547 62:-0.990688 63:-0.999895 64:-1 65:-1 66:-0.999972 67:-0.997482 68:-0.952156 69:-0.705694 70:-0.28492 71:-0.261132 72:-0.531818 73:-0.259342 74:0.536279 75:0.507837 76:-0.352892 77:-0.88514 78:-0.99368 79:-0.999929 80:-1 81:-1 82:-0.999998 83:-0.999802 84:-0.994413 85:-0.9445 86:-0.836434 87:-0.796389 88:-0.635135 89:0.001973 90:0.623244 91:0.326001 92:-0.560706 93:-0.951089 94:-0.99803 95:-0.99998 96:-1 97:-1 98:-1 99:-0.999996 100:-0.999765 101:-0.996225 102:-0.971822 103:-0.794361 104:-0.223856 105:0.501884 106:0.793352 107:0.339881 108:-0.592927 109:-0.967291 110:-0.99919 111:-0.999994 112:-1 113:-1 114:-1 115:-0.999999 116:-0.999904 117:-0.995883 118:-0.93125 119:-0.524641 120:0.318869 121:0.788442 122:0.830342 123:0.465105 124:-0.474365 125:-0.935433 126:-0.997183 127:-0.999971 128:-1 129:-1 130:-1 131:-0.999987 132:-0.998852 133:-0.977569 134:-0.840599 135:-0.373938 136:0.299606 137:0.486271 138:0.534643 139:0.472193 140:-0.330763 141:-0.881678 142:-0.993536 143:-0.999928 144:-1 145:-1 146:-1 147:-0.99993 148:-0.993949 149:-0.903247 150:-0.615942 151:-0.335117 152:-0.283188 153:-0.260413 154:0.176177 155:0.412461 156:-0.318058 157:-0.875597 158:-0.99312 159:-0.999923 160:-1 161:-1 162:-1 163:-0.999844 164:-0.986443 165:-0.786019 166:-0.204056 167:0.055327 168:-0.455054 169:-0.553911 170:0.157505 171:0.398622 172:-0.407912 173:-0.912285 174:-0.995656 175:-0.999953 176:-1 177:-1 178:-1 179:-0.999833 180:-0.985402 181:-0.765593 182:-0.07248 183:0.358154 184:-0.216729 185:-0.457923 186:0.267155 187:0.37655 188:-0.50275 189:-0.946544 190:-0.997966 191:-0.99998 192:-1 193:-1 194:-1 195:-0.999876 196:-0.989097 197:-0.817861 198:-0.181152 199:0.438609 200:0.054559 201:-0.26311 202:0.376836 203:0.312265 204:-0.58548 205:-0.968191 206:-0.999311 207:-0.999995 208:-1 209:-1 210:-1 211:-0.999941 212:-0.994644 213:-0.900066 214:-0.408607 215:0.380415 216:0.405418 217:0.14539 218:0.513605 219:0.237203 220:-0.638229 221:-0.976277 222:-0.999706 223:-1 224:-1 225:-1 226:-1 227:-0.999987 228:-0.99868 229:-0.966834 230:-0.695317 231:-0.020759 232:0.462901 233:0.591536 234:0.58491 235:0.049993 236:-0.714192 237:-0.981761 238:-0.999789 239:-1 240:-1 241:-1 242:-1 243:-0.999999 244:-0.999876 245:-0.99407 246:-0.915201 247:-0.621401 248:-0.153076 249:0.20049 250:0.077965 251:-0.439409 252:-0.869616 253:-0.992034 254:-0.999909 255:-1 256:-1 
1 1:-0.983759 2:-0.748755 3:-0.124129 4:0.20081 5:0.079194 6:-0.062816 7:-0.100628 8:-0.107091 9:-0.108717 10:-0.105076 11:-0.05301 12:0.044849 13:-0.121218 14:-0.601273 15:-0.920763 16:-0.995421 17:-0.981247 18:-0.707261 19:0.062233 20:0.616846 21:0.712837 22:0.670545 23:0.62181 24:0.559129 25:0.535511 26:0.538879 27:0.598781 28:0.71784 29:0.522818 30:-0.185193 31:-0.808063 32:-0.988236 33:-0.991118 34:-0.855386 35:-0.388278 36:0.166652 37:0.425286 38:0.45556 39:0.37138 40:0.22108 41:0.164546 42:0.181293 43:0.369159 44:0.769358 45:0.681911 46:-0.083272 47:-0.781964 48:-0.986599 49:-0.998277 50:-0.970519 51:-0.852823 52:-0.669265 53:-0.569807 54:-0.55619 55:-0.590032 56:-0.649048 57:-0.65535 58:-0.552782 59:-0.116547 60:0.572612 61:0.485463 62:-0.306278 63:-0.858176 64:-0.991714 65:-0.998335 66:-0.99153 67:-0.978128 68:-0.963845 69:-0.956891 70:-0.955505 71:-0.950389 72:-0.914295 73:-0.785494 74:-0.452511 75:0.112151 76:0.44595 77:0.014026 78:-0.663929 79:-0.953662 80:-0.997752 81:-0.972881 82:-0.886567 83:-0.791667 84:-0.760528 85:-0.758324 86:-0.754877 87:-0.704444 88:-0.52307 89:-0.206608 90:0.208483 91:0.407795 92:0.064778 93:-0.536493 94:-0.901903 95:-0.992656 96:-0.999808 97:-0.866489 98:-0.483168 99:-0.133032 100:-0.028403 101:-0.02027 102:-0.012703 103:0.086522 104:0.366509 105:0.57383 106:0.539156 107:0.174604 108:-0.436092 109:-0.841816 110:-0.972722 111:-0.996967 112:-0.999832 113:-0.751195 114:-0.067281 115:0.504582 116:0.683609 117:0.717967 118:0.728805 119:0.769486 120:0.869786 121:0.835819 122:0.517475 123:0.102959 124:-0.276643 125:-0.586756 126:-0.824385 127:-0.956341 128:-0.994956 129:-0.830955 130:-0.312064 131:0.250175 132:0.529085 133:0.676346 134:0.724566 135:0.746004 136:0.775522 137:0.730159 138:0.644309 139:0.592133 140:0.523367 141:0.253266 142:-0.247957 143:-0.707404 144:-0.939095 145:-0.957812 146:-0.812179 147:-0.595703 148:-0.35917 149:-0.112281 150:-0.022787 151:0.021071 152:0.08193 153:0.058741 154:0.150583 155:0.352409 156:0.562887 157:0.665894 158:0.465878 159:-0.116177 160:-0.718947 161:-0.995405 162:-0.980478 163:-0.948313 164:-0.873178 165:-0.77773 166:-0.74462 167:-0.731386 168:-0.70846 169:-0.717974 170:-0.67412 171:-0.540765 172:-0.225825 173:0.330649 174:0.732484 175:0.447291 176:-0.37612 177:-0.960649 178:-0.880694 179:-0.811591 180:-0.74434 181:-0.717274 182:-0.74071 183:-0.806882 184:-0.836056 185:-0.856731 186:-0.900032 187:-0.900126 188:-0.684586 189:-0.02604 190:0.701201 191:0.639185 192:-0.195524 193:-0.73867 194:-0.379983 195:-0.156527 196:0.0003 197:0.050631 198:-0.012192 199:-0.176153 200:-0.251448 201:-0.302629 202:-0.427506 203:-0.509772 204:-0.371102 205:0.171084 206:0.725201 207:0.551593 208:-0.280738 209:-0.371809 210:0.340452 211:0.650923 212:0.73944 213:0.761929 214:0.736223 215:0.669523 216:0.640204 217:0.614864 218:0.54748 219:0.500988 220:0.546506 221:0.702322 222:0.677445 223:0.139399 224:-0.606137 225:-0.439118 226:0.304182 227:0.694955 228:0.803183 229:0.824306 230:0.824374 231:0.830045 232:0.856202 233:0.859892 234:0.818607 235:0.796194 236:0.791546 237:0.695737 238:0.251954 239:-0.452763 240:-0.883177 241:-0.792074 242:-0.395047 243:-0.023868 244:0.167852 245:0.213501 246:0.217991 247:0.243128 248:0.312332 249:0.33031 250:0.25419 251:0.217345 252:0.202048 253:0.056952 254:-0.382174 255:-0.823088 256:-0.980388 
1 1:-0.999981 2:-0.998192 3:-0.961311 4:-0.705973 5:-0.120949 6:0.320874 7:0.473715 8:0.452507 9:0.311944 10:0.111171 11:-0.237114 12:-0.630462 13:-0.90954 14:-0.993097 15:-0.99983 16:-0.999999 17:-0.999977 18:-0.997841 19:-0.954659 20:-0.665523 21:-0.027315 22:0.413133 23:0.541264 24:0.55185 25:0.550438 26:0.581311 27:0.508076 28:0.055771 29:-0.649344 30:-0.957327 31:-0.99813 32:-0.99998 33:-0.999992 34:-0.999268 35:-0.984729 36:-0.887295 37:-0.655867 38:-0.460148 39:-0.395246 40:-0.353188 41:-0.18274 42:0.224245 43:0.676575 44:0.480991 45:-0.389126 46:-0.897275 47:-0.994493 48:-0.999939 49:-0.999999 50:-0.999951 51:-0.99897 52:-0.991779 53:-0.966336 54:-0.928147 55:-0.907692 56:-0.856219 57:-0.596078 58:0.031287 59:0.631705 60:0.462547 61:-0.401372 62:-0.900413 63:-0.994688 64:-0.999941 65:-1 66:-0.999999 67:-0.999986 68:-0.999701 69:-0.996307 70:-0.983364 71:-0.933111 72:-0.739361 73:-0.249737 74:0.41232 75:0.572528 76:0.057744 77:-0.662073 78:-0.958967 79:-0.998192 80:-0.999981 81:-1 82:-1 83:-0.999971 84:-0.997472 85:-0.958905 86:-0.822015 87:-0.571182 88:-0.133683 89:0.375831 90:0.534624 91:0.105301 92:-0.538029 93:-0.904719 94:-0.992782 95:-0.999803 96:-0.999998 97:-1 98:-1 99:-0.999878 100:-0.989361 101:-0.830828 102:-0.33672 103:0.206532 104:0.60728 105:0.716348 106:0.286185 107:-0.430604 108:-0.869946 109:-0.986866 110:-0.999431 111:-0.999991 112:-1 113:-1 114:-1 115:-0.999822 116:-0.984583 117:-0.757981 118:-0.099943 119:0.463553 120:0.726096 121:0.764393 122:0.39519 123:-0.306344 124:-0.825922 125:-0.982787 126:-0.999349 127:-0.999993 128:-1 129:-1 130:-1 131:-0.999933 132:-0.994104 133:-0.903688 134:-0.587906 135:-0.194516 136:0.082868 137:0.383986 138:0.579578 139:0.249438 140:-0.537594 141:-0.933537 142:-0.99673 143:-0.999965 144:-1 145:-1 146:-1 147:-0.999994 148:-0.999479 149:-0.989816 150:-0.933333 151:-0.817115 152:-0.689614 153:-0.320576 154:0.379407 155:0.485552 156:-0.310089 157:-0.870986 158:-0.992757 159:-0.999919 160:-1 161:-1 162:-1 163:-1 164:-0.999985 165:-0.999628 166:-0.996485 167:-0.985887 168:-0.918391 169:-0.488133 170:0.384863 171:0.51118 172:-0.313745 173:-0.874204 174:-0.992994 175:-0.999922 176:-1 177:-1 178:-1 179:-1 180:-0.999999 181:-0.999966 182:-0.999097 183:-0.982204 184:-0.815634 185:-0.215329 186:0.520585 187:0.343008 188:-0.522533 189:-0.938782 190:-0.997219 191:-0.999971 192:-1 193:-1 194:-1 195:-0.999999 196:-0.999943 197:-0.998684 198:-0.985061 199:-0.88201 200:-0.475422 201:0.219992 202:0.46955 203:-0.104335 204:-0.766707 205:-0.981419 206:-0.999508 207:-0.999996 208:-1 209:-1 210:-1 211:-0.999988 212:-0.998924 213:-0.979473 214:-0.862878 215:-0.497876 216:0.103795 217:0.437402 218:0.077161 219:-0.598218 220:-0.934699 221:-0.996353 222:-0.999947 223:-1 224:-1 225:-1 226:-1 227:-0.999924 228:-0.99334 229:-0.888471 230:-0.484098 231:0.09514 232:0.356641 233:0.072637 234:-0.520036 235:-0.896317 236:-0.991505 237:-0.999736 238:-0.999997 239:-1 240:-1 241:-1 242:-1 243:-0.999855 244:-0.987408 245:-0.801684 246:-0.260925 247:0.087717 248:-0.149816 249:-0.587889 250:-0.889371 251:-0.987011 252:-0.9994 253:-0.999992 254:-1 255:-1 256:-1 
1 1:-0.999135 2:-0.972511 3:-0.702611 4:-0.106928 5:0.010706 6:-0.297161 7:-0.568232 8:-0.710066 9:-0.82691 10:-0.929924 11:-0.980193 12:-0.996164 13:-0.999668 14:-0.999989 15:-1 16:-1 17:-0.999586 18:-0.983558 19:-0.792899 20:-0.256325 21:0.197824 22:0.316294 23:0.203097 24:0.030281 25:-0.223295 26:-0.523007 27:-0.772375 28:-0.93395 29:-0.991213 30:-0.999577 31:-0.999995 32:-1 33:-0.999947 34:-0.996735 35:-0.949872 36:-0.774939 37:-0.452462 38:-0.070056 39:0.137337 40:0.277732 41:0.344307 42:0.236445 43:-0.136642 44:-0.611131 45:-0.915519 46:-0.994906 47:-0.99994 48:-1 49:-0.999998 50:-0.999809 51:-0.996427 52:-0.975258 53:-0.892411 54:-0.737518 55:-0.591047 56:-0.319877 57:0.155414 58:0.579636 59:0.538476 60:-0.037453 61:-0.741332 62:-0.983106 63:-0.999775 64:-0.999999 65:-1 66:-0.999972 67:-0.997672 68:-0.962271 69:-0.836882 70:-0.666951 71:-0.496796 72:-0.18335 73:0.341486 74:0.774774 75:0.737069 76:0.110602 77:-0.696028 78:-0.979375 79:-0.999677 80:-0.999999 81:-1 82:-0.999917 83:-0.992712 84:-0.880008 85:-0.472892 86:0.065746 87:0.396981 88:0.58048 89:0.764308 90:0.867843 91:0.612599 92:-0.125364 93:-0.776866 94:-0.98084 95:-0.999409 96:-0.999995 97:-1 98:-0.999917 99:-0.992666 100:-0.876672 101:-0.424928 102:0.202793 103:0.484896 104:0.488885 105:0.484423 106:0.553165 107:0.510112 108:0.054844 109:-0.569741 110:-0.91672 111:-0.995006 112:-0.999929 113:-1 114:-0.999974 115:-0.99769 116:-0.959509 117:-0.788954 118:-0.51211 119:-0.395236 120:-0.466636 121:-0.501881 122:-0.329637 123:0.097265 124:0.401203 125:-0.037056 126:-0.733209 127:-0.979791 128:-0.999543 129:-1 130:-0.999998 131:-0.999841 132:-0.99669 133:-0.975872 134:-0.929283 135:-0.907077 136:-0.935529 137:-0.943443 138:-0.800756 139:-0.247386 140:0.516136 141:0.334033 142:-0.574953 143:-0.962007 144:-0.998851 145:-1 146:-1 147:-0.999998 148:-0.999917 149:-0.99902 150:-0.996529 151:-0.995078 152:-0.993273 153:-0.953694 154:-0.699543 155:-0.020058 156:0.607214 157:0.306098 158:-0.592411 159:-0.963543 160:-0.998889 161:-1 162:-1 163:-0.999996 164:-0.999978 165:-0.999923 166:-0.999586 167:-0.994436 168:-0.949439 169:-0.752205 170:-0.244888 171:0.440737 172:0.589596 173:-0.063933 174:-0.761519 175:-0.982107 176:-0.999583 177:-1 178:-0.999975 179:-0.999578 180:-0.997983 181:-0.994158 182:-0.983592 183:-0.925375 184:-0.692295 185:-0.198957 186:0.380902 187:0.638525 188:0.26721 189:-0.508519 190:-0.919083 191:-0.995498 192:-0.999936 193:-0.999993 194:-0.999366 195:-0.989721 196:-0.955708 197:-0.892909 198:-0.773636 199:-0.528033 200:-0.050103 201:0.46834 202:0.607255 203:0.25109 204:-0.369563 205:-0.838662 206:-0.984413 207:-0.99943 208:-0.999994 209:-0.999936 210:-0.99448 211:-0.912738 212:-0.664022 213:-0.383955 214:-0.075788 215:0.294206 216:0.61192 217:0.641432 218:0.182206 219:-0.457178 220:-0.841905 221:-0.973446 222:-0.998297 223:-0.999964 224:-1 225:-0.999846 226:-0.986617 227:-0.787888 228:-0.182577 229:0.390557 230:0.635708 231:0.674259 232:0.557442 233:0.172795 234:-0.452964 235:-0.865114 236:-0.9825 237:-0.998345 238:-0.999921 239:-0.999999 240:-1 241:-0.999897 242:-0.991008 243:-0.852487 244:-0.362032 245:0.225927 246:0.39258 247:0.153196 248:-0.223528 249:-0.581428 250:-0.865506 251:-0.980021 252:-0.998743 253:-0.99996 254:-0.999999 255:-1 256:-1 
1 1:-0.999999 2:-0.999931 3:-0.998621 4:-0.990547 5:-0.970305 6:-0.918598 7:-0.741157 8:-0.407632 9:-0.06544 10:0.101175 11:-0.251782 12:-0.797261 13:-0.987084 14:-0.999851 15:-1 16:-1 17:-0.999987 18:-0.998841 19:-0.978231 20:-0.867441 21:-0.650846 22:-0.440198 23:-0.08128 24:0.389985 25:0.630172 26:0.578967 27:-0.046127 28:-0.755183 29:-0.984146 30:-0.999784 31:-0.999999 32:-1 33:-0.999941 34:-0.994721 35:-0.907285 36:-0.515361 37:0.1096 38:0.400805 39:0.439907 40:0.462493 41:0.477206 42:0.574132 43:0.182858 44:-0.636792 45:-0.969124 46:-0.99914 47:-0.999993 48:-1 49:-0.999907 50:-0.991815 51:-0.863265 52:-0.377699 53:0.218246 54:0.270022 55:-0.076103 56:-0.362661 57:-0.259966 58:0.310762 59:0.322702 60:-0.524251 61:-0.948625 62:-0.998034 63:-0.999981 64:-1 65:-0.999965 66:-0.996912 67:-0.947372 68:-0.748954 69:-0.519663 70:-0.580961 71:-0.742164 72:-0.742642 73:-0.31934 74:0.345748 75:0.210628 76:-0.59985 77:-0.960471 78:-0.998621 79:-0.999987 80:-1 81:-0.999997 82:-0.999768 83:-0.995147 84:-0.965395 85:-0.911214 86:-0.863555 87:-0.706796 88:-0.345929 89:0.222736 90:0.402623 91:-0.206795 92:-0.807595 93:-0.985015 94:-0.999605 95:-0.999997 96:-1 97:-1 98:-0.999959 99:-0.996918 100:-0.949986 101:-0.767851 102:-0.43933 103:-0.009527 104:0.433109 105:0.681724 106:0.375091 107:-0.403095 108:-0.872276 109:-0.986397 110:-0.999365 111:-0.99999 112:-1 113:-0.999999 114:-0.999804 115:-0.987055 116:-0.804077 117:-0.228922 118:0.356053 119:0.602354 120:0.668225 121:0.677776 122:0.506178 123:0.0014 124:-0.554477 125:-0.896984 126:-0.991914 127:-0.99978 128:-0.999998 129:-0.999998 130:-0.999653 131:-0.979927 132:-0.715269 133:-0.020325 134:0.370975 135:0.276214 136:0.039441 137:-0.007956 138:0.178748 139:0.351762 140:0.047924 141:-0.635694 142:-0.953816 143:-0.997917 144:-0.999978 145:-0.999999 146:-0.999847 147:-0.990912 148:-0.871707 149:-0.583259 150:-0.492883 151:-0.607923 152:-0.730577 153:-0.742035 154:-0.507841 155:0.08051 156:0.33834 157:-0.328985 158:-0.869536 159:-0.992576 160:-0.999917 161:-1 162:-0.999979 163:-0.998522 164:-0.978371 165:-0.930799 166:-0.924022 167:-0.956847 168:-0.979948 169:-0.974351 170:-0.809983 171:-0.193188 172:0.383266 173:-0.121495 174:-0.791663 175:-0.98728 176:-0.999855 177:-0.999999 178:-0.999912 179:-0.996459 180:-0.955253 181:-0.843024 182:-0.77958 183:-0.848846 184:-0.95839 185:-0.98151 186:-0.790365 187:-0.129004 188:0.424627 189:-0.086317 190:-0.778147 191:-0.986344 192:-0.999844 193:-0.99999 194:-0.998983 195:-0.975085 196:-0.778564 197:-0.321431 198:-0.101962 199:-0.352594 200:-0.790194 201:-0.895801 202:-0.574858 203:0.150688 204:0.434787 205:-0.220025 206:-0.828931 207:-0.989795 208:-0.999884 209:-0.999964 210:-0.99667 211:-0.931869 212:-0.521828 213:0.289873 214:0.6239 215:0.326834 216:-0.276898 217:-0.407755 218:-0.02769 219:0.43237 220:0.193958 221:-0.528573 222:-0.921056 223:-0.99576 224:-0.999953 225:-0.999959 226:-0.996245 227:-0.927377 228:-0.533447 229:0.24504 230:0.717748 231:0.759789 232:0.546072 233:0.425877 234:0.421929 235:0.243249 236:-0.373022 237:-0.84267 238:-0.981892 239:-0.999199 240:-0.999992 241:-0.999986 242:-0.998738 243:-0.974766 244:-0.822097 245:-0.410968 246:0.108041 247:0.422929 248:0.436776 249:0.241553 250:-0.07424 251:-0.439446 252:-0.814759 253:-0.974049 254:-0.998273 255:-0.999948 256:-1 
0.3980484969567898 1:-0.999999 2:-0.999915 3:-0.995355 4:-0.930781 5:-0.690186 6:-0.306024 7:0.048247 8:0.237538 9:0.301391 10:0.236766 11:-0.034765 12:-0.492694 13:-0.866729 14:-0.987207 15:-0.999542 16:-0.999995 17:-0.999993 18:-0.999238 19:-0.975809 20:-0.730786 21:-0.066473 22:0.487634 23:0.695356 24:0.731126 25:0.66702 26:0.627773 27:0.613932 28:0.203553 29:-0.568007 30:-0.9396 31:-0.997075 32:-0.999969 33:-0.99998 34:-0.997994 35:-0.949093 36:-0.536345 37:0.360994 38:0.676231 39:0.484674 40:0.316186 41:0.135554 42:0.247992 43:0.696774 44:0.556272 45:-0.307565 46:-0.869766 47:-0.992649 48:-0.999918 49:-0.999983 50:-0.998304 51:-0.95466 52:-0.569107 53:0.240944 54:0.295527 55:-0.306334 56:-0.550223 57:-0.400043 58:0.152088 59:0.713016 60:0.534997 61:-0.323197 62:-0.872466 63:-0.992791 64:-0.999919 65:-0.999995 66:-0.99946 67:-0.981201 68:-0.779272 69:-0.24533 70:-0.057168 71:-0.5587 72:-0.710799 73:-0.178307 74:0.522892 75:0.686356 76:0.156092 77:-0.614518 78:-0.948986 79:-0.997604 80:-0.999974 81:-1 82:-0.99994 83:-0.996554 84:-0.946862 85:-0.754055 86:-0.514898 87:-0.499882 88:-0.403693 89:0.198087 90:0.704293 91:0.475351 92:-0.323265 93:-0.854387 94:-0.987901 95:-0.999612 96:-0.999996 97:-1 98:-0.999997 99:-0.999794 100:-0.995585 101:-0.962487 102:-0.836247 103:-0.590264 104:-0.325769 105:-0.005567 106:0.445531 107:0.432216 108:-0.203146 109:-0.739125 110:-0.952924 111:-0.996894 112:-0.999933 113:-1 114:-0.999993 115:-0.999944 116:-0.999702 117:-0.99663 118:-0.967897 119:-0.87463 120:-0.767687 121:-0.645882 122:-0.247488 123:0.238005 124:0.280878 125:-0.241518 126:-0.787314 127:-0.97751 128:-0.999109 129:-0.999968 130:-0.999346 131:-0.995283 132:-0.986742 133:-0.985211 134:-0.993032 135:-0.99132 136:-0.983093 137:-0.95234 138:-0.79281 139:-0.334638 140:0.289268 141:0.250638 142:-0.453001 143:-0.900378 144:-0.994357 145:-0.999144 146:-0.985505 147:-0.915198 148:-0.787344 149:-0.773884 150:-0.922538 151:-0.993351 152:-0.999533 153:-0.997102 154:-0.966621 155:-0.726777 156:-0.047257 157:0.457503 158:-0.011617 159:-0.738691 160:-0.9817 161:-0.991484 162:-0.884919 163:-0.532742 164:-0.151777 165:-0.22796 166:-0.751253 167:-0.98021 168:-0.999533 169:-0.999862 170:-0.993244 171:-0.886795 172:-0.344657 173:0.496137 174:0.333131 175:-0.577151 176:-0.962224 177:-0.968964 178:-0.658758 179:0.095519 180:0.403576 181:-0.059055 182:-0.741817 183:-0.98188 184:-0.999421 185:-0.999411 186:-0.991218 187:-0.886262 188:-0.348149 189:0.547425 190:0.467227 191:-0.496127 192:-0.945658 193:-0.953927 194:-0.555437 195:0.305306 196:0.415497 197:-0.28739 198:-0.828021 199:-0.966781 200:-0.976457 201:-0.971597 202:-0.917014 203:-0.646133 204:0.008606 205:0.636809 206:0.358659 207:-0.556881 208:-0.954829 209:-0.973765 210:-0.695815 211:0.012334 212:0.348088 213:-0.006885 214:-0.444266 215:-0.613937 216:-0.638453 217:-0.609026 218:-0.446189 219:-0.025794 220:0.52105 221:0.616645 222:-0.026586 223:-0.743326 224:-0.979492 225:-0.993582 226:-0.900154 227:-0.541285 228:-0.011712 229:0.306884 230:0.334517 231:0.264269 232:0.240985 233:0.296771 234:0.466725 235:0.61584 236:0.617878 237:0.259758 238:-0.461751 239:-0.898548 240:-0.993985 241:-0.999318 242:-0.986337 243:-0.900564 244:-0.64067 245:-0.221493 246:0.165959 247:0.350965 248:0.391098 249:0.414937 250:0.451204 251:0.338523 252:-0.020018 253:-0.459792 254:-0.830176 255:-0.976787 256:-0.998872 
1 1:-1 2:-0.999911 3:-0.992146 4:-0.868342 5:-0.392855 6:0.236183 7:0.454329 8:0.313795 9:-0.082367 10:-0.558754 11:-0.871073 12:-0.980743 13:-0.99899 14:-0.999988 15:-1 16:-1 17:-1 18:-0.999894 19:-0.990708 20:-0.844944 21:-0.294306 22:0.419676 23:0.659167 24:0.558292 25:0.404156 26:0.103103 27:-0.464191 28:-0.880118 29:-0.991756 30:-0.999834 31:-0.999999 32:-1 33:-1 34:-0.999964 35:-0.996762 36:-0.941539 37:-0.674098 38:-0.223097 39:-0.072905 40:-0.180015 41:0.034376 42:0.438787 43:0.111389 44:-0.643336 45:-0.960571 46:-0.998412 47:-0.999984 48:-1 49:-1 50:-0.999996 51:-0.999657 52:-0.992068 53:-0.933963 54:-0.804662 55:-0.742946 56:-0.688466 57:-0.240186 58:0.52563 59:0.475143 60:-0.39438 61:-0.900886 62:-0.994762 63:-0.999942 64:-1 65:-1 66:-0.999983 67:-0.9985 68:-0.975289 69:-0.890835 70:-0.767377 71:-0.624033 72:-0.346175 73:0.180401 74:0.718205 75:0.559426 76:-0.326345 77:-0.878837 78:-0.993295 79:-0.999925 80:-1 81:-1 82:-0.99991 83:-0.99219 84:-0.875428 85:-0.507241 86:-0.105426 87:0.201015 88:0.5014 89:0.741472 90:0.756364 91:0.282568 92:-0.530069 93:-0.929599 94:-0.996437 95:-0.999961 96:-1 97:-1 98:-0.999828 99:-0.985066 100:-0.763432 101:-0.090859 102:0.532682 103:0.794458 104:0.90024 105:0.888651 106:0.540265 107:-0.220723 108:-0.802845 109:-0.979637 110:-0.999193 111:-0.999992 112:-1 113:-1 114:-0.999889 115:-0.990282 116:-0.83846 117:-0.273792 118:0.437166 119:0.672411 120:0.652362 121:0.683267 122:0.52639 123:-0.161747 124:-0.791532 125:-0.983253 126:-0.999538 127:-0.999996 128:-1 129:-1 130:-0.999972 131:-0.997355 132:-0.94418 133:-0.592319 134:0.074225 135:0.1797 136:-0.103251 137:0.020491 138:0.439824 139:0.249634 140:-0.53718 141:-0.936159 142:-0.996948 143:-0.999967 144:-1 145:-1 146:-0.999978 147:-0.997872 148:-0.94802 149:-0.547584 150:0.251132 151:0.235662 152:-0.440817 153:-0.489732 154:0.20502 155:0.47928 156:-0.196538 157:-0.822751 158:-0.989401 159:-0.999879 160:-1 161:-1 162:-0.999931 163:-0.993807 164:-0.886285 165:-0.35315 166:0.403465 167:0.156693 168:-0.594761 169:-0.564748 170:0.249229 171:0.636555 172:0.080353 173:-0.713774 174:-0.981881 175:-0.999791 176:-1 177:-1 178:-0.999875 179:-0.98901 180:-0.816495 181:-0.17479 182:0.466539 183:0.083044 184:-0.553184 185:-0.288939 186:0.513502 187:0.681225 188:0.021968 189:-0.737915 190:-0.983539 191:-0.999811 192:-1 193:-1 194:-0.999853 195:-0.987159 196:-0.789899 197:-0.108388 198:0.53598 199:0.281661 200:-0.119911 201:0.251134 202:0.705535 203:0.461145 204:-0.347267 205:-0.871858 206:-0.992627 207:-0.999917 208:-1 209:-1 210:-0.999904 211:-0.991557 212:-0.855906 213:-0.302841 214:0.460097 215:0.664316 216:0.591135 217:0.688802 218:0.531286 219:-0.050708 220:-0.7069 221:-0.965173 222:-0.998486 223:-0.999984 224:-1 225:-1 226:-0.999974 227:-0.997569 228:-0.951628 229:-0.667964 230:-0.004607 231:0.599909 232:0.791972 233:0.538134 234:-0.100338 235:-0.642809 236:-0.922068 237:-0.994414 238:-0.999873 239:-0.999999 240:-1 241:-1 242:-0.999998 243:-0.999765 244:-0.993014 245:-0.917686 246:-0.593936 247:-0.017264 248:0.266311 249:-0.098397 250:-0.666287 251:-0.930986 252:-0.990652 253:-0.999506 254:-0.999994 255:-1 256:-1 
1 1:-0.999997 2:-0.999831 3:-0.996884 4:-0.977407 5:-0.903011 6:-0.729447 7:-0.45893 8:-0.157496 9:0.057779 10:0.254475 11:0.386114 12:0.337834 13:-0.000657 14:-0.551538 15:-0.907357 16:-0.994555 17:-0.999892 18:-0.996317 19:-0.953808 20:-0.784324 21:-0.454414 22:-0.031161 23:0.341148 24:0.51404 25:0.617107 26:0.763682 27:0.879555 28:0.853172 29:0.524448 30:-0.213345 31:-0.817811 32:-0.988885 33:-0.998517 34:-0.968729 35:-0.763456 36:-0.240901 37:0.252909 38:0.389386 39:0.369387 40:0.393256 41:0.541838 42:0.728255 43:0.820584 44:0.704683 45:0.305148 46:-0.395036 47:-0.872835 48:-0.992487 49:-0.993215 50:-0.881833 51:-0.399196 52:0.281054 53:0.316876 54:-0.128964 55:-0.270374 56:0.205312 57:0.62946 58:0.61113 59:0.345887 60:-0.014565 61:-0.434964 62:-0.800765 63:-0.966175 64:-0.998154 65:-0.986889 66:-0.786994 67:-0.121544 68:0.388923 69:-0.083684 70:-0.664456 71:-0.541925 72:0.321392 73:0.698896 74:0.250234 75:-0.40224 76:-0.734635 77:-0.893071 78:-0.974541 79:-0.997179 80:-0.999878 81:-0.989113 82:-0.823777 83:-0.285095 84:0.062425 85:-0.432529 86:-0.858489 87:-0.648201 88:0.209898 89:0.701907 90:0.32695 91:-0.469917 92:-0.891571 93:-0.985694 94:-0.998513 95:-0.999915 96:-0.999998 97:-0.996582 98:-0.943774 99:-0.760631 100:-0.63265 101:-0.816645 102:-0.955945 103:-0.810083 104:-0.179096 105:0.568547 106:0.643276 107:0.050113 108:-0.59829 109:-0.922433 110:-0.994918 111:-0.999899 112:-0.999999 113:-0.999675 114:-0.994425 115:-0.973467 116:-0.956294 117:-0.980424 118:-0.994424 119:-0.941058 120:-0.599295 121:0.147877 122:0.674967 123:0.591705 124:-0.019328 125:-0.710878 126:-0.969684 127:-0.998823 128:-0.999988 129:-0.999989 130:-0.999802 131:-0.998939 132:-0.998137 133:-0.999246 134:-0.999638 135:-0.990256 136:-0.880616 137:-0.453919 138:0.250059 139:0.710869 140:0.452983 141:-0.374017 142:-0.882696 143:-0.99295 144:-0.99989 145:-1 146:-0.999998 147:-0.999988 148:-0.999964 149:-0.999937 150:-0.999928 151:-0.999038 152:-0.981657 153:-0.85142 154:-0.362 155:0.429797 156:0.670514 157:0.079107 158:-0.695288 159:-0.973093 160:-0.999168 161:-1 162:-0.999998 163:-0.999892 164:-0.998441 165:-0.995022 166:-0.994962 167:-0.998261 168:-0.998075 169:-0.970729 170:-0.71749 171:0.016139 172:0.675014 173:0.439264 174:-0.478837 175:-0.930828 176:-0.996779 177:-0.999999 178:-0.999937 179:-0.997569 180:-0.970645 181:-0.909632 182:-0.907477 183:-0.961403 184:-0.977109 185:-0.948943 186:-0.78513 187:-0.203769 188:0.60588 189:0.52561 190:-0.383889 191:-0.901169 192:-0.99483 193:-0.999993 194:-0.999271 195:-0.981001 196:-0.823381 197:-0.492982 198:-0.463189 199:-0.677181 200:-0.695395 201:-0.566697 202:-0.337795 203:0.114188 204:0.605778 205:0.302047 206:-0.543982 207:-0.940111 208:-0.997221 209:-0.99998 210:-0.998062 211:-0.952785 212:-0.588707 213:0.167771 214:0.333311 215:0.062387 216:0.099431 217:0.32056 218:0.493964 219:0.551193 220:0.387493 221:-0.208043 222:-0.790476 223:-0.981411 224:-0.999406 225:-0.999987 226:-0.998608 227:-0.961549 228:-0.621022 229:0.166133 230:0.573123 231:0.605667 232:0.556347 233:0.526804 234:0.420503 235:0.138884 236:-0.306836 237:-0.736313 238:-0.950241 239:-0.996868 240:-0.999944 241:-0.999997 242:-0.999641 243:-0.987973 244:-0.860407 245:-0.489807 246:-0.065799 247:0.188602 248:0.012309 249:-0.244455 250:-0.477454 251:-0.671907 252:-0.848002 253:-0.961174 254:-0.99568 255:-0.999813 256:-0.999998 
1 1:-1 2:-1 3:-1 4:-1 5:-0.999996 6:-0.999722 7:-0.992839 8:-0.925511 9:-0.712121 10:-0.374292 11:0.00518 12:0.153414 13:-0.001133 14:-0.379165 15:-0.765831 16:-0.955724 17:-1 18:-1 19:-1 20:-0.999998 21:-0.999817 22:-0.994417 23:-0.930996 24:-0.630217 25:-0.039944 26:0.428833 27:0.596596 28:0.524415 29:0.403612 30:0.23402 31:-0.274859 32:-0.791544 33:-1 34:-1 35:-1 36:-0.999971 37:-0.997462 38:-0.951616 39:-0.688327 40:-0.064024 41:0.536767 42:0.615372 43:0.287344 44:-0.115598 45:-0.178149 46:0.245614 47:0.196236 48:-0.515427 49:-1 50:-1 51:-1 52:-0.999865 53:-0.988949 54:-0.820861 55:-0.228768 56:0.470494 57:0.585824 58:0.077068 59:-0.491102 60:-0.765581 61:-0.573607 62:0.208508 63:0.431835 64:-0.331499 65:-0.999868 66:-0.999915 67:-0.999981 68:-0.999767 69:-0.981671 70:-0.717669 71:0.026541 72:0.468069 73:0.107936 74:-0.548375 75:-0.892121 76:-0.907224 77:-0.488436 78:0.379148 79:0.495642 80:-0.350019 81:-0.988628 82:-0.992619 83:-0.998364 84:-0.999768 85:-0.989415 86:-0.835129 87:-0.389961 88:-0.175835 89:-0.544956 90:-0.863968 91:-0.891082 92:-0.67371 93:-0.068979 94:0.566911 95:0.343793 96:-0.533625 97:-0.827353 98:-0.88056 99:-0.970686 100:-0.997704 101:-0.997667 102:-0.963692 103:-0.856504 104:-0.797459 105:-0.857268 106:-0.732156 107:-0.439684 108:-0.04921 109:0.458515 110:0.504348 111:-0.113966 112:-0.768696 113:-0.448662 114:-0.510356 115:-0.832714 116:-0.976859 117:-0.998071 118:-0.997759 119:-0.991114 120:-0.976252 121:-0.81061 122:-0.248463 123:0.354757 124:0.623842 125:0.669346 126:0.246492 127:-0.520137 128:-0.920757 129:-0.422643 130:-0.18397 131:-0.499818 132:-0.846423 133:-0.974255 134:-0.997551 135:-0.999628 136:-0.987408 137:-0.799714 138:-0.191463 139:0.390857 140:0.456904 141:0.386736 142:0.229135 143:-0.418842 144:-0.8832 145:-0.737865 146:-0.338345 147:-0.167139 148:-0.480642 149:-0.824745 150:-0.963905 151:-0.995037 152:-0.99534 153:-0.927914 154:-0.661891 155:-0.36136 156:-0.410955 157:-0.337327 158:0.107983 159:-0.021102 160:-0.66069 161:-0.944177 162:-0.718783 163:-0.317541 164:-0.166654 165:-0.430726 166:-0.741929 167:-0.925742 168:-0.984484 169:-0.989025 170:-0.945236 171:-0.87646 172:-0.89792 173:-0.774997 174:-0.196357 175:0.222221 176:-0.341636 177:-0.994454 178:-0.941243 179:-0.741636 180:-0.393522 181:-0.130187 182:-0.232013 183:-0.562553 184:-0.808945 185:-0.933838 186:-0.976202 187:-0.985425 188:-0.989513 189:-0.924748 190:-0.469509 191:0.267819 192:-0.019047 193:-0.999761 194:-0.995134 195:-0.956419 196:-0.794468 197:-0.43026 198:-0.053215 199:-0.032934 200:-0.274914 201:-0.541151 202:-0.734467 203:-0.869962 204:-0.93671 205:-0.877157 206:-0.43915 207:0.345459 208:0.19553 209:-0.999996 210:-0.999835 211:-0.996756 212:-0.969054 213:-0.844905 214:-0.570489 215:-0.23972 216:0.022751 217:0.069136 218:-0.092204 219:-0.329126 220:-0.469969 221:-0.372535 222:0.051203 223:0.534784 224:0.190164 225:-1 226:-0.999998 227:-0.999898 228:-0.998193 229:-0.985161 230:-0.9272 231:-0.775247 232:-0.516514 233:-0.189682 234:0.08547 235:0.227144 236:0.31361 237:0.423298 238:0.531335 239:0.420405 240:-0.193706 241:-1 242:-1 243:-0.999999 244:-0.999964 245:-0.99947 246:-0.995786 247:-0.978854 248:-0.918693 249:-0.781571 250:-0.580848 251:-0.314246 252:-0.02614 253:0.152827 254:0.095256 255:-0.233613 256:-0.697458 
1 1:-1 2:-1 3:-1 4:-1 5:-0.999999 6:-0.999947 7:-0.998349 8:-0.979054 9:-0.884354 10:-0.708543 11:-0.631237 12:-0.719057 13:-0.871562 14:-0.967046 15:-0.99574 16:-0.999773 17:-1 18:-1 19:-1 20:-1 21:-0.999991 22:-0.999202 23:-0.981974 24:-0.847016 25:-0.436461 26:0.081751 27:0.275363 28:0.050137 29:-0.369216 30:-0.741872 31:-0.94153 32:-0.99453 33:-0.999937 34:-0.999974 35:-0.999998 36:-1 37:-0.99996 38:-0.996385 39:-0.929767 40:-0.544493 41:0.227102 42:0.674479 43:0.640878 44:0.434767 45:0.221324 46:-0.188848 47:-0.694977 48:-0.947695 49:-0.994449 50:-0.997668 51:-0.999818 52:-0.999996 53:-0.999931 54:-0.993842 55:-0.887804 56:-0.365204 57:0.480876 58:0.622694 59:0.131061 60:-0.184876 61:0.043875 62:0.283818 63:-0.207039 64:-0.803442 65:-0.908332 66:-0.958435 67:-0.995517 68:-0.999836 69:-0.999959 70:-0.996374 71:-0.928886 72:-0.537917 73:0.142866 74:0.202576 75:-0.22305 76:-0.457128 77:-0.15266 78:0.491782 79:0.238007 80:-0.631827 81:-0.598335 82:-0.77138 83:-0.957949 84:-0.997662 85:-0.999964 86:-0.999191 87:-0.981194 88:-0.841618 89:-0.507151 90:-0.150614 91:0.20512 92:0.239029 93:0.335443 94:0.696598 95:0.381328 96:-0.576751 97:-0.264419 98:-0.407006 99:-0.834624 100:-0.987445 101:-0.999692 102:-0.99994 103:-0.998089 104:-0.974137 105:-0.839028 106:-0.34975 107:0.455613 108:0.778449 109:0.821309 110:0.771767 111:0.184157 112:-0.669545 113:-0.321477 114:-0.121681 115:-0.6154 116:-0.936965 117:-0.99486 118:-0.999789 119:-0.999907 120:-0.99708 121:-0.95266 122:-0.635043 123:0.101747 124:0.609367 125:0.75604 126:0.629665 127:-0.11387 128:-0.793537 129:-0.620488 130:-0.15608 131:-0.296966 132:-0.724034 133:-0.945787 134:-0.994901 135:-0.999745 136:-0.99979 137:-0.992007 138:-0.892451 139:-0.548638 140:-0.141659 141:0.132846 142:0.388235 143:-0.073893 144:-0.749073 145:-0.867825 146:-0.468231 147:-0.085032 148:-0.283202 149:-0.71707 150:-0.939348 151:-0.991463 152:-0.998871 153:-0.999073 154:-0.986137 155:-0.916762 156:-0.787488 157:-0.537521 158:0.043369 159:0.158889 160:-0.514648 161:-0.973274 162:-0.801186 163:-0.351802 164:0.001424 165:-0.229219 166:-0.640114 167:-0.883693 168:-0.96726 169:-0.987548 170:-0.994173 171:-0.993765 172:-0.978874 173:-0.849504 174:-0.305673 175:0.290174 176:-0.160504 177:-0.997158 178:-0.959679 179:-0.7503 180:-0.284836 181:0.052571 182:-0.067103 183:-0.40823 184:-0.657754 185:-0.804267 186:-0.900146 187:-0.953051 188:-0.948024 189:-0.828464 190:-0.333941 191:0.40578 192:0.142195 193:-0.999857 194:-0.995883 195:-0.951067 196:-0.761576 197:-0.379911 198:0.015346 199:0.1686 200:0.057462 201:-0.170586 202:-0.380755 203:-0.502402 204:-0.489346 205:-0.290297 206:0.172417 207:0.631107 208:0.281939 209:-0.999997 210:-0.999817 211:-0.996226 212:-0.966795 213:-0.849117 214:-0.574235 215:-0.178021 216:0.146019 217:0.290148 218:0.335637 219:0.381725 220:0.457556 221:0.540704 222:0.624226 223:0.557788 224:0.030047 225:-1 226:-0.999997 227:-0.999889 228:-0.998301 229:-0.987746 230:-0.933134 231:-0.787333 232:-0.57687 233:-0.319205 234:-0.060249 235:0.173865 236:0.350658 237:0.365847 238:0.201643 239:-0.120177 240:-0.568903 241:-1 242:-1 243:-0.999999 244:-0.999976 245:-0.999648 246:-0.996528 247:-0.985219 248:-0.950852 249:-0.868356 250:-0.764638 251:-0.667156 252:-0.594567 253:-0.590565 254:-0.66169 255:-0.786209 256:-0.922294 
1 1:-1 2:-0.999999 3:-0.999977 4:-0.999526 5:-0.992166 6:-0.909193 7:-0.524847 8:0.047147 9:-0.028621 10:-0.529254 11:-0.825456 12:-0.952923 13:-0.994403 14:-0.999743 15:-0.999997 16:-1 17:-0.999999 18:-0.999959 19:-0.998939 20:-0.987957 21:-0.920921 22:-0.629138 23:0.040971 24:0.654202 25:0.64798 26:0.200823 27:-0.261016 28:-0.689484 29:-0.935047 30:-0.995305 31:-0.999885 32:-0.999999 33:-0.999993 34:-0.999318 35:-0.985018 36:-0.878158 37:-0.560929 38:-0.039492 39:0.56856 40:0.880455 41:0.845201 42:0.658196 43:0.447697 44:-0.098779 45:-0.724958 46:-0.96766 47:-0.998604 48:-0.999985 49:-0.999963 50:-0.996653 51:-0.935331 52:-0.584326 53:0.12475 54:0.617536 55:0.784194 56:0.673748 57:0.414216 58:0.323746 59:0.623728 60:0.416441 61:-0.399988 62:-0.89259 63:-0.994061 64:-0.999934 65:-0.999938 66:-0.994459 67:-0.90077 68:-0.457179 69:0.278667 70:0.570615 71:0.359054 72:-0.0829 73:-0.446183 74:-0.26484 75:0.50956 76:0.612669 77:-0.165391 78:-0.815538 79:-0.988937 80:-0.999874 81:-0.999976 82:-0.99781 83:-0.958983 84:-0.751999 85:-0.365261 86:-0.23378 87:-0.491548 88:-0.752244 89:-0.772276 90:-0.272015 91:0.532189 92:0.606826 93:-0.182082 94:-0.822613 95:-0.989432 96:-0.99988 97:-0.999998 98:-0.999811 99:-0.995408 100:-0.959167 101:-0.870912 102:-0.838689 103:-0.913043 104:-0.88726 105:-0.527316 106:0.205698 107:0.718476 108:0.490177 109:-0.350076 110:-0.878307 111:-0.993096 112:-0.999918 113:-1 114:-0.999995 115:-0.999822 116:-0.997852 117:-0.992286 118:-0.983324 119:-0.906905 120:-0.582397 121:0.041231 122:0.666593 123:0.804906 124:0.320591 125:-0.470897 126:-0.897053 127:-0.990397 128:-0.999465 129:-1 130:-1 131:-0.999998 132:-0.999962 133:-0.998482 134:-0.964945 135:-0.687328 136:0.016896 137:0.618957 138:0.85479 139:0.773765 140:0.438042 141:-0.106878 142:-0.625591 143:-0.909595 144:-0.989683 145:-1 146:-1 147:-1 148:-0.99997 149:-0.997191 150:-0.941825 151:-0.58222 152:0.165453 153:0.563982 154:0.501346 155:0.276863 156:0.219847 157:0.268708 158:-0.030806 159:-0.591969 160:-0.920719 161:-0.999909 162:-0.999857 163:-0.999896 164:-0.999928 165:-0.998818 166:-0.975648 167:-0.81484 168:-0.450235 169:-0.243423 170:-0.377808 171:-0.583446 172:-0.509727 173:-0.022935 174:0.362132 175:-0.05761 176:-0.722835 177:-0.992115 178:-0.987523 179:-0.990784 180:-0.994553 181:-0.995436 182:-0.992969 183:-0.967478 184:-0.893242 185:-0.839534 186:-0.884615 187:-0.942205 188:-0.884639 189:-0.418125 190:0.418277 191:0.377441 192:-0.452746 193:-0.87758 194:-0.799777 195:-0.842191 196:-0.896083 197:-0.910073 198:-0.910857 199:-0.909555 200:-0.905114 201:-0.898576 202:-0.873963 203:-0.813771 204:-0.729666 205:-0.326319 206:0.482332 207:0.562705 208:-0.252048 209:-0.571557 210:-0.207573 211:-0.237973 212:-0.359697 213:-0.395023 214:-0.398249 215:-0.398339 216:-0.397994 217:-0.390288 218:-0.322804 219:-0.168082 220:-0.022413 221:0.291962 222:0.686649 223:0.528566 224:-0.279925 225:-0.478619 226:0.18565 227:0.464662 228:0.494967 229:0.461011 230:0.444004 231:0.442792 232:0.4429 233:0.446048 234:0.47344 235:0.529775 236:0.538957 237:0.507507 238:0.40984 239:0.047496 240:-0.596584 241:-0.755165 242:-0.279486 243:0.138266 244:0.313439 245:0.263467 246:0.224143 247:0.221215 248:0.221189 249:0.221398 250:0.222411 251:0.208741 252:0.093998 253:-0.192241 254:-0.4836 255:-0.695475 256:-0.902007 
1 1:-1 2:-0.999983 3:-0.99962 4:-0.996753 5:-0.98872 6:-0.977587 7:-0.941594 8:-0.813885 9:-0.486726 10:-0.019693 11:-0.115351 12:-0.715584 13:-0.974699 14:-0.998886 15:-0.999963 16:-1 17:-0.999994 18:-0.999495 19:-0.990354 20:-0.938085 21:-0.81571 22:-0.691758 23:-0.556323 24:-0.224956 25:0.232634 26:0.605026 27:0.371658 28:-0.402298 29:-0.866606 30:-0.983394 31:-0.999193 32:-0.999991 33:-0.99994 34:-0.994742 35:-0.91352 36:-0.619067 37:-0.195226 38:0.122611 39:0.295864 40:0.559671 41:0.696726 42:0.649809 43:0.530604 44:0.148088 45:-0.475343 46:-0.888537 47:-0.993044 48:-0.999897 49:-0.999833 50:-0.985457 51:-0.769701 52:-0.11549 53:0.495614 54:0.73666 55:0.743023 56:0.648442 57:0.357325 58:-0.040886 59:0.093156 60:0.47699 61:0.100786 62:-0.679483 63:-0.974359 64:-0.999355 65:-0.999858 66:-0.987626 67:-0.803075 68:-0.231537 69:0.303243 70:0.447303 71:0.30895 72:-0.060151 73:-0.462492 74:-0.697861 75:-0.327741 76:0.515472 77:0.399784 78:-0.544282 79:-0.957852 80:-0.99866 81:-0.99996 82:-0.996486 83:-0.943651 84:-0.774216 85:-0.605066 86:-0.559312 87:-0.611497 88:-0.752462 89:-0.884861 90:-0.866712 91:-0.374617 92:0.507004 93:0.387838 94:-0.566743 95:-0.966533 96:-0.999256 97:-0.999997 98:-0.999774 99:-0.996372 100:-0.985338 101:-0.972387 102:-0.941043 103:-0.834413 104:-0.705988 105:-0.669322 106:-0.53185 107:-0.026185 108:0.585441 109:0.280927 110:-0.626307 111:-0.975398 112:-0.999688 113:-1 114:-0.999997 115:-0.999958 116:-0.999739 117:-0.991719 118:-0.869176 119:-0.443832 120:0.022343 121:0.159132 122:0.29398 123:0.570083 124:0.67088 125:0.071182 126:-0.716388 127:-0.981342 128:-0.999735 129:-1 130:-1 131:-1 132:-0.999856 133:-0.987496 134:-0.799616 135:-0.198633 136:0.403334 137:0.612305 138:0.657193 139:0.699123 140:0.639162 141:0.034567 142:-0.695991 143:-0.967611 144:-0.998723 145:-1 146:-1 147:-1 148:-0.999936 149:-0.994338 150:-0.905911 151:-0.575535 152:-0.129099 153:0.1 154:0.101048 155:0.11008 156:0.408275 157:0.321583 158:-0.400755 159:-0.886682 160:-0.993596 161:-0.999998 162:-0.999975 163:-0.999931 164:-0.999943 165:-0.999177 166:-0.985168 167:-0.914596 168:-0.784241 169:-0.70423 170:-0.696556 171:-0.553061 172:0.060016 173:0.48846 174:-0.044826 175:-0.760195 176:-0.98507 177:-0.999852 178:-0.997814 179:-0.993931 180:-0.99561 181:-0.998679 182:-0.99892 183:-0.994838 184:-0.98623 185:-0.97843 186:-0.956233 187:-0.722746 188:0.001958 189:0.538826 190:0.071096 191:-0.714948 192:-0.981957 193:-0.997683 194:-0.965586 195:-0.900602 196:-0.915624 197:-0.959187 198:-0.976386 199:-0.979284 200:-0.977272 201:-0.943307 202:-0.819093 203:-0.469918 204:0.240702 205:0.549552 206:-0.047884 207:-0.762596 208:-0.985232 209:-0.99172 210:-0.873611 211:-0.583285 212:-0.482389 213:-0.563441 214:-0.648495 215:-0.678475 216:-0.674924 217:-0.567611 218:-0.237556 219:0.18556 220:0.55744 221:0.352746 222:-0.369255 223:-0.869531 224:-0.992342 225:-0.990151 226:-0.842893 227:-0.380795 228:0.076082 229:0.223197 230:0.166373 231:0.13575 232:0.142114 233:0.230525 234:0.448814 235:0.542273 236:0.344207 237:-0.235115 238:-0.759627 239:-0.964042 240:-0.998148 241:-0.996629 242:-0.942606 243:-0.718438 244:-0.318654 245:0.057238 246:0.246738 247:0.327573 248:0.3485 249:0.330853 250:0.237539 251:0.003098 252:-0.393369 253:-0.774274 254:-0.955932 255:-0.99622 256:-0.999869 
1 1:-0.999992 2:-0.999697 3:-0.99587 4:-0.97816 5:-0.918634 6:-0.778915 7:-0.583545 8:-0.293859 9:-0.010772 10:-0.250721 11:-0.638785 12:-0.883008 13:-0.979576 14:-0.99875 15:-0.999978 16:-1 17:-0.999857 18:-0.994937 19:-0.938523 20:-0.758173 21:-0.483068 22:-0.106821 23:0.268088 24:0.500142 25:0.575856 26:0.408663 27:0.055521 28:-0.470227 29:-0.872875 30:-0.990422 31:-0.999766 32:-0.999998 33:-0.999208 34:-0.977006 35:-0.760896 36:-0.201958 37:0.243214 38:0.446766 39:0.495757 40:0.381197 41:0.241939 42:0.348795 43:0.519873 44:0.094624 45:-0.676134 46:-0.973008 47:-0.999265 48:-0.999994 49:-0.998594 50:-0.964525 51:-0.679652 52:-0.074523 53:0.126216 54:-0.003499 55:-0.224585 56:-0.427843 57:-0.402131 58:0.011349 59:0.537464 60:0.23412 61:-0.623836 62:-0.968757 63:-0.999165 64:-0.999993 65:-0.999458 66:-0.986837 67:-0.886405 68:-0.689051 69:-0.658856 70:-0.700175 71:-0.644281 72:-0.449976 73:-0.093309 74:0.390533 75:0.578979 76:-0.001345 77:-0.729182 78:-0.977289 79:-0.999305 80:-0.999991 81:-0.999963 82:-0.999102 83:-0.992319 84:-0.979129 85:-0.97068 86:-0.863394 87:-0.445235 88:0.128375 89:0.483885 90:0.710365 91:0.636908 92:0.030358 93:-0.598567 94:-0.911668 95:-0.991068 96:-0.999627 97:-1 98:-0.999989 99:-0.99991 100:-0.99969 101:-0.993757 102:-0.900379 103:-0.553627 104:-0.110878 105:0.104199 106:0.288179 107:0.478308 108:0.42642 109:0.006047 110:-0.57255 111:-0.911331 112:-0.993497 113:-0.999999 114:-0.999987 115:-0.999966 116:-0.999959 117:-0.99834 118:-0.972519 119:-0.876903 120:-0.756337 121:-0.693676 122:-0.575418 123:-0.244796 124:0.257109 125:0.472265 126:0.035087 127:-0.65811 128:-0.955918 129:-0.999889 130:-0.998775 131:-0.996881 132:-0.997998 133:-0.999456 134:-0.998222 135:-0.992154 136:-0.984475 137:-0.979279 138:-0.950672 139:-0.807014 140:-0.344578 141:0.375773 142:0.448838 143:-0.285068 144:-0.851411 145:-0.995664 146:-0.970983 147:-0.937505 148:-0.961161 149:-0.99151 150:-0.999477 151:-0.999904 152:-0.99982 153:-0.999676 154:-0.997394 155:-0.967966 156:-0.70552 157:0.03279 158:0.551543 159:0.08231 160:-0.710069 161:-0.945035 162:-0.750188 163:-0.580054 164:-0.756075 165:-0.947473 166:-0.996857 167:-0.999957 168:-0.999999 169:-0.999998 170:-0.999852 171:-0.990951 172:-0.85104 173:-0.253146 174:0.533803 175:0.305012 176:-0.615686 177:-0.793807 178:-0.225157 179:0.056962 180:-0.446653 181:-0.881005 182:-0.989137 183:-0.999002 184:-0.999713 185:-0.999759 186:-0.999641 187:-0.993661 188:-0.896449 189:-0.364187 190:0.507126 191:0.350792 192:-0.594685 193:-0.662828 194:0.131121 195:0.330295 196:-0.258397 197:-0.71378 198:-0.905196 199:-0.967633 200:-0.977685 201:-0.979308 202:-0.978793 203:-0.95788 204:-0.789122 205:-0.198356 206:0.502506 207:0.198159 208:-0.658406 209:-0.706157 210:0.037851 211:0.464176 212:0.306038 213:-0.077241 214:-0.449229 215:-0.632258 216:-0.662837 217:-0.678016 218:-0.682785 219:-0.633349 220:-0.372131 221:0.162476 222:0.390378 223:-0.17577 224:-0.800817 225:-0.882353 226:-0.495412 227:0.007228 228:0.303396 229:0.307221 230:0.179641 231:0.094038 232:0.131677 233:0.135956 234:0.128511 235:0.155867 236:0.237342 237:0.243042 238:-0.073068 239:-0.637307 240:-0.939035 241:-0.980709 242:-0.893331 243:-0.714811 244:-0.525688 245:-0.348702 246:-0.139656 247:0.046645 248:0.228709 249:0.325373 250:0.344307 251:0.321899 252:0.182091 253:-0.177222 254:-0.624792 255:-0.910736 256:-0.99169 
1 1:-0.964894 2:-0.655576 3:0.04953 4:0.37833 5:0.392161 6:0.385807 7:0.247412 8:0.073238 9:-0.193934 10:-0.498484 11:-0.731974 12:-0.910656 13:-0.985646 14:-0.998846 15:-0.999959 16:-1 17:-0.973206 18:-0.692172 19:0.036392 20:0.527377 21:0.582656 22:0.508303 23:0.488517 24:0.475819 25:0.440818 26:0.300118 27:-0.029908 28:-0.507312 29:-0.861392 30:-0.982122 31:-0.999152 32:-0.999991 33:-0.992968 34:-0.90407 35:-0.588608 36:-0.210379 37:-0.182243 38:-0.357825 39:-0.295422 40:-0.164891 41:0.050887 42:0.262125 43:0.392694 44:0.172276 45:-0.454451 46:-0.887916 47:-0.993272 48:-0.999912 49:-0.999522 50:-0.991144 51:-0.934303 52:-0.824619 53:-0.820994 54:-0.892831 55:-0.867707 56:-0.812629 57:-0.707536 58:-0.47549 59:0.064347 60:0.507144 61:0.084663 62:-0.696245 63:-0.978072 64:-0.999573 65:-0.999991 66:-0.999705 67:-0.996509 68:-0.989308 69:-0.989067 70:-0.993983 71:-0.991369 72:-0.98231 73:-0.939854 74:-0.707265 75:-0.051803 76:0.603025 77:0.314606 78:-0.598556 79:-0.96777 80:-0.999202 81:-0.999952 82:-0.999127 83:-0.995038 84:-0.986587 85:-0.979556 86:-0.977073 87:-0.96199 88:-0.898812 89:-0.727327 90:-0.310622 91:0.358145 92:0.666334 93:0.139995 94:-0.68208 95:-0.976939 96:-0.999543 97:-0.999008 98:-0.982883 99:-0.91292 100:-0.784874 101:-0.682118 102:-0.654081 103:-0.583374 104:-0.396238 105:-0.062922 106:0.372654 107:0.755223 108:0.655413 109:-0.100972 110:-0.774744 111:-0.980423 112:-0.999368 113:-0.993179 114:-0.889904 115:-0.544655 116:-0.114089 117:0.164059 118:0.229406 119:0.334782 120:0.481246 121:0.595012 122:0.670403 123:0.739803 124:0.652111 125:0.102668 126:-0.576567 127:-0.920371 128:-0.994426 129:-0.984417 130:-0.754307 131:-0.071378 132:0.537788 133:0.777257 134:0.797109 135:0.748787 136:0.597138 137:0.349679 138:0.131869 139:0.134459 140:0.422934 141:0.491063 142:-0.06371 143:-0.717419 144:-0.965885 145:-0.988654 146:-0.817588 147:-0.26102 148:0.323968 149:0.542563 150:0.516903 151:0.285608 152:-0.132995 153:-0.506018 154:-0.664954 155:-0.505879 156:0.125433 157:0.677005 158:0.399172 159:-0.461719 160:-0.915735 161:-0.996741 162:-0.949537 163:-0.772701 164:-0.534538 165:-0.424652 166:-0.445592 167:-0.588199 168:-0.781652 169:-0.89915 170:-0.846506 171:-0.446966 172:0.347195 173:0.787097 174:0.444249 175:-0.456518 176:-0.919577 177:-0.992926 178:-0.963343 179:-0.922247 180:-0.913071 181:-0.906592 182:-0.906561 183:-0.910386 184:-0.849317 185:-0.686887 186:-0.39539 187:0.122304 188:0.68156 189:0.689408 190:0.056251 191:-0.680923 192:-0.96358 193:-0.953992 194:-0.776317 195:-0.593872 196:-0.700844 197:-0.765559 198:-0.693764 199:-0.556714 200:-0.301708 201:0.078227 202:0.439789 203:0.688327 204:0.692249 205:0.24786 206:-0.48757 207:-0.900259 208:-0.992091 209:-0.893985 210:-0.451126 211:0.107446 212:0.029477 213:-0.058167 214:0.114749 215:0.351162 216:0.556131 217:0.715314 218:0.74653 219:0.582022 220:0.150593 221:-0.438627 222:-0.855924 223:-0.984721 224:-0.999275 225:-0.917019 226:-0.491809 227:0.236411 228:0.502452 229:0.583371 230:0.639313 231:0.665533 232:0.605814 233:0.479953 234:0.222621 235:-0.173778 236:-0.59311 237:-0.875136 238:-0.980007 239:-0.998705 240:-0.999968 241:-0.974879 242:-0.803661 243:-0.399933 244:-0.019875 245:0.234008 246:0.200844 247:0.046342 248:-0.232629 249:-0.479129 250:-0.646333 251:-0.808349 252:-0.937732 253:-0.989077 254:-0.998881 255:-0.999949 256:-0.999999 
1 1:-1 2:-0.999999 3:-0.99992 4:-0.996357 5:-0.945134 6:-0.702402 7:-0.216959 8:0.182972 9:0.173245 10:-0.232103 11:-0.727513 12:-0.956729 13:-0.997697 14:-0.999973 15:-1 16:-1 17:-1 18:-0.99999 19:-0.99899 20:-0.974949 21:-0.768027 22:-0.18425 23:0.372129 24:0.442032 25:0.337513 26:0.234256 27:-0.294346 28:-0.827143 29:-0.988432 30:-0.999806 31:-0.999999 32:-1 33:-1 34:-0.999942 35:-0.994794 36:-0.904812 37:-0.458818 38:0.242689 39:0.269285 40:-0.227749 41:-0.341799 42:0.099289 43:0.08138 44:-0.630736 45:-0.965841 46:-0.998932 47:-0.99999 48:-1 49:-1 50:-0.999887 51:-0.990091 52:-0.836161 53:-0.288825 54:0.157827 55:-0.291166 56:-0.777561 57:-0.752575 58:-0.150164 59:0.211946 60:-0.500535 61:-0.940748 62:-0.997551 63:-0.999975 64:-1 65:-1 66:-0.999934 67:-0.994255 68:-0.905243 69:-0.594528 70:-0.390611 71:-0.73315 72:-0.950826 73:-0.819577 74:-0.216511 75:0.198295 76:-0.511887 77:-0.94781 78:-0.998077 79:-0.999981 80:-1 81:-1 82:-0.999987 83:-0.998817 84:-0.98003 85:-0.908976 86:-0.858336 87:-0.943193 88:-0.969274 89:-0.747865 90:-0.098099 91:0.192109 92:-0.556859 93:-0.960819 94:-0.998849 95:-0.999987 96:-1 97:-1 98:-0.999998 99:-0.999916 100:-0.998793 101:-0.994497 102:-0.989937 103:-0.970332 104:-0.831801 105:-0.405782 106:0.231195 107:0.288478 108:-0.484083 109:-0.92168 110:-0.993886 111:-0.999774 112:-0.999997 113:-0.999998 114:-0.999899 115:-0.998628 116:-0.996546 117:-0.998111 118:-0.993452 119:-0.892475 120:-0.450535 121:0.270615 122:0.678571 123:0.548959 124:-0.0899 125:-0.695885 126:-0.949569 127:-0.99696 128:-0.999944 129:-0.999935 130:-0.997665 131:-0.973981 132:-0.937382 133:-0.968209 134:-0.982758 135:-0.795182 136:-0.132941 137:0.556631 138:0.586473 139:0.408293 140:0.262491 141:-0.248574 142:-0.794684 143:-0.980881 144:-0.99935 145:-0.999089 146:-0.97913 147:-0.836749 148:-0.646677 149:-0.827007 150:-0.961904 151:-0.788585 152:-0.181521 153:0.22846 154:-0.111733 155:-0.331012 156:0.040336 157:0.139302 158:-0.519371 159:-0.927158 160:-0.996337 161:-0.995439 162:-0.916772 163:-0.543004 164:-0.171597 165:-0.627126 166:-0.947623 167:-0.920702 168:-0.681368 169:-0.519624 170:-0.735139 171:-0.801883 172:-0.301114 173:0.265303 174:-0.252174 175:-0.839851 176:-0.990573 177:-0.989854 178:-0.833455 179:-0.298843 180:0.018432 181:-0.604527 182:-0.962089 183:-0.990211 184:-0.955747 185:-0.922069 186:-0.957723 187:-0.89707 188:-0.404836 189:0.275424 190:-0.152854 191:-0.799863 192:-0.987816 193:-0.989524 194:-0.8278 195:-0.270521 196:0.088418 197:-0.515896 198:-0.918109 199:-0.978975 200:-0.979593 201:-0.969369 202:-0.92367 203:-0.70612 204:-0.150002 205:0.280075 206:-0.269396 207:-0.842528 208:-0.990692 209:-0.99523 210:-0.911373 211:-0.487083 212:0.078622 213:-0.154711 214:-0.565663 215:-0.714112 216:-0.717332 217:-0.647066 218:-0.488291 219:-0.130636 220:0.252075 221:0.080913 222:-0.5853 223:-0.937919 224:-0.996873 225:-0.99905 226:-0.975579 227:-0.770963 228:-0.264436 229:0.06538 230:0.047318 231:-0.021216 232:-0.008363 233:0.125788 234:0.285466 235:0.355535 236:0.161577 237:-0.399928 238:-0.8543 239:-0.987533 240:-0.99961 241:-0.999922 242:-0.996393 243:-0.948715 244:-0.766403 245:-0.446626 246:-0.094955 247:0.119987 248:0.149477 249:0.160642 250:0.131306 251:-0.110614 252:-0.49056 253:-0.826732 254:-0.971856 255:-0.998368 256:-0.999973 
1 1:-1 2:-1 3:-0.999906 4:-0.991801 5:-0.86612 6:-0.4284 7:0.098804 8:0.276498 9:-0.033978 10:-0.625061 11:-0.937881 12:-0.99668 13:-0.999963 14:-1 15:-1 16:-1 17:-1 18:-1 19:-0.99991 20:-0.992211 21:-0.875102 22:-0.494531 23:-0.026937 24:0.375654 25:0.417343 26:-0.2491 27:-0.834239 28:-0.990077 29:-0.999887 30:-1 31:-1 32:-1 33:-1 34:-1 35:-0.999973 36:-0.99764 37:-0.962404 38:-0.844543 39:-0.586761 40:0.005302 41:0.457627 42:-0.081446 43:-0.776449 44:-0.986221 45:-0.999842 46:-1 47:-1 48:-1 49:-1 50:-1 51:-0.99999 52:-0.999671 53:-0.994186 54:-0.945857 55:-0.652322 56:0.069231 57:0.457597 58:-0.165272 59:-0.811211 60:-0.98853 61:-0.999845 62:-0.999998 63:-1 64:-1 65:-1 66:-0.999976 67:-0.999368 68:-0.992845 69:-0.954127 70:-0.777973 71:-0.257515 72:0.447608 73:0.447754 74:-0.367976 75:-0.876781 76:-0.984186 77:-0.997527 78:-0.999817 79:-0.999995 80:-1 81:-0.999995 82:-0.99955 83:-0.989266 84:-0.904341 85:-0.654217 86:-0.240551 87:0.346558 88:0.731249 89:0.480989 90:-0.218182 91:-0.624877 92:-0.826699 93:-0.951718 94:-0.993768 95:-0.999678 96:-0.999995 97:-0.999972 98:-0.997415 99:-0.947821 100:-0.63891 101:0.008498 102:0.447881 103:0.626651 104:0.666026 105:0.605141 106:0.436193 107:0.175673 108:-0.241554 109:-0.667237 110:-0.921663 111:-0.992873 112:-0.999754 113:-0.999948 114:-0.995304 115:-0.914252 116:-0.513216 117:0.132766 118:0.28151 119:0.07712 120:-0.058473 121:0.066486 122:0.326758 123:0.494034 124:0.440278 125:-0.019663 126:-0.63617 127:-0.939248 128:-0.996726 129:-0.99998 130:-0.99816 131:-0.965871 132:-0.801923 133:-0.562014 134:-0.585924 135:-0.71188 136:-0.772857 137:-0.712517 138:-0.516109 139:-0.061738 140:0.546694 141:0.514195 142:-0.195592 143:-0.812946 144:-0.988582 145:-0.999999 146:-0.999865 147:-0.996928 148:-0.975993 149:-0.94491 150:-0.96225 151:-0.980992 152:-0.985802 153:-0.976161 154:-0.883249 155:-0.40992 156:0.458433 157:0.660386 158:-0.015322 159:-0.753754 160:-0.984648 161:-0.999999 162:-0.999979 163:-0.999831 164:-0.998838 165:-0.997418 166:-0.998609 167:-0.9989 168:-0.994066 169:-0.95639 170:-0.745617 171:-0.134147 172:0.60472 173:0.577643 174:-0.224109 175:-0.834999 176:-0.990231 177:-0.999904 178:-0.998403 179:-0.992903 180:-0.987215 181:-0.986786 182:-0.983195 183:-0.970296 184:-0.911009 185:-0.7109 186:-0.236273 187:0.423693 188:0.696485 189:0.248939 190:-0.570785 191:-0.943447 192:-0.997364 193:-0.998466 194:-0.974531 195:-0.88716 196:-0.795552 197:-0.785515 198:-0.737757 199:-0.64507 200:-0.439834 201:-0.038568 202:0.457171 203:0.677095 204:0.357942 205:-0.337613 206:-0.847872 207:-0.989007 208:-0.999751 209:-0.994081 210:-0.902204 211:-0.570835 212:-0.20397 213:-0.116378 214:0.011291 215:0.201187 216:0.451168 217:0.666816 218:0.67943 219:0.307338 220:-0.310141 221:-0.791613 222:-0.970122 223:-0.998476 224:-0.999982 225:-0.992243 226:-0.872237 227:-0.44096 228:0.08629 229:0.330711 230:0.476695 231:0.58436 232:0.711164 233:0.73094 234:0.292181 235:-0.39009 236:-0.814261 237:-0.965418 238:-0.997156 239:-0.999907 240:-0.999999 241:-0.997262 242:-0.954231 243:-0.788452 244:-0.533648 245:-0.297978 246:-0.101259 247:-0.017293 248:0.098744 249:0.165697 250:-0.29497 251:-0.800426 252:-0.97418 253:-0.997657 254:-0.999884 255:-0.999998 256:-1 
1 1:-0.997435 2:-0.951908 3:-0.707228 4:-0.219856 5:0.129372 6:0.199186 7:0.11632 8:0.141393 9:0.200294 10:0.09592 11:-0.289541 12:-0.772176 13:-0.971882 14:-0.998745 15:-0.999987 16:-1 17:-0.994396 18:-0.901559 19:-0.485067 20:0.18162 21:0.498621 22:0.476301 23:0.29255 24:0.123346 25:0.102963 26:0.286592 27:0.223973 28:-0.481204 29:-0.91637 30:-0.995635 31:-0.999952 32:-1 33:-0.997688 34:-0.956261 35:-0.731562 36:-0.319476 37:-0.146985 38:-0.268436 39:-0.499603 40:-0.605532 41:-0.428534 42:0.138113 43:0.352155 44:-0.385464 45:-0.897026 46:-0.994533 47:-0.99994 48:-1 49:-0.999817 50:-0.995049 51:-0.951713 52:-0.849607 53:-0.800865 54:-0.834718 55:-0.848256 56:-0.662204 57:-0.211513 58:0.345499 59:0.218248 60:-0.561423 61:-0.945482 62:-0.997594 63:-0.999975 64:-1 65:-0.999996 66:-0.999806 67:-0.997189 68:-0.985523 69:-0.925545 70:-0.755292 71:-0.470041 72:0.009345 73:0.42998 74:0.385204 75:-0.2209 76:-0.798078 77:-0.982126 78:-0.9994 79:-0.999993 80:-1 81:-1 82:-0.999985 83:-0.998719 84:-0.9699 85:-0.738089 86:-0.177423 87:0.284852 88:0.585387 89:0.656834 90:0.287935 91:-0.304321 92:-0.752799 93:-0.948287 94:-0.994666 95:-0.999771 96:-0.999997 97:-1 98:-0.999973 99:-0.997457 100:-0.946877 101:-0.615794 102:0.042689 103:0.317877 104:0.292045 105:0.289775 106:0.286266 107:0.155656 108:-0.253875 109:-0.705307 110:-0.941226 111:-0.995924 112:-0.999907 113:-1 114:-0.999989 115:-0.998975 116:-0.978349 117:-0.841802 118:-0.584695 119:-0.531313 120:-0.602674 121:-0.58378 122:-0.389976 123:-0.030871 124:0.152451 125:-0.197023 126:-0.750505 127:-0.972421 128:-0.998883 129:-1 130:-0.999998 131:-0.999904 132:-0.997881 133:-0.981056 134:-0.947867 135:-0.947519 136:-0.966456 137:-0.961303 138:-0.882414 139:-0.587931 140:-0.012049 141:0.200548 142:-0.449089 143:-0.906485 144:-0.995003 145:-0.999998 146:-0.999896 147:-0.998271 148:-0.990649 149:-0.972564 150:-0.946587 151:-0.932567 152:-0.951494 153:-0.982215 154:-0.982346 155:-0.827676 156:-0.235552 157:0.316078 158:-0.229034 159:-0.833921 160:-0.990197 161:-0.99994 162:-0.99767 163:-0.968573 164:-0.852165 165:-0.664357 166:-0.526208 167:-0.47701 168:-0.584756 169:-0.818782 170:-0.940477 171:-0.754847 172:-0.102472 173:0.320119 174:-0.286813 175:-0.854229 176:-0.991551 177:-0.999283 178:-0.981504 179:-0.821674 180:-0.358832 181:0.118505 182:0.290898 183:0.317977 184:0.172792 185:-0.313205 186:-0.67968 187:-0.408385 188:0.210503 189:0.161391 190:-0.56237 191:-0.940504 192:-0.997192 193:-0.997781 194:-0.94884 195:-0.578067 196:0.21325 197:0.491241 198:0.226262 199:0.116986 200:0.255723 201:0.184314 202:-0.073942 203:0.173318 204:0.293065 205:-0.234751 206:-0.805588 207:-0.985228 208:-0.999644 209:-0.997728 210:-0.945753 211:-0.538216 212:0.285482 213:0.392713 214:-0.070313 215:-0.230062 216:0.00347 217:0.362848 218:0.44416 219:0.316693 220:-0.154789 221:-0.697431 222:-0.94934 223:-0.99718 224:-0.999963 225:-0.999204 226:-0.975666 227:-0.736952 228:-0.112481 229:0.327733 230:0.377996 231:0.386001 232:0.450567 233:0.478706 234:0.2351 235:-0.267926 236:-0.718731 237:-0.940258 238:-0.994609 239:-0.999807 240:-0.999998 241:-0.999915 242:-0.995477 243:-0.932313 244:-0.685276 245:-0.265901 246:0.11854 247:0.26569 248:0.174603 249:-0.099468 250:-0.497817 251:-0.813188 252:-0.958155 253:-0.99526 254:-0.999768 255:-0.999996 256:-1 
1 1:-0.999823 2:-0.996649 3:-0.976324 4:-0.887491 5:-0.66769 6:-0.375166 7:-0.073543 8:0.222876 9:0.4089 10:0.264418 11:-0.210977 12:-0.753604 13:-0.970505 14:-0.998712 15:-0.999987 16:-1 17:-0.99722 18:-0.953388 19:-0.777225 20:-0.416212 21:0.090953 22:0.480597 23:0.669301 24:0.795397 25:0.901758 26:0.830831 27:0.37492 28:-0.475832 29:-0.918882 30:-0.995828 31:-0.999954 32:-1 33:-0.988945 34:-0.823117 35:-0.293494 36:0.276347 37:0.563532 38:0.599899 39:0.577797 40:0.673523 41:0.892373 42:0.893388 43:0.439002 44:-0.441348 45:-0.910696 46:-0.995325 47:-0.999949 48:-1 49:-0.984375 50:-0.758518 51:-0.15903 52:0.181354 53:0.10568 54:-0.115587 55:-0.077326 56:0.315475 57:0.739072 58:0.606755 59:-0.029849 60:-0.697963 61:-0.961482 62:-0.998223 63:-0.999981 64:-1 65:-0.992967 66:-0.893578 67:-0.662011 68:-0.600755 69:-0.60389 70:-0.421598 71:0.048334 72:0.525097 73:0.559833 74:0.0415 75:-0.585236 76:-0.908742 77:-0.989605 78:-0.999366 79:-0.999975 80:-0.999999 81:-0.998932 82:-0.98419 83:-0.952602 84:-0.906871 85:-0.615183 86:0.046977 87:0.620572 88:0.769009 89:0.399106 90:-0.169257 91:-0.565858 92:-0.778663 93:-0.925986 94:-0.987346 95:-0.998698 96:-0.999942 97:-0.999946 98:-0.999132 99:-0.990089 100:-0.862739 101:-0.318529 102:0.507791 103:0.897455 104:0.917312 105:0.74513 106:0.492441 107:0.230991 108:-0.108439 109:-0.538587 110:-0.858521 111:-0.978617 112:-0.998883 113:-0.999999 114:-0.999908 115:-0.992576 116:-0.873012 117:-0.376065 118:0.3452 119:0.647554 120:0.709299 121:0.781197 122:0.829704 123:0.808596 124:0.654377 125:0.231239 126:-0.431744 127:-0.877586 128:-0.992174 129:-1 130:-0.999974 131:-0.997722 132:-0.95881 133:-0.768519 134:-0.424989 135:-0.208041 136:-0.088648 137:0.138572 138:0.420355 139:0.711144 140:0.877937 141:0.740539 142:0.126526 143:-0.671758 144:-0.971127 145:-0.999999 146:-0.999989 147:-0.999786 148:-0.996209 149:-0.968787 150:-0.898175 151:-0.834352 152:-0.786557 153:-0.681159 154:-0.44306 155:0.079447 156:0.661783 157:0.841805 158:0.377569 159:-0.547687 160:-0.951416 161:-0.999949 162:-0.999133 163:-0.99521 164:-0.991133 165:-0.99454 166:-0.993731 167:-0.990028 168:-0.986065 169:-0.96651 170:-0.830233 171:-0.327758 172:0.436371 173:0.689287 174:0.126362 175:-0.675165 176:-0.97124 177:-0.998645 178:-0.981543 179:-0.912968 180:-0.850452 181:-0.920768 182:-0.972405 183:-0.9833 184:-0.97586 185:-0.902869 186:-0.606242 187:0.014139 188:0.565567 189:0.418368 190:-0.357456 191:-0.873082 192:-0.992086 193:-0.98709 194:-0.863466 195:-0.510246 196:-0.274077 197:-0.470441 198:-0.651942 199:-0.741985 200:-0.714149 201:-0.469292 202:0.030046 203:0.498465 204:0.463411 205:-0.100753 206:-0.732214 207:-0.970102 208:-0.998755 209:-0.962874 210:-0.639695 211:0.128756 212:0.527864 213:0.410484 214:0.207235 215:0.015691 216:0.04543 217:0.337964 218:0.586184 219:0.443206 220:-0.128979 221:-0.672789 222:-0.935591 223:-0.995611 224:-0.999904 225:-0.963568 226:-0.646813 227:0.111924 228:0.597293 229:0.749307 230:0.774211 231:0.693729 232:0.618494 233:0.597343 234:0.381664 235:-0.158143 236:-0.694675 237:-0.93995 238:-0.994009 239:-0.999746 240:-0.999997 241:-0.988058 242:-0.876355 243:-0.545975 244:-0.136709 245:0.22737 246:0.449952 247:0.435445 248:0.224445 249:-0.036638 250:-0.399894 251:-0.752582 252:-0.944217 253:-0.994604 254:-0.999767 255:-0.999996 256:-1 
1 1:-0.999959 2:-0.996333 3:-0.934469 4:-0.639001 5:-0.08323 6:0.338858 7:0.470144 8:0.481314 9:0.421401 10:0.222407 11:-0.042272 12:-0.369043 13:-0.741466 14:-0.949385 15:-0.996668 16:-0.999933 17:-0.999858 18:-0.987601 19:-0.799467 20:-0.176294 21:0.43575 22:0.510817 23:0.467673 24:0.465208 25:0.472773 26:0.490647 27:0.50752 28:0.369518 29:-0.194305 30:-0.779807 31:-0.979428 32:-0.999298 33:-0.999811 34:-0.983572 35:-0.74208 36:-0.057325 37:0.246676 38:-0.24976 39:-0.521499 40:-0.541188 41:-0.476383 42:-0.258324 43:0.135951 44:0.576649 45:0.312693 46:-0.544592 47:-0.945083 48:-0.997628 49:-0.999877 50:-0.989339 51:-0.83514 52:-0.433987 53:-0.357149 54:-0.759439 55:-0.952257 56:-0.96645 57:-0.936181 58:-0.804754 59:-0.348659 60:0.45025 61:0.433161 62:-0.467424 63:-0.931792 64:-0.996925 65:-0.999968 66:-0.997217 67:-0.957185 68:-0.855171 69:-0.828514 70:-0.902992 71:-0.953165 72:-0.959693 73:-0.913526 74:-0.728615 75:-0.187288 76:0.482547 77:0.268971 78:-0.585511 79:-0.957795 80:-0.998462 81:-0.999998 82:-0.999803 83:-0.995378 84:-0.95634 85:-0.800851 86:-0.57862 87:-0.548635 88:-0.55793 89:-0.432506 90:-0.114356 91:0.352765 92:0.429601 93:-0.135435 94:-0.773804 95:-0.983276 96:-0.999633 97:-1 98:-0.999934 99:-0.994254 100:-0.899429 101:-0.476153 102:0.160608 103:0.371312 104:0.388655 105:0.504015 106:0.607912 107:0.46903 108:-0.073478 109:-0.653331 110:-0.936262 111:-0.996269 112:-0.999949 113:-1 114:-0.999944 115:-0.99511 116:-0.913064 117:-0.527986 118:0.135682 119:0.524564 120:0.661097 121:0.808179 122:0.752433 123:0.192072 124:-0.524484 125:-0.901454 126:-0.990792 127:-0.999649 128:-0.999996 129:-0.999997 130:-0.999877 131:-0.997252 132:-0.97025 133:-0.842316 134:-0.549148 135:-0.230108 136:0.006881 137:0.36337 138:0.613528 139:0.35688 140:-0.290083 141:-0.791145 142:-0.969451 143:-0.998221 144:-0.999965 145:-0.999867 146:-0.996728 147:-0.971086 148:-0.916865 149:-0.900176 150:-0.887695 151:-0.813944 152:-0.710391 153:-0.422004 154:0.080783 155:0.452995 156:0.299414 157:-0.353172 158:-0.84779 159:-0.986543 160:-0.99955 161:-0.998157 162:-0.965123 163:-0.787135 164:-0.482277 165:-0.428242 166:-0.576584 167:-0.686784 168:-0.787373 169:-0.804443 170:-0.56493 171:-0.008032 172:0.476846 173:0.163229 174:-0.59809 175:-0.946768 176:-0.997508 177:-0.993612 178:-0.88755 179:-0.411509 180:0.308931 181:0.50542 182:0.330162 183:0.124382 184:-0.16031 185:-0.425658 186:-0.50971 187:-0.231778 188:0.403709 189:0.448015 190:-0.349571 191:-0.882288 192:-0.993483 193:-0.991981 194:-0.860578 195:-0.291111 196:0.562242 197:0.888472 198:0.869093 199:0.79784 200:0.672176 201:0.513888 202:0.363376 203:0.338583 204:0.60286 205:0.56027 206:-0.23661 207:-0.844307 208:-0.99094 209:-0.995847 210:-0.922634 211:-0.538253 212:0.171441 213:0.60787 214:0.819332 215:0.928828 216:0.956543 217:0.93604 218:0.886691 219:0.844433 220:0.827625 221:0.500519 222:-0.331856 223:-0.871784 224:-0.992699 225:-0.999133 226:-0.982101 227:-0.869495 228:-0.588751 229:-0.22479 230:0.207698 231:0.555507 232:0.768844 233:0.858432 234:0.86338 235:0.808949 236:0.598321 237:0.043622 238:-0.646577 239:-0.950512 240:-0.997584 241:-0.999948 242:-0.998795 243:-0.988796 244:-0.946141 245:-0.8329 246:-0.618942 247:-0.298432 248:0.066461 249:0.268858 250:0.288182 251:0.175154 252:-0.134965 253:-0.599502 254:-0.90807 255:-0.992099 256:-0.999745 
1 1:-0.998469 2:-0.974594 3:-0.881037 4:-0.728588 5:-0.567159 6:-0.395222 7:-0.234751 8:-0.059994 9:0.131467 10:0.314889 11:0.279768 12:-0.223108 13:-0.723456 14:-0.946325 15:-0.99552 16:-0.999851 17:-0.990674 18:-0.855402 19:-0.433924 20:0.022338 21:0.341605 22:0.535624 23:0.608638 24:0.613689 25:0.618772 26:0.680252 27:0.685894 28:0.387938 29:-0.192937 30:-0.731686 31:-0.958501 32:-0.997832 33:-0.979357 34:-0.688911 35:0.096378 36:0.619266 37:0.734058 38:0.699108 39:0.559929 40:0.334517 41:0.135555 42:0.10875 43:0.264744 44:0.503673 45:0.37778 46:-0.269398 47:-0.829588 48:-0.989268 49:-0.983916 50:-0.752762 51:-0.108644 52:0.306226 53:0.228987 54:-0.013605 55:-0.307752 56:-0.547129 57:-0.680572 58:-0.693282 59:-0.488932 60:0.108729 61:0.6062 62:0.232484 63:-0.634189 64:-0.97146 65:-0.995611 66:-0.931144 67:-0.742773 68:-0.607695 69:-0.637971 70:-0.732808 71:-0.8432 72:-0.918116 73:-0.950978 74:-0.939273 75:-0.712044 76:-0.00317 77:0.67713 78:0.440951 79:-0.530455 80:-0.955888 81:-0.99971 82:-0.994591 83:-0.96517 84:-0.871651 85:-0.725498 86:-0.636404 87:-0.578749 88:-0.568524 89:-0.622181 90:-0.608274 91:-0.316376 92:0.349079 93:0.707421 94:0.257231 95:-0.617823 96:-0.966212 97:-0.999914 98:-0.993081 99:-0.887634 100:-0.507057 101:-0.023627 102:0.238956 103:0.400099 104:0.437059 105:0.308993 106:0.293105 107:0.496433 108:0.748808 109:0.550439 110:-0.219394 111:-0.821443 112:-0.986911 113:-0.999711 114:-0.98045 115:-0.708973 116:0.053658 117:0.639482 118:0.833422 119:0.904246 120:0.915142 121:0.856288 122:0.830277 123:0.864323 124:0.848159 125:0.4316 126:-0.3725 127:-0.861418 128:-0.985243 129:-0.999571 130:-0.976299 131:-0.668428 132:0.139307 133:0.66027 134:0.80967 135:0.815038 136:0.753493 137:0.677661 138:0.571161 139:0.515137 140:0.625785 141:0.590226 142:0.107317 143:-0.528489 144:-0.899537 145:-0.999686 146:-0.989331 147:-0.850132 148:-0.434878 149:-0.030642 150:0.172539 151:0.166862 152:0.014772 153:-0.154025 154:-0.356117 155:-0.42188 156:-0.130473 157:0.355481 158:0.537299 159:0.073606 160:-0.639006 161:-0.988679 162:-0.973522 163:-0.945661 164:-0.860226 165:-0.740533 166:-0.673172 167:-0.681055 168:-0.744417 169:-0.813379 170:-0.892591 171:-0.912355 172:-0.752592 173:-0.238765 174:0.50033 175:0.495207 176:-0.283556 177:-0.825086 178:-0.620264 179:-0.565446 180:-0.625471 181:-0.71855 182:-0.876109 183:-0.960144 184:-0.981373 185:-0.988307 186:-0.993342 187:-0.990152 188:-0.930453 189:-0.523525 190:0.36156 191:0.61635 192:-0.065678 193:-0.394757 194:0.251741 195:0.436435 196:0.282781 197:-0.004662 198:-0.522126 199:-0.834731 200:-0.942796 201:-0.96715 202:-0.961237 203:-0.917727 204:-0.766202 205:-0.29896 206:0.472855 207:0.5968 208:-0.132979 209:-0.278073 210:0.458841 211:0.790338 212:0.806277 213:0.615871 214:0.120237 215:-0.265965 216:-0.471255 217:-0.527485 218:-0.512954 219:-0.410666 220:-0.125727 221:0.33592 222:0.668181 223:0.354077 224:-0.4437 225:-0.66824 226:-0.155331 227:0.281275 228:0.522307 229:0.63863 230:0.617466 231:0.576619 232:0.524145 233:0.5031 234:0.509048 235:0.548615 236:0.630865 237:0.668879 238:0.435264 239:-0.212845 240:-0.780979 241:-0.940715 242:-0.791043 243:-0.606807 244:-0.38924 245:-0.085942 246:0.212325 247:0.43346 248:0.49812 249:0.501236 250:0.501587 251:0.49883 252:0.432042 253:0.178256 254:-0.254626 255:-0.72831 256:-0.953601 
1 1:-1 2:-1 3:-0.999887 4:-0.991659 5:-0.870286 6:-0.481981 7:-0.084661 8:0.047698 9:-0.00276 10:-0.154022 11:-0.395815 12:-0.724302 13:-0.941274 14:-0.996439 15:-0.999955 16:-1 17:-1 18:-0.999996 19:-0.999472 20:-0.976055 21:-0.696213 22:-0.120883 23:-0.119172 24:-0.259467 25:-0.191598 26:-0.008586 27:0.097505 28:-0.227041 29:-0.78043 30:-0.984782 31:-0.999748 32:-0.999999 33:-1 34:-0.999991 35:-0.998982 36:-0.964791 37:-0.615425 38:-0.070534 39:-0.483959 40:-0.801307 41:-0.770132 42:-0.543808 43:-0.076796 44:0.043908 45:-0.636068 46:-0.972246 47:-0.999446 48:-0.999997 49:-1 50:-0.999996 51:-0.999479 52:-0.976775 53:-0.716607 54:-0.322991 55:-0.699426 56:-0.955634 57:-0.922562 58:-0.646016 59:-0.110258 60:-0.028349 61:-0.670516 62:-0.975035 63:-0.999503 64:-0.999997 65:-1 66:-1 67:-0.99991 68:-0.993788 69:-0.913997 70:-0.788958 71:-0.892357 72:-0.893635 73:-0.659624 74:-0.24215 75:0.000809 76:-0.374378 77:-0.84321 78:-0.989398 79:-0.999818 80:-0.999999 81:-1 82:-1 83:-0.999994 84:-0.999483 85:-0.992515 86:-0.97548 87:-0.888511 88:-0.553497 89:-0.126509 90:0.003888 91:-0.3215 92:-0.763434 93:-0.963231 94:-0.998031 95:-0.999974 96:-1 97:-1 98:-1 99:-1 100:-0.999985 101:-0.999614 102:-0.984519 103:-0.76553 104:-0.148386 105:0.170861 106:-0.222511 107:-0.721849 108:-0.947952 109:-0.995818 110:-0.999865 111:-0.999999 112:-1 113:-1 114:-1 115:-1 116:-1 117:-0.99988 118:-0.989692 119:-0.833827 120:-0.327435 121:0.092146 122:-0.14241 123:-0.627755 124:-0.917199 125:-0.992794 126:-0.999758 127:-0.999998 128:-1 129:-1 130:-1 131:-1 132:-1 133:-0.999972 134:-0.997495 135:-0.956556 136:-0.774484 137:-0.409114 138:-0.073186 139:-0.181098 140:-0.664843 141:-0.943077 142:-0.99677 143:-0.999953 144:-1 145:-1 146:-1 147:-1 148:-1 149:-0.999998 150:-0.999838 151:-0.996491 152:-0.968605 153:-0.828902 154:-0.426969 155:-0.007807 156:-0.265089 157:-0.792602 158:-0.983515 159:-0.999583 160:-0.999997 161:-1 162:-1 163:-1 164:-1 165:-1 166:-0.999997 167:-0.999897 168:-0.997819 169:-0.971521 170:-0.782434 171:-0.261027 172:0.014342 173:-0.585047 174:-0.950507 175:-0.997941 176:-0.999979 177:-1 178:-1 179:-0.999994 180:-0.999964 181:-0.99993 182:-0.99995 183:-0.999937 184:-0.99975 185:-0.994793 186:-0.91955 187:-0.474792 188:0.081438 189:-0.450584 190:-0.91197 191:-0.995489 192:-0.999951 193:-1 194:-0.999973 195:-0.999485 196:-0.996925 197:-0.993858 198:-0.99545 199:-0.994421 200:-0.9894 201:-0.968566 202:-0.834998 203:-0.359064 204:0.060779 205:-0.498017 206:-0.923778 207:-0.996204 208:-0.999959 209:-0.999995 210:-0.999594 211:-0.992202 212:-0.952246 213:-0.899607 214:-0.914047 215:-0.895851 216:-0.831955 217:-0.706771 218:-0.430224 219:-0.075352 220:-0.168811 221:-0.713601 222:-0.969154 223:-0.998813 224:-0.999988 225:-0.999987 226:-0.998785 227:-0.975472 228:-0.833442 229:-0.583173 230:-0.496308 231:-0.4024 232:-0.271614 233:-0.108583 234:0.00964 235:-0.173283 236:-0.61389 237:-0.916717 238:-0.994288 239:-0.999882 240:-0.999999 241:-0.999989 242:-0.998947 243:-0.976393 244:-0.808929 245:-0.40873 246:-0.076294 247:0.083151 248:0.083357 249:-0.055652 250:-0.333956 251:-0.679211 252:-0.914798 253:-0.989895 254:-0.99954 255:-0.999995 256:-1 
1 1:-1 2:-0.999996 3:-0.999875 4:-0.997815 5:-0.977548 6:-0.864084 7:-0.576796 8:-0.234639 9:0.029242 10:0.200586 11:0.21567 12:-0.150725 13:-0.718965 14:-0.964983 15:-0.998432 16:-0.999983 17:-0.999997 18:-0.999752 19:-0.995189 20:-0.964645 21:-0.83098 22:-0.476531 23:-0.036827 24:0.096679 25:-0.02066 26:-0.028002 27:0.278949 28:0.292598 29:-0.431508 30:-0.903706 31:-0.994844 32:-0.999943 33:-0.999957 34:-0.996233 35:-0.939015 36:-0.741737 37:-0.436133 38:-0.139364 39:-0.169711 40:-0.460604 41:-0.6651 42:-0.562554 43:0.016617 44:0.331681 45:-0.362213 46:-0.887891 47:-0.993913 48:-0.999933 49:-0.999834 50:-0.985652 51:-0.780314 52:-0.268872 53:-0.116922 54:-0.395461 55:-0.6845 56:-0.838834 57:-0.804292 58:-0.429349 59:0.194073 60:0.202174 61:-0.541956 62:-0.939803 63:-0.997238 64:-0.999971 65:-0.999728 66:-0.976666 67:-0.653884 68:-0.008412 69:-0.203629 70:-0.663855 71:-0.677561 72:-0.506046 73:-0.270369 74:0.212425 75:0.478719 76:-0.055354 77:-0.744732 78:-0.978395 79:-0.999367 80:-0.999995 81:-0.999737 82:-0.977436 83:-0.663394 84:-0.010028 85:-0.158272 86:-0.540499 87:-0.194458 88:0.186112 89:0.320616 90:0.543059 91:0.569876 92:-0.015207 93:-0.707254 94:-0.966569 95:-0.998588 96:-0.999985 97:-0.999846 98:-0.986692 99:-0.792299 100:-0.261449 101:-0.111876 102:-0.489725 103:-0.278385 104:-0.096711 105:-0.178314 106:-0.025479 107:0.291398 108:0.284551 109:-0.383526 110:-0.87883 111:-0.993055 112:-0.999922 113:-0.999959 114:-0.996325 115:-0.934562 116:-0.660035 117:-0.415255 118:-0.71341 119:-0.779816 120:-0.761348 121:-0.810078 122:-0.700899 123:-0.227896 124:0.37374 125:0.00978 126:-0.730129 127:-0.982922 128:-0.999803 129:-0.999996 130:-0.999658 131:-0.991439 132:-0.926802 133:-0.842168 134:-0.932404 135:-0.98235 136:-0.984917 137:-0.987259 138:-0.941366 139:-0.529069 140:0.310271 141:0.213585 142:-0.635166 143:-0.976219 144:-0.999724 145:-0.999999 146:-0.999897 147:-0.9981 148:-0.989422 149:-0.98116 150:-0.992684 151:-0.999346 152:-0.99982 153:-0.999445 154:-0.971305 155:-0.589949 156:0.260129 157:0.177003 158:-0.647084 159:-0.977016 160:-0.999734 161:-0.999982 162:-0.998465 163:-0.97508 164:-0.898682 165:-0.859216 166:-0.949148 167:-0.996398 168:-0.999931 169:-0.999054 170:-0.962937 171:-0.556992 172:0.259349 173:0.062876 174:-0.700823 175:-0.980828 176:-0.999779 177:-0.999921 178:-0.993156 179:-0.890705 180:-0.578313 181:-0.442292 182:-0.789559 183:-0.977947 184:-0.99817 185:-0.995229 186:-0.910875 187:-0.414414 188:0.312198 189:-0.04744 190:-0.755932 191:-0.984758 192:-0.999825 193:-0.999874 194:-0.989073 195:-0.825512 196:-0.323222 197:-0.042417 198:-0.478467 199:-0.846726 200:-0.959785 201:-0.966686 202:-0.772563 203:-0.121004 204:0.3411 205:-0.264557 206:-0.848618 207:-0.991206 208:-0.999901 209:-0.999938 210:-0.99457 211:-0.907527 212:-0.556043 213:-0.090176 214:-0.05677 215:-0.370294 216:-0.630815 217:-0.677829 218:-0.401989 219:0.212572 220:0.2421 221:-0.524844 222:-0.937987 223:-0.997172 224:-0.99997 225:-0.99999 226:-0.999063 227:-0.982111 228:-0.881745 229:-0.587902 230:-0.134299 231:0.149083 232:0.104355 233:0.080644 234:0.233312 235:0.326013 236:-0.136107 237:-0.761825 238:-0.980958 239:-0.999508 240:-0.999996 241:-0.999999 242:-0.99995 243:-0.998952 244:-0.989287 245:-0.913421 246:-0.621764 247:-0.140308 248:0.173922 249:0.258813 250:0.156405 251:-0.171324 252:-0.655836 253:-0.934722 254:-0.996109 255:-0.999943 256:-1 
1 1:-1 2:-0.999998 3:-0.999782 4:-0.993298 5:-0.9284 6:-0.775249 7:-0.695677 8:-0.684303 9:-0.704154 10:-0.781208 11:-0.8938 12:-0.972091 13:-0.996706 14:-0.999831 15:-0.999997 16:-1 17:-1 18:-0.999973 19:-0.997658 20:-0.952954 21:-0.675369 22:-0.13442 23:0.116309 24:0.144504 25:0.096124 26:-0.096688 27:-0.433191 28:-0.779156 29:-0.953884 30:-0.995377 31:-0.999809 32:-0.999998 33:-1 34:-0.999867 35:-0.990018 36:-0.839302 37:-0.288145 38:0.381837 39:0.575326 40:0.544638 41:0.528009 42:0.482543 43:0.263359 44:-0.243161 45:-0.725475 46:-0.949763 47:-0.996937 48:-0.999949 49:-0.999999 50:-0.999772 51:-0.98438 52:-0.768781 53:-0.196133 54:0.126673 55:0.059039 56:-0.065146 57:-0.052407 58:0.090996 59:0.311463 60:0.319369 61:-0.222591 62:-0.797014 63:-0.983052 64:-0.999509 65:-1 66:-0.999913 67:-0.994167 68:-0.915419 69:-0.725747 70:-0.664568 71:-0.714962 72:-0.740122 73:-0.676511 74:-0.536726 75:-0.127292 76:0.4587 77:0.243403 78:-0.568912 79:-0.946656 80:-0.997636 81:-1 82:-0.999994 83:-0.999601 84:-0.994242 85:-0.981343 86:-0.971504 87:-0.913011 88:-0.70411 89:-0.426076 90:-0.273013 91:0.00042 92:0.539208 93:0.490346 94:-0.361172 95:-0.889652 96:-0.993615 97:-1 98:-1 99:-0.999995 100:-0.999896 101:-0.996461 102:-0.939349 103:-0.653042 104:-0.075242 105:0.397039 106:0.548097 107:0.670245 108:0.835061 109:0.638328 110:-0.182361 111:-0.799785 112:-0.977873 113:-0.999808 114:-0.999791 115:-0.999877 116:-0.99983 117:-0.988429 118:-0.811403 119:-0.201304 120:0.482884 121:0.700647 122:0.758293 123:0.887215 124:0.8974 125:0.688037 126:0.145536 127:-0.468562 128:-0.871959 129:-0.983538 130:-0.982 131:-0.989197 132:-0.99627 133:-0.983347 134:-0.7447 135:-0.002635 136:0.616211 137:0.652859 138:0.708686 139:0.680225 140:0.475928 141:0.357682 142:0.428157 143:0.151019 144:-0.548368 145:-0.75636 146:-0.725423 147:-0.822657 148:-0.92727 149:-0.963768 150:-0.805796 151:-0.216269 152:0.406669 153:0.525461 154:0.375592 155:-0.006707 156:-0.397375 157:-0.379168 158:0.190548 159:0.49192 160:-0.084435 161:-0.310563 162:-0.10764 163:-0.248052 164:-0.497728 165:-0.69422 166:-0.827676 167:-0.666342 168:-0.30192 169:-0.207935 170:-0.424605 171:-0.687533 172:-0.78803 173:-0.521132 174:0.151861 175:0.624383 176:0.197017 177:-0.480303 178:-0.072501 179:0.173898 180:0.223416 181:0.036392 182:-0.420085 183:-0.692681 184:-0.686368 185:-0.633153 186:-0.632764 187:-0.596423 188:-0.387756 189:0.083038 190:0.549966 191:0.56735 192:-0.039584 193:-0.864812 194:-0.669256 195:-0.350461 196:0.101192 197:0.41116 198:0.283822 199:-0.05418 200:-0.201185 201:-0.119846 202:0.052215 203:0.239133 204:0.452898 205:0.617323 206:0.51522 207:0.051528 208:-0.56802 209:-0.990722 210:-0.962307 211:-0.851608 212:-0.544791 213:-0.036379 214:0.372867 215:0.466625 216:0.473157 217:0.514146 218:0.552572 219:0.558563 220:0.548055 221:0.324652 222:-0.177531 223:-0.637788 224:-0.90563 225:-0.999833 226:-0.998225 227:-0.985243 228:-0.913465 229:-0.691863 230:-0.336584 231:-0.035875 232:0.108995 233:0.130784 234:0.050468 235:-0.114114 236:-0.240233 237:-0.476977 238:-0.777977 239:-0.945445 240:-0.992291 241:-0.999999 242:-0.999964 243:-0.999402 244:-0.993869 245:-0.95985 246:-0.867007 247:-0.757262 248:-0.697271 249:-0.689248 250:-0.724307 251:-0.793834 252:-0.842589 253:-0.911834 254:-0.974147 255:-0.996507 256:-0.999757 
